tree
version=v4
num_class=1
num_tree_per_iteration=1
label_index=0
max_feature_idx=44
objective=regression_l1
feature_names=home_proj_lineup_woba away_proj_lineup_woba home_proj_sp_fip away_proj_sp_fip home_proj_sp_sc_era away_proj_sp_sc_era home_proj_sp_k_bb away_proj_sp_k_bb home_proj_sp_sust away_proj_sp_sust home_elo away_elo home_rs_t30 away_rs_t30 home_ra_t30 away_ra_t30 home_pyth_t30 away_pyth_t30 home_team_era_t30 away_team_era_t30 home_team_whip_t30 away_team_whip_t30 home_team_k_pct_t14 away_team_k_pct_t14 home_era_sp10 away_era_sp10 home_fip_sp10 away_fip_sp10 home_k_pct_sp10 away_k_pct_sp10 home_bb_pct_sp10 away_bb_pct_sp10 home_ip_per_start_sp10 away_ip_per_start_sp10 home_sp_rgs away_sp_rgs diff_bp_era_bp35 diff_bp_whip_bp35 diff_bp_k_pct_bp35 home_lineup_slg away_lineup_slg home_platoon_adv away_platoon_adv home_venue_wpct away_venue_wpct
feature_infos=[0.27014285714285707:0.34462500000000001] [0.25900000000000001:0.34300000000000003] [2.3300000000000001:5.2300000000000004] [2.3300000000000001:5.2300000000000004] [2.5699999999999998:6] [2.5699999999999998:6] [-18.800000000000001:50] [-18.800000000000001:39.5] [50:63] [50:63] [1345.0999999999999:1651.3] [1342.8:1648.5999999999999] [2.2333333333333334:7.0666666666666664] [2.0666666666666669:7.2333333333333334] [2.5:7.9333333333333336] [2.3999999999999999:7.7333333333333334] [0.16579683812095439:0.806397741333722] [0.1499603388320476:0.83231277163916573] [1.7413680781753853:5.9384164222856501] [1.7196378395249621:5.8991596638636876] [0.77661999348723576:1.4955588452992801] [0.76583113456441643:1.4757352941171591] [0.10997067448678741:0.29999999999994642] [0.097488921713427198:0.31238779174141612] [0.19444444444444459:12.116666666666667] [0.53333333333333388:11.866666666666664] [0.67459016393442628:8.4000000000000004] [0.7114035087719297:8.3699999999999992] [0.048979591836734698:0.490566037735849] [0.041200000000000001:0.45887445887445888] [0:0.2666] [0:0.29081632653061218] [0.3686067019400352:8.2222222222222232] [0.38802083333333331:9] [32.271875000000009:73.437500000000014] [32.459793814432992:73.658088235294116] [-3.2884566380684257:3.1504801965438429] [-0.63748670840257682:0.61745615943571597] [-0.1405162337848927:0.135060493602225] [0.27503511663083169:0.55510386907596909] [0.27803886956064372:0.56911634943443501] [0:1] [0:1] [0.066666666666666596:0.8666666666666667] [0.066666666666666596:0.80000000000000004]
tree_sizes=355 367 368 368 367 368 367 368 405 382 404 402 402 426 427 421 425 422 425 428 427 428 428 425 424 424 431 427 426 428 427 427 428 429 426 426 426 425 426 425 426 429 427 425 429 426 427 426 426 426 425 425 425 427 425 428 424 425 424 424 425 424 430 424 426 427 428 428 426 428 427 429 427 424 427 425 427 429 427 423 417 429 420 426 421 427 430 428 421 420 419 421 421 421 420 425 433 427 421 428 422 432 421 421 421 429 431 421 424 425 422 422 431 432 430 431 432 422 425 423 433 412 410 426 426 427 418 422 431 425 425 424 427 427 420 431 423 430 432 429 427 426 431 429 431 425 424 432 421 428 430 416 427 426 432 422 426 429 426 415 430 425 421 421 420 421 409 421 422 422 419 420 421 428 424 424 431 431 433 428 433 429 420 430 421 422 429 435 427 431 427 432 429 427 426 428 427 426 429 427 430 425 421 422 427 425 430 425 431 428 433 422 428 425 433 426 430 430 418 421 431 426 428 427 425 428 429 422 412 430 426 426 422 431 426 429 427 427 425 429 426 430 418 430 429 422 420 426 429 421 429 421 427 427 420 431 430 409 429 418 428 415 424 433 423 421 421 427 429 423 428 425 421 432 423 426 425 432 430 429 431 429 432 430 428 428 419 425 425 427 420 429 426 424 432 428 427 421 428 426 430 426 431 427 427 429 415 427 427 426 429 428 427 426 413 430 420 417 425 420 428 421 427 428 430 432 429 427 424 429 428 420 433 428 423 420 425 429 422 428 417 430 429 431 421 432 434 432 427 433 425 433 422 431 426 427 419 418 417 430 431 427 421 426 422 430 426 433 425 419 418 417 427 432 421 429 422 420 431 422 431 432 428 432 421 428 431 430 427 432 425 432 430 423 429 428 428 430 425 430 418 429 430 420 428 423 425 424 422 427 426 429 425 430 431 432 431 421 426 428 416 428 428 433 428 418 424 425 430 432 420 431 419 419 430 419 415 410 423 431 422 426 430 430 432 423 422 421 430 430 428 432 427 424 432 425 424 431 429 435 427 429 421 429 428 425 425 429 428 419 415 429 428 422 430 430 424 425 428 424 427 428 424 429 423 426 430 427 431 428 424 419 419 422 421 431 423 431 423 431

Tree=0
num_leaves=3
num_cat=0
split_feature=11 29
split_gain=65.2599 27.1125
threshold=1477.4500000000003 0.20757502763666708
decision_type=2 2
left_child=-1 -2
right_child=1 -3
leaf_value=4 4 4
leaf_weight=2807 3254 3795
leaf_count=2807 3254 3795
internal_value=3.9998 3.99723
internal_weight=9856 7049
internal_count=9856 7049
is_linear=0
shrinkage=1


Tree=1
num_leaves=3
num_cat=0
split_feature=11 39
split_gain=65.2599 24.5372
threshold=1477.4500000000003 0.4417203907147686
decision_type=2 2
left_child=-1 -2
right_child=1 -3
leaf_value=0 0 0
leaf_weight=2807 6023 1026
leaf_count=2807 6023 1026
internal_value=-0.000197322 -0.00276525
internal_weight=9856 7049
internal_count=9856 7049
is_linear=0
shrinkage=0.05


Tree=2
num_leaves=3
num_cat=0
split_feature=11 29
split_gain=65.2599 27.1125
threshold=1477.4500000000003 0.20757502763666708
decision_type=2 2
left_child=-1 -2
right_child=1 -3
leaf_value=0 0 0
leaf_weight=2807 3254 3795
leaf_count=2807 3254 3795
internal_value=-0.000197322 -0.00276525
internal_weight=9856 7049
internal_count=9856 7049
is_linear=0
shrinkage=0.05


Tree=3
num_leaves=3
num_cat=0
split_feature=11 29
split_gain=65.2599 27.1125
threshold=1477.4500000000003 0.20757502763666708
decision_type=2 2
left_child=-1 -2
right_child=1 -3
leaf_value=0 0 0
leaf_weight=2807 3254 3795
leaf_count=2807 3254 3795
internal_value=-0.000197322 -0.00276525
internal_weight=9856 7049
internal_count=9856 7049
is_linear=0
shrinkage=0.05


Tree=4
num_leaves=3
num_cat=0
split_feature=11 12
split_gain=65.2599 23.3165
threshold=1477.4500000000003 4.9166666666666679
decision_type=2 2
left_child=-1 -2
right_child=1 -3
leaf_value=0 0 0
leaf_weight=2807 5428 1621
leaf_count=2807 5428 1621
internal_value=-0.000197322 -0.00276525
internal_weight=9856 7049
internal_count=9856 7049
is_linear=0
shrinkage=0.05


Tree=5
num_leaves=3
num_cat=0
split_feature=11 29
split_gain=65.2599 27.1125
threshold=1477.4500000000003 0.20757502763666708
decision_type=2 2
left_child=-1 -2
right_child=1 -3
leaf_value=0 0 0
leaf_weight=2807 3254 3795
leaf_count=2807 3254 3795
internal_value=-0.000197322 -0.00276525
internal_weight=9856 7049
internal_count=9856 7049
is_linear=0
shrinkage=0.05


Tree=6
num_leaves=3
num_cat=0
split_feature=11 39
split_gain=65.2599 24.5372
threshold=1477.4500000000003 0.4417203907147686
decision_type=2 2
left_child=-1 -2
right_child=1 -3
leaf_value=0 0 0
leaf_weight=2807 6023 1026
leaf_count=2807 6023 1026
internal_value=-0.000197322 -0.00276525
internal_weight=9856 7049
internal_count=9856 7049
is_linear=0
shrinkage=0.05


Tree=7
num_leaves=3
num_cat=0
split_feature=11 29
split_gain=65.2599 27.1125
threshold=1477.4500000000003 0.20757502763666708
decision_type=2 2
left_child=-1 -2
right_child=1 -3
leaf_value=0 0 0
leaf_weight=2807 3254 3795
leaf_count=2807 3254 3795
internal_value=-0.000197322 -0.00276525
internal_weight=9856 7049
internal_count=9856 7049
is_linear=0
shrinkage=0.05


Tree=8
num_leaves=3
num_cat=0
split_feature=35 39
split_gain=41.5263 39.0377
threshold=57.436141304347835 0.4417203907147686
decision_type=2 2
left_child=1 -1
right_child=-2 -3
leaf_value=0 -0.050000000000000003 0.050000000000000003
leaf_weight=6264 2466 1126
leaf_count=6264 2466 1126
internal_value=-0.000197322 0.00167704
internal_weight=9856 7390
internal_count=9856 7390
is_linear=0
shrinkage=0.05


Tree=9
num_leaves=3
num_cat=0
split_feature=11 23
split_gain=46.319 16.4944
threshold=1477.4500000000003 0.15673447154382145
decision_type=2 2
left_child=1 -1
right_child=-2 -3
leaf_value=0.050000000000000003 0 0
leaf_weight=443 7049 2364
leaf_count=443 7049 2364
internal_value=0.000461094 0.00589209
internal_weight=9856 2807
internal_count=9856 2807
is_linear=0
shrinkage=0.05


Tree=10
num_leaves=3
num_cat=0
split_feature=11 21
split_gain=38.1175 15.4074
threshold=1496.2500000000002 1.0090136943434966
decision_type=2 2
left_child=1 -1
right_child=-2 -3
leaf_value=-0.047500000000000014 0 0.0024999999999999914
leaf_weight=363 5623 3870
leaf_count=363 5623 3870
internal_value=0.000217612 0.00380137
internal_weight=9856 4233
internal_count=9856 4233
is_linear=0
shrinkage=0.05


Tree=11
num_leaves=3
num_cat=0
split_feature=39 12
split_gain=26.428 19.2677
threshold=0.47083506226166993 3.1500000000000004
decision_type=2 2
left_child=1 -1
right_child=-2 -3
leaf_value=-0.050000000000000003 0.047500000000000014 0
leaf_weight=224 494 9138
leaf_count=224 494 9138
internal_value=-0.00136908 -0.00196465
internal_weight=9856 9362
internal_count=9856 9362
is_linear=0
shrinkage=0.05


Tree=12
num_leaves=3
num_cat=0
split_feature=39 11
split_gain=24.2199 16.8133
threshold=0.47083506226166993 1423.2500000000002
decision_type=2 2
left_child=1 -1
right_child=-2 -3
leaf_value=0.049874999999999982 0.045124999999999998 0
leaf_weight=466 494 8896
leaf_count=466 494 8896
internal_value=-0.00119154 -0.00176172
internal_weight=9856 9362
internal_count=9856 9362
is_linear=0
shrinkage=0.05


Tree=13
num_leaves=3
num_cat=0
split_feature=12 11
split_gain=18.1674 20.5992
threshold=4.9166666666666679 1423.2500000000002
decision_type=2 2
left_child=1 -1
right_child=-2 -3
leaf_value=0.047381249999999979 0.0024999999999999914 -0.00012500000000001955
leaf_weight=362 2322 7172
leaf_count=362 2322 7172
internal_value=-0.00134879 -0.00254081
internal_weight=9856 7534
internal_count=9856 7534
is_linear=0
shrinkage=0.05


Tree=14
num_leaves=3
num_cat=0
split_feature=5 39
split_gain=22.4523 12.5872
threshold=3.9750000000000005 0.37416854115144166
decision_type=2 2
left_child=1 -1
right_child=-2 -3
leaf_value=-0.049993749999999997 6.2500000000076388e-06 -0.0023812500000000014
leaf_weight=421 8022 1413
leaf_count=421 8022 1413
internal_value=0.000141524 -0.00484741
internal_weight=9856 1834
internal_count=9856 1834
is_linear=0
shrinkage=0.05


Tree=15
num_leaves=3
num_cat=0
split_feature=29 18
split_gain=18.2677 12.4737
threshold=0.28016402790822492 4.3866178896643868
decision_type=2 2
left_child=-1 -2
right_child=1 -3
leaf_value=5.9374999999972644e-06 -0.047494062500000017 0.0026253124999999992
leaf_weight=8895 868 93
leaf_count=8895 868 93
internal_value=0.000364715 -0.00617983
internal_weight=9856 961
internal_count=9856 961
is_linear=0
shrinkage=0.05


Tree=16
num_leaves=3
num_cat=0
split_feature=29 23
split_gain=16.6696 11.1963
threshold=0.30387381225274529 0.15673447154382145
decision_type=2 2
left_child=1 -1
right_child=-2 -3
leaf_value=0.044755640624999954 -0.045131234374999996 5.6406249999918506e-06
leaf_weight=583 490 8783
leaf_count=583 490 8783
internal_value=0.000435731 0.000906907
internal_weight=9856 9366
internal_count=9856 9366
is_linear=0
shrinkage=0.05


Tree=17
num_leaves=3
num_cat=0
split_feature=5 39
split_gain=20.208 12.4463
threshold=3.9750000000000005 0.47451032197141996
decision_type=2 2
left_child=-1 -2
right_child=1 -3
leaf_value=-0.042743422656250002 5.358593749993368e-06 0.042749108593749967
leaf_weight=1834 7688 334
leaf_count=1834 7688 334
internal_value=0.000212539 0.00129565
internal_weight=9856 8022
internal_count=9856 8022
is_linear=0
shrinkage=0.05


Tree=18
num_leaves=3
num_cat=0
split_feature=29 39
split_gain=14.7965 10.7283
threshold=0.30387381225274529 0.47232395798280918
decision_type=2 2
left_child=1 -1
right_child=-2 -3
leaf_value=5.0906640624903691e-06 -0.042863065585937513 0.041677121914062476
leaf_weight=8924 490 442
leaf_count=8924 490 442
internal_value=0.000527037 0.000970962
internal_weight=9856 9366
internal_count=9856 9366
is_linear=0
shrinkage=0.05


Tree=19
num_leaves=3
num_cat=0
split_feature=29 8
split_gain=14.0927 11.1927
threshold=0.30387381225274529 54.500000000000007
decision_type=2 2
left_child=1 -1
right_child=-2 -3
leaf_value=-0.00012016386914068811 -0.040719912306640627 4.8361308593758425e-06
leaf_weight=5412 490 3954
leaf_count=5412 490 3954
internal_value=0.000527037 0.000960286
internal_weight=9856 9366
internal_count=9856 9366
is_linear=0
shrinkage=0.05


Tree=20
num_leaves=3
num_cat=0
split_feature=29 8
split_gain=14.0927 11.1927
threshold=0.30387381225274529 54.500000000000007
decision_type=2 2
left_child=1 -1
right_child=-2 -3
leaf_value=-0.00011415567568366925 -0.038683916691308599 4.594324316409271e-06
leaf_weight=5412 490 3954
leaf_count=5412 490 3954
internal_value=0.000527037 0.000960286
internal_weight=9856 9366
internal_count=9856 9366
is_linear=0
shrinkage=0.05


Tree=21
num_leaves=3
num_cat=0
split_feature=29 8
split_gain=14.0927 11.1927
threshold=0.30387381225274529 54.500000000000007
decision_type=2 2
left_child=1 -1
right_child=-2 -3
leaf_value=-0.00010844789189947691 -0.036749720856743176 4.3646081005821461e-06
leaf_weight=5412 490 3954
leaf_count=5412 490 3954
internal_value=0.000527037 0.000960286
internal_weight=9856 9366
internal_count=9856 9366
is_linear=0
shrinkage=0.05


Tree=22
num_leaves=3
num_cat=0
split_feature=29 8
split_gain=14.0927 11.1927
threshold=0.30387381225274529 54.500000000000007
decision_type=2 2
left_child=1 -1
right_child=-2 -3
leaf_value=-0.00010302549730449862 -0.034912234813906019 4.1463776955463776e-06
leaf_weight=5412 490 3954
leaf_count=5412 490 3954
internal_value=0.000527037 0.000960286
internal_weight=9856 9366
internal_count=9856 9366
is_linear=0
shrinkage=0.05


Tree=23
num_leaves=3
num_cat=0
split_feature=11 42
split_gain=12.6689 11.3976
threshold=1423.2500000000002 0.63961038961038974
decision_type=2 2
left_child=-1 -2
right_child=1 -3
leaf_value=0.045009876558810724 3.93905881077572e-06 -0.0024728742224392254
leaf_weight=512 7375 1969
leaf_count=512 7375 1969
internal_value=0.000527037 0.000106474
internal_weight=9856 9344
internal_count=9856 9344
is_linear=0
shrinkage=0.05


Tree=24
num_leaves=3
num_cat=0
split_feature=29 29
split_gain=15.8053 9.79222
threshold=0.30387381225274529 0.16478072983354666
decision_type=2 2
left_child=1 -1
right_child=-2 -3
leaf_value=0.0026507694886827695 -0.033166820026151254 3.7421058702413748e-06
leaf_weight=2035 490 7331
leaf_count=2035 490 7331
internal_value=0.001014 0.00147272
internal_weight=9856 9366
internal_count=9856 9366
is_linear=0
shrinkage=0.05


Tree=25
num_leaves=3
num_cat=0
split_feature=29 11
split_gain=13.5436 10.7506
threshold=0.30387381225274529 1423.2500000000002
decision_type=2 2
left_child=1 -1
right_child=-2 -3
leaf_value=0.042650030975186097 -0.031508479024843682 3.5550005767381878e-06
leaf_weight=495 490 8871
leaf_count=495 490 8871
internal_value=0.000364715 0.000789474
internal_weight=9856 9366
internal_count=9856 9366
is_linear=0
shrinkage=0.05


Tree=26
num_leaves=3
num_cat=0
split_feature=0 30
split_gain=11.0471 13.4901
threshold=0.28988194444444443 0.073334694426324162
decision_type=2 2
left_child=-1 -2
right_child=1 -3
leaf_value=-0.0048591227494521501 0.002021159281797935 -0.00010578739984268282
leaf_weight=1071 4691 4094
leaf_count=1071 4691 4094
internal_value=0.000364715 0.000949807
internal_weight=9856 8785
internal_count=9856 8785
is_linear=0
shrinkage=0.05


Tree=27
num_leaves=3
num_cat=0
split_feature=11 39
split_gain=18.2457 11.5518
threshold=1477.4500000000003 0.45763157756209699
decision_type=2 2
left_child=1 -1
right_child=-2 -3
leaf_value=0.0023005060052080362 -9.9396660709993872e-05 0.047146069286457953
leaf_weight=2549 7049 258
leaf_count=2549 7049 258
internal_value=-0.000364715 0.00304309
internal_weight=9856 2807
internal_count=9856 2807
is_linear=0
shrinkage=0.05


Tree=28
num_leaves=3
num_cat=0
split_feature=11 43
split_gain=16.3281 12.4646
threshold=1423.2500000000002 0.68333333333333346
decision_type=2 2
left_child=-1 -2
right_child=1 -3
leaf_value=0.040289852802701476 -9.5528196815042329e-05 0.038441260812467126
leaf_weight=512 8623 721
leaf_count=512 8623 721
internal_value=-0.000506746 -0.000983949
internal_weight=9856 9344
internal_count=9856 9344
is_linear=0
shrinkage=0.05


Tree=29
num_leaves=3
num_cat=0
split_feature=23 12
split_gain=12.6321 13.8893
threshold=0.20253485831777363 3.6499999999999999
decision_type=2 2
left_child=-1 -2
right_child=1 -3
leaf_value=0.00013492516166331293 -0.047232327009728216 -9.6445175743831166e-05
leaf_weight=5475 512 3869
leaf_count=5475 512 3869
internal_value=-0.000587907 -0.002589
internal_weight=9856 4381
internal_count=9856 4381
is_linear=0
shrinkage=0.05


Tree=30
num_leaves=3
num_cat=0
split_feature=11 18
split_gain=16.0999 12.2287
threshold=1423.2500000000002 4.058484740311191
decision_type=2 2
left_child=-1 -2
right_child=1 -3
leaf_value=0.038268613904483245 -0.00011958339466691116 0.0020487018506214483
leaf_weight=512 7663 1681
leaf_count=512 7663 1681
internal_value=-0.000445876 -0.000919743
internal_weight=9856 9344
internal_count=9856 9344
is_linear=0
shrinkage=0.05


Tree=31
num_leaves=3
num_cat=0
split_feature=11 12
split_gain=17.4934 13.9731
threshold=1423.2500000000002 4.9166666666666679
decision_type=2 2
left_child=-1 -2
right_child=1 -3
leaf_value=0.036355183209259082 -0.00016814484409475306 0.0044574192184052563
leaf_weight=512 7172 2172
leaf_count=512 7172 2172
internal_value=-0.000811099 -0.00130498
internal_weight=9856 9344
internal_count=9856 9344
is_linear=0
shrinkage=0.05


Tree=32
num_leaves=3
num_cat=0
split_feature=11 1
split_gain=17.8908 11.4966
threshold=1423.2500000000002 0.30663068181818182
decision_type=2 2
left_child=-1 -2
right_child=1 -3
leaf_value=0.034537424048796138 3.7621534141596416e-05 -0.00030191134079513574
leaf_weight=512 4944 4400
leaf_count=512 4944 4400
internal_value=-0.000912549 -0.00141199
internal_weight=9856 9344
internal_count=9856 9344
is_linear=0
shrinkage=0.05


Tree=33
num_leaves=3
num_cat=0
split_feature=23 37
split_gain=13.7445 13.3923
threshold=0.20253485831777363 0.19903533875019661
decision_type=2 2
left_child=-1 -2
right_child=1 -3
leaf_value=8.182863304149191e-05 -0.0018509356305327796 0.0047945667986503352
leaf_weight=5475 4022 359
leaf_count=5475 4022 359
internal_value=-0.000912549 -0.00299977
internal_weight=9856 4381
internal_count=9856 4381
is_linear=0
shrinkage=0.05


Tree=34
num_leaves=3
num_cat=0
split_feature=40 39
split_gain=11.7473 11.5828
threshold=0.32490355229406392 0.47232395798280918
decision_type=2 2
left_child=-1 -2
right_child=1 -3
leaf_value=0.04990296369978682 -7.9873376370942495e-05 0.038347536001750941
leaf_weight=156 9245 455
leaf_count=156 9245 455
internal_value=-0.000222684 -0.000442738
internal_weight=9856 9700
internal_count=9856 9700
is_linear=0
shrinkage=0.05


Tree=35
num_leaves=3
num_cat=0
split_feature=11 29
split_gain=15.3876 12.2555
threshold=1423.2500000000002 0.30599737382964148
decision_type=2 2
left_child=-1 -2
right_child=1 -3
leaf_value=0.030626250534646206 -5.2235959359703268e-05 -0.029893522106704887
leaf_weight=512 8906 438
leaf_count=512 8906 438
internal_value=-0.00025312 -0.000716426
internal_weight=9856 9344
internal_count=9856 9344
is_linear=0
shrinkage=0.05


Tree=36
num_leaves=3
num_cat=0
split_feature=11 39
split_gain=15.3136 10.2257
threshold=1423.2500000000002 0.47232395798280918
decision_type=2 2
left_child=-1 -2
right_child=1 -3
leaf_value=0.029094938007913896 -8.1532833560227236e-05 0.036431841301647852
leaf_weight=512 8930 414
leaf_count=512 8930 414
internal_value=-0.000232829 -0.000695024
internal_weight=9856 9344
internal_count=9856 9344
is_linear=0
shrinkage=0.05


Tree=37
num_leaves=3
num_cat=0
split_feature=11 29
split_gain=14.6482 12.32
threshold=1423.2500000000002 0.30599737382964148
decision_type=2 2
left_child=-1 -2
right_child=1 -3
leaf_value=0.027640191107518211 -4.5547519713706745e-05 -0.028394769359691631
leaf_weight=512 8906 438
leaf_count=512 8906 438
internal_value=-0.000242975 -0.000695024
internal_weight=9856 9344
internal_count=9856 9344
is_linear=0
shrinkage=0.05


Tree=38
num_leaves=3
num_cat=0
split_feature=11 39
split_gain=14.6482 10.2257
threshold=1423.2500000000002 0.47232395798280918
decision_type=2 2
left_child=-1 -2
right_child=1 -3
leaf_value=0.026258181552142303 -7.5178815896514986e-05 0.034612526612551146
leaf_weight=512 8930 414
leaf_count=512 8930 414
internal_value=-0.000242975 -0.000695024
internal_weight=9856 9344
internal_count=9856 9344
is_linear=0
shrinkage=0.05


Tree=39
num_leaves=3
num_cat=0
split_feature=11 39
split_gain=14.612 10.1971
threshold=1423.2500000000002 0.47232395798280918
decision_type=2 2
left_child=-1 -2
right_child=1 -3
leaf_value=0.024945272474535176 -7.1419875101708113e-05 0.032881900281923594
leaf_weight=512 8930 414
leaf_count=512 8930 414
internal_value=-0.000232829 -0.000684323
internal_weight=9856 9344
internal_count=9856 9344
is_linear=0
shrinkage=0.05


Tree=40
num_leaves=3
num_cat=0
split_feature=11 29
split_gain=14.612 12.3523
threshold=1423.2500000000002 0.30599737382964148
decision_type=2 2
left_child=-1 -2
right_child=1 -3
leaf_value=0.023698008850808416 -3.5940209178098038e-05 -0.026967700957157149
leaf_weight=512 8906 438
leaf_count=512 8906 438
internal_value=-0.000232829 -0.000684323
internal_weight=9856 9344
internal_count=9856 9344
is_linear=0
shrinkage=0.05


Tree=41
num_leaves=3
num_cat=0
split_feature=29 1
split_gain=13.5171 13.1052
threshold=0.30387381225274529 0.30663068181818182
decision_type=2 2
left_child=1 -1
right_child=-2 -3
leaf_value=0.00038883765814405895 -0.025619315909299292 -0.00015959466647457178
leaf_weight=5044 490 4322
leaf_count=5044 490 4322
internal_value=-0.00025312 0.000170279
internal_weight=9856 9366
internal_count=9856 9366
is_linear=0
shrinkage=0.05


Tree=42
num_leaves=3
num_cat=0
split_feature=11 29
split_gain=14.7206 12.2555
threshold=1423.2500000000002 0.30599737382964148
decision_type=2 2
left_child=-1 -2
right_child=1 -3
leaf_value=0.022493666525360802 -2.7208816481483214e-05 -0.024338350113834319
leaf_weight=512 8906 438
leaf_count=512 8906 438
internal_value=-0.000263265 -0.000716426
internal_weight=9856 9344
internal_count=9856 9344
is_linear=0
shrinkage=0.05


Tree=43
num_leaves=3
num_cat=0
split_feature=11 29
split_gain=13.4308 12.2555
threshold=1423.2500000000002 0.30599737382964148
decision_type=2 2
left_child=-1 -2
right_child=1 -3
leaf_value=0.02136898319909275 -2.584837565740017e-05 -0.023121432608142613
leaf_weight=512 8906 438
leaf_count=512 8906 438
internal_value=-0.000283555 -0.000716426
internal_weight=9856 9344
internal_count=9856 9344
is_linear=0
shrinkage=0.05


Tree=44
num_leaves=3
num_cat=0
split_feature=29 1
split_gain=13.4833 12.967
threshold=0.30387381225274529 0.30663068181818182
decision_type=2 2
left_child=1 -1
right_child=-2 -3
leaf_value=0.00037204863484379129 -0.021965360977735472 -0.00014896207354389015
leaf_weight=5044 490 4322
leaf_count=5044 490 4322
internal_value=-0.000263265 0.000159603
internal_weight=9856 9366
internal_count=9856 9366
is_linear=0
shrinkage=0.05


Tree=45
num_leaves=3
num_cat=0
split_feature=11 29
split_gain=13.6394 12.063
threshold=1423.2500000000002 0.30599737382964148
decision_type=2 2
left_child=-1 -2
right_child=1 -3
leaf_value=0.020281931607395911 -1.8909175876125063e-05 -0.020867092928848696
leaf_weight=512 8906 438
leaf_count=512 8906 438
internal_value=-0.000344425 -0.000780631
internal_weight=9856 9344
internal_count=9856 9344
is_linear=0
shrinkage=0.05


Tree=46
num_leaves=3
num_cat=0
split_feature=11 29
split_gain=13.5002 12.1912
threshold=1423.2500000000002 0.30599737382964148
decision_type=2 2
left_child=-1 -2
right_child=1 -3
leaf_value=0.019267835027026094 -1.7963717082336571e-05 -0.019823738282406269
leaf_weight=512 8906 438
leaf_count=512 8906 438
internal_value=-0.000303845 -0.000737828
internal_weight=9856 9344
internal_count=9856 9344
is_linear=0
shrinkage=0.05


Tree=47
num_leaves=3
num_cat=0
split_feature=11 39
split_gain=13.5002 10.3402
threshold=1423.2500000000002 0.47232395798280918
decision_type=2 2
left_child=-1 -2
right_child=1 -3
leaf_value=0.018304443275674775 -9.3297919381085678e-05 0.031259526619542143
leaf_weight=512 8930 414
leaf_count=512 8930 414
internal_value=-0.000303845 -0.000737828
internal_weight=9856 9344
internal_count=9856 9344
is_linear=0
shrinkage=0.05


Tree=48
num_leaves=3
num_cat=0
split_feature=29 11
split_gain=14.0645 12.1399
threshold=0.30387381225274529 1423.2500000000002
decision_type=2 2
left_child=1 -1
right_child=-2 -3
leaf_value=0.017456683670533258 -0.018827886472316882 -1.0860615145924514e-05
leaf_weight=495 490 8871
leaf_count=495 490 8871
internal_value=-9.07984e-05 0.000341091
internal_weight=9856 9366
internal_count=9856 9366
is_linear=0
shrinkage=0.05


Tree=49
num_leaves=3
num_cat=0
split_feature=29 11
split_gain=14.0645 12.1399
threshold=0.30387381225274529 1423.2500000000002
decision_type=2 2
left_child=1 -1
right_child=-2 -3
leaf_value=0.016583849487006575 -0.017886492148701038 -1.0317584388630507e-05
leaf_weight=495 490 8871
leaf_count=495 490 8871
internal_value=-9.07984e-05 0.000341091
internal_weight=9856 9366
internal_count=9856 9366
is_linear=0
shrinkage=0.05


Tree=50
num_leaves=3
num_cat=0
split_feature=29 11
split_gain=14.0991 12.106
threshold=0.30387381225274529 1423.2500000000002
decision_type=2 2
left_child=1 -1
right_child=-2 -3
leaf_value=0.015754657012656239 -0.016992167541265979 -9.8017051691989834e-06
leaf_weight=495 490 8871
leaf_count=495 490 8871
internal_value=-8.06533e-05 0.000351767
internal_weight=9856 9366
internal_count=9856 9366
is_linear=0
shrinkage=0.05


Tree=51
num_leaves=3
num_cat=0
split_feature=29 11
split_gain=14.1337 12.072
threshold=0.30387381225274529 1423.2500000000002
decision_type=2 2
left_child=1 -1
right_child=-2 -3
leaf_value=0.014966924162023432 -0.016142559164202687 -9.3116199107345931e-06
leaf_weight=495 490 8871
leaf_count=495 490 8871
internal_value=-7.05083e-05 0.000362443
internal_weight=9856 9366
internal_count=9856 9366
is_linear=0
shrinkage=0.05


Tree=52
num_leaves=3
num_cat=0
split_feature=29 11
split_gain=14.1337 12.072
threshold=0.30387381225274529 1423.2500000000002
decision_type=2 2
left_child=1 -1
right_child=-2 -3
leaf_value=0.014218577953922252 -0.015335431205992546 -8.8460389152000839e-06
leaf_weight=495 490 8871
leaf_count=495 490 8871
internal_value=-7.05083e-05 0.000362443
internal_weight=9856 9366
internal_count=9856 9366
is_linear=0
shrinkage=0.05


Tree=53
num_leaves=3
num_cat=0
split_feature=11 29
split_gain=13.9691 12.9412
threshold=1423.2500000000002 0.30599737382964148
decision_type=2 2
left_child=-1 -2
right_child=1 -3
leaf_value=0.013440186497583918 -9.9437570826310662e-06 -0.014568659645692917
leaf_weight=512 8906 438
leaf_count=512 8906 438
internal_value=-5.02181e-05 -0.000491707
internal_weight=9856 9344
internal_count=9856 9344
is_linear=0
shrinkage=0.05


Tree=54
num_leaves=3
num_cat=0
split_feature=11 39
split_gain=12.7134 9.6903
threshold=1423.2500000000002 0.47232395798280918
decision_type=2 2
left_child=-1 -2
right_child=1 -3
leaf_value=0.012768177172704731 -8.5678957381385434e-05 0.029699504354595674
leaf_weight=512 8930 414
leaf_count=512 8930 414
internal_value=-7.05083e-05 -0.000491707
internal_weight=9856 9344
internal_count=9856 9344
is_linear=0
shrinkage=0.05


Tree=55
num_leaves=3
num_cat=0
split_feature=29 1
split_gain=14.2031 9.29919
threshold=0.30387381225274529 0.30663068181818182
decision_type=2 2
left_child=1 -1
right_child=-2 -3
leaf_value=0.0003671927576182732 -0.013835942715539208 -0.0001277674153500108
leaf_weight=5044 490 4322
leaf_count=5044 490 4322
internal_value=-5.02181e-05 0.000383794
internal_weight=9856 9366
internal_count=9856 9366
is_linear=0
shrinkage=0.05


Tree=56
num_leaves=3
num_cat=0
split_feature=29 11
split_gain=14.1337 12.072
threshold=0.30387381225274529 1423.2500000000002
decision_type=2 2
left_child=1 -1
right_child=-2 -3
leaf_value=0.012178871234830791 -0.013144145579762246 -2.594681272993782e-06
leaf_weight=495 490 8871
leaf_count=495 490 8871
internal_value=-7.05083e-05 0.000362443
internal_weight=9856 9366
internal_count=9856 9366
is_linear=0
shrinkage=0.05


Tree=57
num_leaves=3
num_cat=0
split_feature=11 39
split_gain=13.9691 9.6903
threshold=1423.2500000000002 0.47232395798280918
decision_type=2 2
left_child=-1 -2
right_child=1 -3
leaf_value=0.011502465114447059 -9.9521147221892647e-05 0.028221047241697075
leaf_weight=512 8930 414
leaf_count=512 8930 414
internal_value=-5.02181e-05 -0.000491707
internal_weight=9856 9344
internal_count=9856 9344
is_linear=0
shrinkage=0.05


Tree=58
num_leaves=3
num_cat=0
split_feature=11 29
split_gain=13.6533 13.2406
threshold=1423.2500000000002 0.30599737382964148
decision_type=2 2
left_child=-1 -2
right_child=1 -3
leaf_value=0.010927341858724727 1.8887011819623823e-06 -0.012481962243413048
leaf_weight=512 8906 438
leaf_count=512 8906 438
internal_value=4.0073e-05 -0.000395399
internal_weight=9856 9344
internal_count=9856 9344
is_linear=0
shrinkage=0.05


Tree=59
num_leaves=3
num_cat=0
split_feature=29 11
split_gain=14.4473 11.7684
threshold=0.30387381225274529 1423.2500000000002
decision_type=2 2
left_child=1 -1
right_child=-2 -3
leaf_value=0.010448437324430682 -0.011857864131242391 2.4166750926646332e-06
leaf_weight=495 490 8871
leaf_count=495 490 8871
internal_value=1.97829e-05 0.000458525
internal_weight=9856 9366
internal_count=9856 9366
is_linear=0
shrinkage=0.05


Tree=60
num_leaves=3
num_cat=0
split_feature=11 29
split_gain=13.6533 13.2406
threshold=1423.2500000000002 0.30599737382964148
decision_type=2 2
left_child=-1 -2
right_child=1 -3
leaf_value=0.0098585528995669414 1.6734323682321417e-06 -0.011264970924680262
leaf_weight=512 8906 438
leaf_count=512 8906 438
internal_value=4.0073e-05 -0.000395399
internal_weight=9856 9344
internal_count=9856 9344
is_linear=0
shrinkage=0.05


Tree=61
num_leaves=3
num_cat=0
split_feature=29 39
split_gain=14.4473 11.5559
threshold=0.30387381225274529 0.47232395798280918
decision_type=2 2
left_child=1 -1
right_child=-2 -3
leaf_value=4.1983045192317551e-06 -0.010701722378446243 0.02686414456116859
leaf_weight=8924 490 442
leaf_count=8924 490 442
internal_value=1.97829e-05 0.000458525
internal_weight=9856 9366
internal_count=9856 9366
is_linear=0
shrinkage=0.05


Tree=62
num_leaves=3
num_cat=0
split_feature=29 40
split_gain=13.0405 10.3616
threshold=0.30387381225274529 0.41868752125983016
decision_type=2 2
left_child=1 -1
right_child=-2 -3
leaf_value=0.00013245939576060907 -0.010166636259523944 -0.00024964405998777471
leaf_weight=6533 490 2833
leaf_count=6533 490 2833
internal_value=9.63782e-06 0.000426497
internal_weight=9856 9366
internal_count=9856 9366
is_linear=0
shrinkage=0.05


Tree=63
num_leaves=3
num_cat=0
split_feature=11 7
split_gain=11.8137 10.6384
threshold=1423.2500000000002 5.4000000000000012
decision_type=2 2
left_child=-1 -2
right_child=1 -3
leaf_value=0.0093587923695745978 0.034054586265275293 -9.6746592541641091e-05
leaf_weight=512 360 8984
leaf_count=512 360 8984
internal_value=9.63782e-06 -0.000395399
internal_weight=9856 9344
internal_count=9856 9344
is_linear=0
shrinkage=0.05


Tree=64
num_leaves=3
num_cat=0
split_feature=29 11
split_gain=12.7756 10.2875
threshold=0.30387381225274529 1423.2500000000002
decision_type=2 2
left_child=1 -1
right_child=-2 -3
leaf_value=0.00895831530973803 -0.0096534671169206561 -2.3546702454524393e-06
leaf_weight=495 490 8871
leaf_count=495 490 8871
internal_value=-7.05083e-05 0.000341091
internal_weight=9856 9366
internal_count=9856 9366
is_linear=0
shrinkage=0.05


Tree=65
num_leaves=3
num_cat=0
split_feature=29 11
split_gain=12.8415 10.225
threshold=0.30387381225274529 1423.2500000000002
decision_type=2 2
left_child=1 -1
right_child=-2 -3
leaf_value=0.0085103995442511234 -0.0091707937610746148 -2.2369367331798173e-06
leaf_weight=495 490 8871
leaf_count=495 490 8871
internal_value=-5.02181e-05 0.000362443
internal_weight=9856 9366
internal_count=9856 9366
is_linear=0
shrinkage=0.05


Tree=66
num_leaves=3
num_cat=0
split_feature=29 39
split_gain=12.8415 9.91505
threshold=0.30387381225274529 0.47232395798280918
decision_type=2 2
left_child=1 -1
right_child=-2 -3
leaf_value=-3.1740682152614499e-07 -0.0087122540730208749 0.025531595713275124
leaf_weight=8924 490 442
leaf_count=8924 490 442
internal_value=-5.02181e-05 0.000362443
internal_weight=9856 9366
internal_count=9856 9366
is_linear=0
shrinkage=0.05


Tree=67
num_leaves=3
num_cat=0
split_feature=29 11
split_gain=12.8085 9.67377
threshold=0.30387381225274529 1423.2500000000002
decision_type=2 2
left_child=1 -1
right_child=-2 -3
leaf_value=0.0080848954373796463 -0.0082766413693698311 -2.1092195554128781e-06
leaf_weight=495 490 8871
leaf_count=495 490 8871
internal_value=-6.03632e-05 0.000351767
internal_weight=9856 9366
internal_count=9856 9366
is_linear=0
shrinkage=0.05


Tree=68
num_leaves=3
num_cat=0
split_feature=29 11
split_gain=12.8085 9.67377
threshold=0.30387381225274529 1423.2500000000002
decision_type=2 2
left_child=1 -1
right_child=-2 -3
leaf_value=0.0076806506655106689 -0.00786280930090133 -2.0037585776400136e-06
leaf_weight=495 490 8871
leaf_count=495 490 8871
internal_value=-6.03632e-05 0.000351767
internal_weight=9856 9366
internal_count=9856 9366
is_linear=0
shrinkage=0.05


Tree=69
num_leaves=3
num_cat=0
split_feature=29 11
split_gain=12.8085 9.67377
threshold=0.30387381225274529 1423.2500000000002
decision_type=2 2
left_child=1 -1
right_child=-2 -3
leaf_value=0.0072966181322351442 -0.0074696688358562692 -1.9035706487535721e-06
leaf_weight=495 490 8871
leaf_count=495 490 8871
internal_value=-6.03632e-05 0.000351767
internal_weight=9856 9366
internal_count=9856 9366
is_linear=0
shrinkage=0.05


Tree=70
num_leaves=3
num_cat=0
split_feature=29 11
split_gain=11.5799 9.67377
threshold=0.30387381225274529 1423.2500000000002
decision_type=2 2
left_child=1 -1
right_child=-2 -3
leaf_value=0.0069317872256233759 -0.0070961853940634482 -1.8083921163203344e-06
leaf_weight=495 490 8871
leaf_count=495 490 8871
internal_value=-4.0073e-05 0.000351767
internal_weight=9856 9366
internal_count=9856 9366
is_linear=0
shrinkage=0.05


Tree=71
num_leaves=3
num_cat=0
split_feature=11 12
split_gain=11.3252 8.51613
threshold=1423.2500000000002 4.4166666666666679
decision_type=2 2
left_child=-1 -2
right_child=1 -3
leaf_value=0.0065837892061879622 -0.00022470872631896732 0.00014148724608109564
leaf_weight=512 4655 4689
leaf_count=512 4655 4689
internal_value=-2.9928e-05 -0.000427501
internal_weight=9856 9344
internal_count=9856 9344
is_linear=0
shrinkage=0.05


Tree=72
num_leaves=3
num_cat=0
split_feature=11 29
split_gain=11.2617 11.2191
threshold=1423.2500000000002 0.30387381225274529
decision_type=2 2
left_child=-1 -2
right_child=1 -3
leaf_value=0.0062545997458785425 -7.6390896959210868e-07 -0.0067484504866643265
leaf_weight=512 8871 473
leaf_count=512 8871 473
internal_value=-9.63782e-06 -0.0004061
internal_weight=9856 9344
internal_count=9856 9344
is_linear=0
shrinkage=0.05


Tree=73
num_leaves=3
num_cat=0
split_feature=29 39
split_gain=11.05 9.56426
threshold=0.30387381225274529 0.47451032197141996
decision_type=2 2
left_child=1 -1
right_child=-2 -3
leaf_value=4.6187578547796095e-06 -0.006396112116507236 0.024248371007800709
leaf_weight=8962 490 404
leaf_count=8962 490 404
internal_value=-9.63782e-06 0.000373118
internal_weight=9856 9366
internal_count=9856 9366
is_linear=0
shrinkage=0.05


Tree=74
num_leaves=3
num_cat=0
split_feature=11 29
split_gain=11.2617 11.2191
threshold=1423.2500000000002 0.30387381225274529
decision_type=2 2
left_child=-1 -2
right_child=1 -3
leaf_value=0.0059416388206918747 -9.5665141381928724e-07 -0.0060912223565057436
leaf_weight=512 8871 473
leaf_count=512 8871 473
internal_value=-9.63782e-06 -0.0004061
internal_weight=9856 9344
internal_count=9856 9344
is_linear=0
shrinkage=0.05


Tree=75
num_leaves=3
num_cat=0
split_feature=29 20
split_gain=11.05 9.15663
threshold=0.30387381225274529 0.88212218142319576
decision_type=2 2
left_child=1 -1
right_child=-2 -3
leaf_value=0.048623476920384025 -0.0057717453928565867 1.0297618970123157e-05
leaf_weight=182 490 9184
leaf_count=182 490 9184
internal_value=-9.63782e-06 0.000373118
internal_weight=9856 9366
internal_count=9856 9366
is_linear=0
shrinkage=0.05


Tree=76
num_leaves=3
num_cat=0
split_feature=11 29
split_gain=11.3889 11.0911
threshold=1423.2500000000002 0.30387381225274529
decision_type=2 2
left_child=-1 -2
right_child=1 -3
leaf_value=0.00550174949651221 -3.4751963155610357e-06 -0.0054980739690376314
leaf_weight=512 8871 473
leaf_count=512 8871 473
internal_value=-5.02181e-05 -0.000448903
internal_weight=9856 9344
internal_count=9856 9344
is_linear=0
shrinkage=0.05


Tree=77
num_leaves=3
num_cat=0
split_feature=11 29
split_gain=11.3889 11.0911
threshold=1423.2500000000002 0.30387381225274529
decision_type=2 2
left_child=-1 -2
right_child=1 -3
leaf_value=0.0052266620216865796 -3.3014364997807634e-06 -0.0052231702705857423
leaf_weight=512 8871 473
leaf_count=512 8871 473
internal_value=-5.02181e-05 -0.000448903
internal_weight=9856 9344
internal_count=9856 9344
is_linear=0
shrinkage=0.05


Tree=78
num_leaves=3
num_cat=0
split_feature=11 29
split_gain=10.754 9.93087
threshold=1423.2500000000002 0.30387381225274529
decision_type=2 2
left_child=-1 -2
right_child=1 -3
leaf_value=0.0049653289206022418 -3.1363646747717412e-06 -0.0049620117570564615
leaf_weight=512 8871 473
leaf_count=512 8871 473
internal_value=-4.0073e-05 -0.000427501
internal_weight=9856 9344
internal_count=9856 9344
is_linear=0
shrinkage=0.05


Tree=79
num_leaves=3
num_cat=0
split_feature=29 42
split_gain=9.50218 12.8229
threshold=0.2927810434492662 0.69615384615384623
decision_type=2 2
left_child=-1 -2
right_child=1 -3
leaf_value=1.8541084640411044e-05 -0.0027055889385629085 -0.054669202108130616
leaf_weight=9186 574 96
leaf_count=9186 574 96
internal_value=-6.03632e-05 -0.00580477
internal_weight=9856 670
internal_count=9856 670
is_linear=0
shrinkage=0.05


Tree=80
num_leaves=3
num_cat=0
split_feature=8 40
split_gain=9.35517 11.1487
threshold=56.500000000000007 0.33409045205925431
decision_type=2 2
left_child=1 -1
right_child=-2 -3
leaf_value=0.047403648969347192 0.00026403785689890216 -0.00021217943408249342
leaf_weight=227 3012 6617
leaf_count=227 3012 6617
internal_value=0 -0.00102191
internal_weight=9856 6844
internal_count=9856 6844
is_linear=0
shrinkage=0.05


Tree=81
num_leaves=3
num_cat=0
split_feature=40 39
split_gain=8.66959 11.3252
threshold=0.4070858080506678 0.47451032197141996
decision_type=2 2
left_child=-1 -2
right_child=1 -3
leaf_value=0.00011906503984344675 -0.00037670639776543613 0.027766031641969047
leaf_weight=5733 3898 225
leaf_count=5733 3898 225
internal_value=-8.06533e-05 -0.00182953
internal_weight=9856 4123
internal_count=9856 4123
is_linear=0
shrinkage=0.05


Tree=82
num_leaves=3
num_cat=0
split_feature=39 18
split_gain=8.47948 14.2789
threshold=0.47451032197141996 2.9548075311283566
decision_type=2 2
left_child=-1 -2
right_child=1 -3
leaf_value=-4.448535750620764e-05 -0.029381197074563305 0.026685509355667582
leaf_weight=9438 61 357
leaf_count=9438 61 357
internal_value=-5.02181e-05 0.00690931
internal_weight=9856 418
internal_count=9856 418
is_linear=0
shrinkage=0.05


Tree=83
num_leaves=3
num_cat=0
split_feature=35 8
split_gain=8.18725 8.22355
threshold=43.540312500000013 56.500000000000007
decision_type=2 2
left_child=-1 -2
right_child=1 -3
leaf_value=0.044729338633053152 -0.00019592611225283108 0.0002527683917623591
leaf_weight=266 6655 2935
leaf_count=266 6655 2935
internal_value=-4.0073e-05 -0.000280993
internal_weight=9856 9590
internal_count=9856 9590
is_linear=0
shrinkage=0.05


Tree=84
num_leaves=3
num_cat=0
split_feature=39 14
split_gain=8.60371 13.0301
threshold=0.47451032197141996 3.8500000000000001
decision_type=2 2
left_child=-1 -2
right_child=1 -3
leaf_value=-4.7268926310639618e-05 -0.026665281578198741 0.025989882264355082
leaf_weight=9438 90 328
leaf_count=9438 90 328
internal_value=-0.000100943 0.00690931
internal_weight=9856 418
internal_count=9856 418
is_linear=0
shrinkage=0.05


Tree=85
num_leaves=3
num_cat=0
split_feature=11 34
split_gain=8.72905 9.43525
threshold=1501.4500000000003 60.936343566021876
decision_type=2 2
left_child=-1 -2
right_child=1 -3
leaf_value=0.0020674941222934228 -0.0019908973573602661 0.0025415306900538727
leaf_weight=4748 4573 535
leaf_count=4748 4573 535
internal_value=-9.07984e-05 -0.00152574
internal_weight=9856 5108
internal_count=9856 5108
is_linear=0
shrinkage=0.05


Tree=86
num_leaves=3
num_cat=0
split_feature=8 29
split_gain=9.59929 12.9157
threshold=54.500000000000007 0.20811518324607328
decision_type=2 2
left_child=-1 -2
right_child=1 -3
leaf_value=-0.0002792564091407712 0.0026992598224405031 -0.00035726486726646024
leaf_weight=5682 2210 1964
leaf_count=5682 2210 1964
internal_value=-0.000192249 0.00162754
internal_weight=9856 4174
internal_count=9856 4174
is_linear=0
shrinkage=0.05


Tree=87
num_leaves=3
num_cat=0
split_feature=42 42
split_gain=9.55546 13.6861
threshold=0.63961038961038974 0.5634920634920636
decision_type=2 2
left_child=1 -1
right_child=-2 -3
leaf_value=-5.9794681948943662e-05 -0.0021328525553559242 0.005082003082296338
leaf_weight=6907 2076 873
leaf_count=6907 2076 873
internal_value=-0.00035457 0.000449171
internal_weight=9856 7780
internal_count=9856 7780
is_linear=0
shrinkage=0.05


Tree=88
num_leaves=3
num_cat=0
split_feature=39 18
split_gain=9.21254 14.2789
threshold=0.47451032197141996 2.9548075311283566
decision_type=2 2
left_child=-1 -2
right_child=1 -3
leaf_value=-0.00014573580181218571 -0.026677229575884587 0.024263152094077436
leaf_weight=9438 61 357
leaf_count=9438 61 357
internal_value=-0.000344425 0.00690931
internal_weight=9856 418
internal_count=9856 418
is_linear=0
shrinkage=0.05


Tree=89
num_leaves=3
num_cat=0
split_feature=39 18
split_gain=9.10963 14.2789
threshold=0.47451032197141996 2.9548075311283566
decision_type=2 2
left_child=-1 -2
right_child=1 -3
leaf_value=-0.0001384490117215753 -0.025343368097090348 0.023049994489373574
leaf_weight=9438 61 357
leaf_count=9438 61 357
internal_value=-0.000303845 0.00690931
internal_weight=9856 418
internal_count=9856 418
is_linear=0
shrinkage=0.05


Tree=90
num_leaves=3
num_cat=0
split_feature=39 18
split_gain=9.08399 14.2789
threshold=0.47451032197141996 2.9548075311283566
decision_type=2 2
left_child=-1 -2
right_child=1 -3
leaf_value=-0.00013152656113548655 -0.024076199692235845 0.021897494764904879
leaf_weight=9438 61 357
leaf_count=9438 61 357
internal_value=-0.0002937 0.00690931
internal_weight=9856 418
internal_count=9856 418
is_linear=0
shrinkage=0.05


Tree=91
num_leaves=3
num_cat=0
split_feature=39 18
split_gain=9.05839 14.2789
threshold=0.47451032197141996 2.9548075311283566
decision_type=2 2
left_child=-1 -2
right_child=1 -3
leaf_value=-0.00012495023307870223 -0.022872389707624043 0.020802620026659648
leaf_weight=9438 61 357
leaf_count=9438 61 357
internal_value=-0.000283555 0.00690931
internal_weight=9856 418
internal_count=9856 418
is_linear=0
shrinkage=0.05


Tree=92
num_leaves=3
num_cat=0
split_feature=39 18
split_gain=9.53767 12.5618
threshold=0.47451032197141996 2.9548075311283566
decision_type=2 2
left_child=-1 -2
right_child=1 -3
leaf_value=-0.00011870272142477933 -0.021728770222242844 0.019762489025326648
leaf_weight=9438 61 357
leaf_count=9438 61 357
internal_value=-0.000232829 0.00714797
internal_weight=9856 418
internal_count=9856 418
is_linear=0
shrinkage=0.05


Tree=93
num_leaves=3
num_cat=0
split_feature=39 18
split_gain=9.43295 12.5618
threshold=0.47451032197141996 2.9548075311283566
decision_type=2 2
left_child=-1 -2
right_child=1 -3
leaf_value=-0.00011276758535354592 -0.020642331711130703 0.018774364574060301
leaf_weight=9438 61 357
leaf_count=9438 61 357
internal_value=-0.000192249 0.00714797
internal_weight=9856 418
internal_count=9856 418
is_linear=0
shrinkage=0.05


Tree=94
num_leaves=3
num_cat=0
split_feature=39 18
split_gain=9.38081 12.5618
threshold=0.47451032197141996 2.9548075311283566
decision_type=2 2
left_child=-1 -2
right_child=1 -3
leaf_value=-0.0001071292060858875 -0.019610215125574149 0.017835646345357281
leaf_weight=9438 61 357
leaf_count=9438 61 357
internal_value=-0.000171959 0.00714797
internal_weight=9856 418
internal_count=9856 418
is_linear=0
shrinkage=0.05


Tree=95
num_leaves=3
num_cat=0
split_feature=11 28
split_gain=7.8791 10.1068
threshold=1464.1500000000003 0.12465930948437831
decision_type=2 2
left_child=1 -1
right_child=-2 -3
leaf_value=-0.046466488759123674 -0.00015093383392974504 0.0043473564028058357
leaf_weight=64 7746 2046
leaf_count=64 7746 2046
internal_value=-0.000151669 0.00255566
internal_weight=9856 2110
internal_count=9856 2110
is_linear=0
shrinkage=0.05


Tree=96
num_leaves=3
num_cat=0
split_feature=28 10
split_gain=9.05277 10.0843
threshold=0.17155458407972421 1476.8500000000001
decision_type=2 2
left_child=-1 -2
right_child=1 -3
leaf_value=0.00036507881156988553 -0.0021883549760393752 -1.0325299177438297e-06
leaf_weight=2467 1730 5659
leaf_count=2467 1730 5659
internal_value=-0.000171959 -0.00104804
internal_weight=9856 7389
internal_count=9856 7389
is_linear=0
shrinkage=0.05


Tree=97
num_leaves=3
num_cat=0
split_feature=29 33
split_gain=8.5312 9.59991
threshold=0.16422619558071064 0.63790632080270049
decision_type=2 2
left_child=1 -1
right_child=-2 -3
leaf_value=0.053608072619051331 -0.00016555217425682223 0.0018393005388947171
leaf_weight=110 7859 1887
leaf_count=110 7859 1887
internal_value=-0.000141524 0.00277528
internal_weight=9856 1997
internal_count=9856 1997
is_linear=0
shrinkage=0.05


Tree=98
num_leaves=3
num_cat=0
split_feature=39 14
split_gain=9.43295 11.7249
threshold=0.47451032197141996 3.8500000000000001
decision_type=2 2
left_child=-1 -2
right_child=1 -3
leaf_value=-9.8482368427244005e-05 -0.018722868058833497 0.017263568000638663
leaf_weight=9438 90 328
leaf_count=9438 90 328
internal_value=-0.000192249 0.00714797
internal_weight=9856 418
internal_count=9856 418
is_linear=0
shrinkage=0.05


Tree=99
num_leaves=3
num_cat=0
split_feature=28 30
split_gain=8.77092 10.9569
threshold=0.17278449337850324 0.10534412461012362
decision_type=2 2
left_child=1 -1
right_child=-2 -3
leaf_value=0.0019170448690957187 -0.00019681553524013575 -0.044972190798005345
leaf_weight=2269 7312 275
leaf_count=2269 7312 275
internal_value=-0.000171959 0.0023556
internal_weight=9856 2544
internal_count=9856 2544
is_linear=0
shrinkage=0.05


Tree=100
num_leaves=3
num_cat=0
split_feature=39 18
split_gain=9.27695 12.5618
threshold=0.47451032197141996 2.9548075311283566
decision_type=2 2
left_child=-1 -2
right_child=1 -3
leaf_value=-8.4439431887761715e-05 -0.017867617928498714 0.015982403744433517
leaf_weight=9438 61 357
leaf_count=9438 61 357
internal_value=-0.000131379 0.00714797
internal_weight=9856 418
internal_count=9856 418
is_linear=0
shrinkage=0.05


Tree=101
num_leaves=3
num_cat=0
split_feature=42 42
split_gain=8.7926 24.0062
threshold=0.55050505050505061 0.4494949494949495
decision_type=2 2
left_child=1 -1
right_child=-2 -3
leaf_value=-0.00016437680548602175 -0.00043880293022224848 0.0049114962538843177
leaf_weight=4627 3610 1619
leaf_count=4627 3610 1619
internal_value=-0.000111089 0.00102369
internal_weight=9856 6246
internal_count=9856 6246
is_linear=0
shrinkage=0.05


Tree=102
num_leaves=3
num_cat=0
split_feature=39 18
split_gain=9.74883 12.5618
threshold=0.47451032197141996 2.9548075311283566
decision_type=2 2
left_child=-1 -2
right_child=1 -3
leaf_value=-0.00012702868687517466 -0.016952296885562657 0.014977754118079601
leaf_weight=9438 61 357
leaf_count=9438 61 357
internal_value=-0.00031399 0.00714797
internal_weight=9856 418
internal_count=9856 418
is_linear=0
shrinkage=0.05


Tree=103
num_leaves=3
num_cat=0
split_feature=39 18
split_gain=9.64296 12.5618
threshold=0.47451032197141996 2.9548075311283566
decision_type=2 2
left_child=-1 -2
right_child=1 -3
leaf_value=-0.00012067725253142037 -0.016104682041284502 0.014228866412175601
leaf_weight=9438 61 357
leaf_count=9438 61 357
internal_value=-0.00027341 0.00714797
internal_weight=9856 418
internal_count=9856 418
is_linear=0
shrinkage=0.05


Tree=104
num_leaves=3
num_cat=0
split_feature=39 18
split_gain=9.64296 12.5618
threshold=0.47451032197141996 2.9548075311283566
decision_type=2 2
left_child=-1 -2
right_child=1 -3
leaf_value=-0.00011464338990485601 -0.015299447939220291 0.013517423091566805
leaf_weight=9438 61 357
leaf_count=9438 61 357
internal_value=-0.00027341 0.00714797
internal_weight=9856 418
internal_count=9856 418
is_linear=0
shrinkage=0.05


Tree=105
num_leaves=3
num_cat=0
split_feature=40 31
split_gain=9.15281 11.5039
threshold=0.41868752125983016 0.045850140040876758
decision_type=2 2
left_child=-1 -2
right_child=1 -3
leaf_value=0.0001776430075191793 0.0028829945217995201 -0.0024194319369933216
leaf_weight=6864 425 2567
leaf_count=6864 425 2567
internal_value=-0.000263265 -0.002571
internal_weight=9856 2992
internal_count=9856 2992
is_linear=0
shrinkage=0.05


Tree=106
num_leaves=3
num_cat=0
split_feature=18 37
split_gain=9.39001 13.7854
threshold=4.058484740311191 -0.18611422957797011
decision_type=2 2
left_child=1 -1
right_child=-2 -3
leaf_value=-0.044646375296279323 0.0021462961406626402 -5.3473190897945781e-05
leaf_weight=662 1740 7454
leaf_count=662 1740 7454
internal_value=-6.03632e-05 -0.000775533
internal_weight=9856 8116
internal_count=9856 8116
is_linear=0
shrinkage=0.05


Tree=107
num_leaves=3
num_cat=0
split_feature=39 18
split_gain=8.89278 12.5618
threshold=0.47451032197141996 2.9548075311283566
decision_type=2 2
left_child=-1 -2
right_child=1 -3
leaf_value=-6.2985370348389577e-05 -0.014540684033090301 0.012965197193383071
leaf_weight=9438 61 357
leaf_count=9438 61 357
internal_value=1.97829e-05 0.00714797
internal_weight=9856 418
internal_count=9856 418
is_linear=0
shrinkage=0.05


Tree=108
num_leaves=3
num_cat=0
split_feature=1 25
split_gain=9.77339 10.6064
threshold=0.30663068181818182 7.3651515151515161
decision_type=2 2
left_child=1 -1
right_child=-2 -3
leaf_value=0.0003878069675422813 -0.00032414303482433129 0.052065071235166377
leaf_weight=5221 4553 82
leaf_count=5221 4553 82
internal_value=1.97829e-05 0.00147907
internal_weight=9856 5303
internal_count=9856 5303
is_linear=0
shrinkage=0.05


Tree=109
num_leaves=3
num_cat=0
split_feature=1 33
split_gain=9.06719 11.5919
threshold=0.30663068181818182 6.1498316498316514
decision_type=2 2
left_child=1 -1
right_child=-2 -3
leaf_value=0.00036963795012324719 -0.00030793588308313251 0.098943685695666167
leaf_weight=5248 4553 55
leaf_count=5248 4553 55
internal_value=-1.97829e-05 0.0013848
internal_weight=9856 5303
internal_count=9856 5303
is_linear=0
shrinkage=0.05


Tree=110
num_leaves=3
num_cat=0
split_feature=39 14
split_gain=8.99432 11.7249
threshold=0.47451032197141996 3.8500000000000001
decision_type=2 2
left_child=-1 -2
right_child=1 -3
leaf_value=-8.5522508718871579e-05 -0.013778896442169298 0.012797646906065198
leaf_weight=9438 90 328
leaf_count=9438 90 328
internal_value=-1.97829e-05 0.00714797
internal_weight=9856 418
internal_count=9856 418
is_linear=0
shrinkage=0.05


Tree=111
num_leaves=3
num_cat=0
split_feature=39 18
split_gain=8.99432 12.5618
threshold=0.47451032197141996 2.9548075311283566
decision_type=2 2
left_child=-1 -2
right_child=1 -3
leaf_value=-8.1246383282906906e-05 -0.013162577255210596 0.011639182742527378
leaf_weight=9438 61 357
leaf_count=9438 61 357
internal_value=-1.97829e-05 0.00714797
internal_weight=9856 418
internal_count=9856 418
is_linear=0
shrinkage=0.05


Tree=112
num_leaves=3
num_cat=0
split_feature=28 39
split_gain=8.07211 8.566
threshold=0.17278449337850324 0.40166771287220004
decision_type=2 2
left_child=-1 -2
right_child=1 -3
leaf_value=0.0012620851941355761 -0.00052422088174099992 0.00029312010871669348
leaf_weight=2544 3643 3669
leaf_count=2544 3643 3669
internal_value=-2.9928e-05 -0.00087447
internal_weight=9856 7312
internal_count=9856 7312
is_linear=0
shrinkage=0.05


Tree=113
num_leaves=3
num_cat=0
split_feature=11 0
split_gain=8.56279 8.73863
threshold=1464.1500000000003 0.31289444444444453
decision_type=2 2
left_child=-1 -2
right_child=1 -3
leaf_value=0.0023010561473617575 -0.00039649194509290276 0.00063344621531401528
leaf_weight=2110 5722 2024
leaf_count=2110 5722 2024
internal_value=-2.9928e-05 -0.000799664
internal_weight=9856 7746
internal_count=9856 7746
is_linear=0
shrinkage=0.05


Tree=114
num_leaves=3
num_cat=0
split_feature=42 39
split_gain=8.11948 10.8678
threshold=0.63961038961038974 0.47232395798280918
decision_type=2 2
left_child=1 -1
right_child=-2 -3
leaf_value=6.2567867394514029e-05 -0.0019160579399344015 0.015059561231453822
leaf_weight=7453 2076 327
leaf_count=7453 2076 327
internal_value=-6.03632e-05 0.000680504
internal_weight=9856 7780
internal_count=9856 7780
is_linear=0
shrinkage=0.05


Tree=115
num_leaves=3
num_cat=0
split_feature=1 30
split_gain=7.83972 8.95962
threshold=0.30663068181818182 0.080323622779827061
decision_type=2 2
left_child=1 -1
right_child=-2 -3
leaf_value=0.0020880948048432658 -0.00032060651791065986 -0.00031775159261429045
leaf_weight=3315 4553 1988
leaf_count=3315 4553 1988
internal_value=4.0073e-05 0.0013471
internal_weight=9856 5303
internal_count=9856 5303
is_linear=0
shrinkage=0.05


Tree=116
num_leaves=3
num_cat=0
split_feature=11 0
split_gain=8.05731 8.96584
threshold=1464.1500000000003 0.31289444444444453
decision_type=2 2
left_child=-1 -2
right_child=1 -3
leaf_value=0.0021880820115014465 -0.00039475052604667218 0.00059317206130286024
leaf_weight=2110 5722 2024
leaf_count=2110 5722 2024
internal_value=-4.0073e-05 -0.000786756
internal_weight=9856 7746
internal_count=9856 7746
is_linear=0
shrinkage=0.05


Tree=117
num_leaves=3
num_cat=0
split_feature=39 18
split_gain=7.93186 11.9936
threshold=0.47451032197141996 2.9548075311283566
decision_type=2 2
left_child=-1 -2
right_child=1 -3
leaf_value=-9.9629819271651609e-05 -0.013068046132760048 0.010526197612812194
leaf_weight=9438 61 357
leaf_count=9438 61 357
internal_value=-6.03632e-05 0.00667064
internal_weight=9856 418
internal_count=9856 418
is_linear=0
shrinkage=0.05


Tree=118
num_leaves=3
num_cat=0
split_feature=0 32
split_gain=7.4289 12.5457
threshold=0.28988194444444443 1.8904761904761906
decision_type=2 2
left_child=1 -1
right_child=-2 -3
leaf_value=-0.046822934640277515 0.00011145032387644972 7.1502711626436619e-05
leaf_weight=391 8785 680
leaf_count=391 8785 680
internal_value=-2.9928e-05 -0.00395989
internal_weight=9856 1071
internal_count=9856 1071
is_linear=0
shrinkage=0.05


Tree=119
num_leaves=3
num_cat=0
split_feature=41 28
split_gain=8.0508 11.8922
threshold=0.17424242424242423 0.18811924355550708
decision_type=2 2
left_child=1 -1
right_child=-2 -3
leaf_value=0.050102928043320449 -0.00010689737752955786 4.4544279086577991e-05
leaf_weight=280 9094 482
leaf_count=280 9094 482
internal_value=4.0073e-05 0.00497379
internal_weight=9856 762
internal_count=9856 762
is_linear=0
shrinkage=0.05


Tree=120
num_leaves=3
num_cat=0
split_feature=11 0
split_gain=7.64797 8.17761
threshold=1459.3500000000001 0.31147727272727282
decision_type=2 2
left_child=-1 -2
right_child=1 -3
leaf_value=0.0022002346660436878 -0.00042482328462465361 0.00043028916919973792
leaf_weight=1898 5546 2412
leaf_count=1898 5546 2412
internal_value=-9.63782e-06 -0.000690413
internal_weight=9856 7958
internal_count=9856 7958
is_linear=0
shrinkage=0.05


Tree=121
num_leaves=3
num_cat=0
split_feature=39 18
split_gain=7.24146 11.7143
threshold=0.47451032197141996 2.9548075311283566
decision_type=2 2
left_child=-1 -2
right_child=1 -3
leaf_value=-8.0423740263757545e-05 -0.012436385931899352 0.0099781456263942758
leaf_weight=9438 61 357
leaf_count=9438 61 357
internal_value=0 0.00643198
internal_weight=9856 418
internal_count=9856 418
is_linear=0
shrinkage=0.05


Tree=122
num_leaves=3
num_cat=0
split_feature=11 5
split_gain=7.52427 7.52251
threshold=1412.6500000000003 4.6250000000000009
decision_type=2 2
left_child=1 -1
right_child=-2 -3
leaf_value=0.0091701311595448805 -6.8569509414828652e-05 -0.044479140032075648
leaf_weight=252 9542 62
leaf_count=252 9542 62
internal_value=0 0.00760317
internal_weight=9856 314
internal_count=9856 314
is_linear=0
shrinkage=0.05


Tree=123
num_leaves=3
num_cat=0
split_feature=11 12
split_gain=8.10321 7.40263
threshold=1412.6500000000003 3.1500000000000004
decision_type=2 2
left_child=-1 -2
right_child=1 -3
leaf_value=0.0060834904646483341 -0.045268726759512795 -9.0958458114354102e-06
leaf_weight=314 219 9323
leaf_count=314 219 9323
internal_value=2.9928e-05 -0.000230012
internal_weight=9856 9542
internal_count=9856 9542
is_linear=0
shrinkage=0.05


Tree=124
num_leaves=3
num_cat=0
split_feature=11 12
split_gain=8.10321 7.40263
threshold=1412.6500000000003 3.1500000000000004
decision_type=2 2
left_child=-1 -2
right_child=1 -3
leaf_value=0.0057793159414158968 -0.043005290421537161 -8.6410535208525371e-06
leaf_weight=314 219 9323
leaf_count=314 219 9323
internal_value=2.9928e-05 -0.000230012
internal_weight=9856 9542
internal_count=9856 9542
is_linear=0
shrinkage=0.05


Tree=125
num_leaves=3
num_cat=0
split_feature=11 4
split_gain=8.08243 7.14816
threshold=1412.6500000000003 4.5450000000000008
decision_type=2 2
left_child=-1 -2
right_child=1 -3
leaf_value=0.0054903501443451137 -0.00026065322788704215 0.0015962092253761996
leaf_weight=314 7447 2095
leaf_count=314 7447 2095
internal_value=4.0073e-05 -0.000219533
internal_weight=9856 9542
internal_count=9856 9542
is_linear=0
shrinkage=0.05


Tree=126
num_leaves=3
num_cat=0
split_feature=11 39
split_gain=8.16572 7.54682
threshold=1412.6500000000003 0.46266975198200888
decision_type=2 2
left_child=-1 -2
right_child=1 -3
leaf_value=0.0052158326371278376 -0.00015452964810771521 0.0072386345076372429
leaf_weight=314 8900 642
leaf_count=314 8900 642
internal_value=0 -0.000261448
internal_weight=9856 9542
internal_count=9856 9542
is_linear=0
shrinkage=0.05


Tree=127
num_leaves=3
num_cat=0
split_feature=39 18
split_gain=6.80246 11.4383
threshold=0.47451032197141996 2.9548075311283566
decision_type=2 2
left_child=-1 -2
right_child=1 -3
leaf_value=-8.6698728643574976e-05 -0.012159150378854601 0.0091346546015243831
leaf_weight=9438 61 357
leaf_count=9438 61 357
internal_value=-4.0073e-05 0.00619332
internal_weight=9856 418
internal_count=9856 418
is_linear=0
shrinkage=0.05


Tree=128
num_leaves=3
num_cat=0
split_feature=40 39
split_gain=6.78275 10.9344
threshold=0.4070858080506678 0.40466067238945497
decision_type=2 2
left_child=-1 -2
right_child=1 -3
leaf_value=0.00036359910904824048 -0.033632276754519345 0.00033636816511402047
leaf_weight=5733 2134 1989
leaf_count=5733 2134 1989
internal_value=-4.0073e-05 -0.00158705
internal_weight=9856 4123
internal_count=9856 4123
is_linear=0
shrinkage=0.05


Tree=129
num_leaves=3
num_cat=0
split_feature=5 1
split_gain=8.09034 12.7695
threshold=3.9750000000000005 0.30877777777777782
decision_type=2 2
left_child=1 -1
right_child=-2 -3
leaf_value=0.0016548379364027422 0.0003884269439377475 -0.043325204972596634
leaf_weight=1018 8022 816
leaf_count=1018 8022 816
internal_value=0.000435731 -0.00255858
internal_weight=9856 1834
internal_count=9856 1834
is_linear=0
shrinkage=0.05


Tree=130
num_leaves=3
num_cat=0
split_feature=18 14
split_gain=7.77107 11.0009
threshold=4.058484740311191 5.2500000000000009
decision_type=2 2
left_child=-1 -2
right_child=1 -3
leaf_value=-7.7451210999468509e-05 0.047125641991712944 0.00050212243589564665
leaf_weight=8116 469 1271
leaf_count=8116 469 1271
internal_value=0.000527037 0.0035583
internal_weight=9856 1740
internal_count=9856 1740
is_linear=0
shrinkage=0.05


Tree=131
num_leaves=3
num_cat=0
split_feature=29 30
split_gain=7.94119 15.9305
threshold=0.14295732318172708 0.097959183673469355
decision_type=2 2
left_child=1 -1
right_child=-2 -3
leaf_value=0.045402727258309343 -5.5640191433381506e-05 -0.048597822778876809
leaf_weight=767 8972 117
leaf_count=767 8972 117
internal_value=0.00033428 0.00485311
internal_weight=9856 884
internal_count=9856 884
is_linear=0
shrinkage=0.05


Tree=132
num_leaves=3
num_cat=0
split_feature=10 20
split_gain=7.07528 12.9231
threshold=1452.8500000000001 1.2411631496331845
decision_type=2 2
left_child=-1 -2
right_child=1 -3
leaf_value=-0.0021060964785231118 0.00012576601473412996 0.045077203454434937
leaf_weight=1618 7961 277
leaf_count=1618 7961 277
internal_value=0.000121234 0.000715499
internal_weight=9856 8238
internal_count=9856 8238
is_linear=0
shrinkage=0.05


Tree=133
num_leaves=3
num_cat=0
split_feature=42 42
split_gain=7.2419 11.5182
threshold=0.63961038961038974 0.5634920634920636
decision_type=2 2
left_child=1 -1
right_child=-2 -3
leaf_value=3.9754026244076539e-05 -0.0022623419735247063 0.006973219590273594
leaf_weight=6907 2076 873
leaf_count=6907 2076 873
internal_value=0.000121234 0.000821874
internal_weight=9856 7780
internal_count=9856 7780
is_linear=0
shrinkage=0.05


Tree=134
num_leaves=3
num_cat=0
split_feature=4 21
split_gain=7.06604 9.98662
threshold=4.9850000000000012 1.0970067306217899
decision_type=2 2
left_child=-1 -2
right_child=1 -3
leaf_value=-9.5015226376760081e-05 -5.964362270323154e-05 0.0455820339854381
leaf_weight=9258 356 242
leaf_count=9258 356 242
internal_value=7.05083e-05 0.00533389
internal_weight=9856 598
internal_count=9856 598
is_linear=0
shrinkage=0.05


Tree=135
num_leaves=3
num_cat=0
split_feature=42 29
split_gain=6.73246 10.5761
threshold=0.63961038961038974 0.28912807628618747
decision_type=2 2
left_child=-1 -2
right_child=1 -3
leaf_value=0.00025833402671868736 -0.0015998684158458065 -0.051488781055764959
leaf_weight=7780 1945 131
leaf_count=7780 1945 131
internal_value=-1.97829e-05 -0.00254935
internal_weight=9856 2076
internal_count=9856 2076
is_linear=0
shrinkage=0.05


Tree=136
num_leaves=3
num_cat=0
split_feature=36 12
split_gain=7.41842 6.43976
threshold=2.2934753308543949 3.1500000000000004
decision_type=2 2
left_child=1 -1
right_child=-2 -3
leaf_value=-0.039959974027710614 0.049103045151362171 4.4022989572922723e-05
leaf_weight=224 76 9556
leaf_count=224 76 9556
internal_value=6.03632e-05 -6.08322e-05
internal_weight=9856 9780
internal_count=9856 9780
is_linear=0
shrinkage=0.05


Tree=137
num_leaves=3
num_cat=0
split_feature=8 29
split_gain=6.86201 10.0079
threshold=54.500000000000007 0.20811518324607328
decision_type=2 2
left_child=-1 -2
right_child=1 -3
leaf_value=-0.00043418014464449153 0.0040134192260395498 -0.00049460027826175867
leaf_weight=5682 2210 1964
leaf_count=5682 2210 1964
internal_value=4.0073e-05 0.00157964
internal_weight=9856 4174
internal_count=9856 4174
is_linear=0
shrinkage=0.05


Tree=138
num_leaves=3
num_cat=0
split_feature=32 38
split_gain=6.73555 11.0257
threshold=1.1200035569783469 -0.033532483686761545
decision_type=2 2
left_child=1 -1
right_child=-2 -3
leaf_value=-0.0018426317840462671 -0.00031055573682639006 0.0024621925739272579
leaf_weight=573 6862 2421
leaf_count=573 6862 2421
internal_value=-9.63782e-06 0.00196828
internal_weight=9856 2994
internal_count=9856 2994
is_linear=0
shrinkage=0.05


Tree=139
num_leaves=3
num_cat=0
split_feature=30 10
split_gain=6.50396 9.40471
threshold=0.073334694426324162 1531.9500000000003
decision_type=2 2
left_child=-1 -2
right_child=1 -3
leaf_value=0.00067788388403648985 -0.00171870069706892 0.0032837554274736114
leaf_weight=5222 3657 977
leaf_count=5222 3657 977
internal_value=-8.06533e-05 -0.00144444
internal_weight=9856 4634
internal_count=9856 4634
is_linear=0
shrinkage=0.05


Tree=140
num_leaves=3
num_cat=0
split_feature=11 34
split_gain=7.38203 9.46616
threshold=1501.4500000000003 60.936343566021876
decision_type=2 2
left_child=-1 -2
right_child=1 -3
leaf_value=0.0013022496331831946 -0.0019246993017642212 0.0028665772077439925
leaf_weight=4748 4573 535
leaf_count=4748 4573 535
internal_value=-2.9928e-05 -0.00134958
internal_weight=9856 5108
internal_count=9856 5108
is_linear=0
shrinkage=0.05


Tree=141
num_leaves=3
num_cat=0
split_feature=8 6
split_gain=6.43414 9.4217
threshold=54.500000000000007 21.450000000000003
decision_type=2 2
left_child=1 -1
right_child=-2 -3
leaf_value=-0.00082646623692923533 0.00092515174087162146 0.0041785348041228909
leaf_weight=5219 4174 463
leaf_count=5219 4174 463
internal_value=-2.9928e-05 -0.00112529
internal_weight=9856 5682
internal_count=9856 5682
is_linear=0
shrinkage=0.05


Tree=142
num_leaves=3
num_cat=0
split_feature=28 12
split_gain=6.11939 9.59172
threshold=0.17155458407972421 4.4500000000000011
decision_type=2 2
left_child=-1 -2
right_child=1 -3
leaf_value=0.001538480544476606 -0.0010826164844738306 0.00066337803162785924
leaf_weight=2467 3648 3741
leaf_count=2467 3648 3741
internal_value=-2.9928e-05 -0.000750338
internal_weight=9856 7389
internal_count=9856 7389
is_linear=0
shrinkage=0.05


Tree=143
num_leaves=3
num_cat=0
split_feature=42 42
split_gain=6.13225 15.3851
threshold=0.2264957264957265 0.27922077922077926
decision_type=2 2
left_child=-1 -2
right_child=1 -3
leaf_value=-0.0026476721393409843 0.047343762983805653 3.4305405403800561e-05
leaf_weight=1458 318 8080
leaf_count=1458 318 8080
internal_value=-1.97829e-05 0.000499464
internal_weight=9856 8398
internal_count=9856 8398
is_linear=0
shrinkage=0.05


Tree=144
num_leaves=3
num_cat=0
split_feature=11 42
split_gain=6.41809 9.84576
threshold=1501.4500000000003 0.4494949494949495
decision_type=2 2
left_child=-1 -2
right_child=1 -3
leaf_value=0.0011607959003866353 -0.0045225313218063556 0.00027685039204723428
leaf_weight=4748 2200 2908
leaf_count=4748 2200 2908
internal_value=-6.03632e-05 -0.00129086
internal_weight=9856 5108
internal_count=9856 5108
is_linear=0
shrinkage=0.05


Tree=145
num_leaves=3
num_cat=0
split_feature=1 2
split_gain=6.82549 11.8043
threshold=0.3086666666666667 4.5850000000000009
decision_type=2 2
left_child=-1 -2
right_child=1 -3
leaf_value=0.00057538523845352969 -0.0014440761809716208 0.011951514423617238
leaf_weight=6023 3542 291
leaf_count=6023 3542 291
internal_value=1.97829e-05 -0.00162885
internal_weight=9856 3833
internal_count=9856 3833
is_linear=0
shrinkage=0.05


Tree=146
num_leaves=3
num_cat=0
split_feature=22 39
split_gain=6.08784 9.61485
threshold=0.25960524651000999 0.38500342639527541
decision_type=2 2
left_child=-1 -2
right_child=1 -3
leaf_value=7.0796493049707363e-05 -0.056004201038042024 -0.0022284579283944339
leaf_weight=9640 61 155
leaf_count=9640 61 155
internal_value=9.63782e-06 -0.00827189
internal_weight=9856 216
internal_count=9856 216
is_linear=0
shrinkage=0.05


Tree=147
num_leaves=3
num_cat=0
split_feature=42 42
split_gain=5.83637 19.5799
threshold=0.55050505050505061 0.4494949494949495
decision_type=2 2
left_child=1 -1
right_child=-2 -3
leaf_value=-0.00030910717138397107 -0.0011034069355485344 0.0054221512206210631
leaf_weight=4627 3610 1619
leaf_count=4627 3610 1619
internal_value=5.02181e-05 0.000975668
internal_weight=9856 6246
internal_count=9856 6246
is_linear=0
shrinkage=0.05


Tree=148
num_leaves=3
num_cat=0
split_feature=12 13
split_gain=5.81732 9.89153
threshold=3.1500000000000004 4.8166666666666673
decision_type=2 2
left_child=1 -1
right_child=-2 -3
leaf_value=-0.033280090773548113 7.1377583574661066e-05 -0.084675245125985982
leaf_weight=174 9632 50
leaf_count=174 9632 50
internal_value=-2.9928e-05 -0.00797778
internal_weight=9856 224
internal_count=9856 224
is_linear=0
shrinkage=0.05


Tree=149
num_leaves=3
num_cat=0
split_feature=23 2
split_gain=6.45748 9.3456
threshold=0.20279524944325936 3.2800000000000007
decision_type=2 2
left_child=-1 -2
right_child=1 -3
leaf_value=0.00069641546722722938 -0.046110058478722717 -0.00052739427355716904
leaf_weight=5514 205 4137
leaf_count=5514 205 4137
internal_value=-2.9928e-05 -0.00147248
internal_weight=9856 4342
internal_count=9856 4342
is_linear=0
shrinkage=0.05


Tree=150
num_leaves=3
num_cat=0
split_feature=1 13
split_gain=5.95549 9.07189
threshold=0.3086666666666667 4.1833333333333345
decision_type=2 2
left_child=-1 -2
right_child=1 -3
leaf_value=0.00061063923272719478 -0.002673018223309365 -5.1101444499268571e-07
leaf_weight=6023 1107 2726
leaf_count=6023 1107 2726
internal_value=-9.63782e-06 -0.0015506
internal_weight=9856 3833
internal_count=9856 3833
is_linear=0
shrinkage=0.05


Tree=151
num_leaves=3
num_cat=0
split_feature=10 20
split_gain=6.22779 9.85098
threshold=1451.9500000000003 1.2411631496331845
decision_type=2 2
left_child=-1 -2
right_child=1 -3
leaf_value=-0.0025143640167038408 0.00011474622338424334 0.04350353207963558
leaf_weight=1579 7996 281
leaf_count=1579 7996 281
internal_value=0 0.000549046
internal_weight=9856 8277
internal_count=9856 8277
is_linear=0
shrinkage=0.05


Tree=152
num_leaves=3
num_cat=0
split_feature=10 37
split_gain=6.0857 9.57076
threshold=1537.1500000000003 0.1890206686298361
decision_type=2 2
left_child=-1 -2
right_child=1 -3
leaf_value=-0.00028095577404188001 0.00053335366179682044 0.044141250119315648
leaf_weight=7711 1698 447
leaf_count=7711 1698 447
internal_value=-5.02181e-05 0.00230429
internal_weight=9856 2145
internal_count=9856 2145
is_linear=0
shrinkage=0.05


Tree=153
num_leaves=3
num_cat=0
split_feature=11 34
split_gain=6.0376 10.7284
threshold=1518.7500000000002 60.676231060606078
decision_type=2 2
left_child=-1 -2
right_child=1 -3
leaf_value=0.00042607154475617917 -0.0040000278889744667 0.0043997079531556075
leaf_weight=6484 2977 395
leaf_count=6484 2977 395
internal_value=-9.07984e-05 -0.001807
internal_weight=9856 3372
internal_count=9856 3372
is_linear=0
shrinkage=0.05


Tree=154
num_leaves=3
num_cat=0
split_feature=1 29
split_gain=6.01085 9.13692
threshold=0.30663068181818182 0.18043535411956463
decision_type=2 2
left_child=-1 -2
right_child=1 -3
leaf_value=0.00070753861279695409 0.0017355648603649245 -0.0024020762617895878
leaf_weight=5303 1417 3136
leaf_count=5303 1417 3136
internal_value=-6.03632e-05 -0.00139328
internal_weight=9856 4553
internal_count=9856 4553
is_linear=0
shrinkage=0.05


Tree=155
num_leaves=3
num_cat=0
split_feature=16 38
split_gain=6.06042 8.763
threshold=0.3076775221628047 -0.012392868961222448
decision_type=2 2
left_child=1 -1
right_child=-2 -3
leaf_value=0.010749412565080741 0.00011050908315598519 -0.039523521987174071
leaf_weight=66 9464 326
leaf_count=66 9464 326
internal_value=-9.63782e-06 -0.00609415
internal_weight=9856 392
internal_count=9856 392
is_linear=0
shrinkage=0.05


Tree=156
num_leaves=3
num_cat=0
split_feature=28 25
split_gain=6.11899 8.43343
threshold=0.17155458407972421 7.3651515151515161
decision_type=2 2
left_child=-1 -2
right_child=1 -3
leaf_value=0.0014052395013113728 -0.00045220624492823272 0.04900457849006417
leaf_weight=2467 7294 95
leaf_count=2467 7294 95
internal_value=9.63782e-06 -0.000709743
internal_weight=9856 7389
internal_count=9856 7389
is_linear=0
shrinkage=0.05


Tree=157
num_leaves=3
num_cat=0
split_feature=32 38
split_gain=6.59812 10.418
threshold=1.1200035569783469 -0.033532483686761545
decision_type=2 2
left_child=1 -1
right_child=-2 -3
leaf_value=-0.0024569345445863535 -0.0004421461311290953 0.0022751189617160827
leaf_weight=573 6862 2421
leaf_count=573 6862 2421
internal_value=9.63782e-06 0.00196828
internal_weight=9856 2994
internal_count=9856 2994
is_linear=0
shrinkage=0.05


Tree=158
num_leaves=3
num_cat=0
split_feature=32 5
split_gain=6.30804 10.0457
threshold=1.1200035569783469 4.8650000000000011
decision_type=2 2
left_child=1 -1
right_child=-2 -3
leaf_value=0.00065084218730515619 -0.00042003882457264385 0.043513833187282108
leaf_weight=2837 6862 157
leaf_count=2837 6862 157
internal_value=1.97829e-05 0.00193489
internal_weight=9856 2994
internal_count=9856 2994
is_linear=0
shrinkage=0.05


Tree=159
num_leaves=3
num_cat=0
split_feature=28 6
split_gain=6.06238 8.69323
threshold=0.17155458407972421 12.65
decision_type=2 2
left_child=1 -1
right_child=-2 -3
leaf_value=0.00020286769643422799 -0.0004194313930159677 0.0063227668539693862
leaf_weight=1893 7389 574
leaf_count=1893 7389 574
internal_value=-6.03632e-05 0.00208468
internal_weight=9856 2467
internal_count=9856 2467
is_linear=0
shrinkage=0.05


Tree=160
num_leaves=3
num_cat=0
split_feature=23 26
split_gain=5.87711 10.2715
threshold=0.20279524944325936 4.8464144261088657
decision_type=2 2
left_child=-1 -2
right_child=1 -3
leaf_value=0.00054456994486306036 -0.0020792121925815588 0.0027353876154956437
leaf_weight=5514 3628 714
leaf_count=5514 3628 714
internal_value=-5.02181e-05 -0.00142643
internal_weight=9856 4342
internal_count=9856 4342
is_linear=0
shrinkage=0.05


Tree=161
num_leaves=3
num_cat=0
split_feature=1 5
split_gain=5.8663 9.22863
threshold=0.3086666666666667 3.9750000000000005
decision_type=2 2
left_child=-1 -2
right_child=1 -3
leaf_value=0.00053006644876536508 -0.041066468891365004 -0.00011282135554298024
leaf_weight=6023 822 3011
leaf_count=6023 822 3011
internal_value=2.9928e-05 -0.00149844
internal_weight=9856 3833
internal_count=9856 3833
is_linear=0
shrinkage=0.05


Tree=162
num_leaves=3
num_cat=0
split_feature=12 13
split_gain=5.89177 9.89153
threshold=3.1500000000000004 4.8166666666666673
decision_type=2 2
left_child=1 -1
right_child=-2 -3
leaf_value=-0.029061432675803012 5.1850292716137949e-05 -0.078052270233535809
leaf_weight=174 9632 50
leaf_count=174 9632 50
internal_value=1.97829e-05 -0.00797778
internal_weight=9856 224
internal_count=9856 224
is_linear=0
shrinkage=0.05


Tree=163
num_leaves=3
num_cat=0
split_feature=12 13
split_gain=5.89177 9.89153
threshold=3.1500000000000004 4.8166666666666673
decision_type=2 2
left_child=1 -1
right_child=-2 -3
leaf_value=-0.027608361042012853 4.9257778080324949e-05 -0.074149656721859011
leaf_weight=174 9632 50
leaf_count=174 9632 50
internal_value=1.97829e-05 -0.00797778
internal_weight=9856 224
internal_count=9856 224
is_linear=0
shrinkage=0.05


Tree=164
num_leaves=3
num_cat=0
split_feature=42 42
split_gain=5.60989 11.4199
threshold=0.63961038961038974 0.5634920634920636
decision_type=2 2
left_child=1 -1
right_child=-2 -3
leaf_value=-2.8057375597567716e-05 -0.0024171896114888905 0.0073591792174445341
leaf_weight=6907 2076 873
leaf_count=6907 2076 873
internal_value=0 0.000616245
internal_weight=9856 7780
internal_count=9856 7780
is_linear=0
shrinkage=0.05


Tree=165
num_leaves=3
num_cat=0
split_feature=12 13
split_gain=5.87679 9.89153
threshold=3.1500000000000004 4.8166666666666673
decision_type=2 2
left_child=1 -1
right_child=-2 -3
leaf_value=-0.026166811815235037 4.6261649495793482e-05 -0.070440771016986189
leaf_weight=174 9632 50
leaf_count=174 9632 50
internal_value=9.63782e-06 -0.00797778
internal_weight=9856 224
internal_count=9856 224
is_linear=0
shrinkage=0.05


Tree=166
num_leaves=3
num_cat=0
split_feature=12 31
split_gain=5.86184 8.2402
threshold=3.1500000000000004 0.063869780835066364
decision_type=2 2
left_child=1 -1
right_child=-2 -3
leaf_value=0.012437143316771494 4.394856702101269e-05 -0.03726763666395453
leaf_weight=96 9632 128
leaf_count=96 9632 128
internal_value=0 -0.00797778
internal_weight=9856 224
internal_count=9856 224
is_linear=0
shrinkage=0.05


Tree=167
num_leaves=3
num_cat=0
split_feature=12 13
split_gain=5.84698 9.89153
threshold=3.1500000000000004 4.8166666666666673
decision_type=2 2
left_child=1 -1
right_child=-2 -3
leaf_value=-0.02548032839031187 4.1751138669954284e-05 -0.065961867416156561
leaf_weight=174 9632 50
leaf_count=174 9632 50
internal_value=-9.63782e-06 -0.00797778
internal_weight=9856 224
internal_count=9856 224
is_linear=0
shrinkage=0.05


Tree=168
num_leaves=3
num_cat=0
split_feature=12 13
split_gain=5.84698 9.89153
threshold=3.1500000000000004 4.8166666666666673
decision_type=2 2
left_child=1 -1
right_child=-2 -3
leaf_value=-0.024206311970796281 3.9663581736459896e-05 -0.062663774045348744
leaf_weight=174 9632 50
leaf_count=174 9632 50
internal_value=-9.63782e-06 -0.00797778
internal_weight=9856 224
internal_count=9856 224
is_linear=0
shrinkage=0.05


Tree=169
num_leaves=3
num_cat=0
split_feature=12 13
split_gain=5.84698 9.89153
threshold=3.1500000000000004 4.8166666666666673
decision_type=2 2
left_child=1 -1
right_child=-2 -3
leaf_value=-0.022995996372256466 3.7680402649642454e-05 -0.059530585343081303
leaf_weight=174 9632 50
leaf_count=174 9632 50
internal_value=-9.63782e-06 -0.00797778
internal_weight=9856 224
internal_count=9856 224
is_linear=0
shrinkage=0.05


Tree=170
num_leaves=3
num_cat=0
split_feature=5 3
split_gain=5.47808 9.31552
threshold=3.0400000000000005 2.8550000000000004
decision_type=2 2
left_child=-1 -2
right_child=1 -3
leaf_value=0.027527558005058107 -0.04868886782068093 1.1435180909624699e-06
leaf_weight=58 60 9738
leaf_count=58 60 9738
internal_value=-1.97829e-05 -0.000111746
internal_weight=9856 9798
internal_count=9856 9798
is_linear=0
shrinkage=0.05


Tree=171
num_leaves=3
num_cat=0
split_feature=40 3
split_gain=5.4589 8.82634
threshold=0.34815458059672427 4.5550000000000006
decision_type=2 2
left_child=1 -1
right_child=-2 -3
leaf_value=0.0056733994450565151 -0.00016999786324807254 0.097444915778450408
leaf_weight=661 9115 80
leaf_count=661 9115 80
internal_value=-1.97829e-05 0.00410377
internal_weight=9856 741
internal_count=9856 741
is_linear=0
shrinkage=0.05


Tree=172
num_leaves=3
num_cat=0
split_feature=6 12
split_gain=5.58647 13.1505
threshold=4.1500000000000012 4.616666666666668
decision_type=2 2
left_child=1 -1
right_child=-2 -3
leaf_value=-0.0012388341916511171 -0.00014911700014696994 0.050915989167193247
leaf_weight=221 9494 141
leaf_count=221 9494 141
internal_value=-4.0073e-05 0.00604683
internal_weight=9856 362
internal_count=9856 362
is_linear=0
shrinkage=0.05


Tree=173
num_leaves=3
num_cat=0
split_feature=31 32
split_gain=5.39253 5.75042
threshold=0.14566995305164318 1.1200035569783469
decision_type=2 2
left_child=1 -1
right_child=-2 -3
leaf_value=0.00097484387618823609 0.046911332428093339 -0.00059752660718062069
leaf_weight=2968 99 6789
leaf_count=2968 99 6789
internal_value=-0.000100943 -0.00021982
internal_weight=9856 9757
internal_count=9856 9757
is_linear=0
shrinkage=0.05


Tree=174
num_leaves=3
num_cat=0
split_feature=12 0
split_gain=5.54353 7.2713
threshold=5.2166666666666677 0.32269047619047625
decision_type=2 2
left_child=-1 -2
right_child=1 -3
leaf_value=-0.0003385012427901124 0.001770441283519786 0.047593113183195125
leaf_weight=8498 1220 138
leaf_count=8498 1220 138
internal_value=-0.000171959 0.00279249
internal_weight=9856 1358
internal_count=9856 1358
is_linear=0
shrinkage=0.05


Tree=175
num_leaves=3
num_cat=0
split_feature=1 5
split_gain=6.1021 8.09142
threshold=0.30663068181818182 5.4200000000000008
decision_type=2 2
left_child=-1 -2
right_child=1 -3
leaf_value=0.00057397464939008553 -0.0012234699615857104 0.049018464022939773
leaf_weight=5303 4495 58
leaf_count=5303 4495 58
internal_value=-0.000182104 -0.00152503
internal_weight=9856 4553
internal_count=9856 4553
is_linear=0
shrinkage=0.05


Tree=176
num_leaves=3
num_cat=0
split_feature=8 29
split_gain=5.34853 9.4162
threshold=54.500000000000007 0.20811518324607328
decision_type=2 2
left_child=-1 -2
right_child=1 -3
leaf_value=-0.00077150658492545219 0.0035880125801874721 -0.00098062754762029414
leaf_weight=5682 2210 1964
leaf_count=5682 2210 1964
internal_value=-0.000161814 0.00119641
internal_weight=9856 4174
internal_count=9856 4174
is_linear=0
shrinkage=0.05


Tree=177
num_leaves=3
num_cat=0
split_feature=19 30
split_gain=5.80647 5.30369
threshold=5.1267363426655672 0.073334694426324162
decision_type=2 2
left_child=1 -1
right_child=-2 -3
leaf_value=0.00058563998872380736 0.039750950383889982 -0.0013112351077247065
leaf_weight=5179 111 4566
leaf_count=5179 111 4566
internal_value=-0.000202394 -0.000332957
internal_weight=9856 9745
internal_count=9856 9745
is_linear=0
shrinkage=0.05


Tree=178
num_leaves=3
num_cat=0
split_feature=1 10
split_gain=5.24401 8.11024
threshold=0.30663068181818182 1537.1500000000003
decision_type=2 2
left_child=1 -1
right_child=-2 -3
leaf_value=-5.8142910318315093e-05 -0.00099667608719009601 0.0053983576221493749
leaf_weight=4214 4553 1089
leaf_count=4214 4553 1089
internal_value=-0.000192249 0.000875754
internal_weight=9856 5303
internal_count=9856 5303
is_linear=0
shrinkage=0.05


Tree=179
num_leaves=3
num_cat=0
split_feature=20 3
split_gain=5.67689 16.9295
threshold=1.0519274158041967 4.4850000000000012
decision_type=2 2
left_child=1 -1
right_child=-2 -3
leaf_value=-0.0030437633801743361 0.00038892822264757765 0.00236930462716195
leaf_weight=3100 5672 1084
leaf_count=3100 5672 1084
internal_value=-0.000202394 -0.00159976
internal_weight=9856 4184
internal_count=9856 4184
is_linear=0
shrinkage=0.05


Tree=180
num_leaves=3
num_cat=0
split_feature=42 42
split_gain=5.55258 18.6446
threshold=0.55050505050505061 0.4494949494949495
decision_type=2 2
left_child=1 -1
right_child=-2 -3
leaf_value=-0.00041933646051619535 -0.0016581930800162459 0.0057952379026558146
leaf_weight=4627 3610 1619
leaf_count=4627 3610 1619
internal_value=-0.000182104 0.000719545
internal_weight=9856 6246
internal_count=9856 6246
is_linear=0
shrinkage=0.05


Tree=181
num_leaves=3
num_cat=0
split_feature=11 22
split_gain=5.48061 9.98664
threshold=1501.4500000000003 0.26273826299780295
decision_type=2 2
left_child=-1 -2
right_child=1 -3
leaf_value=0.00048647390111358215 -0.00076190768319013287 -0.052569322176090165
leaf_weight=4748 5015 93
leaf_count=4748 5015 93
internal_value=-0.000212539 -0.00134958
internal_weight=9856 5108
internal_count=9856 5108
is_linear=0
shrinkage=0.05


Tree=182
num_leaves=3
num_cat=0
split_feature=37 44
split_gain=5.14459 7.67565
threshold=0.3813510393014749 0.35000000000000003
decision_type=2 2
left_child=-1 -2
right_child=1 -3
leaf_value=-0.00014953518128761891 0.047791625696605583 -0.0012007776800638582
leaf_weight=9742 62 52
leaf_count=9742 62 52
internal_value=-0.000121234 0.0103913
internal_weight=9856 114
internal_count=9856 114
is_linear=0
shrinkage=0.05


Tree=183
num_leaves=3
num_cat=0
split_feature=42 42
split_gain=5.62223 11.5339
threshold=0.63961038961038974 0.5634920634920636
decision_type=2 2
left_child=1 -1
right_child=-2 -3
leaf_value=-0.0001191631152831274 -0.0023027345236716237 0.0074129264614045016
leaf_weight=6907 2076 873
leaf_count=6907 2076 873
internal_value=-0.000141524 0.000474875
internal_weight=9856 7780
internal_count=9856 7780
is_linear=0
shrinkage=0.05


Tree=184
num_leaves=3
num_cat=0
split_feature=12 34
split_gain=5.10134 8.76355
threshold=3.1500000000000004 50.850454545454554
decision_type=2 2
left_child=1 -1
right_child=-2 -3
leaf_value=0.015682037173060406 2.2917639087016717e-05 -0.027766037592869986
leaf_weight=92 9632 132
leaf_count=92 9632 132
internal_value=-9.07984e-05 -0.00753333
internal_weight=9856 224
internal_count=9856 224
is_linear=0
shrinkage=0.05


Tree=185
num_leaves=3
num_cat=0
split_feature=12 13
split_gain=5.10134 8.40217
threshold=3.1500000000000004 4.8166666666666673
decision_type=2 2
left_child=1 -1
right_child=-2 -3
leaf_value=-0.020250254091809305 2.1771757132671434e-05 -0.055960363524595616
leaf_weight=174 9632 50
leaf_count=174 9632 50
internal_value=-9.07984e-05 -0.00753333
internal_weight=9856 224
internal_count=9856 224
is_linear=0
shrinkage=0.05


Tree=186
num_leaves=3
num_cat=0
split_feature=42 42
split_gain=4.91418 18.639
threshold=0.55050505050505061 0.5634920634920636
decision_type=2 2
left_child=-1 -2
right_child=1 -3
leaf_value=0.00028591030424980347 -0.044404677165176133 8.8082623958962719e-05
leaf_weight=6246 661 2949
leaf_count=6246 661 2949
internal_value=-8.06533e-05 -0.00154943
internal_weight=9856 3610
internal_count=9856 3610
is_linear=0
shrinkage=0.05


Tree=187
num_leaves=3
num_cat=0
split_feature=38 30
split_gain=5.37928 7.29541
threshold=0.011766026183173102 0.053299492385786761
decision_type=2 2
left_child=1 -1
right_child=-2 -3
leaf_value=0.0041495305884448946 -0.00093397526893435057 6.8330849347875149e-06
leaf_weight=1377 3679 4800
leaf_count=1377 3679 4800
internal_value=6.03632e-05 0.000962286
internal_weight=9856 6177
internal_count=9856 6177
is_linear=0
shrinkage=0.05


Tree=188
num_leaves=3
num_cat=0
split_feature=42 42
split_gain=5.42676 9.56142
threshold=0.63961038961038974 0.5634920634920636
decision_type=2 2
left_child=1 -1
right_child=-2 -3
leaf_value=-1.31983306772554e-07 -0.002168915531120863 0.0070823403007720612
leaf_weight=6907 2076 873
leaf_count=6907 2076 873
internal_value=9.63782e-06 0.000616245
internal_weight=9856 7780
internal_count=9856 7780
is_linear=0
shrinkage=0.05


Tree=189
num_leaves=3
num_cat=0
split_feature=32 38
split_gain=5.56975 9.25246
threshold=1.0199206349206353 -0.028129801311672996
decision_type=2 2
left_child=1 -1
right_child=-2 -3
leaf_value=-0.0019037911841731871 -0.00036015755787324191 0.0030373693898945622
leaf_weight=609 7288 1959
leaf_count=609 7288 1959
internal_value=1.97829e-05 0.00202219
internal_weight=9856 2568
internal_count=9856 2568
is_linear=0
shrinkage=0.05


Tree=190
num_leaves=3
num_cat=0
split_feature=11 33
split_gain=5.07446 9.80846
threshold=1501.4500000000003 0.60787211740041946
decision_type=2 2
left_child=1 -1
right_child=-2 -3
leaf_value=0.046598612201337319 -0.0010058324679918186 0.00029778136462002005
leaf_weight=207 5108 4541
leaf_count=207 5108 4541
internal_value=-4.0073e-05 0.00113603
internal_weight=9856 4748
internal_count=9856 4748
is_linear=0
shrinkage=0.05


Tree=191
num_leaves=3
num_cat=0
split_feature=10 20
split_gain=5.04593 11.1138
threshold=1529.7500000000002 1.0401161131670063
decision_type=2 2
left_child=1 -1
right_child=-2 -3
leaf_value=-0.0026400359751291625 0.0015648062490516979 0.00021202923895444759
leaf_weight=2049 2584 5223
leaf_count=2049 2584 5223
internal_value=-8.06533e-05 -0.000755534
internal_weight=9856 7272
internal_count=9856 7272
is_linear=0
shrinkage=0.05


Tree=192
num_leaves=3
num_cat=0
split_feature=42 12
split_gain=5.3663 9.48609
threshold=0.63961038961038974 4.4833333333333343
decision_type=2 2
left_child=-1 -2
right_child=1 -3
leaf_value=0.00025100907214121727 -0.035095148427706425 0.00098752467286435954
leaf_weight=7780 1149 927
leaf_count=7780 1149 927
internal_value=-5.02181e-05 -0.00230862
internal_weight=9856 2076
internal_count=9856 2076
is_linear=0
shrinkage=0.05


Tree=193
num_leaves=3
num_cat=0
split_feature=11 33
split_gain=5.87857 10.8417
threshold=1496.2500000000002 0.60787211740041946
decision_type=2 2
left_child=1 -1
right_child=-2 -3
leaf_value=0.046015077736167156 -0.0006402751402497576 0.00040886448980554936
leaf_weight=186 5623 4047
leaf_count=186 5623 4047
internal_value=0.000161814 0.00156944
internal_weight=9856 4233
internal_count=9856 4233
is_linear=0
shrinkage=0.05


Tree=194
num_leaves=3
num_cat=0
split_feature=5 39
split_gain=5.49718 14.0647
threshold=3.9750000000000005 0.37416854115144166
decision_type=2 2
left_child=1 -1
right_child=-2 -3
leaf_value=-0.040571274404160952 0.0002885741646154738 6.0985792347123541e-05
leaf_weight=421 8022 1413
leaf_count=421 8022 1413
internal_value=0.000182104 -0.0022861
internal_weight=9856 1834
internal_count=9856 1834
is_linear=0
shrinkage=0.05


Tree=195
num_leaves=3
num_cat=0
split_feature=42 42
split_gain=5.30856 12.8841
threshold=0.2264957264957265 0.20714285714285713
decision_type=2 2
left_child=1 -1
right_child=-2 -3
leaf_value=0.00010012243668193755 0.00030454628200331517 -0.043406599606873188
leaf_weight=1089 8398 369
leaf_count=1089 8398 369
internal_value=0.000182104 -0.0026011
internal_weight=9856 1458
internal_count=9856 1458
is_linear=0
shrinkage=0.05


Tree=196
num_leaves=3
num_cat=0
split_feature=11 9
split_gain=5.40804 10.2539
threshold=1496.2500000000002 58.500000000000007
decision_type=2 2
left_child=1 -1
right_child=-2 -3
leaf_value=0.0019530499391375413 -0.00055740790521929817 -0.0016909596230167746
leaf_weight=3453 5623 780
leaf_count=3453 5623 780
internal_value=0.000242975 0.00159306
internal_weight=9856 4233
internal_count=9856 4233
is_linear=0
shrinkage=0.05


Tree=197
num_leaves=3
num_cat=0
split_feature=4 42
split_gain=5.30346 8.53181
threshold=4.5450000000000008 0.5634920634920636
decision_type=2 2
left_child=-1 -2
right_child=1 -3
leaf_value=-0.00019956918814334479 0.0001112548689235382 0.0074408756984936548
leaf_weight=7719 1468 669
leaf_count=7719 1468 669
internal_value=0.000202394 0.00240645
internal_weight=9856 2137
internal_count=9856 2137
is_linear=0
shrinkage=0.05


Tree=198
num_leaves=3
num_cat=0
split_feature=5 39
split_gain=5.21307 11.1023
threshold=3.9750000000000005 0.37416854115144166
decision_type=2 2
left_child=1 -1
right_child=-2 -3
leaf_value=-0.038520089143384964 0.00030388946530455211 -2.1389127153703671e-05
leaf_weight=421 8022 1413
leaf_count=421 8022 1413
internal_value=0.000171959 -0.00223161
internal_weight=9856 1834
internal_count=9856 1834
is_linear=0
shrinkage=0.05


Tree=199
num_leaves=3
num_cat=0
split_feature=0 37
split_gain=5.12108 12.3815
threshold=0.28988194444444443 0.052674138460455606
decision_type=2 2
left_child=1 -1
right_child=-2 -3
leaf_value=-0.035038006179840389 0.00026359717623045679 0.0054730782810899605
leaf_weight=711 8785 360
leaf_count=711 8785 360
internal_value=0.000141524 -0.00312034
internal_weight=9856 1071
internal_count=9856 1071
is_linear=0
shrinkage=0.05


Tree=200
num_leaves=3
num_cat=0
split_feature=41 41
split_gain=6.51587 7.74559
threshold=0.17424242424242423 0.55050505050505061
decision_type=2 2
left_child=-1 -2
right_child=1 -3
leaf_value=0.0050660908238931547 -0.00083029006331094559 0.0010307929923288883
leaf_weight=762 5439 3655
leaf_count=762 5439 3655
internal_value=0.00027341 -9.84057e-05
internal_weight=9856 9094
internal_count=9856 9094
is_linear=0
shrinkage=0.05


Tree=201
num_leaves=3
num_cat=0
split_feature=4 34
split_gain=4.69543 8.38645
threshold=4.5450000000000008 66.678750000000022
decision_type=2 2
left_child=1 -1
right_child=-2 -3
leaf_value=-0.00024536839121771516 0.0015467792751464593 0.045762817865207889
leaf_weight=7635 2137 84
leaf_count=7635 2137 84
internal_value=0.000192249 -0.000381477
internal_weight=9856 7719
internal_count=9856 7719
is_linear=0
shrinkage=0.05


Tree=202
num_leaves=3
num_cat=0
split_feature=40 10
split_gain=5.02216 9.43715
threshold=0.33409045205925431 1525.3500000000001
decision_type=2 2
left_child=1 -1
right_child=-2 -3
leaf_value=0.00021842232212825332 -3.2989237246350277e-05 0.094552985273707091
leaf_weight=219 9544 93
leaf_count=219 9544 93
internal_value=0.000141524 0.0063738
internal_weight=9856 312
internal_count=9856 312
is_linear=0
shrinkage=0.05


Tree=203
num_leaves=3
num_cat=0
split_feature=18 7
split_gain=4.88301 10.5226
threshold=4.058484740311191 23.050000000000004
decision_type=2 2
left_child=-1 -2
right_child=1 -3
leaf_value=-0.00014392730553671739 0.0013820173116806944 0.055510177254272701
leaf_weight=8116 1672 68
leaf_count=8116 1672 68
internal_value=0.000121234 0.00252441
internal_weight=9856 1740
internal_count=9856 1740
is_linear=0
shrinkage=0.05


Tree=204
num_leaves=3
num_cat=0
split_feature=12 37
split_gain=4.97157 8.76018
threshold=5.2500000000000009 0.014032338994361352
decision_type=2 2
left_child=-1 -2
right_child=1 -3
leaf_value=-0.00012817956263626586 -0.0015971243387784774 0.037872888051127519
leaf_weight=8581 534 741
leaf_count=8581 534 741
internal_value=0.000100943 0.00301332
internal_weight=9856 1275
internal_count=9856 1275
is_linear=0
shrinkage=0.05


Tree=205
num_leaves=3
num_cat=0
split_feature=3 0
split_gain=5.11874 8.72025
threshold=3.6450000000000005 0.2960416666666667
decision_type=2 2
left_child=1 -1
right_child=-2 -3
leaf_value=-0.045041020751376004 0.00018413796720477828 -0.0010103608421649036
leaf_weight=206 8789 861
leaf_count=206 8789 861
internal_value=-5.02181e-05 -0.00331929
internal_weight=9856 1067
internal_count=9856 1067
is_linear=0
shrinkage=0.05


Tree=206
num_leaves=3
num_cat=0
split_feature=20 3
split_gain=5.04273 13.4182
threshold=1.0519274158041967 4.4650000000000007
decision_type=2 2
left_child=1 -1
right_child=-2 -3
leaf_value=-0.0029405504446614384 0.00065028855509177144 0.0023879570762686433
leaf_weight=3075 5672 1109
leaf_count=3075 5672 1109
internal_value=-1.97829e-05 -0.00133692
internal_weight=9856 4184
internal_count=9856 4184
is_linear=0
shrinkage=0.05


Tree=207
num_leaves=3
num_cat=0
split_feature=8 29
split_gain=5.3392 10.1
threshold=54.500000000000007 0.20811518324607328
decision_type=2 2
left_child=-1 -2
right_child=1 -3
leaf_value=-0.00054734690740942948 0.0038309034347089434 -0.0007275768829080099
leaf_weight=5682 2210 1964
leaf_count=5682 2210 1964
internal_value=2.9928e-05 0.00138802
internal_weight=9856 4174
internal_count=9856 4174
is_linear=0
shrinkage=0.05


Tree=208
num_leaves=3
num_cat=0
split_feature=11 0
split_gain=5.18495 8.23795
threshold=1477.4500000000003 0.31147727272727282
decision_type=2 2
left_child=-1 -2
right_child=1 -3
leaf_value=0.0014621436497699093 -0.0013952544080073404 0.0016900330229320248
leaf_weight=2807 4868 2181
leaf_count=2807 4868 2181
internal_value=-1.97829e-05 -0.000743972
internal_weight=9856 7049
internal_count=9856 7049
is_linear=0
shrinkage=0.05


Tree=209
num_leaves=3
num_cat=0
split_feature=41 20
split_gain=4.92047 10.1656
threshold=0.55050505050505061 1.2047854461020018
decision_type=2 2
left_child=-1 -2
right_child=1 -3
leaf_value=-0.00049072919353485565 0.0002682638698726092 0.027507736371057703
leaf_weight=6201 3264 391
leaf_count=6201 3264 391
internal_value=-1.97829e-05 0.00143463
internal_weight=9856 3655
internal_count=9856 3655
is_linear=0
shrinkage=0.05


Tree=210
num_leaves=3
num_cat=0
split_feature=22 18
split_gain=5.29675 9.22487
threshold=0.18609000152247021 3.6305191796470342
decision_type=2 2
left_child=1 -1
right_child=-2 -3
leaf_value=-0.0098623047384323488 0.00043565561358658303 0.00067360547531828416
leaf_weight=1416 6678 1762
leaf_count=1416 6678 1762
internal_value=-0.000111089 -0.00179144
internal_weight=9856 3178
internal_count=9856 3178
is_linear=0
shrinkage=0.05


Tree=211
num_leaves=3
num_cat=0
split_feature=40 10
split_gain=4.75559 8.40661
threshold=0.33409045205925431 1525.3500000000001
decision_type=2 2
left_child=1 -1
right_child=-2 -3
leaf_value=7.0240100939855668e-05 -8.5617942590410229e-05 0.08965595597447798
leaf_weight=219 9544 93
leaf_count=219 9544 93
internal_value=-9.63782e-06 0.00605431
internal_weight=9856 312
internal_count=9856 312
is_linear=0
shrinkage=0.05


Tree=212
num_leaves=3
num_cat=0
split_feature=23 12
split_gain=6.00419 9.367
threshold=0.20279524944325936 3.6166666666666667
decision_type=2 2
left_child=-1 -2
right_child=1 -3
leaf_value=0.00073656355726841043 -0.037328794916472299 -0.00026120963346285556
leaf_weight=5514 472 3870
leaf_count=5514 472 3870
internal_value=9.63782e-06 -0.00138038
internal_weight=9856 4342
internal_count=9856 4342
is_linear=0
shrinkage=0.05


Tree=213
num_leaves=3
num_cat=0
split_feature=23 7
split_gain=4.77076 9.20988
threshold=0.20279524944325936 5.5500000000000007
decision_type=2 2
left_child=-1 -2
right_child=1 -3
leaf_value=0.0006997353794049977 0.044098113389873773 -0.0012249175379649647
leaf_weight=5514 129 4213
leaf_count=5514 129 4213
internal_value=1.97829e-05 -0.0012192
internal_weight=9856 4342
internal_count=9856 4342
is_linear=0
shrinkage=0.05


Tree=214
num_leaves=3
num_cat=0
split_feature=1 30
split_gain=5.10346 7.77077
threshold=0.30663068181818182 0.080323622779827061
decision_type=2 2
left_child=1 -1
right_child=-2 -3
leaf_value=0.0019830207998128291 -0.00083226739444746127 -0.00099410989364885345
leaf_weight=3315 4553 1988
leaf_count=3315 4553 1988
internal_value=9.63782e-06 0.00106429
internal_weight=9856 5303
internal_count=9856 5303
is_linear=0
shrinkage=0.05


Tree=215
num_leaves=3
num_cat=0
split_feature=11 10
split_gain=5.54896 9.2632
threshold=1501.4500000000003 1396.2500000000002
decision_type=2 2
left_child=-1 -2
right_child=1 -3
leaf_value=0.00076699148447161307 -0.050255446538847462 -0.0007322652121317442
leaf_weight=4748 74 5034
leaf_count=4748 74 5034
internal_value=-9.63782e-06 -0.00115385
internal_weight=9856 5108
internal_count=9856 5108
is_linear=0
shrinkage=0.05


Tree=216
num_leaves=3
num_cat=0
split_feature=11 11
split_gain=4.79613 8.43902
threshold=1501.4500000000003 1506.1500000000003
decision_type=2 2
left_child=-1 -2
right_child=1 -3
leaf_value=0.00072864191024804017 -0.041088563162194627 -0.00035366686498674584
leaf_weight=4748 447 4661
leaf_count=4748 447 4661
internal_value=-7.05083e-05 -0.00113427
internal_weight=9856 5108
internal_count=9856 5108
is_linear=0
shrinkage=0.05


Tree=217
num_leaves=3
num_cat=0
split_feature=37 37
split_gain=4.52979 9.8617
threshold=-0.17501527327941477 -0.16569605527882966
decision_type=2 2
left_child=-1 -2
right_child=1 -3
leaf_value=-0.0022966485805600012 0.049697404294778827 0.00016804077655818705
leaf_weight=1328 117 8411
leaf_count=1328 117 8411
internal_value=9.63782e-06 0.000433228
internal_weight=9856 8528
internal_count=9856 8528
is_linear=0
shrinkage=0.05


Tree=218
num_leaves=3
num_cat=0
split_feature=42 42
split_gain=4.88181 12.1014
threshold=0.2264957264957265 0.27922077922077926
decision_type=2 2
left_child=-1 -2
right_child=1 -3
leaf_value=-0.0022474388580607796 0.044209036924093996 5.8292091063616436e-05
leaf_weight=1458 318 8080
leaf_count=1458 318 8080
internal_value=0 0.000463746
internal_weight=9856 8398
internal_count=9856 8398
is_linear=0
shrinkage=0.05


Tree=219
num_leaves=3
num_cat=0
split_feature=11 20
split_gain=5.23541 7.81159
threshold=1592.6000000000001 1.0711973582666505
decision_type=2 2
left_child=-1 -2
right_child=1 -3
leaf_value=8.8529196083353417e-05 -0.071482296891352978 0.00084099436422202523
leaf_weight=9684 83 89
leaf_count=9684 83 89
internal_value=-1.97829e-05 -0.00864162
internal_weight=9856 172
internal_count=9856 172
is_linear=0
shrinkage=0.05


Tree=220
num_leaves=3
num_cat=0
split_feature=32 1
split_gain=4.92079 8.73207
threshold=1.1200035569783469 0.30677777777777782
decision_type=2 2
left_child=-1 -2
right_child=1 -3
leaf_value=0.0011749190378142595 0.00051258433970442503 -0.0025850413927505315
leaf_weight=2994 4251 2611
leaf_count=2994 4251 2611
internal_value=9.63782e-06 -0.000727816
internal_weight=9856 6862
internal_count=9856 6862
is_linear=0
shrinkage=0.05


Tree=221
num_leaves=3
num_cat=0
split_feature=22 39
split_gain=4.78181 8.83559
threshold=0.25960524651000999 0.38500342639527541
decision_type=2 2
left_child=-1 -2
right_child=1 -3
leaf_value=0.00010634386547679897 -0.057625231315306551 -0.00057692194173677438
leaf_weight=9640 61 155
leaf_count=9640 61 155
internal_value=-9.63782e-06 -0.00735023
internal_weight=9856 216
internal_count=9856 216
is_linear=0
shrinkage=0.05


Tree=222
num_leaves=3
num_cat=0
split_feature=28 41
split_gain=4.7153 7.13941
threshold=0.17278449337850324 0.83974358974358987
decision_type=2 2
left_child=-1 -2
right_child=1 -3
leaf_value=0.0015543629994307362 -0.00058437455871982456 0.022722866211867299
leaf_weight=2544 7085 227
leaf_count=2544 7085 227
internal_value=2.9928e-05 -0.000614659
internal_weight=9856 7312
internal_count=9856 7312
is_linear=0
shrinkage=0.05


Tree=223
num_leaves=3
num_cat=0
split_feature=10 14
split_gain=4.83991 9.21888
threshold=1457.6500000000003 4.7166666666666677
decision_type=2 2
left_child=1 -1
right_child=-2 -3
leaf_value=-0.037291536812316242 0.00032074289552981307 -0.00031322474255712773
leaf_weight=398 8022 1436
leaf_count=398 8022 1436
internal_value=2.9928e-05 -0.0022861
internal_weight=9856 1834
internal_count=9856 1834
is_linear=0
shrinkage=0.05


Tree=224
num_leaves=3
num_cat=0
split_feature=5 39
split_gain=4.74 11.315
threshold=3.9750000000000005 0.37369172977062398
decision_type=2 2
left_child=1 -1
right_child=-2 -3
leaf_value=-0.035504042000937555 0.00034118351204673883 -3.0211172674410316e-05
leaf_weight=415 8022 1419
leaf_count=415 8022 1419
internal_value=6.03632e-05 -0.00223161
internal_weight=9856 1834
internal_count=9856 1834
is_linear=0
shrinkage=0.05


Tree=225
num_leaves=3
num_cat=0
split_feature=11 23
split_gain=4.8702 10.0702
threshold=1518.7500000000002 0.20010463148257726
decision_type=2 2
left_child=-1 -2
right_child=1 -3
leaf_value=0.00063374277917896968 0.0023987098776117933 -0.012415015531406693
leaf_weight=6484 1121 2251
leaf_count=6484 1121 2251
internal_value=2.9928e-05 -0.00151052
internal_weight=9856 3372
