tree
version=v4
num_class=1
num_tree_per_iteration=1
label_index=0
max_feature_idx=48
objective=regression_l1
feature_names=home_proj_lineup_woba away_proj_lineup_woba home_proj_sp_fip away_proj_sp_fip home_proj_sp_sc_era away_proj_sp_sc_era home_proj_sp_k_bb away_proj_sp_k_bb home_proj_sp_sust away_proj_sp_sust home_elo away_elo home_rs_t30 away_rs_t30 home_ra_t30 away_ra_t30 home_pyth_t30 away_pyth_t30 home_team_era_t30 away_team_era_t30 home_team_whip_t30 away_team_whip_t30 home_team_k_pct_t14 away_team_k_pct_t14 home_era_sp10 away_era_sp10 home_fip_sp10 away_fip_sp10 home_k_pct_sp10 away_k_pct_sp10 home_bb_pct_sp10 away_bb_pct_sp10 home_ip_per_start_sp10 away_ip_per_start_sp10 home_sp_rgs away_sp_rgs diff_bp_era_bp35 diff_bp_whip_bp35 diff_bp_k_pct_bp35 home_lineup_slg away_lineup_slg home_platoon_adv away_platoon_adv home_venue_wpct away_venue_wpct game_temperature ball_flight_index park_factor_runs park_factor_hr
feature_infos=[0.27014285714285707:0.34462500000000001] [0.25900000000000001:0.34300000000000003] [2.3300000000000001:5.2300000000000004] [2.3300000000000001:5.2300000000000004] [2.5699999999999998:6] [2.5699999999999998:6] [-18.800000000000001:50] [-18.800000000000001:39.5] [50:63] [50:63] [1345.0999999999999:1651.3] [1342.8:1648.5999999999999] [2.2333333333333334:7.0666666666666664] [2.0666666666666669:7.2333333333333334] [2.5:7.9333333333333336] [2.3999999999999999:7.7333333333333334] [0.16579683812095439:0.806397741333722] [0.1499603388320476:0.83231277163916573] [1.7413680781753853:5.9384164222856501] [1.7196378395249621:5.8991596638636876] [0.77661999348723576:1.4955588452992801] [0.76583113456441643:1.4757352941171591] [0.10997067448678741:0.29999999999994642] [0.097488921713427198:0.31238779174141612] [0.19444444444444459:12.116666666666667] [0.53333333333333388:11.866666666666664] [0.67459016393442628:8.4000000000000004] [0.7114035087719297:8.3699999999999992] [0.048979591836734698:0.490566037735849] [0.041200000000000001:0.45887445887445888] [0:0.2666] [0:0.29081632653061218] [0.3686067019400352:8.2222222222222232] [0.38802083333333331:9] [32.271875000000009:73.437500000000014] [32.459793814432992:73.658088235294116] [-3.2884566380684257:3.1504801965438429] [-0.63748670840257682:0.61745615943571597] [-0.1405162337848927:0.135060493602225] [0.27503511663083169:0.55510386907596909] [0.27803886956064372:0.56911634943443501] [0:1] [0:1] [0.066666666666666596:0.8666666666666667] [0.066666666666666596:0.80000000000000004] [32:109] [1:10] [0.90000000000000002:1.1699999999999999] [0.77000000000000002:1.2]
tree_sizes=355 367 384 384 367 386 367 367 367 383 389 404 402 422 430 426 424 427 431 425 423 426 425 430 423 427 427 426 428 424 424 427 424 424 424 424 425 423 424 423 423 424 424 422 425 424 423 425 427 425 425 424 428 428 429 426 429 424 426 426 414 413 426 429 428 428 428 426 428 426 429 427 428 428 425 426 426 428 429 425 429 429 427 419 426 427 426 422 427 425 423 421 415 417 421 427 420 425 429 426 421 422 429 426 431 422 422 420 428 431 417 430 427 427 431 427 426 428 426 426 427 427 424 420 424 416 429 429 421 421 422 430 429 424 431 424 428 430 426 431 431 427 429 426 428 423 431 432 421 423 426 429 427 428 424 428 426 428 420 427 428 422 423 426 424 423 428 429 426 428 427 423 426 431 429 421 427 422 422 426 423 423 428 425 429 427 428 422 430 423 421 429 425 426 428 422 428 428 423 430 419 425 431 422 426 430 423 428 428 427 422 422 427 420 414 429 427 428 430 423 417 411 419 414 428 428 431 431 423 427 425 424 429 420 411 430 426 413 423 430 421 425 418 427 419 425 428 426 432 421 424 427 420 420 425 422 428 425 420 425 430 426 430 419 423 426 422 429 431 428 431 413 422 429 431 428 426 428 430 420 429 428 421 424 421 423 427 427 425 432 428 431 430 428 430 428 428 425 430 421 430 426 426 425 430 425 425 429 425 418 427 426 420 419 419 425 417 423 424 422 421 411 425 427 431 420 434 426 430 423 424 424 423 428 427 430 426 427 421 426 431 425 422 425 427 423 416 431 422 427 419 427 427 425 423 426 429 429 430 427 428 429 431 427 434 429 433 429 423 426 419 426 425 430 426 425 419 426 426 430 431 423 429 425 424 422 425 429 426 431 418 426 431 421 426 420 431 425 426 431 431 424 419 427 422 408 427 428 422 429 424 426 427 417 427 427 427 424 427 427 425 427 429 417 430 423 428 426 428 427 428 431 428 420 425 431 428 427 424 426 422 421 421 422 429 421 430 428 429 431 413 410 431 428 428 427 428 420 430 429 428 426 429 417 427 426 426 427 421 430 414 427 428 429 430 425 430 434 425 428 419 424 424 422 430 419 429 427 420 430 428 424 429 421 423 423 425 423 427 428

Tree=0
num_leaves=3
num_cat=0
split_feature=11 29
split_gain=65.2599 27.1125
threshold=1477.4500000000003 0.20757502763666708
decision_type=2 2
left_child=-1 -2
right_child=1 -3
leaf_value=4 4 4
leaf_weight=2807 3254 3795
leaf_count=2807 3254 3795
internal_value=3.9998 3.99723
internal_weight=9856 7049
internal_count=9856 7049
is_linear=0
shrinkage=1


Tree=1
num_leaves=3
num_cat=0
split_feature=11 45
split_gain=65.2599 24.7991
threshold=1477.4500000000003 81.500000000000014
decision_type=2 2
left_child=-1 -2
right_child=1 -3
leaf_value=0 0 0
leaf_weight=2807 5610 1439
leaf_count=2807 5610 1439
internal_value=-0.000197322 -0.00276525
internal_weight=9856 7049
internal_count=9856 7049
is_linear=0
shrinkage=0.05


Tree=2
num_leaves=3
num_cat=0
split_feature=29 39
split_gain=48.2613 30.9549
threshold=0.20811518324607328 0.46120190922890292
decision_type=2 2
left_child=1 -1
right_child=-2 -3
leaf_value=0 0 0.050000000000000003
leaf_weight=4927 4554 375
leaf_count=4927 4554 375
internal_value=-0.000197322 0.0030445
internal_weight=9856 5302
internal_count=9856 5302
is_linear=0
shrinkage=0.05


Tree=3
num_leaves=3
num_cat=0
split_feature=29 47
split_gain=42.2377 22.1057
threshold=0.20811518324607328 1.0350000000000004
decision_type=2 2
left_child=1 -1
right_child=-2 -3
leaf_value=0 0 0.050000000000000003
leaf_weight=4424 4554 878
leaf_count=4424 4554 878
internal_value=-0.000440803 0.00259193
internal_weight=9856 5302
internal_count=9856 5302
is_linear=0
shrinkage=0.05


Tree=4
num_leaves=3
num_cat=0
split_feature=11 12
split_gain=62.4142 20.4099
threshold=1477.4500000000003 4.9166666666666679
decision_type=2 2
left_child=-1 -2
right_child=1 -3
leaf_value=0 0 0
leaf_weight=2807 5428 1621
leaf_count=2807 5428 1621
internal_value=-0.000963275 -0.00347447
internal_weight=9856 7049
internal_count=9856 7049
is_linear=0
shrinkage=0.05


Tree=5
num_leaves=3
num_cat=0
split_feature=11 29
split_gain=62.4142 20.1977
threshold=1477.4500000000003 0.28016402790822492
decision_type=2 2
left_child=-1 -2
right_child=1 -3
leaf_value=0 0 -0.050000000000000003
leaf_weight=2807 6193 856
leaf_count=2807 6193 856
internal_value=-0.000963275 -0.00347447
internal_weight=9856 7049
internal_count=9856 7049
is_linear=0
shrinkage=0.05


Tree=6
num_leaves=3
num_cat=0
split_feature=11 45
split_gain=54.3553 20.7098
threshold=1477.4500000000003 81.500000000000014
decision_type=2 2
left_child=-1 -2
right_child=1 -3
leaf_value=0 0 0
leaf_weight=2807 5610 1439
leaf_count=2807 5610 1439
internal_value=-0.000542254 -0.00288582
internal_weight=9856 7049
internal_count=9856 7049
is_linear=0
shrinkage=0.05


Tree=7
num_leaves=3
num_cat=0
split_feature=11 12
split_gain=54.3553 20.3852
threshold=1477.4500000000003 4.9166666666666679
decision_type=2 2
left_child=-1 -2
right_child=1 -3
leaf_value=0 0 0
leaf_weight=2807 5428 1621
leaf_count=2807 5428 1621
internal_value=-0.000542254 -0.00288582
internal_weight=9856 7049
internal_count=9856 7049
is_linear=0
shrinkage=0.05


Tree=8
num_leaves=3
num_cat=0
split_feature=11 45
split_gain=54.3553 20.7098
threshold=1477.4500000000003 81.500000000000014
decision_type=2 2
left_child=-1 -2
right_child=1 -3
leaf_value=0 0 0
leaf_weight=2807 5610 1439
leaf_count=2807 5610 1439
internal_value=-0.000542254 -0.00288582
internal_weight=9856 7049
internal_count=9856 7049
is_linear=0
shrinkage=0.05


Tree=9
num_leaves=3
num_cat=0
split_feature=15 23
split_gain=33.9244 22.7036
threshold=4.116666666666668 0.15673447154382145
decision_type=2 2
left_child=-1 -2
right_child=1 -3
leaf_value=0 0.050000000000000003 0
leaf_weight=3403 537 5916
leaf_count=3403 537 5916
internal_value=-0.000542254 0.00158739
internal_weight=9856 6453
internal_count=9856 6453
is_linear=0
shrinkage=0.05


Tree=10
num_leaves=3
num_cat=0
split_feature=11 12
split_gain=44.7094 20.9863
threshold=1496.6500000000003 4.9166666666666679
decision_type=2 2
left_child=-1 -2
right_child=1 -3
leaf_value=0 -0.0024999999999999914 0
leaf_weight=4271 4298 1287
leaf_count=4271 4298 1287
internal_value=-0.000831389 -0.00377641
internal_weight=9856 5585
internal_count=9856 5585
is_linear=0
shrinkage=0.05


Tree=11
num_leaves=3
num_cat=0
split_feature=5 45
split_gain=28.8898 19.5099
threshold=3.9750000000000005 81.500000000000014
decision_type=2 2
left_child=1 -1
right_child=-2 -3
leaf_value=-0.049875000000000003 0 0.00012499999999999735
leaf_weight=1470 8022 364
leaf_count=1470 8022 364
internal_value=0.00146546 -0.00419346
internal_weight=9856 1834
internal_count=9856 1834
is_linear=0
shrinkage=0.05


Tree=12
num_leaves=3
num_cat=0
split_feature=5 39
split_gain=20.5452 16.7749
threshold=3.9750000000000005 0.47451032197141996
decision_type=2 2
left_child=-1 -2
right_child=1 -3
leaf_value=-0.044881250000000011 0 0.050000000000000003
leaf_weight=1834 7688 334
leaf_count=1834 7688 334
internal_value=0.00166836 0.00276019
internal_weight=9856 8022
internal_count=9856 8022
is_linear=0
shrinkage=0.05


Tree=13
num_leaves=3
num_cat=0
split_feature=29 12
split_gain=20.2353 16.8153
threshold=0.2927810434492662 3.1500000000000004
decision_type=2 2
left_child=1 -1
right_child=-2 -3
leaf_value=-0.049875000000000003 -0.045199687500000009 0.00012499999999999735
leaf_weight=214 670 8972
leaf_count=214 670 8972
internal_value=0.00183068 0.00244313
internal_weight=9856 9186
internal_count=9856 9186
is_linear=0
shrinkage=0.05


Tree=14
num_leaves=3
num_cat=0
split_feature=45 10
split_gain=27.3457 18.7049
threshold=81.500000000000014 1469.9500000000003
decision_type=2 2
left_child=1 -1
right_child=-2 -3
leaf_value=-0.042885320312500003 0.0023565624999999815 -6.2499999999854339e-06
leaf_weight=1750 2000 6106
leaf_count=1750 2000 6106
internal_value=-0.000222684 -0.00155212
internal_weight=9856 7856
internal_count=9856 7856
is_linear=0
shrinkage=0.05


Tree=15
num_leaves=3
num_cat=0
split_feature=45 20
split_gain=22.1842 16.7621
threshold=68.500000000000014 0.88212218142319576
decision_type=2 2
left_child=-1 -2
right_child=1 -3
leaf_value=-5.9374999999750603e-06 0.050059992187499992 0.00011906250000000008
leaf_weight=2721 122 7013
leaf_count=2721 122 7013
internal_value=0.000516892 0.0019822
internal_weight=9856 7135
internal_count=9856 7135
is_linear=0
shrinkage=0.05


Tree=16
num_leaves=3
num_cat=0
split_feature=11 39
split_gain=22.7268 20.0587
threshold=1423.2500000000002 0.47232395798280918
decision_type=2 2
left_child=-1 -2
right_child=1 -3
leaf_value=0.049812156250000045 -5.6406249999696456e-06 0.046243015820312518
leaf_weight=512 8930 414
leaf_count=512 8930 414
internal_value=-0.00031399 -0.00087694
internal_weight=9856 9344
internal_count=9856 9344
is_linear=0
shrinkage=0.05


Tree=17
num_leaves=3
num_cat=0
split_feature=11 45
split_gain=17.9894 12.4527
threshold=1464.1500000000003 68.500000000000014
decision_type=2 2
left_child=-1 -2
right_child=1 -3
leaf_value=0.04267595858398443 -0.04037631171875003 -4.7492187499997847e-06
leaf_weight=2110 2182 5564
leaf_count=2110 2182 5564
internal_value=-0.000445876 -0.00156125
internal_weight=9856 7746
internal_count=9856 7746
is_linear=0
shrinkage=0.05


Tree=18
num_leaves=3
num_cat=0
split_feature=39 30
split_gain=16.2593 12.9815
threshold=0.47232395798280918 0.073334694426324162
decision_type=2 2
left_child=1 -1
right_child=-2 -3
leaf_value=0.00011362886718748744 0.043871592412353548 -0.00012951175781248381
leaf_weight=4961 456 4439
leaf_count=4961 456 4439
internal_value=-2.9928e-05 -0.000478141
internal_weight=9856 9400
internal_count=9856 9400
is_linear=0
shrinkage=0.05


Tree=19
num_leaves=3
num_cat=0
split_feature=29 39
split_gain=15.4447 14.9323
threshold=0.30387381225274529 0.47232395798280918
decision_type=2 2
left_child=1 -1
right_child=-2 -3
leaf_value=5.0225805664272375e-06 -0.043088833044921886 0.042923546111804246
leaf_weight=8924 490 442
leaf_count=8924 490 442
internal_value=0.000506746 0.000960286
internal_weight=9856 9366
internal_count=9856 9366
is_linear=0
shrinkage=0.05


Tree=20
num_leaves=3
num_cat=0
split_feature=47 29
split_gain=15.0623 14.9726
threshold=1.1200000000000003 0.28016402790822492
decision_type=2 2
left_child=1 -1
right_child=-2 -3
leaf_value=0.00010769629479978615 0.04998955566979979 -0.040839547642675833
leaf_weight=8604 324 928
leaf_count=8604 324 928
internal_value=0.000476311 0.000114864
internal_weight=9856 9532
internal_count=9856 9532
is_linear=0
shrinkage=0.05


Tree=21
num_leaves=3
num_cat=0
split_feature=11 39
split_gain=15.2397 11.4899
threshold=1423.2500000000002 0.47232395798280918
decision_type=2 2
left_child=-1 -2
right_child=1 -3
leaf_value=0.045240324136798127 -1.0531488690146419e-05 0.039526450671405727
leaf_weight=512 8930 414
leaf_count=512 8930 414
internal_value=-0.000212539 -0.000673622
internal_weight=9856 9344
internal_count=9856 9344
is_linear=0
shrinkage=0.05


Tree=22
num_leaves=3
num_cat=0
split_feature=11 47
split_gain=15.3136 11.3865
threshold=1423.2500000000002 1.0650000000000002
decision_type=2 2
left_child=-1 -2
right_child=1 -3
leaf_value=0.042978307929958229 -1.5302570505681955e-05 0.044999913211232645
leaf_weight=512 8409 935
leaf_count=512 8409 935
internal_value=-0.000232829 -0.000695024
internal_weight=9856 9344
internal_count=9856 9344
is_linear=0
shrinkage=0.05


Tree=23
num_leaves=3
num_cat=0
split_feature=11 23
split_gain=15.0143 15.079
threshold=1521.9500000000003 0.20010463148257726
decision_type=2 2
left_child=-1 -2
right_child=1 -3
leaf_value=0.00011576021426957795 0.00011576021426957795 -0.038778075432582229
leaf_weight=6748 1022 2086
leaf_count=6748 1022 2086
internal_value=-0.000242975 -0.00311837
internal_weight=9856 3108
internal_count=9856 3108
is_linear=0
shrinkage=0.05


Tree=24
num_leaves=3
num_cat=0
split_feature=29 11
split_gain=13.8893 11.6679
threshold=0.30387381225274529 1423.2500000000002
decision_type=2 2
left_child=1 -1
right_child=-2 -3
leaf_value=0.04093566663212185 -0.038896910318295674 9.7815172306114917e-05
leaf_weight=495 490 8871
leaf_count=495 490 8871
internal_value=6.03632e-05 0.000490552
internal_weight=9856 9366
internal_count=9856 9366
is_linear=0
shrinkage=0.05


Tree=25
num_leaves=3
num_cat=0
split_feature=11 12
split_gain=14.2605 14.3395
threshold=1423.2500000000002 4.4166666666666679
decision_type=2 2
left_child=-1 -2
right_child=1 -3
leaf_value=0.038776821191140724 -0.00020098756180351174 0.0019927525386908675
leaf_weight=512 4655 4689
leaf_count=512 4655 4689
internal_value=6.03632e-05 -0.000384698
internal_weight=9856 9344
internal_count=9856 9344
is_linear=0
shrinkage=0.05


Tree=26
num_leaves=3
num_cat=0
split_feature=29 35
split_gain=13.8549 11.732
threshold=0.30387381225274529 48.936875000000008
decision_type=2 2
left_child=1 -1
right_child=-2 -3
leaf_value=0.0042839124636560033 -0.036988162111244442 -6.7132132437031096e-06
leaf_weight=1746 490 7620
leaf_count=1746 490 7620
internal_value=5.02181e-05 0.000479876
internal_weight=9856 9366
internal_count=9856 9366
is_linear=0
shrinkage=0.05


Tree=27
num_leaves=3
num_cat=0
split_feature=11 12
split_gain=14.8731 14.6964
threshold=1423.2500000000002 4.9166666666666679
decision_type=2 2
left_child=-1 -2
right_child=1 -3
leaf_value=0.03673897161777593 -0.00013137755258143535 0.006440812769292226
leaf_weight=512 7172 2172
leaf_count=512 7172 2172
internal_value=-0.000111089 -0.000566613
internal_weight=9856 9344
internal_count=9856 9344
is_linear=0
shrinkage=0.05


Tree=28
num_leaves=3
num_cat=0
split_feature=29 10
split_gain=14.3403 11.7361
threshold=0.30387381225274529 1537.1500000000003
decision_type=2 2
left_child=1 -1
right_child=-2 -3
leaf_value=-1.5121669927653514e-05 -0.035187028630565512 0.0047501608562974919
leaf_weight=7317 490 2049
leaf_count=7317 490 2049
internal_value=0.000192249 0.000629337
internal_weight=9856 9366
internal_count=9856 9366
is_linear=0
shrinkage=0.05


Tree=29
num_leaves=3
num_cat=0
split_feature=11 29
split_gain=14.2249 13.3074
threshold=1423.2500000000002 0.30599737382964148
decision_type=2 2
left_child=-1 -2
right_child=1 -3
leaf_value=0.034761263919853506 9.4740854394981255e-07 -0.03349440400902489
leaf_weight=512 8906 438
leaf_count=512 8906 438
internal_value=7.05083e-05 -0.000373997
internal_weight=9856 9344
internal_count=9856 9344
is_linear=0
shrinkage=0.05


Tree=30
num_leaves=3
num_cat=0
split_feature=29 11
split_gain=13.8549 11.7014
threshold=0.30387381225274529 1423.2500000000002
decision_type=2 2
left_child=1 -1
right_child=-2 -3
leaf_value=0.033032232755110823 -0.031752956998585984 9.0003811674677087e-07
leaf_weight=495 490 8871
leaf_count=495 490 8871
internal_value=5.02181e-05 0.000479876
internal_weight=9856 9366
internal_count=9856 9366
is_linear=0
shrinkage=0.05


Tree=31
num_leaves=3
num_cat=0
split_feature=11 12
split_gain=14.2249 13.1663
threshold=1423.2500000000002 4.9166666666666679
decision_type=2 2
left_child=-1 -2
right_child=1 -3
leaf_value=0.031371589086105288 -0.00021039549670562874 0.0059914856761484675
leaf_weight=512 7172 2172
leaf_count=512 7172 2172
internal_value=7.05083e-05 -0.000373997
internal_weight=9856 9344
internal_count=9856 9344
is_linear=0
shrinkage=0.05


Tree=32
num_leaves=3
num_cat=0
split_feature=29 11
split_gain=14.3753 11.2046
threshold=0.30387381225274529 1423.2500000000002
decision_type=2 2
left_child=1 -1
right_child=-2 -3
leaf_value=0.029812041663050029 -0.030154789373821392 1.1374811046183098e-05
leaf_weight=495 490 8871
leaf_count=495 490 8871
internal_value=0.000202394 0.000640013
internal_weight=9856 9366
internal_count=9856 9366
is_linear=0
shrinkage=0.05


Tree=33
num_leaves=3
num_cat=0
split_feature=29 39
split_gain=13.072 11.0291
threshold=0.30387381225274529 0.47232395798280918
decision_type=2 2
left_child=1 -1
right_child=-2 -3
leaf_value=1.0806070493885046e-05 -0.028647049905130319 0.037885732085355797
leaf_weight=8924 490 442
leaf_count=8924 490 442
internal_value=0.000222684 0.000640013
internal_weight=9856 9366
internal_count=9856 9366
is_linear=0
shrinkage=0.05


Tree=34
num_leaves=3
num_cat=0
split_feature=29 39
split_gain=13.072 11.0291
threshold=0.30387381225274529 0.47232395798280918
decision_type=2 2
left_child=1 -1
right_child=-2 -3
leaf_value=1.0265766969186353e-05 -0.027214697409873811 0.035991445481087993
leaf_weight=8924 490 442
leaf_count=8924 490 442
internal_value=0.000222684 0.000640013
internal_weight=9856 9366
internal_count=9856 9366
is_linear=0
shrinkage=0.05


Tree=35
num_leaves=3
num_cat=0
split_feature=11 29
split_gain=13.6965 13.8258
threshold=1423.2500000000002 0.30387381225274529
decision_type=2 2
left_child=-1 -2
right_child=1 -3
leaf_value=0.028311353956774421 9.7524786207170432e-06 -0.02587481638618876
leaf_weight=512 8871 473
leaf_count=512 8871 473
internal_value=0.000222684 -0.000213483
internal_weight=9856 9344
internal_count=9856 9344
is_linear=0
shrinkage=0.05


Tree=36
num_leaves=3
num_cat=0
split_feature=35 39
split_gain=12.6423 13.1528
threshold=57.436141304347835 0.45429359607574399
decision_type=2 2
left_child=1 -1
right_child=-2 -3
leaf_value=1.6027016452668798e-05 -0.019661856335292129 0.036311057458102571
leaf_weight=6667 2466 723
leaf_count=6667 2466 723
internal_value=0.000222684 0.00125761
internal_weight=9856 7390
internal_count=9856 7390
is_linear=0
shrinkage=0.05


Tree=37
num_leaves=3
num_cat=0
split_feature=29 40
split_gain=13.92 10.6353
threshold=0.30387381225274529 0.32490355229406392
decision_type=2 2
left_child=1 -1
right_child=-2 -3
leaf_value=0.049127395188362205 -0.023643855713293738 0.00011815050889170121
leaf_weight=146 490 9220
leaf_count=146 490 9220
internal_value=0.000476311 0.000906907
internal_weight=9856 9366
internal_count=9856 9366
is_linear=0
shrinkage=0.05


Tree=38
num_leaves=3
num_cat=0
split_feature=11 29
split_gain=13.3843 14.1473
threshold=1423.2500000000002 0.30387381225274529
decision_type=2 2
left_child=-1 -2
right_child=1 -3
leaf_value=0.026798406972512193 9.3181401854547374e-06 -0.022495926307107464
leaf_weight=512 8871 473
leaf_count=512 8871 473
internal_value=0.00031399 -0.000117175
internal_weight=9856 9344
internal_count=9856 9344
is_linear=0
shrinkage=0.05


Tree=39
num_leaves=3
num_cat=0
split_feature=11 29
split_gain=13.3843 14.1473
threshold=1423.2500000000002 0.30387381225274529
decision_type=2 2
left_child=-1 -2
right_child=1 -3
leaf_value=0.025458486623886591 8.852233176170898e-06 -0.021371129991752082
leaf_weight=512 8871 473
leaf_count=512 8871 473
internal_value=0.00031399 -0.000117175
internal_weight=9856 9344
internal_count=9856 9344
is_linear=0
shrinkage=0.05


Tree=40
num_leaves=3
num_cat=0
split_feature=29 39
split_gain=13.3742 10.7551
threshold=0.30387381225274529 0.47232395798280918
decision_type=2 2
left_child=1 -1
right_child=-2 -3
leaf_value=1.0928358265882565e-05 -0.020268310112686053 0.03263747157407524
leaf_weight=8924 490 442
leaf_count=8924 490 442
internal_value=0.00031399 0.000736095
internal_weight=9856 9366
internal_count=9856 9366
is_linear=0
shrinkage=0.05


Tree=41
num_leaves=3
num_cat=0
split_feature=29 39
split_gain=13.3742 10.7551
threshold=0.30387381225274529 0.47232395798280918
decision_type=2 2
left_child=1 -1
right_child=-2 -3
leaf_value=1.0381940352588438e-05 -0.019254894607051754 0.031005597995371482
leaf_weight=8924 490 442
leaf_count=8924 490 442
internal_value=0.00031399 0.000736095
internal_weight=9856 9366
internal_count=9856 9366
is_linear=0
shrinkage=0.05


Tree=42
num_leaves=3
num_cat=0
split_feature=11 29
split_gain=13.3843 14.1473
threshold=1423.2500000000002 0.30387381225274529
decision_type=2 2
left_child=-1 -2
right_child=1 -3
leaf_value=0.024184496777761355 7.3441065864265909e-06 -0.018326413256177589
leaf_weight=512 8871 473
leaf_count=512 8871 473
internal_value=0.00031399 -0.000117175
internal_weight=9856 9344
internal_count=9856 9344
is_linear=0
shrinkage=0.05


Tree=43
num_leaves=3
num_cat=0
split_feature=11 29
split_gain=13.3843 14.1473
threshold=1423.2500000000002 0.30387381225274529
decision_type=2 2
left_child=-1 -2
right_child=1 -3
leaf_value=0.022975271938873301 6.9769012571052615e-06 -0.0174100925933687
leaf_weight=512 8871 473
leaf_count=512 8871 473
internal_value=0.00031399 -0.000117175
internal_weight=9856 9344
internal_count=9856 9344
is_linear=0
shrinkage=0.05


Tree=44
num_leaves=3
num_cat=0
split_feature=11 29
split_gain=13.6616 13.8613
threshold=1423.2500000000002 0.30387381225274529
decision_type=2 2
left_child=-1 -2
right_child=1 -3
leaf_value=0.021826508341929653 6.6280561942466681e-06 -0.016539587963700253
leaf_weight=512 8871 473
leaf_count=512 8871 473
internal_value=0.000232829 -0.000202782
internal_weight=9856 9344
internal_count=9856 9344
is_linear=0
shrinkage=0.05


Tree=45
num_leaves=3
num_cat=0
split_feature=29 11
split_gain=14.4103 11.1719
threshold=0.30387381225274529 1423.2500000000002
decision_type=2 2
left_child=1 -1
right_child=-2 -3
leaf_value=0.020738136440458188 -0.015678345186036825 6.2966533845409962e-06
leaf_weight=495 490 8871
leaf_count=495 490 8871
internal_value=0.000212539 0.000650689
internal_weight=9856 9366
internal_count=9856 9366
is_linear=0
shrinkage=0.05


Tree=46
num_leaves=3
num_cat=0
split_feature=29 11
split_gain=13.072 10.5953
threshold=0.30387381225274529 1423.2500000000002
decision_type=2 2
left_child=1 -1
right_child=-2 -3
leaf_value=0.019701229618435259 -0.014894427926734977 5.9818207153172764e-06
leaf_weight=495 490 8871
leaf_count=495 490 8871
internal_value=0.000222684 0.000640013
internal_weight=9856 9366
internal_count=9856 9366
is_linear=0
shrinkage=0.05


Tree=47
num_leaves=3
num_cat=0
split_feature=11 29
split_gain=13.1016 13.7903
threshold=1423.2500000000002 0.30387381225274529
decision_type=2 2
left_child=-1 -2
right_child=1 -3
leaf_value=0.018713214621888508 5.6827296795569644e-06 -0.014183969909876649
leaf_weight=512 8871 473
leaf_count=512 8871 473
internal_value=0.000202394 -0.000224184
internal_weight=9856 9344
internal_count=9856 9344
is_linear=0
shrinkage=0.05


Tree=48
num_leaves=3
num_cat=0
split_feature=29 45
split_gain=12.9721 10.5791
threshold=0.30387381225274529 83.500000000000014
decision_type=2 2
left_child=1 -1
right_child=-2 -3
leaf_value=-1.3635685674362465e-06 -0.01344050803490441 0.0029309257926370736
leaf_weight=7975 490 1391
leaf_count=7975 490 1391
internal_value=0.000192249 0.000607985
internal_weight=9856 9366
internal_count=9856 9366
is_linear=0
shrinkage=0.05


Tree=49
num_leaves=3
num_cat=0
split_feature=11 29
split_gain=12.7882 13.4753
threshold=1423.2500000000002 0.30599737382964148
decision_type=2 2
left_child=-1 -2
right_child=1 -3
leaf_value=0.017777622069222464 5.4667716239409359e-06 -0.012802746012637601
leaf_weight=512 8906 438
leaf_count=512 8906 438
internal_value=0.000100943 -0.000320492
internal_weight=9856 9344
internal_count=9856 9344
is_linear=0
shrinkage=0.05


Tree=50
num_leaves=3
num_cat=0
split_feature=11 29
split_gain=12.7882 13.4753
threshold=1423.2500000000002 0.30599737382964148
decision_type=2 2
left_child=-1 -2
right_child=1 -3
leaf_value=0.016888740965761342 5.1934330427494407e-06 -0.012162608712005718
leaf_weight=512 8906 438
leaf_count=512 8906 438
internal_value=0.000100943 -0.000320492
internal_weight=9856 9344
internal_count=9856 9344
is_linear=0
shrinkage=0.05


Tree=51
num_leaves=3
num_cat=0
split_feature=11 12
split_gain=11.588 12.7562
threshold=1423.2500000000002 4.9166666666666679
decision_type=2 2
left_child=-1 -2
right_child=1 -3
leaf_value=0.01604430391747327 -0.00022784827994644098 0.005843986931031853
leaf_weight=512 7172 2172
leaf_count=512 7172 2172
internal_value=8.06533e-05 -0.000320492
internal_weight=9856 9344
internal_count=9856 9344
is_linear=0
shrinkage=0.05


Tree=52
num_leaves=3
num_cat=0
split_feature=29 40
split_gain=14.5861 11.209
threshold=0.30387381225274529 0.41868752125983016
decision_type=2 2
left_child=1 -1
right_child=-2 -3
leaf_value=0.0017991877079319707 -0.011508822482929693 -0.00070081229206784288
leaf_weight=6533 490 2833
leaf_count=6533 490 2833
internal_value=0.000263265 0.000704067
internal_weight=9856 9366
internal_count=9856 9366
is_linear=0
shrinkage=0.05


Tree=53
num_leaves=3
num_cat=0
split_feature=29 12
split_gain=13.4799 11.0051
threshold=0.30387381225274529 4.4166666666666679
decision_type=2 2
left_child=1 -1
right_child=-2 -3
leaf_value=-0.00020897249305811273 -0.010933381358783202 0.001873188616780297
leaf_weight=4631 490 4735
leaf_count=4631 490 4735
internal_value=-6.03632e-05 0.000362443
internal_weight=9856 9366
internal_count=9856 9366
is_linear=0
shrinkage=0.05


Tree=54
num_leaves=3
num_cat=0
split_feature=23 42
split_gain=11.0975 11.7041
threshold=0.15673447154382145 0.63961038961038974
decision_type=2 2
left_child=-1 -2
right_child=1 -3
leaf_value=0.021574599289492638 0.0001647402579059154 -0.0049361599843058546
leaf_weight=587 7336 1933
leaf_count=587 7336 1933
internal_value=-0.000121234 -0.000544229
internal_weight=9856 9269
internal_count=9856 9269
is_linear=0
shrinkage=0.05


Tree=55
num_leaves=3
num_cat=0
split_feature=37 46
split_gain=10.8057 12.7121
threshold=0.20935899281902934 8.5850000000000026
decision_type=2 2
left_child=1 -1
right_child=-2 -3
leaf_value=-0.00028025932191475537 0.0087338702652661748 0.004259624174033483
leaf_weight=8250 950 656
leaf_count=8250 950 656
internal_value=8.06533e-05 -0.000459751
internal_weight=9856 8906
internal_count=9856 8906
is_linear=0
shrinkage=0.05


Tree=56
num_leaves=3
num_cat=0
split_feature=45 21
split_gain=10.4555 13.331
threshold=83.500000000000014 1.0116911094600802
decision_type=2 2
left_child=1 -1
right_child=-2 -3
leaf_value=-0.021280347508047283 0.0027215040992259799 0.00019763637995524609
leaf_weight=2297 1464 6095
leaf_count=2297 1464 6095
internal_value=-9.63782e-06 -0.000690456
internal_weight=9856 8392
internal_count=9856 8392
is_linear=0
shrinkage=0.05


Tree=57
num_leaves=3
num_cat=0
split_feature=29 46
split_gain=14.6214 9.57638
threshold=0.30387381225274529 8.5850000000000026
decision_type=2 2
left_child=1 -1
right_child=-2 -3
leaf_value=0.0001606343921085829 -0.0098307364193770189 0.0044415989645279598
leaf_weight=8695 490 671
leaf_count=8695 490 671
internal_value=0.00027341 0.000714743
internal_weight=9856 9366
internal_count=9856 9366
is_linear=0
shrinkage=0.05


Tree=58
num_leaves=3
num_cat=0
split_feature=29 12
split_gain=13.8531 9.11312
threshold=0.30387381225274529 5.2500000000000009
decision_type=2 2
left_child=1 -1
right_child=-2 -3
leaf_value=2.8856236840013594e-05 -0.0093391995984081662 0.029076542106337169
leaf_weight=8149 490 1217
leaf_count=8149 490 1217
internal_value=0.00025312 0.000682716
internal_weight=9856 9366
internal_count=9856 9366
is_linear=0
shrinkage=0.05


Tree=59
num_leaves=3
num_cat=0
split_feature=29 40
split_gain=12.7074 9.57965
threshold=0.30387381225274529 0.34815458059672427
decision_type=2 2
left_child=1 -1
right_child=-2 -3
leaf_value=0.041761080675988542 -0.0088722396184877546 2.6786642829668142e-05
leaf_weight=696 490 8670
leaf_count=696 490 8670
internal_value=0.000111089 0.000522579
internal_weight=9856 9366
internal_count=9856 9366
is_linear=0
shrinkage=0.05


Tree=60
num_leaves=3
num_cat=0
split_feature=29 11
split_gain=11.7057 9.55262
threshold=0.30387381225274529 1423.2500000000002
decision_type=2 2
left_child=1 -1
right_child=-2 -3
leaf_value=0.013290004140498014 -0.0084286276375633573 2.4820528519664543e-05
leaf_weight=495 490 8871
leaf_count=495 490 8871
internal_value=0 0.00039447
internal_weight=9856 9366
internal_count=9856 9366
is_linear=0
shrinkage=0.05


Tree=61
num_leaves=3
num_cat=0
split_feature=29 11
split_gain=11.7057 9.55262
threshold=0.30387381225274529 1423.2500000000002
decision_type=2 2
left_child=1 -1
right_child=-2 -3
leaf_value=0.012625503933473104 -0.008007196255685179 2.3579502093684648e-05
leaf_weight=495 490 8871
leaf_count=495 490 8871
internal_value=0 0.00039447
internal_weight=9856 9366
internal_count=9856 9366
is_linear=0
shrinkage=0.05


Tree=62
num_leaves=3
num_cat=0
split_feature=11 29
split_gain=11.8137 11.8925
threshold=1423.2500000000002 0.30387381225274529
decision_type=2 2
left_child=-1 -2
right_child=1 -3
leaf_value=0.011881022924308038 2.2400526989008186e-05 -0.0079395326884182937
leaf_weight=512 8871 473
leaf_count=512 8871 473
internal_value=9.63782e-06 -0.000395399
internal_weight=9856 9344
internal_count=9856 9344
is_linear=0
shrinkage=0.05


Tree=63
num_leaves=3
num_cat=0
split_feature=0 29
split_gain=11.5652 12.0138
threshold=0.28988194444444443 0.16565790678509293
decision_type=2 2
left_child=-1 -2
right_child=1 -3
leaf_value=-0.005046936415553871 0.011247679337604755 -0.00014027891680234994
leaf_weight=1071 1847 6938
leaf_count=1071 1847 6938
internal_value=9.63782e-06 0.000608354
internal_weight=9856 8785
internal_count=9856 8785
is_linear=0
shrinkage=0.05


Tree=64
num_leaves=3
num_cat=0
split_feature=11 29
split_gain=11.3889 11.0911
threshold=1423.2500000000002 0.30387381225274529
decision_type=2 2
left_child=-1 -2
right_child=1 -3
leaf_value=0.011075795938241728 -5.5219115590343654e-05 -0.0075355421081572784
leaf_weight=512 8871 473
leaf_count=512 8871 473
internal_value=-5.02181e-05 -0.000448903
internal_weight=9856 9344
internal_count=9856 9344
is_linear=0
shrinkage=0.05


Tree=65
num_leaves=3
num_cat=0
split_feature=29 39
split_gain=10.9278 9.67335
threshold=0.30387381225274529 0.47451032197141996
decision_type=2 2
left_child=1 -1
right_child=-2 -3
leaf_value=-2.4504744119657752e-05 -0.0067125716698333456 0.029000713950293869
leaf_weight=8962 490 404
leaf_count=8962 490 404
internal_value=-5.02181e-05 0.000330415
internal_weight=9856 9366
internal_count=9856 9366
is_linear=0
shrinkage=0.05


Tree=66
num_leaves=3
num_cat=0
split_feature=11 29
split_gain=11.3889 11.0911
threshold=1423.2500000000002 0.30387381225274529
decision_type=2 2
left_child=-1 -2
right_child=1 -3
leaf_value=0.010523231378535659 -5.1232922604826928e-05 -0.0068231364192577366
leaf_weight=512 8871 473
leaf_count=512 8871 473
internal_value=-5.02181e-05 -0.000448903
internal_weight=9856 9344
internal_count=9856 9344
is_linear=0
shrinkage=0.05


Tree=67
num_leaves=3
num_cat=0
split_feature=29 25
split_gain=10.9278 9.03858
threshold=0.30387381225274529 7.3651515151515161
decision_type=2 2
left_child=1 -1
right_child=-2 -3
leaf_value=5.8390061438684532e-05 -0.0060357862653787732 0.048149646175171236
leaf_weight=9237 490 129
leaf_count=9237 490 129
internal_value=-5.02181e-05 0.000330415
internal_weight=9856 9366
internal_count=9856 9366
is_linear=0
shrinkage=0.05


Tree=68
num_leaves=3
num_cat=0
split_feature=11 29
split_gain=11.4209 10.441
threshold=1423.2500000000002 0.30387381225274529
decision_type=2 2
left_child=-1 -2
right_child=1 -3
leaf_value=0.0097821502714421586 -5.1827265882398167e-05 -0.0061801902850258999
leaf_weight=512 8871 473
leaf_count=512 8871 473
internal_value=-6.03632e-05 -0.000459604
internal_weight=9856 9344
internal_count=9856 9344
is_linear=0
shrinkage=0.05


Tree=69
num_leaves=3
num_cat=0
split_feature=18 14
split_gain=9.64777 15.0138
threshold=4.0289427844017096 5.2500000000000009
decision_type=2 2
left_child=-1 -2
right_child=1 -3
leaf_value=-0.00037965619531825649 0.041668169498429601 0.00015109964821822253
leaf_weight=8002 556 1298
leaf_count=8002 556 1298
internal_value=-7.05083e-05 0.0031779
internal_weight=9856 1854
internal_count=9856 1854
is_linear=0
shrinkage=0.05


Tree=70
num_leaves=3
num_cat=0
split_feature=11 48
split_gain=11.3509 10.7795
threshold=1423.2500000000002 1.0450000000000002
decision_type=2 2
left_child=-1 -2
right_child=1 -3
leaf_value=0.0092097741617031669 -0.00063404001069633509 0.0023600778372321329
leaf_weight=512 7141 2203
leaf_count=512 7141 2203
internal_value=-0.000232829 -0.000630819
internal_weight=9856 9344
internal_count=9856 9344
is_linear=0
shrinkage=0.05


Tree=71
num_leaves=3
num_cat=0
split_feature=11 39
split_gain=11.1923 9.92628
threshold=1423.2500000000002 0.46266975198200888
decision_type=2 2
left_child=-1 -2
right_child=1 -3
leaf_value=0.0087492854536180172 -0.00043074952290522717 0.027002569237574294
leaf_weight=512 8719 625
leaf_count=512 8719 625
internal_value=-0.000182104 -0.000577314
internal_weight=9856 9344
internal_count=9856 9344
is_linear=0
shrinkage=0.05


Tree=72
num_leaves=3
num_cat=0
split_feature=11 47
split_gain=11.2239 9.37159
threshold=1423.2500000000002 1.0500000000000003
decision_type=2 2
left_child=-1 -2
right_child=1 -3
leaf_value=0.0083118211809371182 -0.00047519652719656418 0.031889031518037105
leaf_weight=512 8100 1244
leaf_count=512 8100 1244
internal_value=-0.000192249 -0.000588015
internal_weight=9856 9344
internal_count=9856 9344
is_linear=0
shrinkage=0.05


Tree=73
num_leaves=3
num_cat=0
split_feature=40 47
split_gain=11.0761 15.4775
threshold=0.41868752125983016 1.0500000000000003
decision_type=2 2
left_child=1 -1
right_child=-2 -3
leaf_value=-1.7026507338213648e-05 -0.0026615303234081011 0.042116196495231642
leaf_weight=5977 2992 887
leaf_count=5977 2992 887
internal_value=-0.000232829 0.00087327
internal_weight=9856 6864
internal_count=9856 6864
is_linear=0
shrinkage=0.05


Tree=74
num_leaves=3
num_cat=0
split_feature=11 39
split_gain=10.7171 9.9985
threshold=1423.2500000000002 0.47232395798280918
decision_type=2 2
left_child=-1 -2
right_child=1 -3
leaf_value=0.007900168605013148 -0.00045334046341483081 0.025083846474098538
leaf_weight=512 8930 414
leaf_count=512 8930 414
internal_value=-0.000222684 -0.000609417
internal_weight=9856 9344
internal_count=9856 9344
is_linear=0
shrinkage=0.05


Tree=75
num_leaves=3
num_cat=0
split_feature=11 39
split_gain=10.6245 9.91397
threshold=1423.2500000000002 0.47232395798280918
decision_type=2 2
left_child=-1 -2
right_child=1 -3
leaf_value=0.0075051601747625043 -0.00043067344024407819 0.02382965415039362
leaf_weight=512 8930 414
leaf_count=512 8930 414
internal_value=-0.000192249 -0.000577314
internal_weight=9856 9344
internal_count=9856 9344
is_linear=0
shrinkage=0.05


Tree=76
num_leaves=3
num_cat=0
split_feature=11 39
split_gain=10.563 9.85781
threshold=1423.2500000000002 0.47232395798280918
decision_type=2 2
left_child=-1 -2
right_child=1 -3
leaf_value=0.0071299021660243822 -0.00040913976823189204 0.022638171442873944
leaf_weight=512 8930 414
leaf_count=512 8930 414
internal_value=-0.000171959 -0.000555912
internal_weight=9856 9344
internal_count=9856 9344
is_linear=0
shrinkage=0.05


Tree=77
num_leaves=3
num_cat=0
split_feature=22 23
split_gain=10.1128 13.3569
threshold=0.18609000152247021 0.16586143851866472
decision_type=2 2
left_child=1 -1
right_child=-2 -3
leaf_value=0.039407975504634575 0.0004958586425720668 -0.0044023869295611645
leaf_weight=314 6678 2864
leaf_count=314 6678 2864
internal_value=-0.000161814 -0.00248349
internal_weight=9856 3178
internal_count=9856 3178
is_linear=0
shrinkage=0.05


Tree=78
num_leaves=3
num_cat=0
split_feature=45 35
split_gain=10.5895 12.8786
threshold=80.500000000000014 48.936875000000008
decision_type=2 2
left_child=1 -1
right_child=-2 -3
leaf_value=0.0036312215269883822 0.0021687902261317894 -0.0020786195390551931
leaf_weight=1355 2283 6218
leaf_count=1355 2283 6218
internal_value=-0.000161814 -0.00106219
internal_weight=9856 7573
internal_count=9856 7573
is_linear=0
shrinkage=0.05


Tree=79
num_leaves=3
num_cat=0
split_feature=11 34
split_gain=10.4384 9.5688
threshold=1501.4500000000003 60.676231060606078
decision_type=2 2
left_child=-1 -2
right_child=1 -3
leaf_value=0.0011955332916945283 -0.002969481555796261 0.0038190331122064159
leaf_weight=4748 4530 578
leaf_count=4748 4530 578
internal_value=-0.000171959 -0.00174105
internal_weight=9856 5108
internal_count=9856 5108
is_linear=0
shrinkage=0.05


Tree=80
num_leaves=3
num_cat=0
split_feature=29 10
split_gain=9.45249 10.1032
threshold=0.30387381225274529 1452.8500000000001
decision_type=2 2
left_child=1 -1
right_child=-2 -3
leaf_value=-0.006718482499345169 -0.0054147431664613001 0.00067149474550928236
leaf_weight=1544 490 7822
leaf_count=1544 490 7822
internal_value=-0.000151669 0.000202306
internal_weight=9856 9366
internal_count=9856 9366
is_linear=0
shrinkage=0.05


Tree=81
num_leaves=3
num_cat=0
split_feature=45 35
split_gain=10.0211 11.8533
threshold=80.500000000000014 48.936875000000008
decision_type=2 2
left_child=1 -1
right_child=-2 -3
leaf_value=0.003356309048778794 0.0022457099686430172 -0.0020399933330146227
leaf_weight=1355 2283 6218
leaf_count=1355 2283 6218
internal_value=-8.06533e-05 -0.000956562
internal_weight=9856 7573
internal_count=9856 7573
is_linear=0
shrinkage=0.05


Tree=82
num_leaves=3
num_cat=0
split_feature=40 7
split_gain=9.73399 11.7006
threshold=0.41868752125983016 5.2500000000000009
decision_type=2 2
left_child=-1 -2
right_child=1 -3
leaf_value=0.00067612439960768045 0.048998764512378348 -0.0032588930203572898
leaf_weight=6864 101 2891
leaf_count=6864 101 2891
internal_value=-9.07984e-05 -0.00247077
internal_weight=9856 2992
internal_count=9856 2992
is_linear=0
shrinkage=0.05


Tree=83
num_leaves=3
num_cat=0
split_feature=42 29
split_gain=9.66871 16.2994
threshold=0.63961038961038974 0.28912807628618747
decision_type=2 2
left_child=-1 -2
right_child=1 -3
leaf_value=0.00047117729217199811 -0.0022951590601451243 -0.051917457791425585
leaf_weight=7780 1945 131
leaf_count=7780 1945 131
internal_value=0 -0.00303081
internal_weight=9856 2076
internal_count=9856 2076
is_linear=0
shrinkage=0.05


Tree=84
num_leaves=3
num_cat=0
split_feature=0 32
split_gain=10.2827 13.8726
threshold=0.28988194444444443 1.8904761904761906
decision_type=2 2
left_child=1 -1
right_child=-2 -3
leaf_value=-0.044458009822969193 0.00023992964247379069 -2.5446260100037144e-05
leaf_weight=391 8785 680
leaf_count=391 8785 680
internal_value=9.63782e-06 -0.00461287
internal_weight=9856 1071
internal_count=9856 1071
is_linear=0
shrinkage=0.05


Tree=85
num_leaves=3
num_cat=0
split_feature=45 10
split_gain=9.6237 11.2987
threshold=80.500000000000014 1538.6500000000003
decision_type=2 2
left_child=1 -1
right_child=-2 -3
leaf_value=-0.0019729991527558167 0.002291959223191076 0.0047223476066563744
leaf_weight=5885 2283 1688
leaf_count=5885 2283 1688
internal_value=0.000151669 -0.000705704
internal_weight=9856 7573
internal_count=9856 7573
is_linear=0
shrinkage=0.05


Tree=86
num_leaves=3
num_cat=0
split_feature=11 10
split_gain=10.1964 9.64871
threshold=1501.4500000000003 1408.2500000000002
decision_type=2 2
left_child=-1 -2
right_child=1 -3
leaf_value=0.0013016097460783361 -0.045034905890217351 -0.00072405262450887526
leaf_weight=4748 171 4937
leaf_count=4748 171 4937
internal_value=0.000141524 -0.0014083
internal_weight=9856 5108
internal_count=9856 5108
is_linear=0
shrinkage=0.05


Tree=87
num_leaves=3
num_cat=0
split_feature=46 23
split_gain=9.13408 11.0567
threshold=8.5550000000000015 0.23445380683978009
decision_type=2 2
left_child=-1 -2
right_child=1 -3
leaf_value=-0.00016885041997252161 0.021486616944948935 -0.032460360031789558
leaf_weight=9130 626 100
leaf_count=9130 626 100
internal_value=0.000100943 0.00549519
internal_weight=9856 726
internal_count=9856 726
is_linear=0
shrinkage=0.05


Tree=88
num_leaves=3
num_cat=0
split_feature=11 39
split_gain=8.95851 9.35955
threshold=1423.2500000000002 0.47232395798280918
decision_type=2 2
left_child=-1 -2
right_child=1 -3
leaf_value=0.0062105767320445489 -0.00040770683915760666 0.021174606639451279
leaf_weight=512 8930 414
leaf_count=512 8930 414
internal_value=-9.63782e-06 -0.000363296
internal_weight=9856 9344
internal_count=9856 9344
is_linear=0
shrinkage=0.05


Tree=89
num_leaves=3
num_cat=0
split_feature=11 16
split_gain=8.90209 9.22236
threshold=1423.2500000000002 0.3076775221628047
decision_type=2 2
left_child=-1 -2
right_child=1 -3
leaf_value=0.0059000478954423178 -0.041805406240839817 -2.373845176784073e-06
leaf_weight=512 383 8961
leaf_count=512 383 8961
internal_value=9.63782e-06 -0.000341894
internal_weight=9856 9344
internal_count=9856 9344
is_linear=0
shrinkage=0.05


Tree=90
num_leaves=3
num_cat=0
split_feature=11 35
split_gain=8.90672 12.1053
threshold=1496.6500000000003 43.103278688524604
decision_type=2 2
left_child=-1 -2
right_child=1 -3
leaf_value=0.0017382247129270835 0.049671302603823443 -0.0014027035565437941
leaf_weight=4271 79 5506
leaf_count=4271 79 5506
internal_value=7.05083e-05 -0.00124329
internal_weight=9856 5585
internal_count=9856 5585
is_linear=0
shrinkage=0.05


Tree=91
num_leaves=3
num_cat=0
split_feature=45 7
split_gain=9.25109 13.5064
threshold=81.500000000000014 22.050000000000004
decision_type=2 2
left_child=-1 -2
right_child=1 -3
leaf_value=-0.0004618402205707195 0.0016692289661229933 0.055109330131918072
leaf_weight=7856 1910 90
leaf_count=7856 1910 90
internal_value=6.03632e-05 0.00309595
internal_weight=9856 2000
internal_count=9856 2000
is_linear=0
shrinkage=0.05


Tree=92
num_leaves=3
num_cat=0
split_feature=4 37
split_gain=9.04439 11.7384
threshold=4.5050000000000008 0.27649671407215087
decision_type=2 2
left_child=-1 -2
right_child=1 -3
leaf_value=-0.00059177065333351211 0.0014418054672392434 0.049671775903601036
leaf_weight=7415 2337 104
leaf_count=7415 2337 104
internal_value=0 0.00263923
internal_weight=9856 2441
internal_count=9856 2441
is_linear=0
shrinkage=0.05


Tree=93
num_leaves=3
num_cat=0
split_feature=29 32
split_gain=9.0705 15.9561
threshold=0.16565790678509293 1.2784237726098193
decision_type=2 2
left_child=1 -1
right_child=-2 -3
leaf_value=0.042557752915092943 -0.00056619526875090198 -0.00016195387545279161
leaf_weight=754 7782 1320
leaf_count=754 7782 1320
internal_value=0 0.00293735
internal_weight=9856 2074
internal_count=9856 2074
is_linear=0
shrinkage=0.05


Tree=94
num_leaves=3
num_cat=0
split_feature=39 18
split_gain=8.77915 14.2789
threshold=0.47451032197141996 2.9548075311283566
decision_type=2 2
left_child=-1 -2
right_child=1 -3
leaf_value=-0.00028699295972638427 -0.030313196438074508 0.024946442151182427
leaf_weight=9438 61 357
leaf_count=9438 61 357
internal_value=-0.000171959 0.00690931
internal_weight=9856 418
internal_count=9856 418
is_linear=0
shrinkage=0.05


Tree=95
num_leaves=3
num_cat=0
split_feature=22 40
split_gain=8.96288 13.3803
threshold=0.18609000152247021 0.32810823748609491
decision_type=2 2
left_child=1 -1
right_child=-2 -3
leaf_value=0.093319630054628122 0.00059158336415661157 -0.0031626562685172612
leaf_weight=52 6678 3126
leaf_count=52 6678 3126
internal_value=-0.000171959 -0.00235766
internal_weight=9856 3178
internal_count=9856 3178
is_linear=0
shrinkage=0.05


Tree=96
num_leaves=3
num_cat=0
split_feature=39 18
split_gain=8.8296 14.2789
threshold=0.47451032197141996 2.9548075311283566
decision_type=2 2
left_child=-1 -2
right_child=1 -3
leaf_value=-0.00028292779905836341 -0.028639403802744923 0.023857252857049184
leaf_weight=9438 61 357
leaf_count=9438 61 357
internal_value=-0.000192249 0.00690931
internal_weight=9856 418
internal_count=9856 418
is_linear=0
shrinkage=0.05


Tree=97
num_leaves=3
num_cat=0
split_feature=1 47
split_gain=8.9359 15.0443
threshold=0.30663068181818182 1.0500000000000003
decision_type=2 2
left_child=1 -1
right_child=-2 -3
leaf_value=7.7583532520497661e-05 -0.0018635890437721072 0.040604271444540312
leaf_weight=4619 4553 684
leaf_count=4619 4553 684
internal_value=-0.000141524 0.00125283
internal_weight=9856 5303
internal_count=9856 5303
is_linear=0
shrinkage=0.05


Tree=98
num_leaves=3
num_cat=0
split_feature=22 39
split_gain=9.03768 11.5553
threshold=0.18609000152247021 0.47232395798280918
decision_type=2 2
left_child=-1 -2
right_child=1 -3
leaf_value=-0.0026913696408442213 0.00014314537842734511 0.021847127664286162
leaf_weight=3178 6303 375
leaf_count=3178 6303 375
internal_value=-0.000131379 0.000912562
internal_weight=9856 6678
internal_count=9856 6678
is_linear=0
shrinkage=0.05


Tree=99
num_leaves=3
num_cat=0
split_feature=11 39
split_gain=8.68178 10.3316
threshold=1496.6500000000003 0.47451032197141996
decision_type=2 2
left_child=1 -1
right_child=-2 -3
leaf_value=0.00088947351229055069 -0.0013451906353812771 0.020542078860541404
leaf_weight=4100 5585 171
leaf_count=4100 5585 171
internal_value=-7.05083e-05 0.0016257
internal_weight=9856 4271
internal_count=9856 4271
is_linear=0
shrinkage=0.05


Tree=100
num_leaves=3
num_cat=0
split_feature=39 3
split_gain=8.60371 11.2721
threshold=0.47451032197141996 3.7350000000000008
decision_type=2 2
left_child=-1 -2
right_child=1 -3
leaf_value=-0.00023820612391900475 -0.027292350221220341 0.019981779504035124
leaf_weight=9438 64 354
leaf_count=9438 64 354
internal_value=-0.000100943 0.00690931
internal_weight=9856 418
internal_count=9856 418
is_linear=0
shrinkage=0.05


Tree=101
num_leaves=3
num_cat=0
split_feature=39 18
split_gain=8.52906 14.2789
threshold=0.47451032197141996 2.9548075311283566
decision_type=2 2
left_child=-1 -2
right_child=1 -3
leaf_value=-0.00022629581772304341 -0.027961050626499829 0.021072344362460395
leaf_weight=9438 61 357
leaf_count=9438 61 357
internal_value=-7.05083e-05 0.00690931
internal_weight=9856 418
internal_count=9856 418
is_linear=0
shrinkage=0.05


Tree=102
num_leaves=3
num_cat=0
split_feature=42 42
split_gain=8.52445 11.4693
threshold=0.63961038961038974 0.5634920634920636
decision_type=2 2
left_child=1 -1
right_child=-2 -3
leaf_value=1.0978147145790373e-05 -0.0036387050297835401 0.0073879414939903576
leaf_weight=6907 2076 873
leaf_count=6907 2076 873
internal_value=-4.0073e-05 0.000719059
internal_weight=9856 7780
internal_count=9856 7780
is_linear=0
shrinkage=0.05


Tree=103
num_leaves=3
num_cat=0
split_feature=11 33
split_gain=8.74559 10.1056
threshold=1496.6500000000003 0.6165444497582232
decision_type=2 2
left_child=1 -1
right_child=-2 -3
leaf_value=0.046125804336170334 -0.0012441031313831898 0.00098124755843951314
leaf_weight=194 5585 4077
leaf_count=194 5585 4077
internal_value=-2.9928e-05 0.00167252
internal_weight=9856 4271
internal_count=9856 4271
is_linear=0
shrinkage=0.05


Tree=104
num_leaves=3
num_cat=0
split_feature=43 42
split_gain=8.53528 9.32005
threshold=0.68333333333333346 0.55050505050505061
decision_type=2 2
left_child=1 -1
right_child=-2 -3
leaf_value=0.00041455921083352056 0.017062064485135808 -0.0030621372328075492
leaf_weight=5754 769 3333
leaf_count=5754 769 3333
internal_value=-6.03632e-05 -0.000489107
internal_weight=9856 9087
internal_count=9856 9087
is_linear=0
shrinkage=0.05


Tree=105
num_leaves=3
num_cat=0
split_feature=39 18
split_gain=8.50425 14.2789
threshold=0.47451032197141996 2.9548075311283566
decision_type=2 2
left_child=-1 -2
right_child=1 -3
leaf_value=-0.00028532027265786296 -0.027122425406682995 0.020397322508171681
leaf_weight=9438 61 357
leaf_count=9438 61 357
internal_value=-6.03632e-05 0.00690931
internal_weight=9856 418
internal_count=9856 418
is_linear=0
shrinkage=0.05


Tree=106
num_leaves=3
num_cat=0
split_feature=39 18
split_gain=8.47948 14.2789
threshold=0.47451032197141996 2.9548075311283566
decision_type=2 2
left_child=-1 -2
right_child=1 -3
leaf_value=-0.00027105425902496094 -0.025766304136348863 0.019377456382763114
leaf_weight=9438 61 357
leaf_count=9438 61 357
internal_value=-5.02181e-05 0.00690931
internal_weight=9856 418
internal_count=9856 418
is_linear=0
shrinkage=0.05


Tree=107
num_leaves=3
num_cat=0
split_feature=39 18
split_gain=8.45474 14.2789
threshold=0.47451032197141996 2.9548075311283566
decision_type=2 2
left_child=-1 -2
right_child=1 -3
leaf_value=-0.0002575015460736907 -0.024477988929531416 0.018408583563624958
leaf_weight=9438 61 357
leaf_count=9438 61 357
internal_value=-4.0073e-05 0.00690931
internal_weight=9856 418
internal_count=9856 418
is_linear=0
shrinkage=0.05


Tree=108
num_leaves=3
num_cat=0
split_feature=45 5
split_gain=8.37345 11.3126
threshold=80.500000000000014 4.6550000000000011
decision_type=2 2
left_child=-1 -2
right_child=1 -3
leaf_value=-0.00080645474286136223 0.0039431834525536225 -0.0036532576572508636
leaf_weight=7573 1917 366
leaf_count=7573 1917 366
internal_value=-5.02181e-05 0.00260289
internal_weight=9856 2283
internal_count=9856 2283
is_linear=0
shrinkage=0.05


Tree=109
num_leaves=3
num_cat=0
split_feature=22 45
split_gain=8.42944 11.7089
threshold=0.18609000152247021 62.500000000000007
decision_type=2 2
left_child=1 -1
right_child=-2 -3
leaf_value=-0.044476632265869544 0.00061352557631890738 -0.00094059100566825651
leaf_weight=384 6678 2794
leaf_count=384 6678 2794
internal_value=-8.06533e-05 -0.00220038
internal_weight=9856 3178
internal_count=9856 3178
is_linear=0
shrinkage=0.05


Tree=110
num_leaves=3
num_cat=0
split_feature=25 3
split_gain=8.54639 9.3085
threshold=7.3651515151515161 4.3150000000000004
decision_type=2 2
left_child=-1 -2
right_child=1 -3
leaf_value=-0.00018284865347464321 0.093812594495892618 0.00026272588495941386
leaf_weight=9727 50 79
leaf_count=9727 50 79
internal_value=-8.06533e-05 0.0126538
internal_weight=9856 129
internal_count=9856 129
is_linear=0
shrinkage=0.05


Tree=111
num_leaves=3
num_cat=0
split_feature=10 1
split_gain=8.49052 9.65853
threshold=1476.8500000000001 0.3086666666666667
decision_type=2 2
left_child=-1 -2
right_child=1 -3
leaf_value=-0.0022240558476950946 0.0020588447374450202 -0.0016266762742276565
leaf_weight=2784 4274 2798
leaf_count=2784 4274 2798
internal_value=-0.000100943 0.000819313
internal_weight=9856 7072
internal_count=9856 7072
is_linear=0
shrinkage=0.05


Tree=112
num_leaves=3
num_cat=0
split_feature=3 28
split_gain=8.24119 14.5602
threshold=3.7350000000000008 0.26995552170011688
decision_type=2 2
left_child=1 -1
right_child=-2 -3
leaf_value=-0.036915059766522318 0.00029298326449515025 0.049320135972358514
leaf_weight=1141 8556 159
leaf_count=1141 8556 159
internal_value=-0.000131379 -0.00383935
internal_weight=9856 1300
internal_count=9856 1300
is_linear=0
shrinkage=0.05


Tree=113
num_leaves=3
num_cat=0
split_feature=45 5
split_gain=8.42245 10.3896
threshold=83.500000000000014 4.6550000000000011
decision_type=2 2
left_child=-1 -2
right_child=1 -3
leaf_value=-0.00051659668015637818 0.011159436332711726 -0.0039674978955410722
leaf_weight=8392 1231 233
leaf_count=8392 1231 233
internal_value=-1.97829e-05 0.00347782
internal_weight=9856 1464
internal_count=9856 1464
is_linear=0
shrinkage=0.05


Tree=114
num_leaves=3
num_cat=0
split_feature=30 36
split_gain=8.02898 13.1612
threshold=0.10027903867678147 -0.74988499001425835
decision_type=2 2
left_child=-1 -2
right_child=1 -3
leaf_value=0.00036416582931273481 -0.045040008554023375 -0.00068276165681053775
leaf_weight=8658 321 877
leaf_count=8658 321 877
internal_value=-8.06533e-05 -0.00391576
internal_weight=9856 1198
internal_count=9856 1198
is_linear=0
shrinkage=0.05


Tree=115
num_leaves=3
num_cat=0
split_feature=20 46
split_gain=7.94178 7.99614
threshold=0.88212218142319576 8.5850000000000026
decision_type=2 2
left_child=-1 -2
right_child=1 -3
leaf_value=0.039680152467642185 -0.00053003558132675994 0.0039135099180445552
leaf_weight=195 8956 705
leaf_count=195 8956 705
internal_value=-4.0073e-05 -0.000242703
internal_weight=9856 9661
internal_count=9856 9661
is_linear=0
shrinkage=0.05


Tree=116
num_leaves=3
num_cat=0
split_feature=40 37
split_gain=7.57711 12.5085
threshold=0.41696576616553921 0.3813510393014749
decision_type=2 2
left_child=1 -1
right_child=-2 -3
leaf_value=0.00055797412050688782 -0.0020625130683072481 0.048972839572976157
leaf_weight=6614 3148 94
leaf_count=6614 3148 94
internal_value=-7.05083e-05 0.00087867
internal_weight=9856 6708
internal_count=9856 6708
is_linear=0
shrinkage=0.05


Tree=117
num_leaves=3
num_cat=0
split_feature=4 39
split_gain=7.75361 11.2299
threshold=4.5450000000000008 0.47232395798280918
decision_type=2 2
left_child=1 -1
right_child=-2 -3
leaf_value=-0.0011067482759421266 0.0023775197334602763 0.015116261215014016
leaf_weight=7318 2137 401
leaf_count=7318 2137 401
internal_value=-7.05083e-05 -0.000808938
internal_weight=9856 7719
internal_count=9856 7719
is_linear=0
shrinkage=0.05


Tree=118
num_leaves=3
num_cat=0
split_feature=15 29
split_gain=7.67202 9.85241
threshold=4.116666666666668 0.12627149922492062
decision_type=2 2
left_child=1 -1
right_child=-2 -3
leaf_value=0.054927462946337796 0.00072880250048237285 -0.0033087616435229176
leaf_weight=74 6453 3329
leaf_count=74 6453 3329
internal_value=-6.03632e-05 -0.00198149
internal_weight=9856 3403
internal_count=9856 3403
is_linear=0
shrinkage=0.05


Tree=119
num_leaves=3
num_cat=0
split_feature=46 22
split_gain=7.41794 16.0239
threshold=6.2950000000000008 0.26273826299780295
decision_type=2 2
left_child=-1 -2
right_child=1 -3
leaf_value=-0.00092263585324312567 0.0018023802338499541 -0.071268598355101867
leaf_weight=6261 3539 56
leaf_count=6261 3539 56
internal_value=9.63782e-06 0.00182008
internal_weight=9856 3595
internal_count=9856 3595
is_linear=0
shrinkage=0.05


Tree=120
num_leaves=3
num_cat=0
split_feature=40 37
split_gain=7.71961 11.0111
threshold=0.41696576616553921 0.3813510393014749
decision_type=2 2
left_child=1 -1
right_child=-2 -3
leaf_value=0.00057081777240258758 -0.0020005522617056572 0.046521101273585108
leaf_weight=6614 3148 94
leaf_count=6614 3148 94
internal_value=-1.97829e-05 0.000938292
internal_weight=9856 6708
internal_count=9856 6708
is_linear=0
shrinkage=0.05


Tree=121
num_leaves=3
num_cat=0
split_feature=4 39
split_gain=7.67158 11.0516
threshold=4.5450000000000008 0.47232395798280918
decision_type=2 2
left_child=1 -1
right_child=-2 -3
leaf_value=-0.0010301064870369414 0.0022397945258051609 0.01434159893328122
leaf_weight=7318 2137 401
leaf_count=7318 2137 401
internal_value=-9.63782e-06 -0.000744171
internal_weight=9856 7719
internal_count=9856 7719
is_linear=0
shrinkage=0.05


Tree=122
num_leaves=3
num_cat=0
split_feature=45 7
split_gain=7.35516 12.5232
threshold=81.500000000000014 22.050000000000004
decision_type=2 2
left_child=-1 -2
right_child=1 -3
leaf_value=-0.00055440337524355072 0.0015965908996827816 0.054486460714122678
leaf_weight=7856 1910 90
leaf_count=7856 1910 90
internal_value=-9.63782e-06 0.00269615
internal_weight=9856 2000
internal_count=9856 2000
is_linear=0
shrinkage=0.05


Tree=123
num_leaves=3
num_cat=0
split_feature=11 20
split_gain=7.46501 8.76887
threshold=1592.6000000000001 1.0711973582666505
decision_type=2 2
left_child=-1 -2
right_child=1 -3
leaf_value=9.4070479533836521e-05 -0.082606316200511912 0.00092066421313252711
leaf_weight=9684 83 89
leaf_count=9684 83 89
internal_value=-8.06533e-05 -0.0103757
internal_weight=9856 172
internal_count=9856 172
is_linear=0
shrinkage=0.05


Tree=124
num_leaves=3
num_cat=0
split_feature=48 22
split_gain=7.95353 14.1421
threshold=1.0450000000000002 0.26273826299780295
decision_type=2 2
left_child=-1 -2
right_child=1 -3
leaf_value=-0.0006179992176519989 0.0039535189113486307 -0.086888095634281667
leaf_weight=7537 2259 60
leaf_count=7537 2259 60
internal_value=-4.0073e-05 0.0025194
internal_weight=9856 2319
internal_count=9856 2319
is_linear=0
shrinkage=0.05


Tree=125
num_leaves=3
num_cat=0
split_feature=22 47
split_gain=7.595 11.2253
threshold=0.18609000152247021 1.0650000000000002
decision_type=2 2
left_child=-1 -2
right_child=1 -3
leaf_value=-0.0022971436955565362 0.00015935805996567521 0.039309855224257943
leaf_weight=3178 6244 434
leaf_count=3178 6244 434
internal_value=0 0.000957479
internal_weight=9856 6678
internal_count=9856 6678
is_linear=0
shrinkage=0.05


Tree=126
num_leaves=3
num_cat=0
split_feature=46 48
split_gain=7.34506 10.0261
threshold=8.5850000000000026 0.90500000000000014
decision_type=2 2
left_child=1 -1
right_child=-2 -3
leaf_value=-0.035493884010675415 0.0039472199927450989 0.00013696504268571053
leaf_weight=1081 707 8068
leaf_count=1081 707 8068
internal_value=-4.0073e-05 -0.000420219
internal_weight=9856 9149
internal_count=9856 9149
is_linear=0
shrinkage=0.05


Tree=127
num_leaves=3
num_cat=0
split_feature=22 30
split_gain=7.55698 9.94112
threshold=0.18609000152247021 0.1155759429153924
decision_type=2 2
left_child=1 -1
right_child=-2 -3
leaf_value=-0.0013404415250065861 0.00084548617321086319 -0.047469425627944165
leaf_weight=3005 6678 173
leaf_count=3005 6678 173
internal_value=0.000151669 -0.00185436
internal_weight=9856 3178
internal_count=9856 3178
is_linear=0
shrinkage=0.05


Tree=128
num_leaves=3
num_cat=0
split_feature=11 3
split_gain=7.89408 9.685
threshold=1496.6500000000003 2.8550000000000004
decision_type=2 2
left_child=-1 -2
right_child=1 -3
leaf_value=0.0017445254971393044 -0.0490290760244134 -0.00089187539766574233
leaf_weight=4271 57 5528
leaf_count=4271 57 5528
internal_value=0.000100943 -0.00113588
internal_weight=9856 5585
internal_count=9856 5585
is_linear=0
shrinkage=0.05


Tree=129
num_leaves=3
num_cat=0
split_feature=7 31
split_gain=7.50996 8.8883
threshold=4.9500000000000011 0.099124238706567919
decision_type=2 2
left_child=1 -1
right_child=-2 -3
leaf_value=0.032839171226401655 -0.00012631233545259412 -0.0063070468541136298
leaf_weight=318 9475 63
leaf_count=318 9475 63
internal_value=5.02181e-05 0.00692408
internal_weight=9856 381
internal_count=9856 381
is_linear=0
shrinkage=0.05


Tree=130
num_leaves=3
num_cat=0
split_feature=39 18
split_gain=7.42567 13.6725
threshold=0.47451032197141996 2.9548075311283566
decision_type=2 2
left_child=-1 -2
right_child=1 -3
leaf_value=-0.00020740452116159159 -0.025284946641842422 0.016128441377551896
leaf_weight=9438 61 357
leaf_count=9438 61 357
internal_value=-8.06533e-05 0.00643198
internal_weight=9856 418
internal_count=9856 418
is_linear=0
shrinkage=0.05


Tree=131
num_leaves=3
num_cat=0
split_feature=42 42
split_gain=7.50914 13.3255
threshold=0.63961038961038974 0.5634920634920636
decision_type=2 2
left_child=1 -1
right_child=-2 -3
leaf_value=-4.3828889568509059e-05 -0.0039981908416852679 0.009413833298215081
leaf_weight=6907 2076 873
leaf_count=6907 2076 873
internal_value=-7.05083e-05 0.000641948
internal_weight=9856 7780
internal_count=9856 7780
is_linear=0
shrinkage=0.05


Tree=132
num_leaves=3
num_cat=0
split_feature=22 39
split_gain=7.2247 9.63908
threshold=0.18609000152247021 0.47232395798280918
decision_type=2 2
left_child=-1 -2
right_child=1 -3
leaf_value=-0.0021672073434626073 0.00022533277721281664 0.016062330232142454
leaf_weight=3178 6303 375
leaf_count=3178 6303 375
internal_value=-8.06533e-05 0.000852673
internal_weight=9856 6678
internal_count=9856 6678
is_linear=0
shrinkage=0.05


Tree=133
num_leaves=3
num_cat=0
split_feature=4 45
split_gain=7.62708 17.4555
threshold=4.5050000000000008 90.500000000000014
decision_type=2 2
left_child=-1 -2
right_child=1 -3
leaf_value=-0.00058813647248001644 0.0015932355494705066 0.089573901457319749
leaf_weight=7415 2349 92
leaf_count=7415 2349 92
internal_value=-7.05083e-05 0.00235258
internal_weight=9856 2441
internal_count=9856 2441
is_linear=0
shrinkage=0.05


Tree=134
num_leaves=3
num_cat=0
split_feature=11 39
split_gain=7.00799 11.5104
threshold=1520.0500000000002 0.40376027613770221
decision_type=2 2
left_child=-1 -2
right_child=1 -3
leaf_value=0.00088977775387000246 -0.037141360704508929 0.0018719254553951404
leaf_weight=6601 1723 1532
leaf_count=6601 1723 1532
internal_value=-8.06533e-05 -0.00197942
internal_weight=9856 3255
internal_count=9856 3255
is_linear=0
shrinkage=0.05


Tree=135
num_leaves=3
num_cat=0
split_feature=46 0
split_gain=8.3329 7.88294
threshold=8.5350000000000019 0.28988194444444443
decision_type=2 2
left_child=1 -1
right_child=-2 -3
leaf_value=-0.026622946891518819 0.0044851314452778014 0.00015711819104755609
leaf_weight=932 749 8175
leaf_count=932 749 8175
internal_value=6.03632e-05 -0.00035628
internal_weight=9856 9107
internal_count=9856 9107
is_linear=0
shrinkage=0.05


Tree=136
num_leaves=3
num_cat=0
split_feature=47 22
split_gain=7.59194 9.59577
threshold=1.1200000000000003 0.18609000152247021
decision_type=2 2
left_child=1 -1
right_child=-2 -3
leaf_value=-0.0034782624501378482 0.03636077240678566 0.00092663708657567687
leaf_weight=2917 324 6615
leaf_count=2917 324 6615
internal_value=0.000161814 -9.38844e-05
internal_weight=9856 9532
internal_count=9856 9532
is_linear=0
shrinkage=0.05


Tree=137
num_leaves=3
num_cat=0
split_feature=45 10
split_gain=8.45483 10.1957
threshold=80.500000000000014 1537.1500000000003
decision_type=2 2
left_child=1 -1
right_child=-2 -3
leaf_value=-0.0016787913927945432 0.0028754513682308193 0.0035577715202256503
leaf_weight=5820 2283 1753
leaf_count=5820 2283 1753
internal_value=0.000111089 -0.000692501
internal_weight=9856 7573
internal_count=9856 7573
is_linear=0
shrinkage=0.05


Tree=138
num_leaves=3
num_cat=0
split_feature=1 47
split_gain=6.91248 12.8926
threshold=0.30663068181818182 1.0500000000000003
decision_type=2 2
left_child=1 -1
right_child=-2 -3
leaf_value=0.00032521582882409921 -0.0014231201356048829 0.036953614547114877
leaf_weight=4619 4553 684
leaf_count=4619 4553 684
internal_value=0.000100943 0.00132824
internal_weight=9856 5303
internal_count=9856 5303
is_linear=0
shrinkage=0.05


Tree=139
num_leaves=3
num_cat=0
split_feature=23 14
split_gain=7.16028 13.4679
threshold=0.20253485831777363 4.5166666666666675
decision_type=2 2
left_child=1 -1
right_child=-2 -3
leaf_value=-0.00067274261040872751 -0.0014319668329827008 0.0054021566129477177
leaf_weight=3076 4381 2399
leaf_count=3076 4381 2399
internal_value=0.000171959 0.00137783
internal_weight=9856 5475
internal_count=9856 5475
is_linear=0
shrinkage=0.05


Tree=140
num_leaves=3
num_cat=0
split_feature=37 20
split_gain=7.35234 9.8188
threshold=-0.024122766839835396 1.1358443634218658
decision_type=2 2
left_child=1 -1
right_child=-2 -3
leaf_value=-0.0055385893776869199 0.0013794775926865733 0.0014630910814001253
leaf_weight=2303 5564 1989
leaf_count=2303 5564 1989
internal_value=0.000111089 -0.00144305
internal_weight=9856 4292
internal_count=9856 4292
is_linear=0
shrinkage=0.05


Tree=141
num_leaves=3
num_cat=0
split_feature=46 43
split_gain=6.70914 18.3941
threshold=6.2950000000000008 0.65000000000000002
decision_type=2 2
left_child=-1 -2
right_child=1 -3
leaf_value=-0.0007927997901653772 0.00028769791343101757 0.045740868609407119
leaf_weight=6261 3087 508
leaf_count=6261 3087 508
internal_value=7.05083e-05 0.00179227
internal_weight=9856 3595
internal_count=9856 3595
is_linear=0
shrinkage=0.05


Tree=142
num_leaves=3
num_cat=0
split_feature=5 39
split_gain=6.78269 14.1974
threshold=3.9750000000000005 0.37416854115144166
decision_type=2 2
left_child=1 -1
right_child=-2 -3
leaf_value=-0.040062391561534218 0.00066009595409181063 -0.00025803701859747899
leaf_weight=421 8022 1413
leaf_count=421 8022 1413
internal_value=1.97829e-05 -0.00272207
internal_weight=9856 1834
internal_count=9856 1834
is_linear=0
shrinkage=0.05


Tree=143
num_leaves=3
num_cat=0
split_feature=45 5
split_gain=6.9782 10.575
threshold=81.500000000000014 3.9750000000000005
decision_type=2 2
left_child=1 -1
right_child=-2 -3
leaf_value=-0.03341675727235105 0.0032971086506858871 0.00023522563547714317
leaf_weight=1470 2000 6386
leaf_count=1470 2000 6386
internal_value=9.63782e-06 -0.000661194
internal_weight=9856 7856
internal_count=9856 7856
is_linear=0
shrinkage=0.05


Tree=144
num_leaves=3
num_cat=0
split_feature=42 42
split_gain=7.41931 20.7118
threshold=0.55050505050505061 0.5634920634920636
decision_type=2 2
left_child=-1 -2
right_child=1 -3
leaf_value=0.0011905228926157752 -0.041580655210887635 4.2830402724147733e-05
leaf_weight=6246 661 2949
leaf_count=6246 661 2949
internal_value=6.03632e-05 -0.00174328
internal_weight=9856 3610
internal_count=9856 3610
is_linear=0
shrinkage=0.05


Tree=145
num_leaves=3
num_cat=0
split_feature=29 30
split_gain=7.62808 9.62367
threshold=0.13790702141965228 0.097150866437095709
decision_type=2 2
left_child=1 -1
right_child=-2 -3
leaf_value=0.038374315988836297 -0.00018756635432484183 -0.043547882003323025
leaf_weight=601 9167 88
leaf_count=601 9167 88
internal_value=0.000212539 0.00528261
internal_weight=9856 689
internal_count=9856 689
is_linear=0
shrinkage=0.05


Tree=146
num_leaves=3
num_cat=0
split_feature=42 42
split_gain=7.33993 10.8507
threshold=0.63961038961038974 0.4494949494949495
decision_type=2 2
left_child=1 -1
right_child=-2 -3
leaf_value=-0.00057829599672696295 -0.0040280519806525699 0.0034350592771110302
leaf_weight=4627 2076 3153
leaf_count=4627 2076 3153
internal_value=9.07984e-05 0.00079617
internal_weight=9856 7780
internal_count=9856 7780
is_linear=0
shrinkage=0.05


Tree=147
num_leaves=3
num_cat=0
split_feature=18 37
split_gain=6.89644 11.594
threshold=4.058484740311191 -0.046119119095624946
decision_type=2 2
left_child=1 -1
right_child=-2 -3
leaf_value=-0.0052987283184815492 0.0039149809711492957 0.00084811055696341073
leaf_weight=2544 1740 5572
leaf_count=2544 1740 5572
internal_value=7.05083e-05 -0.000541456
internal_weight=9856 8116
internal_count=9856 8116
is_linear=0
shrinkage=0.05


Tree=148
num_leaves=3
num_cat=0
split_feature=12 13
split_gain=6.70786 9.43895
threshold=3.1500000000000004 4.8166666666666673
decision_type=2 2
left_child=1 -1
right_child=-2 -3
leaf_value=-0.033011526815388118 0.00035627307285724942 -0.081498510627580956
leaf_weight=174 9632 50
leaf_count=174 9632 50
internal_value=0.000111089 -0.00842222
internal_weight=9856 224
internal_count=9856 224
is_linear=0
shrinkage=0.05


Tree=149
num_leaves=3
num_cat=0
split_feature=12 31
split_gain=6.67592 8.91443
threshold=3.1500000000000004 0.063869780835066364
decision_type=2 2
left_child=1 -1
right_child=-2 -3
leaf_value=0.0058250466866700545 0.00033845941921438753 -0.047804478506644869
leaf_weight=96 9632 128
leaf_count=96 9632 128
internal_value=9.07984e-05 -0.00842222
internal_weight=9856 224
internal_count=9856 224
is_linear=0
shrinkage=0.05


Tree=150
num_leaves=3
num_cat=0
split_feature=25 33
split_gain=6.41615 7.24557
threshold=7.3651515151515161 4.7890011223344571
decision_type=2 2
left_child=1 -1
right_child=-2 -3
leaf_value=-0.00050238895600953628 0.04220018795951086 0.004623063751999979
leaf_weight=8587 129 1140
leaf_count=8587 129 1140
internal_value=8.06533e-05 -6.63035e-05
internal_weight=9856 9727
internal_count=9856 9727
is_linear=0
shrinkage=0.05


Tree=151
num_leaves=3
num_cat=0
split_feature=45 10
split_gain=6.58676 9.23805
threshold=80.500000000000014 1451.9500000000003
decision_type=2 2
left_child=1 -1
right_child=-2 -3
leaf_value=-0.029954250915565264 0.0029260742011716803 5.2104212452563918e-05
leaf_weight=1094 2283 6479
leaf_count=1094 2283 6479
internal_value=2.9928e-05 -0.000679298
internal_weight=9856 7573
internal_count=9856 7573
is_linear=0
shrinkage=0.05


Tree=152
num_leaves=3
num_cat=0
split_feature=18 37
split_gain=7.12681 10.1324
threshold=4.058484740311191 0.095794437609085972
decision_type=2 2
left_child=-1 -2
right_child=1 -3
leaf_value=-0.00047490080654719605 0.0022176870754872513 0.038961769987745393
leaf_weight=8116 1636 104
leaf_count=8116 1636 104
internal_value=8.06533e-05 0.00298392
internal_weight=9856 1740
internal_count=9856 1740
is_linear=0
shrinkage=0.05


Tree=153
num_leaves=3
num_cat=0
split_feature=18 10
split_gain=6.1816 9.17472
threshold=4.058484740311191 1476.1500000000003
decision_type=2 2
left_child=1 -1
right_child=-2 -3
leaf_value=-0.017521258662317785 0.0036945629855910656 0.00039461535040887787
leaf_weight=1610 1740 6506
leaf_count=1610 1740 6506
internal_value=5.02181e-05 -0.000529136
internal_weight=9856 8116
internal_count=9856 8116
is_linear=0
shrinkage=0.05


Tree=154
num_leaves=3
num_cat=0
split_feature=4 35
split_gain=6.34554 8.48118
threshold=4.5050000000000008 66.58830376940135
decision_type=2 2
left_child=1 -1
right_child=-2 -3
leaf_value=-0.00077617855357257079 0.0034205460076187411 0.020060506056644202
leaf_weight=7343 2441 72
leaf_count=7343 2441 72
internal_value=0.000141524 -0.000585895
internal_weight=9856 7415
internal_count=9856 7415
is_linear=0
shrinkage=0.05


Tree=155
num_leaves=3
num_cat=0
split_feature=46 29
split_gain=6.9163 8.19662
threshold=8.5350000000000019 0.20811518324607328
decision_type=2 2
left_child=1 -1
right_child=-2 -3
leaf_value=0.0014131373144110504 0.0050029430801852744 -0.0030590328284542338
leaf_weight=4894 749 4213
leaf_count=4894 749 4213
internal_value=0.000111089 -0.000268445
internal_weight=9856 9107
internal_count=9856 9107
is_linear=0
shrinkage=0.05


Tree=156
num_leaves=3
num_cat=0
split_feature=42 42
split_gain=6.5194 11.6281
threshold=0.63961038961038974 0.5634920634920636
decision_type=2 2
left_child=1 -1
right_child=-2 -3
leaf_value=0.00011481770302594896 -0.0038669140367724401 0.010083143077401125
leaf_weight=6907 2076 873
leaf_count=6907 2076 873
internal_value=0.000131379 0.00079617
internal_weight=9856 7780
internal_count=9856 7780
is_linear=0
shrinkage=0.05


Tree=157
num_leaves=3
num_cat=0
split_feature=22 47
split_gain=6.29248 11.2687
threshold=0.18609000152247021 1.0650000000000002
decision_type=2 2
left_child=-1 -2
right_child=1 -3
leaf_value=-0.0022867170514500267 0.00034019708164638733 0.036327399157013329
leaf_weight=3178 6244 434
leaf_count=3178 6244 434
internal_value=7.05083e-05 0.000942506
internal_weight=9856 6678
internal_count=9856 6678
is_linear=0
shrinkage=0.05


Tree=158
num_leaves=3
num_cat=0
split_feature=46 32
split_gain=6.97716 7.6483
threshold=8.5350000000000019 4.7926587301587302
decision_type=2 2
left_child=-1 -2
right_child=1 -3
leaf_value=-0.00031054758082387228 0.0090110547475017455 -0.042464682737137396
leaf_weight=9107 667 82
leaf_count=9107 667 82
internal_value=9.07984e-05 0.00472667
internal_weight=9856 749
internal_count=9856 749
is_linear=0
shrinkage=0.05


Tree=159
num_leaves=3
num_cat=0
split_feature=40 47
split_gain=6.58063 13.3408
threshold=0.41868752125983016 1.0650000000000002
decision_type=2 2
left_child=1 -1
right_child=-2 -3
leaf_value=0.00011315152768791581 -0.0020336715813285447 0.036075364618806227
leaf_weight=6190 2992 674
leaf_count=6190 2992 674
internal_value=1.97829e-05 0.00087327
internal_weight=9856 6864
internal_count=9856 6864
is_linear=0
shrinkage=0.05


Tree=160
num_leaves=3
num_cat=0
split_feature=45 35
split_gain=6.207 8.87407
threshold=81.500000000000014 48.936875000000008
decision_type=2 2
left_child=1 -1
right_child=-2 -3
leaf_value=0.0033464023330513461 0.0037477547901438647 -0.0016551749483519008
leaf_weight=1420 2000 6436
leaf_count=1420 2000 6436
internal_value=9.63782e-06 -0.000623011
internal_weight=9856 7856
internal_count=9856 7856
is_linear=0
shrinkage=0.05


Tree=161
num_leaves=3
num_cat=0
split_feature=40 22
split_gain=6.59969 7.66049
threshold=0.32490355229406392 0.21511312159369783
decision_type=2 2
left_child=1 -1
right_child=-2 -3
leaf_value=0.0057635690671921759 -0.00016391097255057387 0.052811642149209172
leaf_weight=105 9700 51
leaf_count=105 9700 51
internal_value=-9.63782e-06 0.0101592
internal_weight=9856 156
internal_count=9856 156
is_linear=0
shrinkage=0.05


Tree=162
num_leaves=3
num_cat=0
split_feature=3 34
split_gain=6.24494 11.0734
threshold=3.6450000000000005 60.499375000000022
decision_type=2 2
left_child=1 -1
right_child=-2 -3
leaf_value=-0.028197577821382758 0.00040952111180494468 0.033056314872740168
leaf_weight=920 8789 147
leaf_count=920 8789 147
internal_value=9.63782e-06 -0.00360019
internal_weight=9856 1067
internal_count=9856 1067
is_linear=0
shrinkage=0.05


Tree=163
num_leaves=3
num_cat=0
split_feature=4 23
split_gain=6.35681 8.03419
threshold=4.5450000000000008 0.18289766358410928
decision_type=2 2
left_child=-1 -2
right_child=1 -3
leaf_value=-0.00054885073364450141 0.027905297915721675 0.00075642849014584401
leaf_weight=7719 581 1556
leaf_count=7719 581 1556
internal_value=4.0073e-05 0.00245323
internal_weight=9856 2137
internal_count=9856 2137
is_linear=0
shrinkage=0.05


Tree=164
num_leaves=3
num_cat=0
split_feature=45 7
split_gain=6.7275 9.92902
threshold=83.500000000000014 18.550000000000004
decision_type=2 2
left_child=-1 -2
right_child=1 -3
leaf_value=-0.00049673435487724855 0.0015425001758737845 0.044727165119341522
leaf_weight=8392 1245 219
leaf_count=8392 1245 219
internal_value=9.63782e-06 0.00313652
internal_weight=9856 1464
internal_count=9856 1464
is_linear=0
shrinkage=0.05


Tree=165
num_leaves=3
num_cat=0
split_feature=36 40
split_gain=6.3228 6.88533
threshold=2.2934753308543949 0.32490355229406392
decision_type=2 2
left_child=1 -1
right_child=-2 -3
leaf_value=0.041363766051779584 0.04562786371835708 -0.00029813009539125801
leaf_weight=154 76 9626
leaf_count=154 76 9626
internal_value=-5.02181e-05 -0.000163071
internal_weight=9856 9780
internal_count=9856 9780
is_linear=0
shrinkage=0.05


Tree=166
num_leaves=3
num_cat=0
split_feature=40 47
split_gain=5.9274 11.9523
threshold=0.41696576616553921 1.0650000000000002
decision_type=2 2
left_child=1 -1
right_child=-2 -3
leaf_value=5.3957698096906981e-05 -0.0021905657492311769 0.034116956439713908
leaf_weight=6047 3148 661
leaf_count=6047 3148 661
internal_value=-5.02181e-05 0.000789238
internal_weight=9856 6708
internal_count=9856 6708
is_linear=0
shrinkage=0.05


Tree=167
num_leaves=3
num_cat=0
split_feature=43 18
split_gain=5.82585 6.87881
threshold=0.68333333333333346 3.4667618542118968
decision_type=2 2
left_child=1 -1
right_child=-2 -3
leaf_value=-0.0016153928288417331 0.010685748480964508 0.0010636029494765166
leaf_weight=4477 769 4610
leaf_count=4477 769 4610
internal_value=-9.07984e-05 -0.000445092
internal_weight=9856 9087
internal_count=9856 9087
is_linear=0
shrinkage=0.05


Tree=168
num_leaves=3
num_cat=0
split_feature=11 2
split_gain=5.90622 9.85945
threshold=1496.6500000000003 4.5250000000000012
decision_type=2 2
left_child=-1 -2
right_child=1 -3
leaf_value=0.001461799518012108 -0.0031742979435746667 0.0068700258203678423
leaf_weight=4271 4859 726
leaf_count=4271 4859 726
internal_value=-0.000100943 -0.00117168
internal_weight=9856 5585
internal_count=9856 5585
is_linear=0
shrinkage=0.05


Tree=169
num_leaves=3
num_cat=0
split_feature=22 29
split_gain=6.6177 10.2092
threshold=0.18609000152247021 0.13638181818181819
decision_type=2 2
left_child=1 -1
right_child=-2 -3
leaf_value=0.038417473232725291 0.0009033999676174465 -0.0041530102037541814
leaf_weight=215 6678 2963
leaf_count=215 6678 2963
internal_value=-7.05083e-05 -0.00194873
internal_weight=9856 3178
internal_count=9856 3178
is_linear=0
shrinkage=0.05


Tree=170
num_leaves=3
num_cat=0
split_feature=22 40
split_gain=6.18879 9.23686
threshold=0.18609000152247021 0.32810823748609491
decision_type=2 2
left_child=1 -1
right_child=-2 -3
leaf_value=0.088278004099305377 0.00085822996923657919 -0.003488961411913594
leaf_weight=52 6678 3126
leaf_count=52 6678 3126
internal_value=-0.000100943 -0.00191727
internal_weight=9856 3178
internal_count=9856 3178
is_linear=0
shrinkage=0.05


Tree=171
num_leaves=3
num_cat=0
split_feature=47 27
split_gain=6.2993 7.74582
threshold=1.1200000000000003 4.6794705718873528
decision_type=2 2
left_child=-1 -2
right_child=1 -3
leaf_value=-0.00029331150841058754 0.041829918986138463 -0.0092117201922343305
leaf_weight=9532 215 109
leaf_count=9532 215 109
internal_value=-9.07984e-05 0.00675385
internal_weight=9856 324
internal_count=9856 324
is_linear=0
shrinkage=0.05


Tree=172
num_leaves=3
num_cat=0
split_feature=25 44
split_gain=5.6328 9.79332
threshold=4.9989361702127662 0.58333333333333337
decision_type=2 2
left_child=-1 -2
right_child=1 -3
leaf_value=-0.00077534473646201363 0.001180944213644919 0.014037472111810979
leaf_weight=7729 1919 208
leaf_count=7729 1919 208
internal_value=-0.000141524 0.00213581
internal_weight=9856 2127
internal_count=9856 2127
is_linear=0
shrinkage=0.05


Tree=173
num_leaves=3
num_cat=0
split_feature=22 29
split_gain=5.97624 9.32813
threshold=0.18609000152247021 0.16833107771208777
decision_type=2 2
left_child=1 -1
right_child=-2 -3
leaf_value=0.0052726577392082424 0.00078564381946396591 -0.0075488335125636578
leaf_weight=713 6678 2465
leaf_count=713 6678 2465
internal_value=-0.000100943 -0.00188581
internal_weight=9856 3178
internal_count=9856 3178
is_linear=0
shrinkage=0.05


Tree=174
num_leaves=3
num_cat=0
split_feature=45 5
split_gain=6.33276 8.69052
threshold=83.500000000000014 3.9750000000000005
decision_type=2 2
left_child=1 -1
right_child=-2 -3
leaf_value=-0.027745755723865107 0.0037824021131294128 0.0001706516711639905
leaf_weight=1563 1464 6829
leaf_count=1563 1464 6829
internal_value=-0.000100943 -0.000630883
internal_weight=9856 8392
internal_count=9856 8392
is_linear=0
shrinkage=0.05


Tree=175
num_leaves=3
num_cat=0
split_feature=46 41
split_gain=6.48833 7.59103
threshold=8.5350000000000019 0.55050505050505061
decision_type=2 2
left_child=-1 -2
right_child=1 -3
leaf_value=-0.00035413187460839882 0.0012738315297833758 0.040527083613900318
leaf_weight=9107 538 211
leaf_count=9107 538 211
internal_value=-9.63782e-06 0.00446
internal_weight=9856 749
internal_count=9856 749
is_linear=0
shrinkage=0.05


Tree=176
num_leaves=3
num_cat=0
split_feature=11 48
split_gain=7.40644 6.6181
threshold=1592.6000000000001 1.0450000000000002
decision_type=2 2
left_child=1 -1
right_child=-2 -3
leaf_value=-0.00049103760312956273 -0.03533985023431592 0.0044680512518800453
leaf_weight=7424 172 2260
leaf_count=7424 172 2260
internal_value=-0.000121234 6.14352e-05
internal_weight=9856 9684
internal_count=9856 9684
is_linear=0
shrinkage=0.05


Tree=177
num_leaves=3
num_cat=0
split_feature=11 32
split_gain=5.86958 6.61268
threshold=1592.6000000000001 1.3009912993866783
decision_type=2 2
left_child=-1 -2
right_child=1 -3
leaf_value=7.0425559057540893e-05 0.0031476081785365762 -0.044188267845174024
leaf_weight=9684 68 104
leaf_count=9684 68 104
internal_value=-9.07984e-05 -0.00921965
internal_weight=9856 172
internal_count=9856 172
is_linear=0
shrinkage=0.05


Tree=178
num_leaves=3
num_cat=0
split_feature=12 13
split_gain=5.74351 9.89153
threshold=3.1500000000000004 4.8166666666666673
decision_type=2 2
left_child=1 -1
right_child=-2 -3
leaf_value=-0.027406820650647892 0.00012390011605747375 -0.073029696200703029
leaf_weight=174 9632 50
leaf_count=174 9632 50
internal_value=-8.06533e-05 -0.00797778
internal_weight=9856 224
internal_count=9856 224
is_linear=0
shrinkage=0.05


Tree=179
num_leaves=3
num_cat=0
split_feature=45 20
split_gain=5.96758 8.86917
threshold=81.500000000000014 0.92682841739928057
decision_type=2 2
left_child=-1 -2
right_child=1 -3
leaf_value=-0.00085788755814839588 0.079258772793258422 0.0020269670096155104
leaf_weight=7856 65 1935
leaf_count=7856 65 1935
internal_value=-9.07984e-05 0.00234633
internal_weight=9856 2000
internal_count=9856 2000
is_linear=0
shrinkage=0.05


Tree=180
num_leaves=3
num_cat=0
split_feature=29 36
split_gain=5.98628 9.05177
threshold=0.3353163493840986 -0.52735715988545795
decision_type=2 2
left_child=-1 -2
right_child=1 -3
leaf_value=-0.00017347199194741594 -0.031784603455891729 0.049038671632720826
leaf_weight=9682 60 114
leaf_count=9682 60 114
internal_value=-5.02181e-05 0.00911429
internal_weight=9856 174
internal_count=9856 174
is_linear=0
shrinkage=0.05


Tree=181
num_leaves=3
num_cat=0
split_feature=12 40
split_gain=5.75823 6.86993
threshold=3.1500000000000004 0.37468213459678518
decision_type=2 2
left_child=1 -1
right_child=-2 -3
leaf_value=0.0082149394545818055 0.00011628613513544606 -0.037906402323928917
leaf_weight=58 9632 166
leaf_count=58 9632 166
internal_value=-7.05083e-05 -0.00797778
internal_weight=9856 224
internal_count=9856 224
is_linear=0
shrinkage=0.05


Tree=182
num_leaves=3
num_cat=0
split_feature=42 42
split_gain=5.6933 15.5559
threshold=0.2264957264957265 0.27922077922077926
decision_type=2 2
left_child=-1 -2
right_child=1 -3
leaf_value=-0.0051823210882972594 0.046381836572089323 3.4308173063934969e-06
leaf_weight=1458 318 8080
leaf_count=1458 318 8080
internal_value=-6.03632e-05 0.000439933
internal_weight=9856 8398
internal_count=9856 8398
is_linear=0
shrinkage=0.05


Tree=183
num_leaves=3
num_cat=0
split_feature=45 12
split_gain=6.39416 11.0639
threshold=62.500000000000007 4.6500000000000012
decision_type=2 2
left_child=1 -1
right_child=-2 -3
leaf_value=-0.032227104937443476 0.00042801880283513952 0.0054109418532565018
leaf_weight=899 8493 464
leaf_count=899 8493 464
internal_value=-8.06533e-05 -0.0032588
internal_weight=9856 1363
internal_count=9856 1363
is_linear=0
shrinkage=0.05


Tree=184
num_leaves=3
num_cat=0
split_feature=28 30
split_gain=5.44433 10.9767
threshold=0.17278449337850324 0.10534412461012362
decision_type=2 2
left_child=1 -1
right_child=-2 -3
leaf_value=0.0052611728672360639 -0.00077281749009079366 -0.031867905902599428
leaf_weight=2269 7312 275
leaf_count=2269 7312 275
internal_value=9.63782e-06 0.00200196
internal_weight=9856 2544
internal_count=9856 2544
is_linear=0
shrinkage=0.05


Tree=185
num_leaves=3
num_cat=0
split_feature=42 42
split_gain=5.6226 9.36277
threshold=0.63961038961038974 0.5634920634920636
decision_type=2 2
left_child=1 -1
right_child=-2 -3
leaf_value=1.1004501362532616e-05 -0.0043840735562492572 0.010602996128762254
leaf_weight=6907 2076 873
leaf_count=6907 2076 873
internal_value=5.02181e-05 0.000667652
internal_weight=9856 7780
internal_count=9856 7780
is_linear=0
shrinkage=0.05


Tree=186
num_leaves=3
num_cat=0
split_feature=23 26
split_gain=5.78628 12.0281
threshold=0.20253485831777363 4.8464144261088657
decision_type=2 2
left_child=-1 -2
right_child=1 -3
leaf_value=0.0014512651698631363 -0.0041701910456601876 0.0068776960559994828
leaf_weight=5475 3659 722
leaf_count=5475 3659 722
internal_value=1.97829e-05 -0.00133387
internal_weight=9856 4381
internal_count=9856 4381
is_linear=0
shrinkage=0.05


Tree=187
num_leaves=3
num_cat=0
split_feature=22 35
split_gain=5.60642 12.0481
threshold=0.18703368062888134 65.179264214046853
decision_type=2 2
left_child=1 -1
right_child=-2 -3
leaf_value=-0.0032165036395946259 0.0009318072187738391 0.054997749772646487
leaf_weight=3229 6561 66
leaf_count=3229 6561 66
internal_value=2.9928e-05 -0.001652
internal_weight=9856 3295
internal_count=9856 3295
is_linear=0
shrinkage=0.05


Tree=188
num_leaves=3
num_cat=0
split_feature=22 45
split_gain=5.53552 9.54257
threshold=0.18609000152247021 62.500000000000007
decision_type=2 2
left_child=1 -1
right_child=-2 -3
leaf_value=-0.037076588737142251 0.00086378277657985782 -0.00088978852253236435
leaf_weight=384 6678 2794
leaf_count=384 6678 2794
internal_value=1.97829e-05 -0.00169707
internal_weight=9856 3178
internal_count=9856 3178
is_linear=0
shrinkage=0.05


Tree=189
num_leaves=3
num_cat=0
split_feature=47 10
split_gain=5.60367 7.61665
threshold=1.1200000000000003 1451.9500000000003
decision_type=2 2
left_child=-1 -2
right_child=1 -3
leaf_value=-0.00017829752394802335 -0.001955741656531096 0.039198841131601728
leaf_weight=9532 162 162
leaf_count=9532 162 162
internal_value=-9.63782e-06 0.00644615
internal_weight=9856 324
internal_count=9856 324
is_linear=0
shrinkage=0.05


Tree=190
num_leaves=3
num_cat=0
split_feature=11 32
split_gain=5.96097 6.61268
threshold=1592.6000000000001 1.3009912993866783
decision_type=2 2
left_child=-1 -2
right_child=1 -3
leaf_value=0.00016382393758445081 0.0032430926592165957 -0.04268743756428333
leaf_weight=9684 68 104
leaf_count=9684 68 104
internal_value=-1.97829e-05 -0.00921965
internal_weight=9856 172
internal_count=9856 172
is_linear=0
shrinkage=0.05


Tree=191
num_leaves=3
num_cat=0
split_feature=21 32
split_gain=5.49631 10.9478
threshold=1.0127756928228178 0.92288928713659912
decision_type=2 2
left_child=1 -1
right_child=-2 -3
leaf_value=0.0073099678177334319 0.00068332261799359812 -0.022257966911141059
leaf_weight=556 7157 2143
leaf_count=556 7157 2143
internal_value=-1.97829e-05 -0.00194259
internal_weight=9856 2699
internal_count=9856 2699
is_linear=0
shrinkage=0.05


Tree=192
num_leaves=3
num_cat=0
split_feature=45 20
split_gain=5.51868 8.72132
threshold=81.500000000000014 0.92682841739928057
decision_type=2 2
left_child=-1 -2
right_child=1 -3
leaf_value=-0.00057875468564310144 0.074288127305786711 0.0026871235021270093
leaf_weight=7856 65 1935
leaf_count=7856 65 1935
internal_value=0.000151669 0.00249625
internal_weight=9856 2000
internal_count=9856 2000
is_linear=0
shrinkage=0.05


Tree=193
num_leaves=3
num_cat=0
split_feature=41 28
split_gain=5.49589 12.1085
threshold=0.17424242424242423 0.18811924355550708
decision_type=2 2
left_child=1 -1
right_child=-2 -3
leaf_value=0.050206747318265278 -0.00026544285180800652 -0.00030806198449855331
leaf_weight=280 9094 482
leaf_count=280 9094 482
internal_value=0.000111089 0.00418742
internal_weight=9856 762
internal_count=9856 762
is_linear=0
shrinkage=0.05


Tree=194
num_leaves=3
num_cat=0
split_feature=30 39
split_gain=5.46252 11.3975
threshold=0.10027903867678147 0.43478086718236858
decision_type=2 2
left_child=-1 -2
right_child=1 -3
leaf_value=0.00043518877153120306 -0.029149989514918762 0.038013505976648612
leaf_weight=8658 1011 187
leaf_count=8658 1011 187
internal_value=8.06533e-05 -0.00308173
internal_weight=9856 1198
internal_count=9856 1198
is_linear=0
shrinkage=0.05


Tree=195
num_leaves=3
num_cat=0
split_feature=6 12
split_gain=5.73268 12.2725
threshold=4.8500000000000005 4.616666666666668
decision_type=2 2
left_child=1 -1
right_child=-2 -3
leaf_value=-0.00071504707258305275 -3.5716305215172107e-05 0.053565404361743979
leaf_weight=242 9466 148
leaf_count=242 9466 148
internal_value=0.000192249 0.00612532
internal_weight=9856 390
internal_count=9856 390
is_linear=0
shrinkage=0.05


Tree=196
num_leaves=3
num_cat=0
split_feature=23 14
split_gain=6.16111 11.2007
threshold=0.20253485831777363 4.5166666666666675
decision_type=2 2
left_child=1 -1
right_child=-2 -3
leaf_value=-0.00080455771388849857 -0.0017067921307621248 0.0063073387753795453
leaf_weight=3076 4381 2399
leaf_count=3076 4381 2399
internal_value=0.000131379 0.00125
internal_weight=9856 5475
internal_count=9856 5475
is_linear=0
shrinkage=0.05


Tree=197
num_leaves=3
num_cat=0
split_feature=10 14
split_gain=5.63572 8.72232
threshold=1476.8500000000001 4.6833333333333345
decision_type=2 2
left_child=1 -1
right_child=-2 -3
leaf_value=-0.024718215427877135 0.00090547502351692179 1.9422816975589452e-05
leaf_weight=810 7072 1974
leaf_count=810 7072 1974
internal_value=0.000111089 -0.00179354
internal_weight=9856 2784
internal_count=9856 2784
is_linear=0
shrinkage=0.05


Tree=198
num_leaves=3
num_cat=0
split_feature=45 7
split_gain=5.90362 9.85203
threshold=81.500000000000014 22.050000000000004
decision_type=2 2
left_child=-1 -2
right_child=1 -3
leaf_value=-0.00056347278157193876 0.0024699693374102827 0.054288074847373802
leaf_weight=7856 1910 90
leaf_count=7856 1910 90
internal_value=0.000121234 0.00254623
internal_weight=9856 2000
internal_count=9856 2000
is_linear=0
shrinkage=0.05


Tree=199
num_leaves=3
num_cat=0
split_feature=42 42
split_gain=6.42257 20.3251
threshold=0.55050505050505061 0.4494949494949495
decision_type=2 2
left_child=1 -1
right_child=-2 -3
leaf_value=-0.00077050932812507968 -0.0023617542510884883 0.013235580874086494
leaf_weight=4627 3610 1619
leaf_count=4627 3610 1619
internal_value=0.000100943 0.00107171
internal_weight=9856 6246
internal_count=9856 6246
is_linear=0
shrinkage=0.05


Tree=200
num_leaves=3
num_cat=0
split_feature=40 6
split_gain=5.68371 8.43931
threshold=0.34815458059672427 7.6500000000000012
decision_type=2 2
left_child=1 -1
right_child=-2 -3
leaf_value=0.059995587354503103 -0.00036749171426295749 0.0048836502558419984
leaf_weight=77 9115 664
leaf_count=77 9115 664
internal_value=2.9928e-05 0.00423854
internal_weight=9856 741
internal_count=9856 741
is_linear=0
shrinkage=0.05


Tree=201
num_leaves=3
num_cat=0
split_feature=10 28
split_gain=5.49295 10.2264
threshold=1537.1500000000003 0.14014875027648749
decision_type=2 2
left_child=-1 -2
right_child=1 -3
leaf_value=-0.00074271781099284346 0.051371470028266433 0.0030767350719021151
leaf_weight=7711 80 2065
leaf_count=7711 80 2065
internal_value=1.97829e-05 0.00225769
internal_weight=9856 2145
internal_count=9856 2145
is_linear=0
shrinkage=0.05


Tree=202
num_leaves=3
num_cat=0
split_feature=45 10
split_gain=5.57656 8.38106
threshold=81.500000000000014 1537.1500000000003
decision_type=2 2
left_child=1 -1
right_child=-2 -3
leaf_value=-0.0020460034660160441 0.0037603204039620476 0.0038622429011468729
leaf_weight=6050 2000 1806
leaf_count=6050 2000 1806
internal_value=-9.63782e-06 -0.000610284
internal_weight=9856 7856
internal_count=9856 7856
is_linear=0
shrinkage=0.05


Tree=203
num_leaves=3
num_cat=0
split_feature=16 38
split_gain=5.50627 10.1299
threshold=0.3076775221628047 -0.012392868961222448
decision_type=2 2
left_child=1 -1
right_child=-2 -3
leaf_value=0.015820475884628527 0.00025448512828886162 -0.03384895360797293
leaf_weight=66 9464 326
leaf_count=66 9464 326
internal_value=-4.0073e-05 -0.00583969
internal_weight=9856 392
internal_count=9856 392
is_linear=0
shrinkage=0.05


Tree=204
num_leaves=3
num_cat=0
split_feature=16 18
split_gain=6.4733 8.94728
threshold=0.3076775221628047 4.058484740311191
decision_type=2 2
left_child=-1 -2
right_child=1 -3
leaf_value=-0.022923518319214367 -0.0005790319272001021 0.0067374088762578443
leaf_weight=392 8007 1457
leaf_count=392 8007 1457
internal_value=-6.03632e-05 0.000200211
internal_weight=9856 9464
internal_count=9856 9464
is_linear=0
shrinkage=0.05


Tree=205
num_leaves=3
num_cat=0
split_feature=47 22
split_gain=5.62134 7.45067
threshold=1.1200000000000003 0.18609000152247021
decision_type=2 2
left_child=1 -1
right_child=-2 -3
leaf_value=-0.0037808350610259115 0.023874093347557704 0.00069979124205803438
leaf_weight=2917 324 6615
leaf_count=2917 324 6615
internal_value=-1.97829e-05 -0.000240743
internal_weight=9856 9532
internal_count=9856 9532
is_linear=0
shrinkage=0.05


Tree=206
num_leaves=3
num_cat=0
split_feature=11 3
split_gain=5.90976 9.72577
threshold=1496.2500000000002 2.8550000000000004
decision_type=2 2
left_child=-1 -2
right_child=1 -3
leaf_value=0.0014456841700937195 -0.046635604379458885 -0.001350887825030478
leaf_weight=4233 57 5566
leaf_count=4233 57 5566
internal_value=-2.9928e-05 -0.00109264
internal_weight=9856 5623
internal_count=9856 5623
is_linear=0
shrinkage=0.05


Tree=207
num_leaves=3
num_cat=0
split_feature=23 26
split_gain=5.85148 11.7448
threshold=0.20253485831777363 4.8464144261088657
decision_type=2 2
left_child=-1 -2
right_child=1 -3
leaf_value=0.0011648306419422606 -0.0041204046921958339 0.0070996557982428545
leaf_weight=5475 3659 722
leaf_count=5475 3659 722
internal_value=-4.0073e-05 -0.00140233
internal_weight=9856 4381
internal_count=9856 4381
is_linear=0
shrinkage=0.05


Tree=208
num_leaves=3
num_cat=0
split_feature=29 8
split_gain=5.6081 11.1514
threshold=0.20862809057343831 54.500000000000007
decision_type=2 2
left_child=1 -1
right_child=-2 -3
leaf_value=-0.00078101940390442606 -0.0017085962615026153 0.008474590838294882
leaf_weight=3112 4516 2228
leaf_count=3112 4516 2228
internal_value=-2.9928e-05 0.00106628
internal_weight=9856 5340
internal_count=9856 5340
is_linear=0
shrinkage=0.05


Tree=209
num_leaves=3
num_cat=0
split_feature=11 33
split_gain=5.44033 9.48356
threshold=1496.2500000000002 0.60787211740041946
decision_type=2 2
left_child=1 -1
right_child=-2 -3
leaf_value=0.045056860871609011 -0.0015315814124139849 0.00057435695141951906
leaf_weight=186 5623 4047
leaf_count=186 5623 4047
internal_value=-9.07984e-05 0.0012624
internal_weight=9856 4233
internal_count=9856 4233
is_linear=0
shrinkage=0.05


Tree=210
num_leaves=3
num_cat=0
split_feature=47 1
split_gain=5.48905 13.0187
threshold=1.0650000000000002 0.29638749999999997
decision_type=2 2
left_child=-1 -2
right_child=1 -3
leaf_value=-0.0004654334888972711 0.043191546338808978 5.428345131726076e-05
leaf_weight=8874 237 745
leaf_count=8874 237 745
internal_value=-9.07984e-05 0.00345371
internal_weight=9856 982
internal_count=9856 982
is_linear=0
shrinkage=0.05


Tree=211
num_leaves=3
num_cat=0
split_feature=47 1
split_gain=5.45764 13.0187
threshold=1.0650000000000002 0.29638749999999997
decision_type=2 2
left_child=-1 -2
right_child=1 -3
leaf_value=-0.000442161814452402 0.041031969021868522 5.1569278751406601e-05
leaf_weight=8874 237 745
leaf_count=8874 237 745
internal_value=-8.06533e-05 0.00345371
internal_weight=9856 982
internal_count=9856 982
is_linear=0
shrinkage=0.05


Tree=212
num_leaves=3
num_cat=0
split_feature=45 47
split_gain=5.26848 9.8595
threshold=62.500000000000007 1.0100000000000002
decision_type=2 2
left_child=1 -1
right_child=-2 -3
leaf_value=-0.027259024679218369 0.00046485506405793411 0.0093522353730385987
leaf_weight=1017 8493 346
leaf_count=1017 8493 346
internal_value=-8.06533e-05 -0.00296554
internal_weight=9856 1363
internal_count=9856 1363
is_linear=0
shrinkage=0.05


Tree=213
num_leaves=3
num_cat=0
split_feature=29 31
split_gain=6.64377 9.39675
threshold=0.3353163493840986 0.064843957470665167
decision_type=2 2
left_child=-1 -2
right_child=1 -3
leaf_value=-0.00012540894907420164 -0.0046709934386207517 0.045093219489837924
leaf_weight=9682 84 90
leaf_count=9682 84 90
internal_value=2.9928e-05 0.00968571
internal_weight=9856 174
internal_count=9856 174
is_linear=0
shrinkage=0.05


Tree=214
num_leaves=3
num_cat=0
split_feature=0 37
split_gain=5.75175 14.3936
threshold=0.2896833333333334 0.051297117471141809
decision_type=2 2
left_child=1 -1
right_child=-2 -3
leaf_value=-0.030407436822027803 0.0004582532719552335 0.011205048914839222
leaf_weight=680 8825 351
leaf_count=680 8825 351
internal_value=0 -0.00353198
internal_weight=9856 1031
internal_count=9856 1031
is_linear=0
shrinkage=0.05


Tree=215
num_leaves=3
num_cat=0
split_feature=5 39
split_gain=5.63835 14.3242
threshold=3.9750000000000005 0.37416854115144166
decision_type=2 2
left_child=1 -1
right_child=-2 -3
leaf_value=-0.032329336153310531 0.00071741665962913323 -1.7413532560439651e-05
leaf_weight=421 8022 1413
leaf_count=421 8022 1413
internal_value=5.02181e-05 -0.00244959
internal_weight=9856 1834
internal_count=9856 1834
is_linear=0
shrinkage=0.05


Tree=216
num_leaves=3
num_cat=0
split_feature=42 1
split_gain=5.709 8.56734
threshold=0.63961038961038974 0.32589444444444443
decision_type=2 2
left_child=1 -1
right_child=-2 -3
leaf_value=0.00098772107097913077 -0.0043058369726209243 -0.025278586283662821
leaf_weight=7495 2076 285
leaf_count=7495 2076 285
internal_value=1.97829e-05 0.000641948
internal_weight=9856 7780
internal_count=9856 7780
is_linear=0
shrinkage=0.05


Tree=217
num_leaves=3
num_cat=0
split_feature=45 5
split_gain=5.5253 8.33259
threshold=81.500000000000014 3.9750000000000005
decision_type=2 2
left_child=1 -1
right_child=-2 -3
leaf_value=-0.024341879300181803 0.0037668333620342279 0.00023405959873608052
leaf_weight=1470 2000 6386
leaf_count=1470 2000 6386
internal_value=5.02181e-05 -0.000546646
internal_weight=9856 7856
internal_count=9856 7856
is_linear=0
shrinkage=0.05


Tree=218
num_leaves=3
num_cat=0
split_feature=40 31
split_gain=5.53089 11.7162
threshold=0.41868752125983016 0.045850140040876758
decision_type=2 2
left_child=-1 -2
right_child=1 -3
leaf_value=0.0008865036643644908 0.0082193508357996329 -0.0053293236346597444
leaf_weight=6864 425 2567
leaf_count=6864 425 2567
internal_value=9.07984e-05 -0.00170231
internal_weight=9856 2992
internal_count=9856 2992
is_linear=0
shrinkage=0.05


Tree=219
num_leaves=3
num_cat=0
split_feature=46 11
split_gain=6.07404 7.75166
threshold=8.5850000000000026 1533.9500000000003
decision_type=2 2
left_child=-1 -2
right_child=1 -3
leaf_value=-0.00022828295715782154 0.021326775999220639 -0.0057178296744081931
leaf_weight=9149 533 174
leaf_count=9149 533 174
internal_value=0.000121234 0.00458333
internal_weight=9856 707
internal_count=9856 707
is_linear=0
shrinkage=0.05


Tree=220
num_leaves=3
num_cat=0
split_feature=10 20
split_gain=5.20225 10.8826
threshold=1452.8500000000001 1.2411631496331845
decision_type=2 2
left_child=-1 -2
right_child=1 -3
leaf_value=-0.0056152530987261251 0.00018393963421328154 0.030195145042163987
leaf_weight=1618 7961 277
leaf_count=1618 7961 277
internal_value=0 0.000509164
internal_weight=9856 8238
internal_count=9856 8238
is_linear=0
shrinkage=0.05


Tree=221
num_leaves=3
num_cat=0
split_feature=29 6
split_gain=5.20096 8.49525
threshold=0.3353163493840986 11.550000000000002
decision_type=2 2
left_child=-1 -2
right_child=1 -3
leaf_value=-0.00016182574390783967 0.054082275275931152 -0.00015447346217158933
leaf_weight=9682 74 100
leaf_count=9682 74 100
internal_value=0 0.00854286
internal_weight=9856 174
internal_count=9856 174
is_linear=0
shrinkage=0.05


Tree=222
num_leaves=3
num_cat=0
split_feature=11 20
split_gain=5.94787 7.01269
threshold=1592.6000000000001 1.0711973582666505
decision_type=2 2
left_child=-1 -2
right_child=1 -3
leaf_value=0.00016301167243153449 -0.054057383717096077 0.0019513229724847704
leaf_weight=9684 83 89
leaf_count=9684 83 89
internal_value=-2.9928e-05 -0.00921965
internal_weight=9856 172
internal_count=9856 172
is_linear=0
shrinkage=0.05


Tree=223
num_leaves=3
num_cat=0
split_feature=31 20
split_gain=5.29784 5.47991
threshold=0.14566995305164318 0.88212218142319576
decision_type=2 2
left_child=1 -1
right_child=-2 -3
leaf_value=0.032734606626869091 0.041771817474920737 -0.00024365651230722209
leaf_weight=194 99 9563
leaf_count=194 99 9563
internal_value=0 -0.00011734
internal_weight=9856 9757
internal_count=9856 9757
is_linear=0
shrinkage=0.05


Tree=224
num_leaves=3
num_cat=0
split_feature=42 42
split_gain=5.18715 7.69209
threshold=0.63961038961038974 0.5634920634920636
decision_type=2 2
left_child=1 -1
right_child=-2 -3
leaf_value=-4.368533200511671e-05 -0.0041456585360148956 0.012085913361452528
leaf_weight=6907 2076 873
leaf_count=6907 2076 873
internal_value=-4.0073e-05 0.000551986
internal_weight=9856 7780
internal_count=9856 7780
is_linear=0
shrinkage=0.05


Tree=225
num_leaves=3
num_cat=0
split_feature=25 44
split_gain=5.14192 10.7268
threshold=4.9989361702127662 0.58333333333333337
decision_type=2 2
left_child=-1 -2
right_child=1 -3
leaf_value=-0.00055644894827406872 0.00078831179348035638 0.016632110136183587
leaf_weight=7729 1919 208
leaf_count=7729 1919 208
