tree
version=v4
num_class=1
num_tree_per_iteration=1
label_index=0
max_feature_idx=42
objective=binary sigmoid:1
feature_names=away_proj_lineup_woba diff_proj_sp_k_bb diff_proj_sp_sc_era diff_proj_lineup_woba home_proj_lineup_woba home_proj_lineup_bb_score away_proj_sp_k_bb home_proj_sp_sc_era home_proj_sp_fip diff_proj_sp_sust home_proj_sp_war diff_pyth_t30 diff_pyth_t14 away_team_whip_t14 home_team_whip_t30 away_team_k_pct_t14 home_team_k_pct_t14 home_era_sp10 away_k_pct_sp10 away_bb_pct_sp10 away_ip_per_start_sp10 home_fip_sp10 home_bb_pct_sp10 away_era_sp5 away_fip_sp10 home_ip_per_start_sp5 away_whip_sp10 away_era_sp10 away_k_pct_sp5 home_ip_per_start_sp10 diff_bp_bb_pct_bp35 diff_bp_whip_bp35 diff_bp_k_pct_bp35 home_lineup_slg away_lineup_slg home_platoon_adv away_platoon_adv away_velo_x_same_hand home_velo_x_same_hand home_ivb_x_same_hand home_venue_wpct away_venue_wpct diff_venue_wpct
feature_infos=[0.25900000000000001:0.34300000000000003] [-38.399999999999999:42.5] [-3.0499999999999998:2.5500000000000003] [-0.069000000000000006:0.062314285714285697] [0.27014285714285707:0.34462500000000001] [50:86.5] [-18.800000000000001:39.5] [2.5699999999999998:6] [2.3300000000000001:5.2300000000000004] [-13:13] [-1.3999999999999999:3.5] [-0.55235601998536565:0.5436142353477813] [-0.64426086091543655:0.69605695778064292] [0.65753424657489212:1.6337349397578556] [0.77661999348723576:1.4955588452992801] [0.097488921713427198:0.31238779174141612] [0.10997067448678741:0.29999999999994642] [0.19444444444444459:12.116666666666667] [0.041200000000000001:0.45887445887445888] [0:0.29081632653061218] [0.38802083333333331:9] [0.67459016393442628:8.4000000000000004] [0:0.2666] [0:12.622222222222224] [0.7114035087719297:8.3699999999999992] [0.17636684303350969:8.2222222222222232] [0.47249999999999998:2.2736842105263162] [0.53333333333333388:11.866666666666664] [0.041200000000000001:0.48181818181818181] [0.3686067019400352:8.2222222222222232] [-0.060886696385174799:0.062286518779540799] [-0.63748670840257682:0.61745615943571597] [-0.1405162337848927:0.135060493602225] [0.27503511663083169:0.55510386907596909] [0.27803886956064372:0.56911634943443501] [0:1] [0:1] [0:93.900000000000006] [0:93.900000000000006] [0:12.800000000000001] [0.066666666666666596:0.8666666666666667] [0.066666666666666596:0.80000000000000004] [-0.5:0.63333333333333341]
tree_sizes=457 469 466 458 465 464 477 478 475 477 482 477 476 478 475 475 473 478 478 476 474 471 474 475 469 482 481 476 478 474 471 480 476 474 476 475 480 466 465 475 464 471 473 474 472 476 477 479 475 474 480 462 477 472 476 473 476 475 476 474 475 474 470 472 472 472 476 474 478 477 475 479 476 470 476 471 473 473 475 473 470 473 474 476 478 475 470 473 474 478 474 472 474 473 475 472 471 474 477 474 474 473 477 478 480 475 472 477 474 475 475 473 476 476 478 477 478 476 471 473 470 478 472 473 475 477 473 474 475 473 479 475 475 475 470 477 480 475 474 475 472 473 472 475 474 468 474 477 473 477 476 478 477 476 475 472 476 475 463 463 465 464 460 479 462 476 478 475 475 474 478 474 472 474 479 476 475 477 471 476 469 463 468 465 463 467 461 467 463 463 463 465 467 468 464 458 466 467 464 467 464 467 468 463 467 468 459 460 470 470 463 463 464 449 465 465 467 464 461 460 462 461 463 463 476 443 466 467 466 462 464 468 464 468 469 462 462 465 460 464 469 466 463 466 463 476 470 462 465 443 467 465 462 467 467 469 469 464 465 465 466 461 475 475 474 476 452 465 461 477 476 476 459 461 458 469 471 470 471 474 470 473 477 474 474 473 473 474 477 466 467 466 470 463 474 474 474 473 463 469 467 462 467 472 461 464 460 467 468 469 469 464 472 468 465 465 467 463 463 475 466 464 467 464 460 461 467 475 464 462 460 478 473 465 462 467 467 464 476 476 475 467 476 473 477 473 469 474 473 473 470 474 476 473 471 473 472 480 469 474 473 474 475 470 474 455 476 473 474 471 472 479 462 464 463 466 466 465 465 466 463 466 462 460 465 467 467 465 466 463 460 466 464 465 457 462 462 461 468 466 467 466 462 462 464 469 467 468 449 466 466 465 469 464 469 461 463 466 460 461 460 466 464 466 463 464 467 462 466 468 465 466 467 466 465 471 464 471 463 466 463 463 460 454 462 464 465 466 466 463 466 467 468 468 459 466 450 461 464 462 464 464 465 471 462 465 465 465 464 477 471 464 470 475 464 464 466 464 461 459 468 465 466 462 467 469 461 465 467 463 460 465 468 458 462 464 460 466 460 465

Tree=0
num_leaves=3
num_cat=0
split_feature=11 1
split_gain=123.656 34.8614
threshold=0.016997591131410156 7.7500000000000018
decision_type=2 2
left_child=-1 -2
right_child=1 -3
leaf_value=0.10429074766764594 0.12277399905744883 0.14616677389923433
leaf_weight=1334.36618283391 929.69565418362617 191.86964720487595
leaf_count=5355 3731 770
internal_value=0.114573 0.126805
internal_weight=2455.93 1121.57
internal_count=9856 4501
is_linear=0
shrinkage=1


Tree=1
num_leaves=3
num_cat=0
split_feature=12 3
split_gain=100.151 41.822
threshold=-0.0064521745659198498 -0.0038333333333332499
decision_type=2 2
left_child=-1 -2
right_child=1 -3
leaf_value=-0.010303326449389987 -0.0027949072719179249 0.016452425053258002
leaf_weight=1202.4673016220331 427.46592770516872 825.90246529877186
leaf_count=4824 1716 3316
internal_value=0 0.00988707
internal_weight=2455.84 1253.37
internal_count=9856 5032
is_linear=0
shrinkage=0.05


Tree=2
num_leaves=3
num_cat=0
split_feature=11 1
split_gain=106.387 49.2027
threshold=-0.056534118752983899 -0.8999999999999998
decision_type=2 2
left_child=-1 -2
right_child=1 -3
leaf_value=-0.013701002104715188 -0.0029097475479729108 0.015192436627460735
leaf_weight=897.64233319461346 627.68364074826241 930.33527100086212
leaf_count=3599 2520 3737
internal_value=0 0.00789916
internal_weight=2455.66 1558.02
internal_count=9856 6257
is_linear=0
shrinkage=0.05


Tree=3
num_leaves=3
num_cat=0
split_feature=11 1
split_gain=97.82 31.8942
threshold=0.018690795750534801 7.7500000000000018
decision_type=2 2
left_child=-1 -2
right_child=1 -3
leaf_value=-0.0090595237834445088 0.0071182823711796496 0.029642368162959662
leaf_weight=1345.549431681633 920.68052473664284 189.1352276802063
leaf_count=5394 3700 762
internal_value=0 0.0109846
internal_weight=2455.37 1109.82
internal_count=9856 4462
is_linear=0
shrinkage=0.05


Tree=4
num_leaves=3
num_cat=0
split_feature=11 6
split_gain=89.4505 45.3948
threshold=-0.056534118752983899 11.950000000000001
decision_type=2 2
left_child=-1 -2
right_child=1 -3
leaf_value=-0.012551509195725128 0.016461663724032242 -0.00065388266778588534
leaf_weight=898.51269401609898 718.75967027246952 837.6554379761219
leaf_count=3599 2892 3365
internal_value=0 0.00725244
internal_weight=2454.93 1556.42
internal_count=9856 6257
is_linear=0
shrinkage=0.05


Tree=5
num_leaves=3
num_cat=0
split_feature=11 1
split_gain=83.1456 42.1171
threshold=0.11947058952949687 5.0499999999999998
decision_type=2 2
left_child=1 -1
right_child=-2 -3
leaf_value=-0.0090238149870648411 0.016614408547178279 0.0091412540880151973
leaf_weight=1472.8047886043787 575.45207688212395 406.15636783838272
leaf_count=5906 2318 1632
internal_value=0 -0.00509182
internal_weight=2454.41 1878.96
internal_count=9856 7538
is_linear=0
shrinkage=0.05


Tree=6
num_leaves=3
num_cat=0
split_feature=11 3
split_gain=76.9228 46.2262
threshold=-0.056534118752983899 -0.0038333333333332499
decision_type=2 2
left_child=-1 -2
right_child=1 -3
leaf_value=-0.01163201643058488 -0.0052225405029858131 0.012939781050091163
leaf_weight=899.03231385350227 531.17467270791531 1023.734947308898
leaf_count=3599 2135 4122
internal_value=5.50484e-07 0.00673274
internal_weight=2453.94 1554.91
internal_count=9856 6257
is_linear=0
shrinkage=0.05


Tree=7
num_leaves=3
num_cat=0
split_feature=42 31
split_gain=73.6096 36.2498
threshold=0.19999999999999998 -0.13559084375105676
decision_type=2 2
left_child=1 -1
right_child=-2 -3
leaf_value=-0.016939295546107982 0.017004400000090597 -0.00069330423832801536
leaf_weight=444.21008494496346 504.53924971818924 1504.5601564347744
leaf_count=1780 2034 6042
internal_value=4.21777e-07 -0.00440583
internal_weight=2453.31 1948.77
internal_count=9856 7822
is_linear=0
shrinkage=0.05


Tree=8
num_leaves=3
num_cat=0
split_feature=11 1
split_gain=68.0034 37.9609
threshold=0.11947058952949687 -0.80000000000000016
decision_type=2 2
left_child=1 -1
right_child=-2 -3
leaf_value=-0.012020428954620715 0.015054081241462373 0.0021971381624088806
leaf_weight=898.18066439032555 573.72634348273277 980.92849099636078
leaf_count=3599 2318 3939
internal_value=3.55498e-07 -0.00459872
internal_weight=2452.84 1879.11
internal_count=9856 7538
is_linear=0
shrinkage=0.05


Tree=9
num_leaves=3
num_cat=0
split_feature=42 11
split_gain=63.5372 35.1457
threshold=0.19999999999999998 -0.17843941375112488
decision_type=2 2
left_child=1 -1
right_child=-2 -3
leaf_value=-0.01867293171990491 0.015821528070975397 -0.00099495285175341575
leaf_weight=339.91535574197769 503.32811823487282 1608.9475085884333
leaf_count=1360 2034 6462
internal_value=6.23863e-07 -0.00408886
internal_weight=2452.19 1948.86
internal_count=9856 7822
is_linear=0
shrinkage=0.05


Tree=10
num_leaves=3
num_cat=0
split_feature=12 3
split_gain=57.2486 31.9092
threshold=-0.0064521745659198498 -0.0038333333333332499
decision_type=2 2
left_child=-1 -2
right_child=1 -3
leaf_value=-0.0077719189767866308 -0.0035720604371738598 0.013266406012951176
leaf_weight=1203.9878825247288 426.64178766310215 820.90607383847237
leaf_count=4824 1716 3316
internal_value=4.52258e-07 0.00750566
internal_weight=2451.54 1247.55
internal_count=9856 5032
is_linear=0
shrinkage=0.05


Tree=11
num_leaves=3
num_cat=0
split_feature=11 0
split_gain=55.9446 30.0889
threshold=0.018690795750534801 0.30535416666666665
decision_type=2 2
left_child=-1 -2
right_child=1 -3
leaf_value=-0.0068344897431712563 0.016034826566916908 -0.00049740616321131581
leaf_weight=1346.8771408200264 590.16118475794792 513.7987398058176
leaf_count=5394 2388 2074
internal_value=4.28459e-07 0.00834248
internal_weight=2450.84 1103.96
internal_count=9856 4462
is_linear=0
shrinkage=0.05


Tree=12
num_leaves=3
num_cat=0
split_feature=42 1
split_gain=52.8007 31.5367
threshold=0.19999999999999998 -0.80000000000000016
decision_type=2 2
left_child=1 -1
right_child=-2 -3
leaf_value=-0.010421738338967677 0.014451421394790477 0.0023096580357412975
leaf_weight=923.29962284862995 501.66892378032207 1025.0827786624432
leaf_count=3701 2034 4121
internal_value=5.59743e-07 -0.00372318
internal_weight=2450.05 1948.38
internal_count=9856 7822
is_linear=0
shrinkage=0.05


Tree=13
num_leaves=3
num_cat=0
split_feature=11 3
split_gain=49.584 36.1331
threshold=-0.056534118752983899 -0.0038333333333332499
decision_type=2 2
left_child=-1 -2
right_child=1 -3
leaf_value=-0.0093290404746215246 -0.0051431829037793392 0.010929899519420723
leaf_weight=899.5294281244278 530.83073423802853 1018.988247320056
leaf_count=3599 2135 4122
internal_value=8.12468e-07 0.00542169
internal_weight=2449.35 1549.82
internal_count=9856 6257
is_linear=0
shrinkage=0.05


Tree=14
num_leaves=3
num_cat=0
split_feature=42 1
split_gain=46.0616 30.4892
threshold=0.21666666666666665 -0.80000000000000016
decision_type=2 2
left_child=1 -1
right_child=-2 -3
leaf_value=-0.0096860161184330849 0.014745907823352262 0.002629655275971296
leaf_weight=950.85188865661621 434.60074864327908 1062.9694757461548
leaf_count=3812 1767 4277
internal_value=6.3227e-07 -0.00318479
internal_weight=2448.42 2013.82
internal_count=9856 8089
is_linear=0
shrinkage=0.05


Tree=15
num_leaves=3
num_cat=0
split_feature=11 1
split_gain=45.0409 31.2097
threshold=0.11947058952949687 5.4000000000000021
decision_type=2 2
left_child=1 -1
right_child=-2 -3
leaf_value=-0.0069564997689966837 0.012305374317298549 0.0091414221065000429
leaf_weight=1502.6637161821127 569.66872416436672 375.32606327533722
leaf_count=6026 2318 1512
internal_value=9.03091e-07 -0.00373343
internal_weight=2447.66 1877.99
internal_count=9856 7538
is_linear=0
shrinkage=0.05


Tree=16
num_leaves=3
num_cat=0
split_feature=11 1
split_gain=41.6249 33.2744
threshold=0.21960576611387334 3.9000000000000017
decision_type=2 2
left_child=1 -1
right_child=-2 -3
leaf_value=-0.005807101477767581 0.020536472434003757 0.0079256856191176131
leaf_weight=1618.5298742055893 223.22135965526104 605.03742535412312
leaf_count=6500 912 2444
internal_value=1.30875e-06 -0.00206625
internal_weight=2446.79 2223.57
internal_count=9856 8944
is_linear=0
shrinkage=0.05


Tree=17
num_leaves=3
num_cat=0
split_feature=11 18
split_gain=39.9917 26.723
threshold=-0.07363338615321878 0.21287453975358114
decision_type=2 2
left_child=-1 -2
right_child=1 -3
leaf_value=-0.0090620104952451788 0.0097132502787192557 -0.0033327975669295257
leaf_weight=811.62839713692665 982.63290317356586 651.77918685972691
leaf_count=3248 3980 2628
internal_value=1.89806e-06 0.00450877
internal_weight=2446.04 1634.41
internal_count=9856 6608
is_linear=0
shrinkage=0.05


Tree=18
num_leaves=3
num_cat=0
split_feature=30 21
split_gain=38.2855 40.387
threshold=0.0091362183685567509 3.6064039179254412
decision_type=2 2
left_child=1 -1
right_child=-2 -3
leaf_value=0.0071702580604966239 0.0095540651945710889 -0.0093221306865025385
leaf_weight=542.45347075164318 733.44198973476887 1169.2903957366943
leaf_count=2187 2966 4703
internal_value=1.63858e-06 -0.00409162
internal_weight=2445.19 1711.74
internal_count=9856 6890
is_linear=0
shrinkage=0.05


Tree=19
num_leaves=3
num_cat=0
split_feature=11 1
split_gain=36.816 35.7849
threshold=-0.17843941375112488 -0.8999999999999998
decision_type=2 2
left_child=-1 -2
right_child=1 -3
leaf_value=-0.015141362803053799 -0.0050381284937204658 0.0081392379375958609
leaf_weight=343.72605133056641 900.78290677070618 1200.2642277926207
leaf_count=1376 3620 4860
internal_value=1.82151e-06 0.00248761
internal_weight=2444.77 2101.05
internal_count=9856 8480
is_linear=0
shrinkage=0.05


Tree=20
num_leaves=3
num_cat=0
split_feature=42 6
split_gain=35.2552 28.5136
threshold=-0.059195402298850487 11.950000000000001
decision_type=2 2
left_child=-1 -2
right_child=1 -3
leaf_value=-0.010224389834305323 0.010468372347562108 -0.0021129833767408383
leaf_weight=625.68157620728016 815.0347755253315 1003.1860922127962
leaf_count=2508 3309 4039
internal_value=1.34591e-06 0.00352663
internal_weight=2443.9 1818.22
internal_count=9856 7348
is_linear=0
shrinkage=0.05


Tree=21
num_leaves=3
num_cat=0
split_feature=15 1
split_gain=34.001 22.6559
threshold=0.2022382451871135 -0.8999999999999998
decision_type=2 2
left_child=1 -1
right_child=-2 -3
leaf_value=-0.002526782985009936 -0.0065171457653782922 0.010684283325743971
leaf_weight=544.12227092683315 1098.94814927876 800.05500166118145
leaf_count=2188 4420 3248
internal_value=1.13353e-06 0.00533483
internal_weight=2443.13 1344.18
internal_count=9856 5436
is_linear=0
shrinkage=0.05


Tree=22
num_leaves=3
num_cat=0
split_feature=30 21
split_gain=33.0279 29.257
threshold=0.0030265054873495506 3.6064039179254412
decision_type=2 2
left_child=1 -1
right_child=-2 -3
leaf_value=0.0056965144303618405 0.0067459956192850628 -0.009873590010997706
leaf_weight=437.76799431443214 1040.9616079777479 963.798714235425
leaf_count=1766 4214 3876
internal_value=1.0189e-06 -0.00500624
internal_weight=2442.53 1401.57
internal_count=9856 5642
is_linear=0
shrinkage=0.05


Tree=23
num_leaves=3
num_cat=0
split_feature=11 31
split_gain=32.9612 25.3295
threshold=0.21960576611387334 -0.19655199690850975
decision_type=2 2
left_child=1 -1
right_child=-2 -3
leaf_value=-0.0161199265097569 0.018349597671741172 0.00015819516461318737
leaf_weight=271.27758558094501 221.52534611523151 1949.2533081173897
leaf_count=1088 912 7856
internal_value=1.09557e-06 -0.00183458
internal_weight=2442.06 2220.53
internal_count=9856 8944
is_linear=0
shrinkage=0.05


Tree=24
num_leaves=3
num_cat=0
split_feature=42 6
split_gain=30.7671 22.1558
threshold=0.21666666666666665 5.5500000000000007
decision_type=2 2
left_child=1 -1
right_child=-2 -3
leaf_value=0.023731248815814 0.012113348318023201 -0.0036424907493094599
leaf_weight=75.826762855052948 430.79356832802296 1934.6822609901428
leaf_count=307 1767 7782
internal_value=1.21041e-06 -0.00259631
internal_weight=2441.3 2010.51
internal_count=9856 8089
is_linear=0
shrinkage=0.05


Tree=25
num_leaves=3
num_cat=0
split_feature=12 30
split_gain=29.5042 23.1469
threshold=-0.0064521745659198498 0.0047524376932301009
decision_type=2 2
left_child=1 -1
right_child=-2 -3
leaf_value=-0.010299549941048269 0.0054185314182732865 0.0045889919995364395
leaf_weight=820.90409621596336 1238.3642050176859 381.32349474728107
leaf_count=3292 5032 1532
internal_value=1.95408e-06 -0.00557315
internal_weight=2440.59 1202.23
internal_count=9856 4824
is_linear=0
shrinkage=0.05


Tree=26
num_leaves=3
num_cat=0
split_feature=3 11
split_gain=28.7549 29.7043
threshold=-0.0038333333333332499 -0.077595300144060839
decision_type=2 2
left_child=-1 -2
right_child=1 -3
leaf_value=-0.0067962822524508543 -0.0070339501228302709 0.0087080192647930373
leaf_weight=948.83920912444592 413.84225413203239 1077.0822831243277
leaf_count=3816 1658 4382
internal_value=1.8872e-06 0.00433332
internal_weight=2439.76 1490.92
internal_count=9856 6040
is_linear=0
shrinkage=0.05


Tree=27
num_leaves=3
num_cat=0
split_feature=15 40
split_gain=28.0041 21.5655
threshold=0.2022382451871135 0.41428571428571431
decision_type=2 2
left_child=-1 -2
right_child=1 -3
leaf_value=0.0048507868386893915 -0.022194179086589751 -0.0028901741856853808
leaf_weight=1340.7568008750677 170.74418602883816 927.31362669169903
leaf_count=5436 685 3735
internal_value=1.58493e-06 -0.00591389
internal_weight=2438.81 1098.06
internal_count=9856 4420
is_linear=0
shrinkage=0.05


Tree=28
num_leaves=3
num_cat=0
split_feature=11 30
split_gain=26.6083 22.2283
threshold=0.21960576611387334 0.0091362183685567509
decision_type=2 2
left_child=1 -1
right_child=-2 -3
leaf_value=-0.0047485693611120173 0.016548768910530618 0.0064192108692995176
leaf_weight=1602.4803993105888 219.98104766011238 615.81125873327255
leaf_count=6452 912 2492
internal_value=8.88762e-07 -0.00164458
internal_weight=2438.27 2218.29
internal_count=9856 8944
is_linear=0
shrinkage=0.05


Tree=29
num_leaves=3
num_cat=0
split_feature=1 9
split_gain=26.3777 33.5458
threshold=-0.80000000000000016 4.5000000000000009
decision_type=2 2
left_child=1 -1
right_child=-2 -3
leaf_value=-0.01072140242728873 0.0047072555431602941 0.0095797785273683145
leaf_weight=828.49341949820518 1340.4722355902195 268.52686133980751
leaf_count=3332 5443 1081
internal_value=1.36457e-06 -0.00574336
internal_weight=2437.49 1097.02
internal_count=9856 4413
is_linear=0
shrinkage=0.05


Tree=30
num_leaves=3
num_cat=0
split_feature=31 35
split_gain=25.3123 21.5913
threshold=-0.19655199690850975 0.77350427350427364
decision_type=2 2
left_child=-1 -2
right_child=1 -3
leaf_value=-0.0143336502213617 0.0001872444515214869 0.01716862238092871
leaf_weight=272.35312406718731 1958.5798753499985 206.0451126396656
leaf_count=1094 7928 834
internal_value=1.41582e-06 0.00181315
internal_weight=2436.98 2164.62
internal_count=9856 8762
is_linear=0
shrinkage=0.05


Tree=31
num_leaves=3
num_cat=0
split_feature=3 12
split_gain=25.1494 23.5385
threshold=-0.0038333333333332499 -0.15332683077854006
decision_type=2 2
left_child=-1 -2
right_child=1 -3
leaf_value=-0.0063562086954261215 -0.0084123548925829818 0.0072233499845599548
leaf_weight=948.34420569241047 300.67413339018822 1187.5781065821648
leaf_count=3816 1207 4833
internal_value=1.43415e-06 0.00405756
internal_weight=2436.6 1488.25
internal_count=9856 6040
is_linear=0
shrinkage=0.05


Tree=32
num_leaves=3
num_cat=0
split_feature=18 17
split_gain=23.6117 20.8467
threshold=0.20811518324607328 4.7517605633802829
decision_type=2 2
left_child=1 -1
right_child=-2 -3
leaf_value=0.0084567141912790019 -0.0052883219338411011 -0.0056901365592015142
leaf_weight=948.71578022837639 1129.5362842231989 357.55413942039013
leaf_count=3857 4554 1445
internal_value=1.07233e-06 0.0045792
internal_weight=2435.81 1306.27
internal_count=9856 5302
is_linear=0
shrinkage=0.05


Tree=33
num_leaves=3
num_cat=0
split_feature=26 36
split_gain=23.3246 23.6349
threshold=1.4278428955907139 0.63961038961038974
decision_type=2 2
left_child=1 -1
right_child=-2 -3
leaf_value=0.00068341079866143599 0.011304384649597007 -0.01239150541667473
leaf_weight=1613.206341356039 383.51979219913483 438.64639848470688
leaf_count=6522 1561 1773
internal_value=8.39343e-07 -0.00211399
internal_weight=2435.37 2051.85
internal_count=9856 8295
is_linear=0
shrinkage=0.05


Tree=34
num_leaves=3
num_cat=0
split_feature=15 40
split_gain=23.1814 18.3319
threshold=0.2022382451871135 0.41428571428571431
decision_type=2 2
left_child=-1 -2
right_child=1 -3
leaf_value=0.0044188180443231109 -0.020407839626220281 -0.0025942150861101255
leaf_weight=1338.0520683377981 170.42232117056847 926.66218210756779
leaf_count=5436 685 3735
internal_value=8.67347e-07 -0.00538202
internal_weight=2435.14 1097.08
internal_count=9856 4420
is_linear=0
shrinkage=0.05


Tree=35
num_leaves=3
num_cat=0
split_feature=1 9
split_gain=22.3825 30.2887
threshold=-0.80000000000000016 4.5000000000000009
decision_type=2 2
left_child=1 -1
right_child=-2 -3
leaf_value=-0.010023343401884658 0.0043399076607982603 0.0092754965576255146
leaf_weight=827.99897086620331 1338.2951744496822 268.25528864562511
leaf_count=3332 5443 1081
internal_value=2.26859e-07 -0.00529218
internal_weight=2434.55 1096.25
internal_count=9856 4413
is_linear=0
shrinkage=0.05


Tree=36
num_leaves=3
num_cat=0
split_feature=3 11
split_gain=22.2734 22.7129
threshold=-0.0038333333333332499 -0.13051123186708713
decision_type=2 2
left_child=-1 -2
right_child=1 -3
leaf_value=-0.005982804672868572 -0.0092652188908396212 0.0067367698054825523
leaf_weight=947.91729381680489 270.01839073002338 1216.0555184036493
leaf_count=3816 1084 4956
internal_value=3.24985e-07 0.00382158
internal_weight=2433.99 1486.07
internal_count=9856 6040
is_linear=0
shrinkage=0.05


Tree=37
num_leaves=3
num_cat=0
split_feature=30 17
split_gain=21.7633 26.6889
threshold=0.0091362183685567509 4.652338318938277
decision_type=2 2
left_child=1 -1
right_child=-2 -3
leaf_value=0.0010194162170691801 0.0072357667118995569 -0.012598917676492738
leaf_weight=1191.4894468188286 727.64816246926785 513.96543134748936
leaf_count=4819 2966 2071
internal_value=0 -0.00308673
internal_weight=2433.1 1705.45
internal_count=9856 6890
is_linear=0
shrinkage=0.05


Tree=38
num_leaves=3
num_cat=0
split_feature=41 35
split_gain=20.9082 20.5625
threshold=0.38333333333333336 0.55050505050505061
decision_type=2 2
left_child=-1 -2
right_child=1 -3
leaf_value=0.0084297979236467192 -0.0066329014129330793 0.0041769691978026388
leaf_weight=564.095787987113 1162.4241364896297 705.99422676861286
leaf_count=2317 4690 2849
internal_value=0 -0.0025456
internal_weight=2432.51 1868.42
internal_count=9856 7539
is_linear=0
shrinkage=0.05


Tree=39
num_leaves=3
num_cat=0
split_feature=38 36
split_gain=20.8569 23.8924
threshold=32.417857142857152 0.2264957264957265
decision_type=2 2
left_child=-1 -2
right_child=1 -3
leaf_value=-0.0089531644054275938 -0.0091877963112097418 0.005077980132233967
leaf_weight=512.10497386753559 360.35354435443878 1559.5228040963411
leaf_count=2074 1458 6324
internal_value=1.42971e-07 0.00239436
internal_weight=2431.98 1919.88
internal_count=9856 7782
is_linear=0
shrinkage=0.05


Tree=40
num_leaves=3
num_cat=0
split_feature=26 1
split_gain=20.0678 19.9248
threshold=1.4278428955907139 6.0500000000000007
decision_type=2 2
left_child=1 -1
right_child=-2 -3
leaf_value=-0.0042965789969142054 0.010501663763633319 0.0084385721623918327
leaf_weight=1674.5303883552551 382.37975977361202 374.92174302041531
leaf_count=6762 1561 1533
internal_value=0 -0.00196142
internal_weight=2431.83 2049.45
internal_count=9856 8295
is_linear=0
shrinkage=0.05


Tree=41
num_leaves=3
num_cat=0
split_feature=11 1
split_gain=20.0314 18.558
threshold=0.21960576611387334 15.950000000000003
decision_type=2 2
left_child=1 -1
right_child=-2 -3
leaf_value=-0.0019920209912624104 0.014433167439242231 0.035535595506599953
leaf_weight=2180.9907237589359 217.84132866561413 32.439530536532402
leaf_count=8811 912 133
internal_value=1.21634e-07 -0.00142397
internal_weight=2431.27 2213.43
internal_count=9856 8944
is_linear=0
shrinkage=0.05


Tree=42
num_leaves=3
num_cat=0
split_feature=31 37
split_gain=19.667 18.9608
threshold=-0.19655199690850975 21.26794871794872
decision_type=2 2
left_child=-1 -2
right_child=1 -3
leaf_value=-0.012650268807597185 0.016017969980178012 7.5824427349455368e-05
leaf_weight=271.66031593084335 205.27283425629139 1953.6994035243988
leaf_count=1094 834 7928
internal_value=1.25831e-06 0.00160062
internal_weight=2430.63 2158.97
internal_count=9856 8762
is_linear=0
shrinkage=0.05


Tree=43
num_leaves=3
num_cat=0
split_feature=3 35
split_gain=19.3534 18.8867
threshold=-0.0038333333333332499 0.77350427350427364
decision_type=2 2
left_child=1 -1
right_child=-2 -3
leaf_value=-0.0080080309843183952 0.0035683268850636367 0.014869268724761157
leaf_weight=847.2402767688036 1483.0670901834965 99.8949304074049
leaf_count=3413 6040 403
internal_value=1.28986e-06 -0.00557674
internal_weight=2430.2 947.135
internal_count=9856 3816
is_linear=0
shrinkage=0.05


Tree=44
num_leaves=3
num_cat=0
split_feature=38 36
split_gain=18.8554 21.189
threshold=32.417857142857152 0.2264957264957265
decision_type=2 2
left_child=-1 -2
right_child=1 -3
leaf_value=-0.0085127981414354677 -0.0086281215746549789 0.0048093532020021803
leaf_weight=511.86654531955719 360.2394081056118 1557.696568056941
leaf_count=2074 1458 6324
internal_value=1.47088e-06 0.00227965
internal_weight=2429.8 1917.94
internal_count=9856 7782
is_linear=0
shrinkage=0.05


Tree=45
num_leaves=3
num_cat=0
split_feature=11 1
split_gain=18.642 19.4382
threshold=-0.24026058970400735 -0.70000000000000051
decision_type=2 2
left_child=-1 -2
right_child=1 -3
leaf_value=-0.015578367996025778 -0.0039289287906603644 0.0054078155442900183
leaf_weight=176.91771830618382 1006.7254033684731 1245.9639005959034
leaf_count=713 4057 5086
internal_value=9.88118e-07 0.00123312
internal_weight=2429.61 2252.69
internal_count=9856 9143
is_linear=0
shrinkage=0.05


Tree=46
num_leaves=3
num_cat=0
split_feature=17 18
split_gain=18.3093 25.0438
threshold=4.7517605633802829 0.21913354140114608
decision_type=2 2
left_child=1 -1
right_child=-2 -3
leaf_value=0.0073695189989035894 -0.0071569113940727251 -0.0047970246602280298
leaf_weight=1085.3701523989439 652.07827086746693 691.28451757133007
leaf_count=4428 2636 2792
internal_value=4.51184e-07 0.00263275
internal_weight=2428.73 1776.65
internal_count=9856 7220
is_linear=0
shrinkage=0.05


Tree=47
num_leaves=3
num_cat=0
split_feature=30 21
split_gain=17.7964 26.8242
threshold=0.0091362183685567509 3.6064039179254412
decision_type=2 2
left_child=1 -1
right_child=-2 -3
leaf_value=0.0064195422883234227 0.0065550539197007408 -0.0070616396900560806
leaf_weight=538.79948264360428 725.42079123854637 1163.9583381414413
leaf_count=2187 2966 4703
internal_value=1.96372e-07 -0.00279162
internal_weight=2428.18 1702.76
internal_count=9856 6890
is_linear=0
shrinkage=0.05


Tree=48
num_leaves=3
num_cat=0
split_feature=3 18
split_gain=17.8127 17.8896
threshold=0.011888888888888852 0.17004931268242163
decision_type=2 2
left_child=1 -1
right_child=-2 -3
leaf_value=0.0064880334350902449 0.009097836950778003 -0.0046568452127517214
leaf_weight=470.81408064067364 439.66546624898911 1517.0561826229095
leaf_count=1921 1797 6138
internal_value=3.6871e-07 -0.0020128
internal_weight=2427.54 1987.87
internal_count=9856 8059
is_linear=0
shrinkage=0.05


Tree=49
num_leaves=3
num_cat=0
split_feature=32 36
split_gain=17.571 16.28
threshold=0.028555147639471104 0.55050505050505061
decision_type=2 2
left_child=1 -1
right_child=-2 -3
leaf_value=0.0057184373389658205 -0.008182064659365839 -0.0038517868357849875
leaf_weight=1211.893410474062 515.34349712729454 699.85437718033791
leaf_count=4932 2080 2844
internal_value=6.41419e-07 0.00221216
internal_weight=2427.09 1911.75
internal_count=9856 7776
is_linear=0
shrinkage=0.05


Tree=50
num_leaves=3
num_cat=0
split_feature=15 30
split_gain=16.9371 14.3169
threshold=0.2022382451871135 -0.007388626976946349
decision_type=2 2
left_child=-1 -2
right_child=1 -3
leaf_value=0.0037866620348483782 -0.012236492198074014 -0.00031490527321468539
leaf_weight=1332.4198800623417 392.67429293692112 701.63517928123474
leaf_count=5436 1584 2836
internal_value=3.10784e-07 -0.00460459
internal_weight=2426.73 1094.31
internal_count=9856 4420
is_linear=0
shrinkage=0.05


Tree=51
num_leaves=3
num_cat=0
split_feature=37 37
split_gain=16.6158 27.4631
threshold=42.207575757575761 39.683928571428581
decision_type=2 2
left_child=1 -1
right_child=-2 -3
leaf_value=0.0012469212351587117 -0.0031728499779086665 0.023838174994473955
leaf_weight=735.40728670358658 1526.9299310594797 163.83811409771442
leaf_count=2990 6201 665
internal_value=0 0.0053904
internal_weight=2426.18 899.245
internal_count=9856 3655
is_linear=0
shrinkage=0.05


Tree=52
num_leaves=3
num_cat=0
split_feature=26 33
split_gain=16.4001 17.3428
threshold=1.4278428955907139 0.42097381454535127
decision_type=2 2
left_child=1 -1
right_child=-2 -3
leaf_value=-0.0047019979041628473 0.0095155965332045303 0.0054564025297334532
leaf_weight=1456.2223404794931 380.80742463469505 589.09296277165413
leaf_count=5894 1561 2401
internal_value=4.34156e-07 -0.00177249
internal_weight=2426.12 2045.32
internal_count=9856 8295
is_linear=0
shrinkage=0.05


Tree=53
num_leaves=3
num_cat=0
split_feature=35 35
split_gain=16.3373 24.8474
threshold=0.77350427350427364 0.78888888888888908
decision_type=2 2
left_child=-1 -2
right_child=1 -3
leaf_value=-0.0013229127251114564 0.034365065377635007 0.00017332487461852226
leaf_weight=2197.0256037861109 82.923778519034386 145.66927011311054
leaf_count=8925 338 593
internal_value=6.8883e-07 0.0126941
internal_weight=2425.62 228.593
internal_count=9856 931
is_linear=0
shrinkage=0.05


Tree=54
num_leaves=3
num_cat=0
split_feature=38 36
split_gain=16.2609 18.6442
threshold=32.417857142857152 0.2264957264957265
decision_type=2 2
left_child=-1 -2
right_child=1 -3
leaf_value=-0.0079089517941498422 -0.0081174783620996342 0.0044962261264822568
leaf_weight=511.29633815586567 359.77004700899124 1554.4651812016964
leaf_count=2074 1458 6324
internal_value=1.42306e-06 0.00211994
internal_weight=2425.53 1914.24
internal_count=9856 7782
is_linear=0
shrinkage=0.05


Tree=55
num_leaves=3
num_cat=0
split_feature=42 6
split_gain=15.7562 16.5188
threshold=0.23333333333333328 4.9500000000000011
decision_type=2 2
left_child=1 -1
right_child=-2 -3
leaf_value=0.02171757064691435 0.0093017545316581487 -0.0026043443889615606
leaf_weight=71.346320003271103 382.56880877912045 1971.3754497617483
leaf_count=292 1595 7969
internal_value=9.49715e-07 -0.00174219
internal_weight=2425.29 2042.72
internal_count=9856 8261
is_linear=0
shrinkage=0.05


Tree=56
num_leaves=3
num_cat=0
split_feature=3 13
split_gain=15.8527 16.2169
threshold=-0.0038333333333332499 1.3325242718436905
decision_type=2 2
left_child=-1 -2
right_child=1 -3
leaf_value=-0.0050500382885731426 0.0022093188792379381 0.030080675335222462
leaf_weight=945.49602799117565 1425.8609740585089 53.231480911374092
leaf_count=3816 5817 223
internal_value=1.59519e-06 0.00323541
internal_weight=2424.59 1479.09
internal_count=9856 6040
is_linear=0
shrinkage=0.05


Tree=57
num_leaves=3
num_cat=0
split_feature=29 3
split_gain=15.4695 14.8097
threshold=5.4593253968253981 -0.0038333333333332499
decision_type=2 2
left_child=1 -1
right_child=-2 -3
leaf_value=-0.0040783810766877229 -0.017570559099350968 0.0041261704723400726
leaf_weight=902.87430989742279 118.06372687220573 1403.1240769475698
leaf_count=3644 479 5733
internal_value=2.18352e-06 0.000911276
internal_weight=2424.06 2306
internal_count=9856 9377
is_linear=0
shrinkage=0.05


Tree=58
num_leaves=3
num_cat=0
split_feature=17 18
split_gain=15.3032 19.7127
threshold=4.652338318938277 0.21913354140114608
decision_type=2 2
left_child=1 -1
right_child=-2 -3
leaf_value=0.0068078559909400711 -0.0062212507516078066 -0.0041509132740451433
leaf_weight=1051.9836640059948 700.70982450246811 670.97339415550232
leaf_count=4305 2838 2713
internal_value=1.54458e-06 0.00253734
internal_weight=2423.67 1722.96
internal_count=9856 7018
is_linear=0
shrinkage=0.05


Tree=59
num_leaves=3
num_cat=0
split_feature=31 25
split_gain=14.8469 15.7934
threshold=-0.19655199690850975 2.4008547008547012
decision_type=2 2
left_child=-1 -2
right_child=1 -3
leaf_value=-0.011010587646360391 0.0033392270067665697 -0.008027084183552113
leaf_weight=270.69982734322548 1784.8144866973162 367.58297733962536
leaf_count=1094 7270 1492
internal_value=1.24525e-06 0.00139296
internal_weight=2423.1 2152.4
internal_count=9856 8762
is_linear=0
shrinkage=0.05


Tree=60
num_leaves=3
num_cat=0
split_feature=38 36
split_gain=14.7695 16.4721
threshold=32.417857142857152 0.2264957264957265
decision_type=2 2
left_child=-1 -2
right_child=1 -3
leaf_value=-0.0075409604541722868 -0.0076041315032509479 0.0042573239237525661
leaf_weight=510.86301022768021 359.48217356204987 1552.2503104805946
leaf_count=2074 1458 6324
internal_value=6.58994e-07 0.00202147
internal_weight=2422.6 1911.73
internal_count=9856 7782
is_linear=0
shrinkage=0.05


Tree=61
num_leaves=3
num_cat=0
split_feature=15 38
split_gain=14.7525 15.8846
threshold=0.15673447154382145 32.417857142857152
decision_type=2 2
left_child=-1 -2
right_child=1 -3
leaf_value=0.015596062204622237 -0.0090878734008748765 0.0011689260643328496
leaf_weight=141.74108417332172 476.1286556571722 1804.456336826086
leaf_count=587 1931 7338
internal_value=2.30666e-07 -0.000973288
internal_weight=2422.33 2280.58
internal_count=9856 9269
is_linear=0
shrinkage=0.05


Tree=62
num_leaves=3
num_cat=0
split_feature=35 35
split_gain=14.7375 22.4245
threshold=0.77350427350427364 0.78888888888888908
decision_type=2 2
left_child=-1 -2
right_child=1 -3
leaf_value=-0.0012568442715116938 0.032713723940298867 0.0001773024064012905
leaf_weight=2193.9470475763083 82.56763456761837 145.45525418221951
leaf_count=8925 338 593
internal_value=4.41101e-07 0.012072
internal_weight=2421.97 228.023
internal_count=9856 931
is_linear=0
shrinkage=0.05


Tree=63
num_leaves=3
num_cat=0
split_feature=3 6
split_gain=14.5003 16.8413
threshold=0.011888888888888852 3.9500000000000006
decision_type=2 2
left_child=1 -1
right_child=-2 -3
leaf_value=0.022172870667996905 0.008226121904674628 -0.0027006584588078015
leaf_weight=69.533111408352852 438.02012726664543 1914.287153378129
leaf_count=287 1797 7772
internal_value=1.16318e-06 -0.00181559
internal_weight=2421.84 1983.82
internal_count=9856 8059
is_linear=0
shrinkage=0.05


Tree=64
num_leaves=3
num_cat=0
split_feature=21 1
split_gain=14.196 17.588
threshold=3.2678672687178412 6.4500000000000011
decision_type=2 2
left_child=-1 -2
right_child=1 -3
leaf_value=0.0074252076864235149 -0.0040000268513470929 0.009338780271827397
leaf_weight=508.02693794667721 1623.0618425607681 290.35871243476868
leaf_count=2078 6580 1198
internal_value=1.76464e-06 -0.00196945
internal_weight=2421.45 1913.42
internal_count=9856 7778
is_linear=0
shrinkage=0.05


Tree=65
num_leaves=3
num_cat=0
split_feature=9 31
split_gain=14.303 17.5239
threshold=6.5000000000000009 0.25154747553979501
decision_type=2 2
left_child=-1 -2
right_child=1 -3
leaf_value=-0.0017609787234055777 0.0056349772518869794 0.046814440271902819
leaf_weight=1999.5672263503075 394.56903962790966 26.743695348501205
leaf_count=8142 1603 111
internal_value=2.01157e-06 0.00836543
internal_weight=2420.88 421.313
internal_count=9856 1714
is_linear=0
shrinkage=0.05


Tree=66
num_leaves=3
num_cat=0
split_feature=32 35
split_gain=13.8623 14.4757
threshold=0.028555147639471104 0.87301587301587313
decision_type=2 2
left_child=1 -1
right_child=-2 -3
leaf_value=0.0012061538728819962 -0.0072713581051359368 0.026896653020465212
leaf_weight=1850.8807903975248 514.31295561790466 55.542869552969933
leaf_count=7549 2080 227
internal_value=3.07304e-06 0.00197097
internal_weight=2420.74 1906.42
internal_count=9856 7776
is_linear=0
shrinkage=0.05


Tree=67
num_leaves=3
num_cat=0
split_feature=24 35
split_gain=13.7992 15.4492
threshold=5.8582477037285585 0.55050505050505061
decision_type=2 2
left_child=1 -1
right_child=-2 -3
leaf_value=-0.003783662063168785 0.021427147567063955 0.0046004573336747862
leaf_weight=1474.1062591075897 71.914460778236389 874.38133278489113
leaf_count=5995 297 3564
internal_value=3.38638e-06 -0.000659356
internal_weight=2420.4 2348.49
internal_count=9856 9559
is_linear=0
shrinkage=0.05


Tree=68
num_leaves=3
num_cat=0
split_feature=33 30
split_gain=13.635 19.3424
threshold=0.42360411738324882 0.0047524376932301009
decision_type=2 2
left_child=1 -1
right_child=-2 -3
leaf_value=-0.0062279618411959295 0.0062309087429611373 0.0045895273696587536
leaf_weight=1124.1475316286087 644.28946052491665 651.72613334655762
leaf_count=4550 2641 2665
internal_value=3.74543e-06 -0.0022549
internal_weight=2420.16 1775.87
internal_count=9856 7215
is_linear=0
shrinkage=0.05


Tree=69
num_leaves=3
num_cat=0
split_feature=14 18
split_gain=13.5836 14.0516
threshold=0.89798322687970955 0.20811518324607328
decision_type=2 2
left_child=-1 -2
right_child=1 -3
leaf_value=0.020728704747569639 0.0029211919002511081 -0.0048385924581428909
leaf_weight=75.576417148113251 1258.3817058950663 1085.5305532366037
leaf_count=312 5150 4394
internal_value=3.69638e-06 -0.000670977
internal_weight=2419.49 2343.91
internal_count=9856 9544
is_linear=0
shrinkage=0.05


Tree=70
num_leaves=3
num_cat=0
split_feature=0 37
split_gain=13.3635 15.0516
threshold=0.30713392857142857 42.207575757575761
decision_type=2 2
left_child=1 -1
right_child=-2 -3
leaf_value=0.011138624348762746 -0.004114026550638636 -0.00025944193350414319
leaf_weight=422.97605742514133 1084.6018773317337 911.42981526255608
leaf_count=1736 4398 3722
internal_value=3.96384e-06 0.00335538
internal_weight=2419.01 1334.41
internal_count=9856 5458
is_linear=0
shrinkage=0.05


Tree=71
num_leaves=3
num_cat=0
split_feature=22 32
split_gain=13.1719 13.9896
threshold=0.084686406557062707 0.016122097011543504
decision_type=2 2
left_child=-1 -2
right_child=1 -3
leaf_value=0.0024421824234790788 -0.00059454267931835546 -0.015145626434995209
leaf_weight=1684.302671700716 483.92590638995171 250.45291206240654
leaf_count=6868 1974 1014
internal_value=3.75898e-06 -0.0055777
internal_weight=2418.68 734.379
internal_count=9856 2988
is_linear=0
shrinkage=0.05


Tree=72
num_leaves=3
num_cat=0
split_feature=9 1
split_gain=13.0187 23.5263
threshold=6.5000000000000009 -0.10000000000000069
decision_type=2 2
left_child=1 -1
right_child=-2 -3
leaf_value=-0.0073900576683256867 0.0079900039303228195 0.0034694293795752111
leaf_weight=947.38461908698082 420.56271214783192 1050.4099446982145
leaf_count=3832 1714 4310
internal_value=3.08481e-06 -0.00167892
internal_weight=2418.36 1997.79
internal_count=9856 8142
is_linear=0
shrinkage=0.05


Tree=73
num_leaves=3
num_cat=0
split_feature=29 17
split_gain=12.966 14.5457
threshold=5.4593253968253981 4.7517605633802829
decision_type=2 2
left_child=1 -1
right_child=-2 -3
leaf_value=0.00328699130345305 -0.016093436190379808 -0.005613225991644954
leaf_weight=1667.7096029520035 117.92767880856991 632.0968019515276
leaf_count=6813 479 2564
internal_value=3.04437e-06 0.000837236
internal_weight=2417.73 2299.81
internal_count=9856 9377
is_linear=0
shrinkage=0.05


Tree=74
num_leaves=3
num_cat=0
split_feature=26 38
split_gain=12.5372 13.3125
threshold=1.4278428955907139 32.417857142857152
decision_type=2 2
left_child=1 -1
right_child=-2 -3
leaf_value=-0.0092796427713169229 0.0083496251701133551 0.00055907227107992584
leaf_weight=436.43332472443581 378.46517935395241 1602.483936086297
leaf_count=1772 1561 6523
internal_value=2.32818e-06 -0.00154799
internal_weight=2417.38 2038.92
internal_count=9856 8295
is_linear=0
shrinkage=0.05


Tree=75
num_leaves=3
num_cat=0
split_feature=15 25
split_gain=12.281 13.9479
threshold=0.15673447154382145 4.3412698412698427
decision_type=2 2
left_child=-1 -2
right_child=1 -3
leaf_value=0.014279052873778947 0.00015444839720040197 -0.015585306676679393
leaf_weight=140.83829854428768 2126.4730544239283 149.68539303541183
leaf_count=587 8661 608
internal_value=2.24289e-06 -0.000884828
internal_weight=2417 2276.16
internal_count=9856 9269
is_linear=0
shrinkage=0.05


Tree=76
num_leaves=3
num_cat=0
split_feature=3 6
split_gain=12.2774 14.2547
threshold=0.011888888888888852 3.9500000000000006
decision_type=2 2
left_child=1 -1
right_child=-2 -3
leaf_value=0.020473421268669075 0.0075847312276864382 -0.0024830710861365288
leaf_weight=69.072583481669426 436.5134280025959 1911.0800994634628
leaf_count=287 1797 7772
internal_value=2.15765e-06 -0.00166984
internal_weight=2416.67 1980.15
internal_count=9856 8059
is_linear=0
shrinkage=0.05


Tree=77
num_leaves=3
num_cat=0
split_feature=11 18
split_gain=12.1743 14.3088
threshold=-0.24026058970400735 0.30387381225274529
decision_type=2 2
left_child=-1 -2
right_child=1 -3
leaf_value=-0.012636493606653955 0.0019034520314773718 -0.016690046226392672
leaf_weight=175.5548779964447 2132.9811261892319 107.71548062562943
leaf_count=713 8707 436
internal_value=2.65993e-06 0.00100034
internal_weight=2416.25 2240.7
internal_count=9856 9143
is_linear=0
shrinkage=0.05


Tree=78
num_leaves=3
num_cat=0
split_feature=14 41
split_gain=11.9985 12.183
threshold=0.89798322687970955 0.38333333333333336
decision_type=2 2
left_child=-1 -2
right_child=1 -3
leaf_value=0.019527412863672072 0.0059322989210586242 -0.0026134230242517657
leaf_weight=75.213986456394196 541.71477229893208 1798.796857714653
leaf_count=312 2252 7292
internal_value=1.72866e-06 -0.000631679
internal_weight=2415.73 2340.51
internal_count=9856 9544
is_linear=0
shrinkage=0.05


Tree=79
num_leaves=3
num_cat=0
split_feature=35 35
split_gain=11.9341 20.7931
threshold=0.77350427350427364 0.78888888888888908
decision_type=2 2
left_child=-1 -2
right_child=1 -3
leaf_value=-0.0011293426668214012 0.030849160189641442 -0.00049940894890010488
leaf_weight=2188.1820484995842 82.001031100749969 144.91208544373512
leaf_count=8925 338 593
internal_value=2.19594e-06 0.0108929
internal_weight=2415.1 226.913
internal_count=9856 931
is_linear=0
shrinkage=0.05


Tree=80
num_leaves=3
num_cat=0
split_feature=24 1
split_gain=11.6996 13.4498
threshold=5.8582477037285585 17.250000000000004
decision_type=2 2
left_child=1 -1
right_child=-2 -3
leaf_value=-0.0009818401315368284 0.01979580075224328 0.037803839416022125
leaf_weight=2321.9234766662121 71.435646221041679 21.565197557210922
leaf_count=9468 297 91
internal_value=2.58006e-06 -0.000606822
internal_weight=2414.92 2343.49
internal_count=9856 9559
is_linear=0
shrinkage=0.05


Tree=81
num_leaves=3
num_cat=0
split_feature=9 31
split_gain=11.6519 15.4528
threshold=6.5000000000000009 0.25154747553979501
decision_type=2 2
left_child=-1 -2
right_child=1 -3
leaf_value=-0.0015883811534421464 0.0050128997138527073 0.043945417750949525
leaf_weight=1994.8456550687551 393.45811554789543 26.347692266106606
leaf_count=8142 1603 111
internal_value=3.73444e-06 0.00756687
internal_weight=2414.65 419.806
internal_count=9856 1714
is_linear=0
shrinkage=0.05


Tree=82
num_leaves=3
num_cat=0
split_feature=21 1
split_gain=11.6045 13.6481
threshold=3.2678672687178412 6.4500000000000011
decision_type=2 2
left_child=-1 -2
right_child=1 -3
leaf_value=0.0067296534563404294 -0.003567406576786912 0.0082119087702013423
leaf_weight=506.15663987398148 1619.5547598153353 288.75141225755215
leaf_count=2078 6580 1198
internal_value=4.64627e-06 -0.00177906
internal_weight=2414.46 1908.31
internal_count=9856 7778
is_linear=0
shrinkage=0.05


Tree=83
num_leaves=3
num_cat=0
split_feature=33 13
split_gain=11.4153 16.2643
threshold=0.42360411738324882 1.0854101970519048
decision_type=2 2
left_child=1 -1
right_child=-2 -3
leaf_value=-0.0062910202846073876 0.0057128814354904835 0.0033572604322560278
leaf_weight=995.83805385231972 642.15302090346813 775.89679470658302
leaf_count=4037 2641 3178
internal_value=4.7097e-06 -0.00206341
internal_weight=2413.89 1771.73
internal_count=9856 7215
is_linear=0
shrinkage=0.05


Tree=84
num_leaves=3
num_cat=0
split_feature=22 35
split_gain=11.1448 12.9521
threshold=0.084686406557062707 0.55050505050505061
decision_type=2 2
left_child=1 -1
right_child=-2 -3
leaf_value=-0.0011553163369125009 -0.0051344062720124293 0.0078974577012902152
leaf_weight=1048.1512456089258 732.86430528759956 632.25146709382534
leaf_count=4278 2988 2590
internal_value=4.56354e-06 0.00225049
internal_weight=2413.27 1680.4
internal_count=9856 6868
is_linear=0
shrinkage=0.05


Tree=85
num_leaves=3
num_cat=0
split_feature=38 38
split_gain=11.0107 13.7847
threshold=32.417857142857152 72.632051282051307
decision_type=2 2
left_child=-1 -2
right_child=1 -3
leaf_value=-0.0065171496298520098 0.0038041315527731663 -0.0070664210676420793
leaf_weight=509.19750115275383 1545.618424192071 358.21445687115192
leaf_count=2074 6324 1458
internal_value=4.20288e-06 0.00175353
internal_weight=2413.03 1903.83
internal_count=9856 7782
is_linear=0
shrinkage=0.05


Tree=86
num_leaves=3
num_cat=0
split_feature=29 1
split_gain=10.9704 10.9232
threshold=5.4593253968253981 17.250000000000004
decision_type=2 2
left_child=1 -1
right_child=-2 -3
leaf_value=0.00042129119817261034 -0.014812331396812282 0.034907314071760252
leaf_weight=2272.7538598924875 117.76292586326599 22.20301628112793
leaf_count=9282 479 95
internal_value=3.60922e-06 0.000772169
internal_weight=2412.72 2294.96
internal_count=9856 9377
is_linear=0
shrinkage=0.05


Tree=87
num_leaves=3
num_cat=0
split_feature=0 16
split_gain=11.258 18.6895
threshold=0.30713392857142857 0.19354838709674438
decision_type=2 2
left_child=1 -1
right_child=-2 -3
leaf_value=-0.003884273754700648 -0.0037782997216264423 0.0081164120670110685
leaf_weight=557.18465495109558 1082.4340907782316 772.8827300965786
leaf_count=2274 4398 3184
internal_value=3.92393e-06 0.00308625
internal_weight=2412.5 1330.07
internal_count=9856 5458
is_linear=0
shrinkage=0.05


Tree=88
num_leaves=3
num_cat=0
split_feature=7 1
split_gain=10.7389 19.4318
threshold=4.5050000000000008 -0.80000000000000016
decision_type=2 2
left_child=1 -1
right_child=-2 -3
leaf_value=-0.008186124590218875 0.0058061134759370215 0.0023515582355247149
leaf_weight=733.70225025713444 598.71186245977879 1079.579148888588
leaf_count=2972 2441 4443
internal_value=3.59544e-06 -0.00191168
internal_weight=2411.99 1813.28
internal_count=9856 7415
is_linear=0
shrinkage=0.05


Tree=89
num_leaves=3
num_cat=0
split_feature=30 7
split_gain=10.6006 15.5044
threshold=0.0091362183685567509 4.5050000000000008
decision_type=2 2
left_child=1 -1
right_child=-2 -3
leaf_value=-0.0049369457732398002 0.0050886059394169743 0.0060657482192089905
leaf_weight=1265.4164303988218 718.78161166608334 427.27444832026958
leaf_count=5153 2966 1737
internal_value=3.42417e-06 -0.00215472
internal_weight=2411.47 1692.69
internal_count=9856 6890
is_linear=0
shrinkage=0.05


Tree=90
num_leaves=3
num_cat=0
split_feature=35 35
split_gain=10.4961 18.91
threshold=0.77350427350427364 0.70714285714285718
decision_type=2 2
left_child=1 -1
right_child=-2 -3
leaf_value=-0.00028976950524913159 0.010232593883801655 -0.029312116342593758
leaf_weight=2128.2226534932852 226.25198689103127 56.660413831472397
leaf_count=8693 931 232
internal_value=3.41802e-06 -0.00105776
internal_weight=2411.14 2184.88
internal_count=9856 8925
is_linear=0
shrinkage=0.05


Tree=91
num_leaves=3
num_cat=0
split_feature=24 35
split_gain=10.4359 11.8189
threshold=5.8582477037285585 0.87301587301587313
decision_type=2 2
left_child=1 -1
right_child=-2 -3
leaf_value=-0.0011970318576071011 0.0187423131662624 0.019677278690942233
leaf_weight=2271.0567089915276 71.089575707912445 68.882468640804291
leaf_count=9276 297 283
internal_value=2.69398e-06 -0.000572261
internal_weight=2411.03 2339.94
internal_count=9856 9559
is_linear=0
shrinkage=0.05


Tree=92
num_leaves=3
num_cat=0
split_feature=14 2
split_gain=10.3902 11.237
threshold=0.89798322687970955 0.68000000000000049
decision_type=2 2
left_child=-1 -2
right_child=1 -3
leaf_value=0.018229033866706774 -0.0018500472020412967 0.0089251828501334656
leaf_weight=74.760355889797211 2063.036694586277 273.02541275322437
leaf_count=312 8416 1128
internal_value=3.39979e-06 -0.000585281
internal_weight=2410.82 2336.06
internal_count=9856 9544
is_linear=0
shrinkage=0.05


Tree=93
num_leaves=3
num_cat=0
split_feature=15 7
split_gain=10.3239 11.5132
threshold=0.2022382451871135 4.5050000000000008
decision_type=2 2
left_child=1 -1
right_child=-2 -3
leaf_value=0.0002948880222450065 -0.0035986951582439837 0.011111369120508188
leaf_weight=995.85458020865917 1088.4003700911999 326.20474734902382
leaf_count=4099 4420 1337
internal_value=3.82895e-06 0.00297391
internal_weight=2410.46 1322.06
internal_count=9856 5436
is_linear=0
shrinkage=0.05


Tree=94
num_leaves=3
num_cat=0
split_feature=3 2
split_gain=10.2365 12.3907
threshold=0.011888888888888852 0.86000000000000021
decision_type=2 2
left_child=1 -1
right_child=-2 -3
leaf_value=-0.0026459648899452019 0.0069427774645910052 0.012447376287919752
leaf_weight=1829.5516726076603 434.74505063891411 145.82197937369347
leaf_count=7457 1797 602
internal_value=3.83801e-06 -0.00152351
internal_weight=2410.12 1975.37
internal_count=9856 8059
is_linear=0
shrinkage=0.05


Tree=95
num_leaves=3
num_cat=0
split_feature=9 31
split_gain=10.1274 13.7867
threshold=6.5000000000000009 0.25154747553979501
decision_type=2 2
left_child=-1 -2
right_child=1 -3
leaf_value=-0.0014809596010219494 0.0046625734742432407 0.041667282471308423
leaf_weight=1991.0898119062185 392.64057900011539 25.989821195602417
leaf_count=8142 1603 111
internal_value=4.05111e-06 0.00706567
internal_weight=2409.72 418.63
internal_count=9856 1714
is_linear=0
shrinkage=0.05


Tree=96
num_leaves=3
num_cat=0
split_feature=12 28
split_gain=9.96638 10.7439
threshold=-0.43713714286536559 0.30962916139907287
decision_type=2 2
left_child=-1 -2
right_child=1 -3
leaf_value=-0.024984034003389718 0.0012783663161638321 -0.012796676801362698
leaf_weight=38.244907990098 2227.9205988198519 143.34050504863262
leaf_count=156 9118 582
internal_value=4.89611e-06 0.0004204
internal_weight=2409.51 2371.26
internal_count=9856 9700
is_linear=0
shrinkage=0.05


Tree=97
num_leaves=3
num_cat=0
split_feature=31 13
split_gain=9.95623 11.0687
threshold=-0.19655199690850975 1.044068195058421
decision_type=2 2
left_child=1 -1
right_child=-2 -3
leaf_value=-0.016115021736768119 0.0011466199477720097 0.0053756037937155547
leaf_weight=180.61621651053429 2140.1989015638828 88.370443925261497
leaf_count=735 8762 359
internal_value=3.65623e-06 -0.00904241
internal_weight=2409.19 268.987
internal_count=9856 1094
is_linear=0
shrinkage=0.05


Tree=98
num_leaves=3
num_cat=0
split_feature=38 33
split_gain=9.88526 13.1474
threshold=32.417857142857152 0.44242406969286369
decision_type=2 2
left_child=-1 -2
right_child=1 -3
leaf_value=-0.0061798422603171381 -1.5387750959240879e-06 0.012031410953234213
leaf_weight=508.47289690375328 1637.9100345820189 262.37459783256054
leaf_count=2074 6695 1087
internal_value=3.23019e-06 0.00166269
internal_weight=2408.76 1900.28
internal_count=9856 7782
is_linear=0
shrinkage=0.05


Tree=99
num_leaves=3
num_cat=0
split_feature=15 25
split_gain=9.69065 11.2178
threshold=0.15673447154382145 4.7888888888888896
decision_type=2 2
left_child=-1 -2
right_child=1 -3
leaf_value=0.012740166855958777 3.0603867827097807e-05 -0.015906651430072718
leaf_weight=139.66213284432888 2153.3764202445745 115.34541849792004
leaf_count=587 8799 470
internal_value=3.04031e-06 -0.00078412
internal_weight=2408.38 2268.72
internal_count=9856 9269
is_linear=0
shrinkage=0.05


Tree=100
num_leaves=3
num_cat=0
split_feature=35 35
split_gain=9.5881 27.4119
threshold=0.55050505050505061 0.5634920634920636
decision_type=2 2
left_child=-1 -2
right_child=1 -3
leaf_value=-0.0024124669513098745 0.022648461202462413 -2.0325832608875118e-05
leaf_weight=1517.0800230950117 162.1034903973341 728.85300949215889
leaf_count=6201 664 2991
internal_value=2.8602e-06 0.00411927
internal_weight=2408.04 890.956
internal_count=9856 3655
is_linear=0
shrinkage=0.05


Tree=101
num_leaves=3
num_cat=0
split_feature=21 0
split_gain=9.5417 11.7119
threshold=3.2678672687178412 0.31044444444444452
decision_type=2 2
left_child=1 -1
right_child=-2 -3
leaf_value=0.01137116846291694 -0.0016155044287264745 -0.0048732964929692237
leaf_weight=341.36826328933239 1903.5874907523394 162.96305318176746
leaf_count=1415 7778 663
internal_value=2.99599e-06 0.00611299
internal_weight=2407.92 504.331
internal_count=9856 2078
is_linear=0
shrinkage=0.05


Tree=102
num_leaves=3
num_cat=0
split_feature=26 38
split_gain=9.32812 10.1808
threshold=1.4278428955907139 32.417857142857152
decision_type=2 2
left_child=1 -1
right_child=-2 -3
leaf_value=-0.008106542236583034 0.0072286169855939652 0.00051120913372471272
leaf_weight=435.06345590949059 375.98129063844681 1596.5279587507248
leaf_count=1772 1561 6523
internal_value=2.80557e-06 -0.00133489
internal_weight=2407.57 2031.59
internal_count=9856 8295
is_linear=0
shrinkage=0.05


Tree=103
num_leaves=3
num_cat=0
split_feature=22 2
split_gain=9.23206 11.6582
threshold=0.084686406557062707 -0.90999999999999936
decision_type=2 2
left_child=-1 -2
right_child=1 -3
leaf_value=0.0020503078597174942 -0.031771244285827248 -0.0031958185132220859
leaf_weight=1675.8018411397934 36.716798096895218 694.65371203422546
leaf_count=6868 149 2839
internal_value=2.6856e-06 -0.00467863
internal_weight=2407.17 731.371
internal_count=9856 2988
is_linear=0
shrinkage=0.05


Tree=104
num_leaves=3
num_cat=0
split_feature=32 36
split_gain=9.32924 11.4572
threshold=0.030044976223250652 0.55050505050505061
decision_type=2 2
left_child=1 -1
right_child=-2 -3
leaf_value=0.0045066875991715575 -0.0062021808584534505 -0.0034885482574876941
leaf_weight=1216.5320129990578 482.93021933734417 707.49920269846916
leaf_count=4998 1963 2895
internal_value=1.65286e-06 0.00156382
internal_weight=2406.96 1924.03
internal_count=9856 7893
is_linear=0
shrinkage=0.05


Tree=105
num_leaves=3
num_cat=0
split_feature=9 1
split_gain=9.29315 15.9849
threshold=6.5000000000000009 -0.10000000000000069
decision_type=2 2
left_child=1 -1
right_child=-2 -3
leaf_value=-0.0061355829711696678 0.006773464089499779 0.0028352261528776217
leaf_weight=944.03453190624714 417.75797159969807 1044.7616376876831
leaf_count=3832 1714 4310
internal_value=1.27725e-06 -0.00142144
internal_weight=2406.55 1988.8
internal_count=9856 8142
is_linear=0
shrinkage=0.05


Tree=106
num_leaves=3
num_cat=0
split_feature=37 37
split_gain=9.07739 19.3382
threshold=21.26794871794872 19.823333333333338
decision_type=2 2
left_child=1 -1
right_child=-2 -3
leaf_value=-0.001463696555418211 -0.00098583578932129388 0.028872989193454393
leaf_weight=144.20009143650532 2180.4267543703318 81.298246785998344
leaf_count=593 8925 338
internal_value=1.30413e-06 0.00953061
internal_weight=2405.93 225.498
internal_count=9856 931
is_linear=0
shrinkage=0.05


Tree=107
num_leaves=3
num_cat=0
split_feature=3 13
split_gain=8.99739 12.3659
threshold=-0.0038333333333332499 1.3325242718436905
decision_type=2 2
left_child=-1 -2
right_child=1 -3
leaf_value=-0.0038130974161807124 0.0015587347716280757 0.026196704268989759
leaf_weight=939.73298715054989 1414.1063091605902 51.883351370692253
leaf_count=3816 5817 223
internal_value=1.67797e-06 0.00245138
internal_weight=2405.72 1465.99
internal_count=9856 6040
is_linear=0
shrinkage=0.05


Tree=108
num_leaves=3
num_cat=0
split_feature=14 3
split_gain=8.99465 10.8647
threshold=0.89798322687970955 0.0023388888888889003
decision_type=2 2
left_child=1 -1
right_child=-2 -3
leaf_value=-0.0051253460904854093 -0.00054489146441730012 0.033125365581692046
leaf_weight=31.442126587033272 2330.9193824827671 42.838652193546295
leaf_count=130 9544 182
internal_value=2.1824e-06 0.0170149
internal_weight=2405.2 74.2808
internal_count=9856 312
is_linear=0
shrinkage=0.05


Tree=109
num_leaves=3
num_cat=0
split_feature=35 35
split_gain=8.97935 10.715
threshold=0.87301587301587313 0.78888888888888908
decision_type=2 2
left_child=1 -1
right_child=-2 -3
leaf_value=9.2554150803607037e-05 0.017604295196155577 -0.019013592545079019
leaf_weight=2260.7915243804455 69.35446760058403 74.827728465199471
leaf_count=9263 286 307
internal_value=2.54428e-06 -0.000525297
internal_weight=2404.97 2335.62
internal_count=9856 9570
is_linear=0
shrinkage=0.05


Tree=110
num_leaves=3
num_cat=0
split_feature=17 28
split_gain=8.76043 13.2954
threshold=4.7517605633802829 0.24209009555589264
decision_type=2 2
left_child=1 -1
right_child=-2 -3
leaf_value=0.004482641567691288 -0.0049647279536559376 -0.0052993952750437648
leaf_weight=1282.95224827528 647.10566841065884 474.89823652803898
leaf_count=5289 2636 1931
internal_value=2.43418e-06 0.00183559
internal_weight=2404.96 1757.85
internal_count=9856 7220
is_linear=0
shrinkage=0.05


Tree=111
num_leaves=3
num_cat=0
split_feature=24 1
split_gain=8.8033 10.6071
threshold=5.8582477037285585 15.950000000000003
decision_type=2 2
left_child=1 -1
right_child=-2 -3
leaf_value=-0.00094057395610062054 0.017279439481438175 0.026932488027280561
leaf_weight=2300.2212013304234 70.552048355340958 33.639605090022087
leaf_count=9415 297 144
internal_value=2.01267e-06 -0.000525315
internal_weight=2404.41 2333.86
internal_count=9856 9559
is_linear=0
shrinkage=0.05


Tree=112
num_leaves=3
num_cat=0
split_feature=12 18
split_gain=8.57779 10.7163
threshold=-0.43713714286536559 0.30387381225274529
decision_type=2 2
left_child=-1 -2
right_child=1 -3
leaf_value=-0.023248128341271389 0.0011603977540098908 -0.014296815848759473
leaf_weight=38.016860395669937 2249.0857665389776 116.99347795546055
leaf_count=156 9224 476
internal_value=2.90819e-06 0.000388269
internal_weight=2404.1 2366.08
internal_count=9856 9700
is_linear=0
shrinkage=0.05


Tree=113
num_leaves=3
num_cat=0
split_feature=29 17
split_gain=8.92112 9.52327
threshold=5.4593253968253981 4.7517605633802829
decision_type=2 2
left_child=1 -1
right_child=-2 -3
leaf_value=0.0026867014137547632 -0.013380919371455913 -0.0045326288505073333
leaf_weight=1657.1214393675327 117.36587697267532 629.27259401977062
leaf_count=6813 479 2564
internal_value=1.76368e-06 0.000696463
internal_weight=2403.76 2286.39
internal_count=9856 9377
is_linear=0
shrinkage=0.05


Tree=114
num_leaves=3
num_cat=0
split_feature=33 13
split_gain=8.54576 11.8637
threshold=0.42508930707837883 1.0854101970519048
decision_type=2 2
left_child=1 -1
right_child=-2 -3
leaf_value=-0.0053354683856516863 0.0051101509950328989 0.0028519168834976192
leaf_weight=1005.4193722903728 610.06633673608303 787.89639726281166
leaf_count=4090 2524 3242
internal_value=1.16016e-06 -0.00173596
internal_weight=2403.38 1793.32
internal_count=9856 7332
is_linear=0
shrinkage=0.05


Tree=115
num_leaves=3
num_cat=0
split_feature=35 35
split_gain=8.47905 25.0195
threshold=0.55050505050505061 0.5634920634920636
decision_type=2 2
left_child=-1 -2
right_child=1 -3
leaf_value=-0.0022719167710383188 0.021613621699769024 -7.9289933205642718e-05
leaf_weight=1514.0665281563997 161.52153205871582 727.19197942316532
leaf_count=6201 664 2991
internal_value=1.17963e-06 0.00387759
internal_weight=2402.78 888.714
internal_count=9856 3655
is_linear=0
shrinkage=0.05


Tree=116
num_leaves=3
num_cat=0
split_feature=0 16
split_gain=8.42522 15.1013
threshold=0.30713392857142857 0.19354838709674438
decision_type=2 2
left_child=1 -1
right_child=-2 -3
leaf_value=-0.0035982697771517985 -0.0032738442335248038 0.0072137763009029804
leaf_weight=555.06008671224117 1079.1503453105688 768.41933698952198
leaf_count=2274 4398 3184
internal_value=1.38158e-06 0.00267619
internal_weight=2402.63 1323.48
internal_count=9856 5458
is_linear=0
shrinkage=0.05


Tree=117
num_leaves=3
num_cat=0
split_feature=9 1
split_gain=8.43458 13.4547
threshold=6.5000000000000009 -0.10000000000000069
decision_type=2 2
left_child=1 -1
right_child=-2 -3
leaf_value=-0.0056827557821770291 0.0064597275309537213 0.0025546186277574361
leaf_weight=942.66506215929985 416.90777537226677 1042.5406242161989
leaf_count=3832 1714 4310
internal_value=1.1654e-06 -0.00135523
internal_weight=2402.11 1985.21
internal_count=9856 8142
is_linear=0
shrinkage=0.05


Tree=118
num_leaves=3
num_cat=0
split_feature=7 0
split_gain=8.27272 17.0591
threshold=4.6050000000000013 0.30140833333333333
decision_type=2 2
left_child=-1 -2
right_child=1 -3
leaf_value=-0.0013827615250440453 0.015875819790088345 -0.003819922196861249
leaf_weight=1963.8364151418209 222.86749036610126 214.79392878711224
leaf_count=8062 919 875
internal_value=1.19198e-06 0.00621154
internal_weight=2401.5 437.661
internal_count=9856 1794
is_linear=0
shrinkage=0.05


Tree=119
num_leaves=3
num_cat=0
split_feature=37 37
split_gain=8.44214 17.3063
threshold=21.26794871794872 19.823333333333338
decision_type=2 2
left_child=1 -1
right_child=-2 -3
leaf_value=-0.0011877659420077241 -0.00095115461869342468 0.027566426249955561
leaf_weight=144.02582292258739 2176.4572961777449 80.847490176558495
leaf_count=593 8925 338
internal_value=1.20196e-06 0.00920421
internal_weight=2401.33 224.873
internal_count=9856 931
is_linear=0
shrinkage=0.05


Tree=120
num_leaves=3
num_cat=0
split_feature=35 24
split_gain=8.24848 9.5694
threshold=0.87301587301587313 5.8582477037285585
decision_type=2 2
left_child=1 -1
right_child=-2 -3
leaf_value=-0.001071151073153629 0.016895854583485168 0.0176360224551384
leaf_weight=2262.4743550568819 69.157218888401985 69.47531720995903
leaf_count=9276 286 294
internal_value=1.56007e-06 -0.000504348
internal_weight=2401.11 2331.95
internal_count=9856 9570
is_linear=0
shrinkage=0.05


Tree=121
num_leaves=3
num_cat=0
split_feature=30 21
split_gain=7.96972 15.2762
threshold=0.0091362183685567509 3.6064039179254412
decision_type=2 2
left_child=1 -1
right_child=-2 -3
leaf_value=0.0051226838721264399 0.0044247096635542348 -0.0051060202812621344
leaf_weight=532.46965302526951 714.88433690369129 1153.5172251462936
leaf_count=2187 2966 4703
internal_value=2.2434e-06 -0.0018715
internal_weight=2400.87 1685.99
internal_count=9856 6890
is_linear=0
shrinkage=0.05


Tree=122
num_leaves=3
num_cat=0
split_feature=29 1
split_gain=7.87049 8.46544
threshold=5.4593253968253981 17.250000000000004
decision_type=2 2
left_child=1 -1
right_child=-2 -3
leaf_value=0.00034865335375576967 -0.012575848489275499 0.031100185137538164
leaf_weight=2261.3987497091293 117.20960079133511 21.610917329788208
leaf_count=9282 479 95
internal_value=2.25327e-06 0.000655425
internal_weight=2400.22 2283.01
internal_count=9856 9377
is_linear=0
shrinkage=0.05


Tree=123
num_leaves=3
num_cat=0
split_feature=15 19
split_gain=7.83848 10.5562
threshold=0.15673447154382145 0.10238694362017796
decision_type=2 2
left_child=1 -1
right_child=-2 -3
leaf_value=0.0059827529312416125 -0.00070472501585461982 0.046449329961063053
leaf_weight=120.78299929201603 2261.4154845327139 17.773327901959419
leaf_count=511 9269 76
internal_value=2.59283e-06 0.0115051
internal_weight=2399.97 138.556
internal_count=9856 587
is_linear=0
shrinkage=0.05


Tree=124
num_leaves=3
num_cat=0
split_feature=14 13
split_gain=7.79038 8.69784
threshold=0.89798322687970955 1.3404928711888637
decision_type=2 2
left_child=-1 -2
right_child=1 -3
leaf_value=0.015893934106475584 -0.0010332537265074827 0.017225109215743249
leaf_weight=73.750773906707764 2259.8273027092218 66.149572879076004
leaf_count=312 9261 283
internal_value=3.63822e-06 -0.000504667
internal_weight=2399.73 2325.98
internal_count=9856 9544
is_linear=0
shrinkage=0.05


Tree=125
num_leaves=3
num_cat=0
split_feature=38 38
split_gain=7.67103 11.5329
threshold=32.417857142857152 72.632051282051307
decision_type=2 2
left_child=-1 -2
right_child=1 -3
leaf_value=-0.0054507834938051659 0.0033517629866573768 -0.0066190749032948512
leaf_weight=506.80224677920341 1536.3080285787582 356.25140281021595
leaf_count=2074 6324 1458
internal_value=4.20697e-06 0.00146973
internal_weight=2399.36 1892.56
internal_count=9856 7782
is_linear=0
shrinkage=0.05


Tree=126
num_leaves=3
num_cat=0
split_feature=3 25
split_gain=7.6578 12.0881
threshold=0.012337121212121202 1.6018231854145168
decision_type=2 2
left_child=-1 -2
right_child=1 -3
leaf_value=-0.0012831174416834984 0.01156467929462273 -0.0073485738764434072
leaf_weight=1986.0734212845564 296.02435657382011 116.93334499001503
leaf_count=8138 1236 482
internal_value=3.62535e-06 0.0061923
internal_weight=2399.03 412.958
internal_count=9856 1718
is_linear=0
shrinkage=0.05


Tree=127
num_leaves=3
num_cat=0
split_feature=7 9
split_gain=7.49526 12.4322
threshold=4.5050000000000008 4.5000000000000009
decision_type=2 2
left_child=-1 -2
right_child=1 -3
leaf_value=-0.0016001428783570682 -0.00082963259032858827 0.013997847435604087
leaf_weight=1803.6769388765097 366.67070610821247 228.38094156980515
leaf_count=7415 1501 940
internal_value=3.36158e-06 0.00486671
internal_weight=2398.73 595.052
internal_count=9856 2441
is_linear=0
shrinkage=0.05


Tree=128
num_leaves=3
num_cat=0
split_feature=37 37
split_gain=7.49853 9.41504
threshold=11.923809523809533 19.823333333333338
decision_type=2 2
left_child=-1 -2
right_child=1 -3
leaf_value=0.016131747182686281 -0.017808704996999443 0.00010164076475822572
leaf_weight=68.982866570353508 74.827752888202667 2254.8312445431948
leaf_count=286 307 9263
internal_value=3.26559e-06 -0.000478882
internal_weight=2398.64 2329.66
internal_count=9856 9570
is_linear=0
shrinkage=0.05


Tree=129
num_leaves=3
num_cat=0
split_feature=2 2
split_gain=7.48669 13.1564
threshold=0.68000000000000049 0.46000000000000024
decision_type=2 2
left_child=1 -1
right_child=-2 -3
leaf_value=0.0002125578356284507 0.0076904860762355204 -0.013675775345307138
leaf_weight=1933.7133082151413 278.93659706413746 185.94591850042343
leaf_count=7926 1162 768
internal_value=3.10744e-06 -0.0010093
internal_weight=2398.6 2119.66
internal_count=9856 8694
is_linear=0
shrinkage=0.05


Tree=130
num_leaves=3
num_cat=0
split_feature=32 26
split_gain=7.47481 9.77029
threshold=0.028555147639471104 0.91303151875332145
decision_type=2 2
left_child=-1 -2
right_child=1 -3
leaf_value=0.0014561848728372763 -0.026646192518586961 -0.0030931068526395267
leaf_weight=1888.3854940086603 47.834770992398262 462.32126115262508
leaf_count=7776 195 1885
internal_value=2.88876e-06 -0.00535915
internal_weight=2398.54 510.156
internal_count=9856 2080
is_linear=0
shrinkage=0.05


Tree=131
num_leaves=3
num_cat=0
split_feature=37 37
split_gain=7.3892 22.7342
threshold=42.207575757575761 39.683928571428581
decision_type=2 2
left_child=1 -1
right_child=-2 -3
leaf_value=-0.00015186898121056567 -0.0021212211628987574 0.020545224719763139
leaf_weight=725.39407256245613 1511.5662754774094 161.24803148210049
leaf_count=2990 6201 665
internal_value=1.92478e-06 0.00362545
internal_weight=2398.21 886.642
internal_count=9856 3655
is_linear=0
shrinkage=0.05


Tree=132
num_leaves=3
num_cat=0
split_feature=31 13
split_gain=7.34751 9.65802
threshold=-0.19655199690850975 1.044068195058421
decision_type=2 2
left_child=1 -1
right_child=-2 -3
leaf_value=-0.014427288457094482 0.00098600175783693927 0.0056894648982655401
leaf_weight=179.44608153402805 2130.5475639253855 88.04177525639534
leaf_count=735 8762 359
internal_value=2.06834e-06 -0.00779085
internal_weight=2398.04 267.488
internal_count=9856 1094
is_linear=0
shrinkage=0.05


Tree=133
num_leaves=3
num_cat=0
split_feature=35 35
split_gain=7.31681 17.056
threshold=0.77350427350427364 0.70714285714285718
decision_type=2 2
left_child=1 -1
right_child=-2 -3
leaf_value=-0.00015244082797789398 0.008584691290870609 -0.027760593435500105
leaf_weight=2117.0263887941837 224.1217215359211 56.473678186535835
leaf_count=8693 931 232
internal_value=1.76075e-06 -0.000884515
internal_weight=2397.62 2173.5
internal_count=9856 8925
is_linear=0
shrinkage=0.05


Tree=134
num_leaves=3
num_cat=0
split_feature=35 7
split_gain=7.31128 12.894
threshold=0.12698412698412698 4.6950000000000012
decision_type=2 2
left_child=1 -1
right_child=-2 -3
leaf_value=0.0032815428222681686 -0.00074948685882692337 0.038784800791981204
leaf_weight=134.31863184273243 2232.3857560008764 30.77743536233902
leaf_count=555 9173 128
internal_value=1.10158e-06 0.0101239
internal_weight=2397.48 165.096
internal_count=9856 683
is_linear=0
shrinkage=0.05


Tree=135
num_leaves=3
num_cat=0
split_feature=22 20
split_gain=7.25226 10.8867
threshold=0.084686406557062707 1.8738186462324393
decision_type=2 2
left_child=-1 -2
right_child=1 -3
leaf_value=0.0018212229731968807 -0.0098894518660765651 0.0023351935623980445
leaf_weight=1668.709346562624 386.93330451846123 341.70550805330276
leaf_count=6868 1585 1403
internal_value=1.9801e-06 -0.00415433
internal_weight=2397.35 728.639
internal_count=9856 2988
is_linear=0
shrinkage=0.05


Tree=136
num_leaves=3
num_cat=0
split_feature=33 22
split_gain=7.18545 11.2943
threshold=0.42508930707837883 0.075400387563762702
decision_type=2 2
left_child=1 -1
right_child=-2 -3
leaf_value=0.0020082929979186241 0.0046947962763142235 -0.0059682743231257215
leaf_weight=981.13159056007862 608.08941160142422 807.89699234068394
leaf_count=4027 2524 3305
internal_value=1.76786e-06 -0.00159233
internal_weight=2397.12 1789.03
internal_count=9856 7332
is_linear=0
shrinkage=0.05


Tree=137
num_leaves=3
num_cat=0
split_feature=36 36
split_gain=7.1666 22.9913
threshold=0.55050505050505061 0.4494949494949495
decision_type=2 2
left_child=1 -1
right_child=-2 -3
leaf_value=-0.0015539978916084968 -0.0035826324486033776 0.012477568090928709
leaf_weight=1123.3228829354048 880.20766930282116 393.17563709616661
leaf_count=4627 3610 1619
internal_value=1.71613e-06 0.00208643
internal_weight=2396.71 1516.5
internal_count=9856 6246
is_linear=0
shrinkage=0.05


Tree=138
num_leaves=3
num_cat=0
split_feature=12 18
split_gain=7.11433 9.25563
threshold=-0.43713714286536559 0.30387381225274529
decision_type=2 2
left_child=-1 -2
right_child=1 -3
leaf_value=-0.021256104421049693 0.0010712974326766284 -0.01331648297119592
leaf_weight=37.715713635087013 2242.2234192192554 116.62222138047218
leaf_count=156 9224 476
internal_value=1.62662e-06 0.0003525
internal_weight=2396.56 2358.85
internal_count=9856 9700
is_linear=0
shrinkage=0.05


Tree=139
num_leaves=3
num_cat=0
split_feature=17 9
split_gain=6.94328 7.23969
threshold=1.5408730158730164 6.5000000000000009
decision_type=2 2
left_child=-1 -2
right_child=1 -3
leaf_value=0.024559368354758353 -0.0015657468164438316 0.0057082156971796317
leaf_weight=27.443526223301888 1955.2953849732876 413.48222315311432
leaf_count=114 8036 1706
internal_value=6.03073e-07 -0.000292057
internal_weight=2396.22 2368.78
internal_count=9856 9742
is_linear=0
shrinkage=0.05


Tree=140
num_leaves=3
num_cat=0
split_feature=29 1
split_gain=6.94305 7.58625
threshold=5.4593253968253981 17.250000000000004
decision_type=2 2
left_child=1 -1
right_child=-2 -3
leaf_value=0.00032601112070291779 -0.011821200884555875 0.029598498904404691
leaf_weight=2257.6959417760372 117.03342047333717 21.360181674361229
leaf_count=9282 479 95
internal_value=1.20606e-06 0.000615418
internal_weight=2396.09 2279.06
internal_count=9856 9377
is_linear=0
shrinkage=0.05


Tree=141
num_leaves=3
num_cat=0
split_feature=15 13
split_gain=6.81198 10.1457
threshold=0.15673447154382145 1.3052638207455354
decision_type=2 2
left_child=1 -1
right_child=-2 -3
leaf_value=0.0043599400325709794 -0.00065722807950388681 0.039766373906125849
leaf_weight=114.11273522675037 2257.9163591712713 23.807941019535065
leaf_count=482 9269 105
internal_value=1.57842e-06 0.0107501
internal_weight=2395.84 137.921
internal_count=9856 587
is_linear=0
shrinkage=0.05


Tree=142
num_leaves=3
num_cat=0
split_feature=28 0
split_gain=6.84116 10.2278
threshold=0.11210924911376087 0.31204545454545457
decision_type=2 2
left_child=1 -1
right_child=-2 -3
leaf_value=0.024227746179243441 -0.00050297433696376375 -0.015533926355731281
leaf_weight=61.715142577886581 2312.9802796542645 20.857702016830444
leaf_count=261 9509 86
internal_value=2.51942e-06 0.0140585
internal_weight=2395.55 82.5728
internal_count=9856 347
is_linear=0
shrinkage=0.05


Tree=143
num_leaves=3
num_cat=0
split_feature=37 37
split_gain=6.75343 21.7476
threshold=42.207575757575761 51.692424242424252
decision_type=2 2
left_child=-1 -2
right_child=1 -3
leaf_value=0.0034693935010611399 -0.012453817905926541 0.0014186124407678201
leaf_weight=885.3712030351162 374.87388898432255 1135.1205852329731
leaf_count=3655 1536 4665
internal_value=2.42881e-06 -0.00202804
internal_weight=2395.37 1509.99
internal_count=9856 6201
is_linear=0
shrinkage=0.05


Tree=144
num_leaves=3
num_cat=0
split_feature=14 3
split_gain=6.80673 9.65094
threshold=0.89798322687970955 0.0023388888888889003
decision_type=2 2
left_child=1 -1
right_child=-2 -3
leaf_value=-0.0059283212239592559 -0.0004723568000935357 0.030288623077403626
leaf_weight=31.28639417886734 2321.8434979170561 42.046860843896866
leaf_count=130 9544 182
internal_value=2.17643e-06 0.0148981
internal_weight=2395.18 73.3333
internal_count=9856 312
is_linear=0
shrinkage=0.05


Tree=145
num_leaves=3
num_cat=0
split_feature=24 1
split_gain=6.69066 9.2224
threshold=5.8582477037285585 -4.3999999999999986
decision_type=2 2
left_child=-1 -2
right_child=1 -3
leaf_value=-0.0004561246552291205 -0.022253555859510679 0.023664063024438121
leaf_weight=2325.1978157013655 12.519069939851759 57.222298249602318
leaf_count=9559 52 245
internal_value=2.4594e-06 0.0151528
internal_weight=2394.94 69.7414
internal_count=9856 297
is_linear=0
shrinkage=0.05


Tree=146
num_leaves=3
num_cat=0
split_feature=35 35
split_gain=6.59578 41.8936
threshold=0.43650793650793651 0.4494949494949495
decision_type=2 2
left_child=-1 -2
right_child=1 -3
leaf_value=-0.0032505740219710508 0.023800747798091354 -0.0012016238575194753
leaf_weight=942.6406726539135 192.18074490129948 1259.9075188487768
leaf_count=3874 791 5191
internal_value=2.2272e-06 0.00211805
internal_weight=2394.73 1452.09
internal_count=9856 5982
is_linear=0
shrinkage=0.05


Tree=147
num_leaves=3
num_cat=0
split_feature=2 2
split_gain=6.64243 11.9016
threshold=0.68000000000000049 0.46000000000000024
decision_type=2 2
left_child=1 -1
right_child=-2 -3
leaf_value=0.00021233669948814401 0.0072542670868557292 -0.012999811276041743
leaf_weight=1930.6805177927017 278.14740198850632 185.88674077391624
leaf_count=7926 1162 768
internal_value=2.37262e-06 -0.000951245
internal_weight=2394.71 2116.57
internal_count=9856 8694
is_linear=0
shrinkage=0.05


Tree=148
num_leaves=3
num_cat=0
split_feature=38 1
split_gain=6.6423 10.9499
threshold=32.417857142857152 -8.8499999999999961
decision_type=2 2
left_child=1 -1
right_child=-2 -3
leaf_value=-0.028678269345665953 0.0013676518822634102 -0.002769969437941406
leaf_weight=43.857321813702583 1888.6880338191986 462.0964557826519
leaf_count=180 7782 1894
internal_value=2.18814e-06 -0.00507777
internal_weight=2394.64 505.954
internal_count=9856 2074
is_linear=0
shrinkage=0.05


Tree=149
num_leaves=3
num_cat=0
split_feature=0 16
split_gain=6.5898 12.5269
threshold=0.30713392857142857 0.19354838709674438
decision_type=2 2
left_child=1 -1
right_child=-2 -3
leaf_value=-0.0033483216184292432 -0.0028976389428253544 0.0065182798855413062
leaf_weight=553.24951829016209 1076.4540848731995 764.65717194974422
leaf_count=2274 4398 3184
internal_value=1.20616e-06 0.00237315
internal_weight=2394.36 1317.91
internal_count=9856 5458
is_linear=0
shrinkage=0.05


Tree=150
num_leaves=3
num_cat=0
split_feature=35 35
split_gain=6.60528 16.0116
threshold=0.77350427350427364 0.78888888888888908
decision_type=2 2
left_child=-1 -2
right_child=1 -3
leaf_value=-0.00084126517497018027 0.025915554620877596 -0.0018335732008907724
leaf_weight=2170.2681693583727 80.177399605512619 143.40574507415295
leaf_count=8925 338 593
internal_value=9.88175e-07 0.00816615
internal_weight=2393.85 223.583
internal_count=9856 931
is_linear=0
shrinkage=0.05


Tree=151
num_leaves=3
num_cat=0
split_feature=30 21
split_gain=6.56054 12.653
threshold=0.0091362183685567509 3.6064039179254412
decision_type=2 2
left_child=1 -1
right_child=-2 -3
leaf_value=0.0046762096124638086 0.004021445053414183 -0.0046473288333874546
leaf_weight=530.65201817452908 712.37695057690144 1150.5832273811102
leaf_count=2187 2966 4703
internal_value=1.30984e-06 -0.00170052
internal_weight=2393.61 1681.24
internal_count=9856 6890
is_linear=0
shrinkage=0.05


Tree=152
num_leaves=3
num_cat=0
split_feature=36 36
split_gain=6.41108 11.9148
threshold=0.2264957264957265 0.55050505050505061
decision_type=2 2
left_child=-1 -2
right_child=1 -3
leaf_value=-0.0061822693067156266 0.0044163068926018293 -0.003298572587059938
leaf_weight=355.52567140758038 1158.4040081650019 879.04953476786613
leaf_count=1458 4788 3610
internal_value=1.35295e-06 0.00108532
internal_weight=2392.98 2037.45
internal_count=9856 8398
is_linear=0
shrinkage=0.05


Tree=153
num_leaves=3
num_cat=0
split_feature=35 35
split_gain=6.47128 8.80533
threshold=0.87301587301587313 0.78888888888888908
decision_type=2 2
left_child=1 -1
right_child=-2 -3
leaf_value=0.00011560762200558042 0.01502150776294538 -0.017215820117368354
leaf_weight=2249.2761327028275 68.640801921486855 74.737110450863838
leaf_count=9263 286 307
internal_value=9.95319e-07 -0.000446762
internal_weight=2392.65 2324.01
internal_count=9856 9570
is_linear=0
shrinkage=0.05


Tree=154
num_leaves=3
num_cat=0
split_feature=37 37
split_gain=6.41703 12.5831
threshold=81.976190476190496 73.405952380952399
decision_type=2 2
left_child=1 -1
right_child=-2 -3
leaf_value=9.7931429254458958e-05 0.009501914450418314 -0.018286442243623809
leaf_weight=2131.7842366844416 164.50936667621136 96.300558686256409
leaf_count=8777 683 396
internal_value=9.36418e-07 -0.000702268
internal_weight=2392.59 2228.08
internal_count=9856 9173
is_linear=0
shrinkage=0.05


Tree=155
num_leaves=3
num_cat=0
split_feature=25 23
split_gain=6.32963 8.39055
threshold=4.7888888888888896 7.8190058479532176
decision_type=2 2
left_child=1 -1
right_child=-2 -3
leaf_value=0.000123794239857065 -0.010990062962343151 0.019939053009702282
leaf_weight=2215.5622082948685 123.15682932734489 53.759838491678238
leaf_count=9123 506 227
internal_value=7.37665e-07 0.000603992
internal_weight=2392.48 2269.32
internal_count=9856 9350
is_linear=0
shrinkage=0.05


Tree=156
num_leaves=3
num_cat=0
split_feature=3 25
split_gain=6.28331 10.3936
threshold=0.012337121212121202 1.6018231854145168
decision_type=2 2
left_child=-1 -2
right_child=1 -3
leaf_value=-0.0011648695880135972 0.010623555920999565 -0.0069386913290745162
leaf_weight=1981.1670051515102 294.37139558792114 116.70495727658272
leaf_count=8138 1236 482
internal_value=9.23479e-07 0.00562075
internal_weight=2392.24 411.076
internal_count=9856 1718
is_linear=0
shrinkage=0.05


Tree=157
num_leaves=3
num_cat=0
split_feature=12 18
split_gain=6.2489 8.27794
threshold=-0.43713714286536559 0.30387381225274529
decision_type=2 2
left_child=-1 -2
right_child=1 -3
leaf_value=-0.01997562885893529 0.0010099739314128123 -0.012610470680876285
leaf_weight=37.510098159313202 2238.0432159602642 116.38260965049267
leaf_count=156 9224 476
internal_value=7.78079e-07 0.000329505
internal_weight=2391.94 2354.43
internal_count=9856 9700
is_linear=0
shrinkage=0.05


Tree=158
num_leaves=3
num_cat=0
split_feature=7 2
split_gain=6.26039 14.9289
threshold=4.5050000000000008 -0.6699999999999996
decision_type=2 2
left_child=1 -1
right_child=-2 -3
leaf_value=-0.019116594500265802 0.0044530592117861352 -0.0002888214216907648
leaf_weight=111.34220895171165 592.93565274775028 1687.318282097578
leaf_count=455 2441 6960
internal_value=0 -0.00146707
internal_weight=2391.6 1798.66
internal_count=9856 7415
is_linear=0
shrinkage=0.05


Tree=159
num_leaves=3
num_cat=0
split_feature=35 35
split_gain=6.2147 21.4
threshold=0.55050505050505061 0.5634920634920636
decision_type=2 2
left_child=-1 -2
right_child=1 -3
leaf_value=-0.0019497008034615286 0.019796058946845076 -0.00033649713255754681
leaf_weight=1507.6642133593559 160.32261304557323 723.39367516338825
leaf_count=6201 664 2991
internal_value=0 0.00332852
internal_weight=2391.38 883.716
internal_count=9856 3655
is_linear=0
shrinkage=0.05


Tree=160
num_leaves=3
num_cat=0
split_feature=37 37
split_gain=6.09598 15.4731
threshold=21.26794871794872 27.499285714285723
decision_type=2 2
left_child=-1 -2
right_child=1 -3
leaf_value=0.0078537898703527412 -0.026420883859287043 -0.00011060614612812864
leaf_weight=223.03781594336033 56.412625849246979 2111.735892996192
leaf_count=931 232 8693
internal_value=0 -0.000809338
internal_weight=2391.19 2168.15
internal_count=9856 8925
is_linear=0
shrinkage=0.05


Tree=161
num_leaves=3
num_cat=0
split_feature=17 7
split_gain=6.21393 6.41097
threshold=1.5408730158730164 4.5050000000000008
decision_type=2 2
left_child=-1 -2
right_child=1 -3
leaf_value=0.023296064621362716 -0.0017767562199858073 0.0042446669078522311
leaf_weight=27.28902967274189 1776.5096370875835 587.23012419044971
leaf_count=114 7324 2418
internal_value=0 -0.000277561
internal_weight=2391.03 2363.74
internal_count=9856 9742
is_linear=0
shrinkage=0.05


Tree=162
num_leaves=3
num_cat=0
split_feature=1 24
split_gain=5.98714 6.67549
threshold=17.250000000000004 5.8582477037285585
decision_type=2 2
left_child=1 -1
right_child=-2 -3
leaf_value=-0.0007042605196700925 0.025502818541644653 0.015095965453644312
leaf_weight=2301.3255404382944 21.797374472022057 67.8381527364254
leaf_count=9468 98 290
internal_value=0 -0.000243552
internal_weight=2390.96 2369.16
internal_count=9856 9758
is_linear=0
shrinkage=0.05


Tree=163
num_leaves=3
num_cat=0
split_feature=35 35
split_gain=6.00039 15.4459
threshold=0.65476190476190488 0.60769230769230786
decision_type=2 2
left_child=1 -1
right_child=-2 -3
leaf_value=-0.00038822866103136345 0.0048435874158236445 -0.023992555081817232
leaf_weight=1815.5622214525938 504.01223160326481 71.083391115069389
leaf_count=7474 2089 293
internal_value=5.70583e-07 -0.00129246
internal_weight=2390.66 1886.65
internal_count=9856 7767
is_linear=0
shrinkage=0.05


Tree=164
num_leaves=3
num_cat=0
split_feature=13 19
split_gain=5.9919 8.05297
threshold=1.3404928711888637 0.078897964560964359
decision_type=2 2
left_child=-1 -2
right_child=1 -3
leaf_value=-0.00042290860958065207 -0.0032997878209519355 0.031176894677630976
leaf_weight=2324.5011935383081 31.74833856523037 34.328914389014244
leaf_count=9570 137 149
internal_value=0 0.014735
internal_weight=2390.58 66.0773
internal_count=9856 286
is_linear=0
shrinkage=0.05


Tree=165
num_leaves=3
num_cat=0
split_feature=14 3
split_gain=5.96721 8.65356
threshold=0.89798322687970955 0.0023388888888889003
decision_type=2 2
left_child=1 -1
right_child=-2 -3
leaf_value=-0.0056762572035341068 -0.00044315162134550437 0.028696073665660373
leaf_weight=31.274886280298233 2317.5387701839209 41.572211414575577
leaf_count=130 9544 182
internal_value=4.14213e-07 0.0139945
internal_weight=2390.39 72.8471
internal_count=9856 312
is_linear=0
shrinkage=0.05


Tree=166
num_leaves=3
num_cat=0
split_feature=32 36
split_gain=5.9016 8.32391
threshold=0.030044976223250652 0.55050505050505061
decision_type=2 2
left_child=1 -1
right_child=-2 -3
leaf_value=0.0037687407507620094 -0.0049490690367003255 -0.0030682002445968633
leaf_weight=1206.950021147728 479.75633506476879 703.43693973124027
leaf_count=4998 1963 2895
internal_value=7.53023e-07 0.00124836
internal_weight=2390.14 1910.39
internal_count=9856 7893
is_linear=0
shrinkage=0.05


Tree=167
num_leaves=3
num_cat=0
split_feature=36 36
split_gain=5.82944 10.1096
threshold=0.2264957264957265 0.55050505050505061
decision_type=2 2
left_child=-1 -2
right_child=1 -3
leaf_value=-0.005899634697657692 0.0041067589958703526 -0.0030039503722744019
leaf_weight=355.07197323441505 1156.3821724057198 878.2955876737833
leaf_count=1458 4788 3610
internal_value=4.32823e-07 0.0010349
internal_weight=2389.75 2034.68
internal_count=9856 8398
is_linear=0
shrinkage=0.05


Tree=168
num_leaves=3
num_cat=0
split_feature=2 2
split_gain=5.81073 10.8933
threshold=0.68000000000000049 0.46000000000000024
decision_type=2 2
left_child=1 -1
right_child=-2 -3
leaf_value=0.00022284649368414192 0.0067943487435195866 -0.012423394806254576
leaf_weight=1926.4450480639935 277.2508599460125 185.7254636734724
leaf_count=7926 1162 768
internal_value=1.22822e-07 -0.000892138
internal_weight=2389.42 2112.17
internal_count=9856 8694
is_linear=0
shrinkage=0.05


Tree=169
num_leaves=3
num_cat=0
split_feature=9 31
split_gain=5.77434 11.3236
threshold=6.5000000000000009 0.25154747553979501
decision_type=2 2
left_child=-1 -2
right_child=1 -3
leaf_value=-0.0011237731460394869 0.0032021294746502576 0.037277982234498845
leaf_weight=1975.3208861351013 388.92861610651016 25.086349964141846
leaf_count=8142 1603 111
internal_value=4.68827e-08 0.00536378
internal_weight=2389.34 414.015
internal_count=9856 1714
is_linear=0
shrinkage=0.05


Tree=170
num_leaves=3
num_cat=0
split_feature=28 33
split_gain=5.82923 7.46529
threshold=0.11210924911376087 0.44242406969286369
decision_type=2 2
left_child=-1 -2
right_child=1 -3
leaf_value=0.013020550976644472 -0.0016369992177468495 0.0064400068808257299
leaf_weight=82.013816580176353 1973.6141506135464 333.45428152382374
leaf_count=347 8116 1393
internal_value=9.75567e-07 -0.000465131
internal_weight=2389.08 2307.07
internal_count=9856 9509
is_linear=0
shrinkage=0.05


Tree=171
num_leaves=3
num_cat=0
split_feature=29 22
split_gain=5.72266 8.01412
threshold=5.4593253968253981 0.058746736292428159
decision_type=2 2
left_child=-1 -2
right_child=1 -3
leaf_value=0.00055997794760301463 0.0069258983076105314 -0.020284071535832546
leaf_weight=2272.0711880475283 40.78968171775341 75.862554043531418
leaf_count=9377 167 312
internal_value=1.34546e-06 -0.0107491
internal_weight=2388.72 116.652
internal_count=9856 479
is_linear=0
shrinkage=0.05


Tree=172
num_leaves=3
num_cat=0
split_feature=20 26
split_gain=5.7189 10.4123
threshold=1.6517517517517517 1.5789181286549709
decision_type=2 2
left_child=1 -1
right_child=-2 -3
leaf_value=-0.0034943585993739571 0.002323192535352341 0.022433196342937483
leaf_weight=1092.3299267143011 1257.183233872056 39.113877460360527
leaf_count=4492 5198 166
internal_value=1.00332e-06 -0.00257461
internal_weight=2388.63 1131.44
internal_count=9856 4658
is_linear=0
shrinkage=0.05


Tree=173
num_leaves=3
num_cat=0
split_feature=30 13
split_gain=5.68702 10.3794
threshold=0.033251792306139859 1.092105959626835
decision_type=2 2
left_child=-1 -2
right_child=1 -3
leaf_value=0.00040843435301590346 -0.042905545518374916 -0.00022104564063052032
leaf_weight=2325.254649952054 20.606896966695786 42.513295710086823
leaf_count=9590 86 180
internal_value=1.44313e-06 -0.0146861
internal_weight=2388.37 63.1202
internal_count=9856 266
is_linear=0
shrinkage=0.05


Tree=174
num_leaves=3
num_cat=0
split_feature=30 21
split_gain=5.67522 10.9606
threshold=0.0091362183685567509 3.6064039179254412
decision_type=2 2
left_child=1 -1
right_child=-2 -3
leaf_value=0.0043588456573226443 0.0037447409288328044 -0.0043282486777602722
leaf_weight=529.36718103289604 710.52202966809273 1148.5415311604738
leaf_count=2187 2966 4703
internal_value=3.15028e-07 -0.0015836
internal_weight=2388.43 1677.91
internal_count=9856 6890
is_linear=0
shrinkage=0.05


Tree=175
num_leaves=3
num_cat=0
split_feature=3 28
split_gain=5.64429 8.89123
threshold=-0.0038333333333332499 0.10945577174805317
decision_type=2 2
left_child=-1 -2
right_child=1 -3
leaf_value=-0.0030280234198766312 0.022927984910316168 0.001217514092343757
leaf_weight=934.1940633803606 47.847460404038429 1405.7746654599905
leaf_count=3816 206 5834
internal_value=3.98645e-07 0.00195084
internal_weight=2387.82 1453.62
internal_count=9856 6040
is_linear=0
shrinkage=0.05


Tree=176
num_leaves=3
num_cat=0
split_feature=37 37
split_gain=5.61206 38.8876
threshold=52.911904761904772 51.692424242424252
decision_type=2 2
left_child=1 -1
right_child=-2 -3
leaf_value=-0.0012462428679601736 -0.0030032377941970425 0.022886954383394744
leaf_weight=1255.8931804150343 940.04100751876831 191.45319031178951
leaf_count=5191 3874 791
internal_value=8.80639e-07 0.00195621
internal_weight=2387.39 1447.35
internal_count=9856 5982
is_linear=0
shrinkage=0.05


Tree=177
num_leaves=3
num_cat=0
split_feature=35 35
split_gain=5.80463 19.5156
threshold=0.55050505050505061 0.5634920634920636
decision_type=2 2
left_child=-1 -2
right_child=1 -3
leaf_value=-0.0018836950634660858 0.018975043396195324 -0.00027837405018857922
leaf_weight=1505.3232154548168 159.80914589762688 722.19863177835941
leaf_count=6201 664 2991
internal_value=1.08326e-06 0.00322199
internal_weight=2387.33 882.008
internal_count=9856 3655
is_linear=0
shrinkage=0.05


Tree=178
num_leaves=3
num_cat=0
split_feature=35 35
split_gain=5.84413 11.01
threshold=0.12698412698412698 0.21825396825396823
decision_type=2 2
left_child=-1 -2
right_child=1 -3
leaf_value=0.009083133570209902 -0.017127987495342747 7.9411888279415832e-05
leaf_weight=163.979716360569 96.18361134827137 2126.955262452364
leaf_count=683 396 8777
internal_value=1.23866e-06 -0.000670181
internal_weight=2387.12 2223.14
internal_count=9856 9173
is_linear=0
shrinkage=0.05


Tree=179
num_leaves=3
num_cat=0
split_feature=35 35
split_gain=5.64609 13.8918
threshold=0.65476190476190488 0.60769230769230786
decision_type=2 2
left_child=1 -1
right_child=-2 -3
leaf_value=-0.0003950897234993873 0.00470278209313127 -0.022782269833000256
leaf_weight=1812.7074387669563 503.20038750767708 71.077932134270668
leaf_count=7474 2089 293
internal_value=1.03371e-06 -0.00125408
internal_weight=2386.99 1883.79
internal_count=9856 7767
is_linear=0
shrinkage=0.05


Tree=180
num_leaves=3
num_cat=0
split_feature=17 5
split_gain=5.60014 6.79253
threshold=1.5408730158730164 64.961538461538467
decision_type=2 2
left_child=1 -1
right_child=-2 -3
leaf_value=0.043584782511530411 -0.0002618371754209646 -0.0053012633250102397
leaf_weight=15.030013829469683 2359.7391017377377 12.118150293827055
leaf_count=63 9742 51
internal_value=4.15698e-07 0.0221727
internal_weight=2386.89 27.1482
internal_count=9856 114
is_linear=0
shrinkage=0.05


Tree=181
num_leaves=3
num_cat=0
split_feature=0 1
split_gain=5.49031 9.16397
threshold=0.30713392857142857 -13.35
decision_type=2 2
left_child=-1 -2
right_child=1 -3
leaf_value=0.0021710380072062418 -0.026335396137296758 -0.0017401198608717923
leaf_weight=1313.0133386403322 38.368048667907715 1035.4543871283531
leaf_count=5458 157 4241
internal_value=1.02389e-06 -0.00264725
internal_weight=2386.84 1073.82
internal_count=9856 4398
is_linear=0
shrinkage=0.05


Tree=182
num_leaves=3
num_cat=0
split_feature=12 23
split_gain=5.45137 7.4846
threshold=-0.43713714286536559 3.398387096774194
decision_type=2 2
left_child=1 -1
right_child=-2 -3
leaf_value=0.0011304400851302185 0.0003071817919432812 -0.043000685331057886
leaf_weight=20.934733033180237 2349.2357354909182 16.35483705997467
leaf_count=88 9700 68
internal_value=1.99218e-07 -0.018712
internal_weight=2386.53 37.2896
internal_count=9856 156
is_linear=0
shrinkage=0.05


Tree=183
num_leaves=3
num_cat=0
split_feature=1 12
split_gain=5.41305 7.02817
threshold=14.550000000000002 -0.43713714286536559
decision_type=2 2
left_child=1 -1
right_child=-2 -3
leaf_value=-0.021994523157631361 0.015888486041390253 -5.509421456750356e-06
leaf_weight=35.929976463317871 51.438410475850105 2298.9918722063303
leaf_count=151 225 9480
internal_value=0 -0.00035529
internal_weight=2386.36 2334.92
internal_count=9856 9631
is_linear=0
shrinkage=0.05


Tree=184
num_leaves=3
num_cat=0
split_feature=31 27
split_gain=5.33696 8.52203
threshold=-0.19655199690850975 3.3153680464506468
decision_type=2 2
left_child=1 -1
right_child=-2 -3
leaf_value=0.0037216703945280511 0.00083929648336694544 -0.014315640331645266
leaf_weight=112.67532463371754 2120.2327790856361 153.08961252868176
leaf_count=466 8762 628
internal_value=0 -0.0066644
internal_weight=2386 265.765
internal_count=9856 1094
is_linear=0
shrinkage=0.05


Tree=185
num_leaves=3
num_cat=0
split_feature=35 35
split_gain=5.34818 8.52773
threshold=0.87301587301587313 0.78888888888888908
decision_type=2 2
left_child=1 -1
right_child=-2 -3
leaf_value=0.00014656384400833886 0.013696348705769171 -0.016922007729439643
leaf_weight=2242.8992916941643 68.217571869492531 74.630329072475433
leaf_count=9263 286 307
internal_value=0 -0.000407992
internal_weight=2385.75 2317.53
internal_count=9856 9570
is_linear=0
shrinkage=0.05


Tree=186
num_leaves=3
num_cat=0
split_feature=30 13
split_gain=5.3 9.37117
threshold=0.033251792306139859 1.092105959626835
decision_type=2 2
left_child=-1 -2
right_child=1 -3
leaf_value=0.00039233714192717139 -0.040920693925153878 -0.00039198612676646059
leaf_weight=2322.5243118107319 20.686187356710434 42.468536540865898
leaf_count=9590 86 180
internal_value=0 -0.0141759
internal_weight=2385.68 63.1547
internal_count=9856 266
is_linear=0
shrinkage=0.05


Tree=187
num_leaves=3
num_cat=0
split_feature=15 1
split_gain=5.2748 9.64496
threshold=0.15673447154382145 1.0000000180025095e-35
decision_type=2 2
left_child=1 -1
right_child=-2 -3
leaf_value=-0.0072294739761672548 -0.00058119898601797094 0.019886702904853535
leaf_weight=52.234579026699066 2249.1277980208397 84.356849908828735
leaf_count=217 9269 370
internal_value=0 0.00950356
internal_weight=2385.72 136.591
internal_count=9856 587
is_linear=0
shrinkage=0.05


Tree=188
num_leaves=3
num_cat=0
split_feature=14 19
split_gain=5.2825 8.09052
threshold=0.89798322687970955 0.091857115682491317
decision_type=2 2
left_child=1 -1
right_child=-2 -3
leaf_value=0.020511653811958137 -0.00041870883092680301 -0.023637747470111891
leaf_weight=60.902318626642227 2312.9866033494473 11.497412994503973
leaf_count=262 9544 50
internal_value=0 0.0132059
internal_weight=2385.39 72.3997
internal_count=9856 312
is_linear=0
shrinkage=0.05


Tree=189
num_leaves=3
num_cat=0
split_feature=23 19
split_gain=5.25019 5.97327
threshold=8.1111111111111125 0.076002980625931416
decision_type=2 2
left_child=-1 -2
right_child=1 -3
leaf_value=-0.00032092719988248804 -0.0068904372075625775 0.030970457883106695
leaf_weight=2342.3060071021318 15.739846020936964 27.172848984599113
leaf_count=9673 67 116
internal_value=0 0.017129
internal_weight=2385.22 42.9127
internal_count=9856 183
is_linear=0
shrinkage=0.05


Tree=190
num_leaves=3
num_cat=0
split_feature=9 34
split_gain=5.21992 10.4311
threshold=6.5000000000000009 0.47348584343253047
decision_type=2 2
left_child=-1 -2
right_child=1 -3
leaf_value=-0.0010704832073068962 0.0067646954985188038 -0.032713468617280167
leaf_weight=1972.1157242804766 396.54172429442406 16.45006437599659
leaf_count=8142 1647 67
internal_value=0 0.00510492
internal_weight=2385.11 412.992
internal_count=9856 1714
is_linear=0
shrinkage=0.05


Tree=191
num_leaves=3
num_cat=0
split_feature=35 35
split_gain=5.195 14.493
threshold=0.77350427350427364 0.70714285714285718
decision_type=2 2
left_child=1 -1
right_child=-2 -3
leaf_value=-7.1737336553462001e-05 0.0072638485483813246 -0.025554183322603747
leaf_weight=2106.5019951462746 222.12599764764309 56.328276410698891
leaf_count=8693 931 232
internal_value=0 -0.00074921
internal_weight=2384.96 2162.83
internal_count=9856 8925
is_linear=0
shrinkage=0.05


Tree=192
num_leaves=3
num_cat=0
split_feature=18 12
split_gain=5.21258 8.05113
threshold=0.30387381225274529 -0.43713714286536559
decision_type=2 2
left_child=1 -1
right_child=-2 -3
leaf_value=-0.023374356287078631 -0.01013807639097852 0.00091103094290548379
leaf_weight=33.648506179451942 119.40772390365601 2231.7337730824947
leaf_count=142 490 9224
internal_value=0 0.000537951
internal_weight=2384.79 2265.38
internal_count=9856 9366
is_linear=0
shrinkage=0.05


Tree=193
num_leaves=3
num_cat=0
split_feature=35 35
split_gain=5.14321 12.6113
threshold=0.65476190476190488 0.60769230769230786
decision_type=2 2
left_child=1 -1
right_child=-2 -3
leaf_value=-0.00038201101455717526 0.0044883088463719125 -0.021709304862765524
leaf_weight=1810.9922425299883 502.33334198594093 71.104033529758453
leaf_count=7474 2089 293
internal_value=0 -0.00120149
internal_weight=2384.43 1882.1
internal_count=9856 7767
is_linear=0
shrinkage=0.05


Tree=194
num_leaves=3
num_cat=0
split_feature=29 22
split_gain=5.17367 7.26078
threshold=5.4593253968253981 0.058746736292428159
decision_type=2 2
left_child=-1 -2
right_child=1 -3
leaf_value=0.00052785277798698905 0.0065920361077638715 -0.019324130304509423
leaf_weight=2267.8817051947117 40.738697826862335 75.696599379181862
leaf_count=9377 167 312
internal_value=0 -0.010235
internal_weight=2384.32 116.435
internal_count=9856 479
is_linear=0
shrinkage=0.05


Tree=195
num_leaves=3
num_cat=0
split_feature=17 5
split_gain=5.16447 6.18698
threshold=1.5408730158730164 64.961538461538467
decision_type=2 2
left_child=1 -1
right_child=-2 -3
leaf_value=0.04188163101567987 -0.00025553898048226898 -0.0048348065680717742
leaf_weight=14.915992692112924 2357.1687899976969 12.126980960369108
leaf_count=63 9742 51
internal_value=0 0.0213287
internal_weight=2384.21 27.043
internal_count=9856 114
is_linear=0
shrinkage=0.05


Tree=196
num_leaves=3
num_cat=0
split_feature=39 36
split_gain=5.16725 9.36406
threshold=4.4190476190476202 0.4494949494949495
decision_type=2 2
left_child=-1 -2
right_child=1 -3
leaf_value=-0.0044927743477927344 -0.0017084992921707664 0.0054711909175124591
leaf_weight=503.82797837257385 1117.159069493413 763.16406972706318
leaf_count=2074 4627 3155
internal_value=0 0.00120421
internal_weight=2384.15 1880.32
internal_count=9856 7782
is_linear=0
shrinkage=0.05


Tree=197
num_leaves=3
num_cat=0
split_feature=20 33
split_gain=5.18494 9.63596
threshold=1.6517517517517517 0.34610015579296244
decision_type=2 2
left_child=1 -1
right_child=-2 -3
leaf_value=-0.020480454607705124 0.0022101804261993657 -0.0012686833327753516
leaf_weight=68.637556344270706 1254.7288590818644 1060.6170198917389
leaf_count=283 5198 4375
internal_value=0 -0.00245791
internal_weight=2383.98 1129.25
internal_count=9856 4658
is_linear=0
shrinkage=0.05


Tree=198
num_leaves=3
num_cat=0
split_feature=37 10
split_gain=5.11343 10.6011
threshold=81.976190476190496 -0.24999999999999997
decision_type=2 2
left_child=-1 -2
right_child=1 -3
leaf_value=-0.00063170333703208091 0.036751109197587853 0.0027376748104469082
leaf_weight=2220.1608580201864 26.665543004870415 136.91655805706978
leaf_count=9173 112 571
internal_value=0 0.0085022
internal_weight=2383.74 163.582
internal_count=9856 683
is_linear=0
shrinkage=0.05


Tree=199
num_leaves=3
num_cat=0
split_feature=35 35
split_gain=5.18427 18.4349
threshold=0.55050505050505061 0.4494949494949495
decision_type=2 2
left_child=1 -1
right_child=-2 -3
leaf_value=0.0013973439971249331 0.0030446913705513608 -0.011399139199845922
leaf_weight=1129.7572207003832 880.30333071947098 373.55761879682541
leaf_count=4665 3655 1536
internal_value=0 -0.00178458
internal_weight=2383.62 1503.31
internal_count=9856 6201
is_linear=0
shrinkage=0.05


Tree=200
num_leaves=3
num_cat=0
split_feature=35 35
split_gain=5.10574 35.5104
threshold=0.43650793650793651 0.4494949494949495
decision_type=2 2
left_child=-1 -2
right_child=1 -3
leaf_value=-0.0028697508684785425 0.021890625094169253 -0.0011974113902226277
leaf_weight=938.69969387352467 190.99223917722702 1253.7071461379528
leaf_count=3874 791 5191
internal_value=0 0.00186445
internal_weight=2383.4 1444.7
internal_count=9856 5982
is_linear=0
shrinkage=0.05


Tree=201
num_leaves=3
num_cat=0
split_feature=2 3
split_gain=5.12912 6.64893
threshold=0.86000000000000021 0.011888888888888852
decision_type=2 2
left_child=1 -1
right_child=-2 -3
leaf_value=-0.0019400348618948888 0.0081941817561157742 0.0052085616774472654
leaf_weight=1812.2923985570669 175.80983671545982 395.20023310184479
leaf_count=7457 742 1657
internal_value=0 -0.000656202
internal_weight=2383.3 2207.49
internal_count=9856 9114
is_linear=0
shrinkage=0.05


Tree=202
num_leaves=3
num_cat=0
split_feature=22 2
split_gain=5.06188 10.0428
