tree
version=v4
num_class=1
num_tree_per_iteration=1
label_index=0
max_feature_idx=44
objective=binary sigmoid:1
feature_names=away_proj_lineup_woba diff_proj_sp_k_bb diff_proj_sp_sc_era diff_proj_lineup_woba home_proj_lineup_woba home_proj_lineup_bb_score away_proj_sp_k_bb home_proj_sp_sc_era home_proj_sp_fip diff_proj_sp_sust home_proj_sp_war home_elo away_elo diff_pyth_t30 diff_pyth_t14 away_team_whip_t14 home_team_whip_t30 away_team_k_pct_t14 home_team_k_pct_t14 home_era_sp10 away_k_pct_sp10 away_bb_pct_sp10 away_ip_per_start_sp10 home_fip_sp10 home_bb_pct_sp10 away_era_sp5 away_fip_sp10 home_ip_per_start_sp5 away_whip_sp10 away_era_sp10 away_k_pct_sp5 home_ip_per_start_sp10 diff_bp_bb_pct_bp35 diff_bp_whip_bp35 diff_bp_k_pct_bp35 home_lineup_slg away_lineup_slg home_platoon_adv away_platoon_adv away_velo_x_same_hand home_velo_x_same_hand home_ivb_x_same_hand home_venue_wpct away_venue_wpct diff_venue_wpct
feature_infos=[0.25900000000000001:0.34300000000000003] [-38.399999999999999:42.5] [-3.0499999999999998:2.5500000000000003] [-0.069000000000000006:0.062314285714285697] [0.27014285714285707:0.34462500000000001] [50:86.5] [-18.800000000000001:39.5] [2.5699999999999998:6] [2.3300000000000001:5.2300000000000004] [-13:13] [-1.3999999999999999:3.5] [1345.0999999999999:1651.3] [1342.8:1648.5999999999999] [-0.55235601998536565:0.5436142353477813] [-0.64426086091543655:0.69605695778064292] [0.65753424657489212:1.6337349397578556] [0.77661999348723576:1.4955588452992801] [0.097488921713427198:0.31238779174141612] [0.10997067448678741:0.29999999999994642] [0.19444444444444459:12.116666666666667] [0.041200000000000001:0.45887445887445888] [0:0.29081632653061218] [0.38802083333333331:9] [0.67459016393442628:8.4000000000000004] [0:0.2666] [0:12.622222222222224] [0.7114035087719297:8.3699999999999992] [0.17636684303350969:8.2222222222222232] [0.47249999999999998:2.2736842105263162] [0.53333333333333388:11.866666666666664] [0.041200000000000001:0.48181818181818181] [0.3686067019400352:8.2222222222222232] [-0.060886696385174799:0.062286518779540799] [-0.63748670840257682:0.61745615943571597] [-0.1405162337848927:0.135060493602225] [0.27503511663083169:0.55510386907596909] [0.27803886956064372:0.56911634943443501] [0:1] [0:1] [0:93.900000000000006] [0:93.900000000000006] [0:12.800000000000001] [0.066666666666666596:0.8666666666666667] [0.066666666666666596:0.80000000000000004] [-0.5:0.63333333333333341]
tree_sizes=459 462 461 463 464 461 473 473 472 475 480 473 476 478 471 475 477 477 480 475 472 474 473 476 478 474 480 472 476 472 478 476 473 470 480 475 479 473 474 476 480 472 473 474 478 468 473 478 476 474 476 477 475 473 476 475 479 476 468 476 477 473 475 475 476 475 470 477 476 471 476 475 475 473 473 477 475 477 475 472 476 472 473 476 474 471 474 476 476 478 470 476 475 472 478 476 475 458 474 476 475 472 472 475 470 475 475 474 473 474 475 475 464 459 471 475 476 477 474 476 477 476 473 475 470 472 477 470 466 478 463 474 475 471 477 472 478 472 476 476 480 475 470 477 476 472 469 474 477 473 477 476 475 480 468 472 475 472 471 475 473 475 472 474 477 474 475 474 475 476 471 470 476 471 475 476 476 478 473 477 476 475 466 479 473 461 474 474 474 471 474 474 476 480 475 470 471 473 474 472 475 478 472 472 477 473 481 471 475 471 473 472 474 479 475 476 476 475 474 466 464 470 467 467 466 467 471 467 467 465 461 462 465 468 462 462 474 466 463 471 471 475 473 475 475 479 477 474 472 476 475 471 471 471 475 472 462 472 473 472 475 447 471 475 473 476 474 467 466 468 467 470 462 466 466 466 465 458 468 467 470 461 464 461 461 467 467 457 471 474 463 463 463 464 465 463 468 461 465 470 469 463 463 463 464 465 463 461 462 463 467 458 458 464 461 462 477 472 467 461 468 465 466 467 464 463 464 474 474 474 472 473 471 477 474 476 479 472 476 457 472 477 475 475 475 476 465 474 480 474 473 476 466 463 470 467 462 465 463 466 459 462 465 461 467 467 458 462 461 461 464 469 463 467 463 466 465 464 464 466 464 463 468 463 465 460 467 463 467 466 468 467 465 461 464 462 463 467 463 464 466 465 463 462 477 475 478 479 476 481 475 473 476 475 465 461 463 459 464 463 465 462 460 467 465 462 465 465 460 463 462 467 461 459 468 462 463 465 461 465 466 466 469 463 462 464 462 465 464 463 460 466 463 459 467 467 461 465 463 466 463 468 461 467 466 466 460 468 468 460 461 464 460 462 469 460 458 466 470 461 466 464 467 470 464 462 462 450 464 465 465 468 465 465 463 464 460 467 463 465

Tree=0
num_leaves=3
num_cat=0
split_feature=12 11
split_gain=130.94 72.0006
threshold=1477.4500000000003 1473.8500000000001
decision_type=2 2
left_child=-1 -2
right_child=1 -3
leaf_value=0.13285327759224178 0.090769338911190892 0.11349320957356483
leaf_weight=699.45207753777504 478.67739257216454 1277.8020141124725
leaf_count=2807 1921 5128
internal_value=0.114573 0.107288
internal_weight=2455.93 1756.48
internal_count=9856 7049
is_linear=0
shrinkage=1


Tree=1
num_leaves=3
num_cat=0
split_feature=12 11
split_gain=118.28 64.8825
threshold=1477.4500000000003 1473.8500000000001
decision_type=2 2
left_child=-1 -2
right_child=1 -3
leaf_value=0.01738745714293052 -0.022587879224095941 -0.0010259881009718724
leaf_weight=698.66262418031693 479.26214674115181 1277.8805668354034
leaf_count=2807 1921 5128
internal_value=0 -0.00691936
internal_weight=2455.81 1757.14
internal_count=9856 7049
is_linear=0
shrinkage=0.05


Tree=2
num_leaves=3
num_cat=0
split_feature=13 1
split_gain=109.904 34.1116
threshold=0.016997591131410156 7.7500000000000018
decision_type=2 2
left_child=-1 -2
right_child=1 -3
leaf_value=-0.0096878601947649728 0.0075532107485486392 0.030704447567745055
leaf_weight=1334.9740101397038 928.84820532798767 191.62944047152996
leaf_count=5355 3731 770
internal_value=0 0.011541
internal_weight=2455.45 1120.48
internal_count=9856 4501
is_linear=0
shrinkage=0.05


Tree=3
num_leaves=3
num_cat=0
split_feature=12 11
split_gain=102.552 57.6663
threshold=1477.4500000000003 1509.2500000000002
decision_type=2 2
left_child=-1 -2
right_child=1 -3
leaf_value=0.016210551753659031 -0.014226061853921832 0.0040783341662505258
leaf_weight=697.41477446258068 1009.7524976879358 748.02104176580906
leaf_count=2807 4047 3002
internal_value=0 -0.00643589
internal_weight=2455.19 1757.77
internal_count=9856 7049
is_linear=0
shrinkage=0.05


Tree=4
num_leaves=3
num_cat=0
split_feature=13 12
split_gain=93.7485 49.2201
threshold=-0.056534118752983899 1478.3500000000001
decision_type=2 2
left_child=-1 -2
right_child=1 -3
leaf_value=-0.012855030391624906 0.018370807006449389 0.00020098102770484754
leaf_weight=898.03821298480034 617.73811334371567 938.8647004365921
leaf_count=3599 2490 3767
internal_value=0 0.00742205
internal_weight=2454.64 1556.6
internal_count=9856 6257
is_linear=0
shrinkage=0.05


Tree=5
num_leaves=3
num_cat=0
split_feature=13 1
split_gain=85.6838 32.0163
threshold=0.018690795750534801 7.7500000000000018
decision_type=2 2
left_child=-1 -2
right_child=1 -3
leaf_value=-0.0084740469918628495 0.0064171789517085201 0.028998088552476847
leaf_weight=1345.7354687303305 919.43320721387863 188.84487511217594
leaf_count=5394 3700 762
internal_value=0 0.010292
internal_weight=2454.01 1108.28
internal_count=9856 4462
is_linear=0
shrinkage=0.05


Tree=6
num_leaves=3
num_cat=0
split_feature=12 11
split_gain=80.8361 49.9471
threshold=1477.4500000000003 1473.8500000000001
decision_type=2 2
left_child=-1 -2
right_child=1 -3
leaf_value=0.014426140042953445 -0.01943547860264816 -0.00053064425659362713
leaf_weight=695.04314459860325 480.13178683817387 1278.2823811322451
leaf_count=2807 1921 5128
internal_value=5.4818e-07 -0.00570353
internal_weight=2453.46 1758.41
internal_count=9856 7049
is_linear=0
shrinkage=0.05


Tree=7
num_leaves=3
num_cat=0
split_feature=13 1
split_gain=74.21 43.2754
threshold=-0.056534118752983899 -0.8999999999999998
decision_type=2 2
left_child=-1 -2
right_child=1 -3
leaf_value=-0.011427002793976885 -0.0035243876532880559 0.013471205449567689
leaf_weight=898.66903963685036 626.72244696319103 927.1846000701189
leaf_count=3599 2520 3737
internal_value=3.69897e-07 0.00661546
internal_weight=2452.58 1553.91
internal_count=9856 6257
is_linear=0
shrinkage=0.05


Tree=8
num_leaves=3
num_cat=0
split_feature=12 1
split_gain=70.016 30.7165
threshold=1477.4500000000003 -0.80000000000000016
decision_type=2 2
left_child=-1 -2
right_child=1 -3
leaf_value=0.013444543821731198 -0.011932669651389291 0.0012747467742827137
leaf_weight=693.53549236059189 875.85610032081604 882.50510120391846
leaf_count=2807 3509 3540
internal_value=2.95146e-07 -0.00530419
internal_weight=2451.9 1758.36
internal_count=9856 7049
is_linear=0
shrinkage=0.05


Tree=9
num_leaves=3
num_cat=0
split_feature=13 11
split_gain=66.9004 33.7866
threshold=0.11947058952949687 1473.8500000000001
decision_type=2 2
left_child=1 -1
right_child=-2 -3
leaf_value=-0.014112822490334069 0.014938522466315699 0.00014088394368891568
leaf_weight=619.30897009372711 573.22780576348305 1258.5755482465029
leaf_count=2483 2318 5055
internal_value=5.13257e-07 -0.00456221
internal_weight=2451.11 1877.88
internal_count=9856 7538
is_linear=0
shrinkage=0.05


Tree=10
num_leaves=3
num_cat=0
split_feature=14 3
split_gain=62.186 36.2891
threshold=-0.0064521745659198498 -0.0038333333333332499
decision_type=2 2
left_child=-1 -2
right_child=1 -3
leaf_value=-0.0081055566799663834 -0.0040050974495222727 0.013958448015856573
leaf_weight=1202.8690740615129 426.0501983165741 821.44309160113335
leaf_count=4824 1716 3316
internal_value=6.61863e-07 0.00782115
internal_weight=2450.36 1247.49
internal_count=9856 5032
is_linear=0
shrinkage=0.05


Tree=11
num_leaves=3
num_cat=0
split_feature=12 11
split_gain=58.951 39.1618
threshold=1477.4500000000003 1509.2500000000002
decision_type=2 2
left_child=-1 -2
right_child=1 -3
leaf_value=0.012358932613692876 -0.011276300891479844 0.0038075924182270765
leaf_weight=691.60155472159386 1010.6864362061024 747.45873431861401
leaf_count=2807 4047 3002
internal_value=6.36982e-07 -0.00486217
internal_weight=2449.75 1758.15
internal_count=9856 7049
is_linear=0
shrinkage=0.05


Tree=12
num_leaves=3
num_cat=0
split_feature=11 17
split_gain=53.0803 34.6126
threshold=1509.2500000000002 0.2022382451871135
decision_type=2 2
left_child=1 -1
right_child=-2 -3
leaf_value=0.00079513964889767967 0.0083383047798637581 -0.015105209737039528
leaf_weight=745.58685524761677 1072.3872999250889 630.68772059679031
leaf_count=3001 4327 2528
internal_value=8.55529e-07 -0.00649336
internal_weight=2448.66 1376.27
internal_count=9856 5529
is_linear=0
shrinkage=0.05


Tree=13
num_leaves=3
num_cat=0
split_feature=44 33
split_gain=53.3404 29.7855
threshold=0.19999999999999998 -0.13559084375105676
decision_type=2 2
left_child=1 -1
right_child=-2 -3
leaf_value=-0.01510748308260527 0.014527153975437147 -0.00037592619040830306
leaf_weight=443.97721913456917 501.47939498722553 1502.5175865143538
leaf_count=1780 2034 6042
internal_value=7.75056e-07 -0.00374466
internal_weight=2447.97 1946.49
internal_count=9856 7822
is_linear=0
shrinkage=0.05


Tree=14
num_leaves=3
num_cat=0
split_feature=12 11
split_gain=49.6763 32.1412
threshold=1477.4500000000003 1473.8500000000001
decision_type=2 2
left_child=-1 -2
right_child=1 -3
leaf_value=0.01136461203473197 -0.015479386407851898 -0.00030910878022923105
leaf_weight=689.7212996929884 479.82857128977776 1277.712093219161
leaf_count=2807 1921 5128
internal_value=6.483e-07 -0.00446006
internal_weight=2447.26 1757.54
internal_count=9856 7049
is_linear=0
shrinkage=0.05


Tree=15
num_leaves=3
num_cat=0
split_feature=13 1
split_gain=46.8869 34.7068
threshold=0.11947058952949687 5.0499999999999998
decision_type=2 2
left_child=1 -1
right_child=-2 -3
leaf_value=-0.0073836402265846802 0.012552056999735812 0.0091224143780560991
leaf_weight=1471.0440518110991 569.74800473451614 405.24947194755077
leaf_count=5906 2318 1632
internal_value=4.06138e-07 -0.00381297
internal_weight=2446.04 1876.29
internal_count=9856 7538
is_linear=0
shrinkage=0.05


Tree=16
num_leaves=3
num_cat=0
split_feature=1 13
split_gain=44.5912 31.5452
threshold=-0.80000000000000016 -0.23114468965739141
decision_type=2 2
left_child=-1 -2
right_child=1 -3
leaf_value=-0.0074733066296309852 -0.022263338644919681 0.0081555296007087344
leaf_weight=1097.8847169131041 90.393574714660645 1256.9292282611132
leaf_count=4413 362 5081
internal_value=8.38242e-07 0.00609598
internal_weight=2445.21 1347.32
internal_count=9856 5443
is_linear=0
shrinkage=0.05


Tree=17
num_leaves=3
num_cat=0
split_feature=44 1
split_gain=43.4566 26.9597
threshold=0.21666666666666665 -0.80000000000000016
decision_type=2 2
left_child=1 -1
right_child=-2 -3
leaf_value=-0.0092119115831167438 0.014337469917582777 0.0023772556246189473
leaf_weight=949.66606864333153 433.73349070549011 1061.1669776141644
leaf_count=3812 1767 4277
internal_value=2.32665e-07 -0.00309539
internal_weight=2444.57 2010.83
internal_count=9856 8089
is_linear=0
shrinkage=0.05


Tree=18
num_leaves=3
num_cat=0
split_feature=14 3
split_gain=41.8167 30.2788
threshold=-0.0064521745659198498 -0.0038333333333332499
decision_type=2 2
left_child=-1 -2
right_child=1 -3
leaf_value=-0.0066439263641633189 -0.0043748514705556525 0.0120610795586359
leaf_weight=1201.7380454242229 425.02376574277878 816.99816851317883
leaf_count=4824 1716 3316
internal_value=5.10186e-07 0.00643364
internal_weight=2443.76 1242.02
internal_count=9856 5032
is_linear=0
shrinkage=0.05


Tree=19
num_leaves=3
num_cat=0
split_feature=11 20
split_gain=39.8674 28.9453
threshold=1524.9500000000003 0.18043535411956463
decision_type=2 2
left_child=1 -1
right_child=-2 -3
leaf_value=0.0049146854445782477 0.009864438434721394 -0.0087703854597879684
leaf_weight=583.32781994342804 721.11527141928673 1138.5117218345404
leaf_count=2356 2922 4578
internal_value=4.4683e-07 -0.00413107
internal_weight=2442.95 1721.84
internal_count=9856 6934
is_linear=0
shrinkage=0.05


Tree=20
num_leaves=3
num_cat=0
split_feature=11 0
split_gain=37.8485 31.8881
threshold=1473.8500000000001 0.30713392857142857
decision_type=2 2
left_child=-1 -2
right_child=1 -3
leaf_value=-0.010295078003776246 0.0098745900631776289 -0.003515370434325617
leaf_weight=652.6637406796217 972.81521692872047 816.81230701506138
leaf_count=2624 3940 3292
internal_value=6.5226e-07 0.00376187
internal_weight=2442.29 1789.63
internal_count=9856 7232
is_linear=0
shrinkage=0.05


Tree=21
num_leaves=3
num_cat=0
split_feature=12 41
split_gain=37.1586 21.5752
threshold=1478.3500000000001 4.4190476190476202
decision_type=2 2
left_child=-1 -2
right_child=1 -3
leaf_value=0.0097644816692572592 -0.014666457898225153 -0.0010209739219898799
leaf_weight=695.8238809555769 366.06080190837383 1379.6459193974733
leaf_count=2846 1470 5540
internal_value=4.2527e-07 -0.00389194
internal_weight=2441.53 1745.71
internal_count=9856 7010
is_linear=0
shrinkage=0.05


Tree=22
num_leaves=3
num_cat=0
split_feature=11 1
split_gain=34.5816 26.0845
threshold=1524.9500000000003 5.5000000000000018
decision_type=2 2
left_child=1 -1
right_child=-2 -3
leaf_value=-0.0069082436324546222 0.0091970033798958652 0.008515279043998401
leaf_weight=1379.9726649969816 719.82898980379105 340.8666055649519
leaf_count=5553 2922 1381
internal_value=1.88633e-07 -0.00384705
internal_weight=2440.67 1720.84
internal_count=9856 6934
is_linear=0
shrinkage=0.05


Tree=23
num_leaves=3
num_cat=0
split_feature=12 11
split_gain=33.1889 20.3485
threshold=1478.3500000000001 1473.8500000000001
decision_type=2 2
left_child=-1 -2
right_child=1 -3
leaf_value=0.0092385691105423672 -0.012496530902477846 -0.00036915455977405373
leaf_weight=694.59555661678314 474.78687618672848 1270.5306645184755
leaf_count=2846 1906 5104
internal_value=5.0427e-07 -0.00367635
internal_weight=2439.91 1745.32
internal_count=9856 7010
is_linear=0
shrinkage=0.05


Tree=24
num_leaves=3
num_cat=0
split_feature=32 23
split_gain=32.5398 37.325
threshold=0.0091362183685567509 3.6064039179254412
decision_type=2 2
left_child=1 -1
right_child=-2 -3
leaf_value=0.0070594058680375606 0.0088231279972687329 -0.0088124589595245176
leaf_weight=541.39064480364323 730.96584622561932 1166.2772121280432
leaf_count=2187 2966 4703
internal_value=2.46564e-07 -0.00377641
internal_weight=2438.63 1707.67
internal_count=9856 6890
is_linear=0
shrinkage=0.05


Tree=25
num_leaves=3
num_cat=0
split_feature=1 9
split_gain=31.642 33.6285
threshold=-0.80000000000000016 4.5000000000000009
decision_type=2 2
left_child=1 -1
right_child=-2 -3
leaf_value=-0.011283157150946405 0.0051487686278001649 0.0090499224997689521
leaf_weight=827.78609476983547 1341.9933898299932 268.36471912264824
leaf_count=3332 5443 1081
internal_value=4.78985e-07 -0.00629685
internal_weight=2438.14 1096.15
internal_count=9856 4413
is_linear=0
shrinkage=0.05


Tree=26
num_leaves=3
num_cat=0
split_feature=14 3
split_gain=30.627 25.2609
threshold=-0.0064521745659198498 -0.0038333333333332499
decision_type=2 2
left_child=-1 -2
right_child=1 -3
leaf_value=-0.0056861681144936786 -0.004354813041324076 0.010676975553036887
leaf_weight=1200.1156689673662 424.32166990637779 813.21358536183834
leaf_count=4824 1716 3316
internal_value=5.72682e-07 0.00551954
internal_weight=2437.65 1237.54
internal_count=9856 5032
is_linear=0
shrinkage=0.05


Tree=27
num_leaves=3
num_cat=0
split_feature=13 1
split_gain=29.9178 25.7009
threshold=0.21960576611387334 3.9000000000000017
decision_type=2 2
left_child=1 -1
right_child=-2 -3
leaf_value=-0.005040189630551084 0.017515447964856171 0.0070525178087180633
leaf_weight=1613.6083901971579 220.69795107841492 602.46577714383602
leaf_count=6500 912 2444
internal_value=4.7568e-07 -0.00174869
internal_weight=2436.77 2216.07
internal_count=9856 8944
is_linear=0
shrinkage=0.05


Tree=28
num_leaves=3
num_cat=0
split_feature=33 1
split_gain=28.2856 25.6582
threshold=-0.19655199690850975 -0.10000000000000069
decision_type=2 2
left_child=-1 -2
right_child=1 -3
leaf_value=-0.015160491263607146 -0.003805256403046472 0.007091568960977318
leaf_weight=272.09088137745857 1027.4125325977802 1136.4121141582727
leaf_count=1094 4140 4622
internal_value=1.01405e-06 0.00191593
internal_weight=2435.92 2163.82
internal_count=9856 8762
is_linear=0
shrinkage=0.05


Tree=29
num_leaves=3
num_cat=0
split_feature=44 6
split_gain=27.8164 22.5324
threshold=0.21666666666666665 5.5500000000000007
decision_type=2 2
left_child=1 -1
right_child=-2 -3
leaf_value=0.024103784417128224 0.011537131819106931 -0.0035277843414791722
leaf_weight=75.683939442038536 429.38413260877132 1930.0690820217133
leaf_count=307 1767 7782
internal_value=5.6497e-07 -0.00247117
internal_weight=2435.14 2005.75
internal_count=9856 8089
is_linear=0
shrinkage=0.05


Tree=30
num_leaves=3
num_cat=0
split_feature=3 13
split_gain=26.874 30.2529
threshold=-0.0038333333333332499 -0.077595300144060839
decision_type=2 2
left_child=-1 -2
right_child=1 -3
leaf_value=-0.0065797912342454622 -0.0072930811708171138 0.0086106077224395224
leaf_weight=946.42249867320061 412.91332150995731 1075.0905171781778
leaf_count=3816 1658 4382
internal_value=1.33349e-06 0.00419212
internal_weight=2434.43 1488
internal_count=9856 6040
is_linear=0
shrinkage=0.05


Tree=31
num_leaves=3
num_cat=0
split_feature=32 19
split_gain=26.647 28.4413
threshold=0.0091362183685567509 4.652338318938277
decision_type=2 2
left_child=1 -1
right_child=-2 -3
leaf_value=0.00082017317220696613 0.0080010033761295282 -0.013243549277200013
leaf_weight=1191.5833000689745 728.49914157390594 513.3854248970747
leaf_count=4819 2966 2071
internal_value=1.05206e-06 -0.00341692
internal_weight=2433.47 1704.97
internal_count=9856 6890
is_linear=0
shrinkage=0.05


Tree=32
num_leaves=3
num_cat=0
split_feature=12 1
split_gain=25.0374 23.6289
threshold=1524.9500000000003 3.8500000000000001
decision_type=2 2
left_child=1 -1
right_child=-2 -3
leaf_value=-0.00057341838360257106 -0.0078486506521740548 0.012195143595304804
leaf_weight=1199.7484123110771 715.5379736572504 517.62756168842316
leaf_count=4857 2876 2123
internal_value=9.6558e-07 0.00327705
internal_weight=2432.91 1717.38
internal_count=9856 6980
is_linear=0
shrinkage=0.05


Tree=33
num_leaves=3
num_cat=0
split_feature=12 40
split_gain=24.1176 22.64
threshold=1423.2500000000002 32.417857142857152
decision_type=2 2
left_child=-1 -2
right_child=1 -3
leaf_value=0.021511777863199921 -0.010723687893791464 0.001407074817826211
leaf_weight=122.70537926256657 486.29029974341393 1823.0726919919252
leaf_count=512 1967 7377
internal_value=8.96112e-07 -0.00114871
internal_weight=2432.07 2309.36
internal_count=9856 9344
is_linear=0
shrinkage=0.05


Tree=34
num_leaves=3
num_cat=0
split_feature=3 13
split_gain=23.6304 25.5741
threshold=-0.0038333333333332499 -0.077595300144060839
decision_type=2 2
left_child=-1 -2
right_child=1 -3
leaf_value=-0.0061697928323989799 -0.0066243033833188877 0.0080045971973748999
leaf_weight=946.00073820352554 412.68803066015244 1072.9099527299404
leaf_count=3816 1658 4382
internal_value=1.24279e-06 0.00393571
internal_weight=2431.6 1485.6
internal_count=9856 6040
is_linear=0
shrinkage=0.05


Tree=35
num_leaves=3
num_cat=0
split_feature=11 20
split_gain=23.1721 21.188
threshold=1525.3500000000001 0.18043535411956463
decision_type=2 2
left_child=1 -1
right_child=-2 -3
leaf_value=0.0046258690035992671 0.0076196319979664404 -0.007083478669970087
leaf_weight=582.43203738331795 706.96192601323128 1141.2278459668159
leaf_count=2365 2888 4603
internal_value=9.63529e-07 -0.00312355
internal_weight=2430.62 1723.66
internal_count=9856 6968
is_linear=0
shrinkage=0.05


Tree=36
num_leaves=3
num_cat=0
split_feature=32 23
split_gain=22.4641 24.7415
threshold=0.0047524376932301009 3.6064039179254412
decision_type=2 2
left_child=1 -1
right_child=-2 -3
leaf_value=0.0057831328168366407 0.0060127275678285479 -0.0081689199715411411
leaf_weight=459.49539020657539 947.51217070221901 1022.8326183855534
leaf_count=1861 3863 4132
internal_value=1.08792e-06 -0.00383968
internal_weight=2429.84 1482.33
internal_count=9856 5993
is_linear=0
shrinkage=0.05


Tree=37
num_leaves=3
num_cat=0
split_feature=33 37
split_gain=21.6087 20.4119
threshold=-0.19655199690850975 0.77350427350427364
decision_type=2 2
left_child=-1 -2
right_child=1 -3
leaf_value=-0.0132646843638694 9.5185566853637235e-05 0.016638053169052133
leaf_weight=271.48343478143215 1952.5536708086729 205.23113162815571
leaf_count=1094 7928 834
internal_value=1.16361e-06 0.0016779
internal_weight=2429.27 2157.78
internal_count=9856 8762
is_linear=0
shrinkage=0.05


Tree=38
num_leaves=3
num_cat=0
split_feature=28 11
split_gain=21.2971 20.5185
threshold=1.4278428955907139 1525.3500000000001
decision_type=2 2
left_child=1 -1
right_child=-2 -3
leaf_value=-0.0052398384691588465 0.010823029092457921 0.005757294318462015
leaf_weight=1448.3602641224861 382.12266775965691 598.37619252502918
leaf_count=5851 1561 2444
internal_value=1.20141e-06 -0.00202107
internal_weight=2428.86 2046.74
internal_count=9856 8295
is_linear=0
shrinkage=0.05


Tree=39
num_leaves=3
num_cat=0
split_feature=17 37
split_gain=20.6491 17.5285
threshold=0.2022382451871135 0.55050505050505061
decision_type=2 2
left_child=1 -1
right_child=-2 -3
leaf_value=-0.00030326177298046608 -0.0050834659033961276 0.011494378114981829
leaf_weight=827.04034239053726 1094.5570953339338 506.54104945063591
leaf_count=3370 4420 2066
internal_value=1.45262e-06 0.0041794
internal_weight=2428.14 1333.58
internal_count=9856 5436
is_linear=0
shrinkage=0.05


Tree=40
num_leaves=3
num_cat=0
split_feature=3 13
split_gain=20.3834 20.5037
threshold=-0.0038333333333332499 -0.13051123186708713
decision_type=2 2
left_child=-1 -2
right_child=1 -3
leaf_value=-0.0057310145445143151 -0.0087881947224151876 0.0064338175233243896
leaf_weight=945.18823105096817 269.35767078399658 1213.1928427517414
leaf_count=3816 1084 4956
internal_value=1.3673e-06 0.00366077
internal_weight=2427.74 1482.55
internal_count=9856 6040
is_linear=0
shrinkage=0.05


Tree=41
num_leaves=3
num_cat=0
split_feature=13 1
split_gain=19.7878 19.7802
threshold=0.21960576611387334 15.950000000000003
decision_type=2 2
left_child=1 -1
right_child=-2 -3
leaf_value=-0.0020045209905391291 0.014352047457046003 0.036702853737947128
leaf_weight=2176.7035765051842 217.63801498711109 32.504872590303421
leaf_count=8811 912 133
internal_value=9.78264e-07 -0.00141639
internal_weight=2426.85 2209.21
internal_count=9856 8944
is_linear=0
shrinkage=0.05


Tree=42
num_leaves=3
num_cat=0
split_feature=12 40
split_gain=19.1392 20.5162
threshold=1423.2500000000002 32.417857142857152
decision_type=2 2
left_child=-1 -2
right_child=1 -3
leaf_value=0.019275852657226245 -0.010140899470960063 0.0014171880731500414
leaf_weight=121.34071700274944 485.44897091388702 1819.4296112060547
leaf_count=512 1967 7377
internal_value=2.09402e-06 -0.00101833
internal_weight=2426.22 2304.88
internal_count=9856 9344
is_linear=0
shrinkage=0.05


Tree=43
num_leaves=3
num_cat=0
split_feature=20 19
split_gain=19.1029 17.947
threshold=0.20811518324607328 4.7517605633802829
decision_type=2 2
left_child=1 -1
right_child=-2 -3
leaf_value=0.0077406992271818048 -0.0047607815834621947 -0.0054156999544891192
leaf_weight=943.84945069253445 1125.922462195158 355.94577167928219
leaf_count=3857 4554 1445
internal_value=2.32928e-06 0.00413261
internal_weight=2425.72 1299.8
internal_count=9856 5302
is_linear=0
shrinkage=0.05


Tree=44
num_leaves=3
num_cat=0
split_feature=32 23
split_gain=18.5747 26.387
threshold=0.0091362183685567509 3.6064039179254412
decision_type=2 2
left_child=1 -1
right_child=-2 -3
leaf_value=0.0062849340752985303 0.0067029062155474373 -0.0070914657658966533
leaf_weight=538.51343886554241 724.50949501991272 1162.2176288962364
leaf_count=2187 2966 4703
internal_value=2.02392e-06 -0.00285187
internal_weight=2425.24 1700.73
internal_count=9856 6890
is_linear=0
shrinkage=0.05


Tree=45
num_leaves=3
num_cat=0
split_feature=39 39
split_gain=18.3398 24.3492
threshold=21.26794871794872 19.823333333333338
decision_type=2 2
left_child=1 -1
right_child=-2 -3
leaf_value=0.0010495399165133055 -0.0014007969693882901 0.034911214802153819
leaf_weight=145.63361357152462 2196.0680710226297 82.894442334771156
leaf_count=593 8925 338
internal_value=2.10605e-06 0.0134526
internal_weight=2424.6 228.528
internal_count=9856 931
is_linear=0
shrinkage=0.05


Tree=46
num_leaves=3
num_cat=0
split_feature=12 1
split_gain=18.2157 19.444
threshold=1530.4500000000003 7.4000000000000004
decision_type=2 2
left_child=1 -1
right_child=-2 -3
leaf_value=0.00030953645060031646 -0.0073843516419709104 0.014607573547972725
leaf_weight=1523.9000387638807 619.69909863173962 280.92416588962078
leaf_count=6195 2496 1165
internal_value=2.79516e-06 0.00254468
internal_weight=2424.52 1804.82
internal_count=9856 7360
is_linear=0
shrinkage=0.05


Tree=47
num_leaves=3
num_cat=0
split_feature=3 37
split_gain=17.6721 19.3556
threshold=-0.0038333333333332499 0.77350427350427364
decision_type=2 2
left_child=1 -1
right_child=-2 -3
leaf_value=-0.0078012213854808353 0.0034152412167266556 0.015390117835887913
leaf_weight=844.70439207553864 1479.4191491603851 99.622155606746674
leaf_count=3413 6040 403
internal_value=2.90675e-06 -0.00533566
internal_weight=2423.75 944.327
internal_count=9856 3816
is_linear=0
shrinkage=0.05


Tree=48
num_leaves=3
num_cat=0
split_feature=28 11
split_gain=17.4306 17.4478
threshold=1.4278428955907139 1459.6500000000003
decision_type=2 2
left_child=1 -1
right_child=-2 -3
leaf_value=-0.011169409199793891 0.0098161578998642238 0.00045490848583156656
leaf_weight=400.55133081972599 380.49891549348831 1642.2971923202276
leaf_count=1622 1561 6673
internal_value=3.01619e-06 -0.00182623
internal_weight=2423.35 2042.85
internal_count=9856 8295
is_linear=0
shrinkage=0.05


Tree=49
num_leaves=3
num_cat=0
split_feature=40 38
split_gain=17.1136 22.2334
threshold=32.417857142857152 0.2264957264957265
decision_type=2 2
left_child=-1 -2
right_child=1 -3
leaf_value=-0.0081233142144834982 -0.0090137490703896105 0.004770734115024401
leaf_weight=510.07381352782249 359.20728085935116 1553.343867406249
leaf_count=2074 1458 6324
internal_value=2.85939e-06 0.00217582
internal_weight=2422.62 1912.55
internal_count=9856 7782
is_linear=0
shrinkage=0.05


Tree=50
num_leaves=3
num_cat=0
split_feature=1 9
split_gain=16.9819 29.6663
threshold=-0.80000000000000016 4.5000000000000009
decision_type=2 2
left_child=1 -1
right_child=-2 -3
leaf_value=-0.0093084444569595422 0.0037948453974024792 0.0098302486744312363
leaf_weight=824.51646764576435 1330.7437632679939 267.16166509687901
leaf_count=3332 5443 1081
internal_value=2.30391e-06 -0.00461543
internal_weight=2422.42 1091.68
internal_count=9856 4413
is_linear=0
shrinkage=0.05


Tree=51
num_leaves=3
num_cat=0
split_feature=33 27
split_gain=16.6297 15.9214
threshold=-0.19655199690850975 2.4008547008547012
decision_type=2 2
left_child=-1 -2
right_child=1 -3
leaf_value=-0.011653579690224205 0.0034301883244454881 -0.0079852938989450079
leaf_weight=270.62055058777332 1783.8733442127705 367.36732566356659
leaf_count=1094 7270 1492
internal_value=2.30249e-06 0.00147564
internal_weight=2421.86 2151.24
internal_count=9856 8762
is_linear=0
shrinkage=0.05


Tree=52
num_leaves=3
num_cat=0
split_feature=20 19
split_gain=15.9639 19.7161
threshold=0.21287453975358114 4.7517605633802829
decision_type=2 2
left_child=1 -1
right_child=-2 -3
leaf_value=0.00718973855911077 -0.0046743224113472244 -0.0061906423287091776
leaf_weight=1003.7900635749102 1039.5944837778807 377.97509403526783
leaf_count=4111 4209 1536
internal_value=1.65314e-06 0.00352415
internal_weight=2421.36 1381.77
internal_count=9856 5647
is_linear=0
shrinkage=0.05


Tree=53
num_leaves=3
num_cat=0
split_feature=3 6
split_gain=15.742 18.7856
threshold=0.011888888888888852 3.9500000000000006
decision_type=2 2
left_child=1 -1
right_child=-2 -3
leaf_value=0.023421689413868609 0.0085675065930151794 -0.0028292941324469874
leaf_weight=69.643878102302551 438.29373016953468 1912.8972231298685
leaf_count=287 1797 7772
internal_value=1.35134e-06 -0.00189327
internal_weight=2420.83 1982.54
internal_count=9856 8059
is_linear=0
shrinkage=0.05


Tree=54
num_leaves=3
num_cat=0
split_feature=12 37
split_gain=15.6137 21.7048
threshold=1537.1500000000003 0.55050505050505061
decision_type=2 2
left_child=1 -1
right_child=-2 -3
leaf_value=-0.0019579780793778311 -0.0076756302854832457 0.0091193920629350535
leaf_weight=1204.6299051940441 518.82672494649887 697.0051459223032
leaf_count=4913 2092 2851
internal_value=1.97728e-06 0.00210223
internal_weight=2420.46 1901.64
internal_count=9856 7764
is_linear=0
shrinkage=0.05


Tree=55
num_leaves=3
num_cat=0
split_feature=40 38
split_gain=15.547 19.5163
threshold=32.417857142857152 0.2264957264957265
decision_type=2 2
left_child=-1 -2
right_child=1 -3
leaf_value=-0.0077461472748284153 -0.0084106873373827936 0.0045082071499966464
leaf_weight=509.67957553267479 359.02006658911705 1551.2704944312572
leaf_count=2074 1458 6324
internal_value=1.71069e-06 0.00207448
internal_weight=2419.97 1910.29
internal_count=9856 7782
is_linear=0
shrinkage=0.05


Tree=56
num_leaves=3
num_cat=0
split_feature=32 23
split_gain=15.0804 22.1406
threshold=0.0091362183685567509 3.6064039179254412
decision_type=2 2
left_child=1 -1
right_child=-2 -3
leaf_value=0.0058089644249926381 0.0060500398168979695 -0.0064570745049548663
leaf_weight=537.19997961819172 722.19782826304436 1160.3320508748293
leaf_count=2187 2966 4703
internal_value=1.21972e-06 -0.00257129
internal_weight=2419.73 1697.53
internal_count=9856 6890
is_linear=0
shrinkage=0.05


Tree=57
num_leaves=3
num_cat=0
split_feature=9 1
split_gain=15.0901 25.9245
threshold=6.5000000000000009 -0.10000000000000069
decision_type=2 2
left_child=1 -1
right_child=-2 -3
leaf_value=-0.0078082219805888052 0.0085935124403989614 0.0035912207545122699
leaf_weight=946.98424385488033 421.11355099081993 1050.9625059068203
leaf_count=3832 1714 4310
internal_value=1.32072e-06 -0.00181057
internal_weight=2419.06 1997.95
internal_count=9856 8142
is_linear=0
shrinkage=0.05


Tree=58
num_leaves=3
num_cat=0
split_feature=39 39
split_gain=14.9452 22.2089
threshold=21.26794871794872 19.823333333333338
decision_type=2 2
left_child=1 -1
right_child=-2 -3
leaf_value=0.0003207586445848307 -0.0012653428726080384 0.03273390850763943
leaf_weight=145.18855254352093 2190.8736642599106 82.397167220711708
leaf_count=593 8925 338
internal_value=1.37831e-06 0.0121696
internal_weight=2418.46 227.586
internal_count=9856 931
is_linear=0
shrinkage=0.05


Tree=59
num_leaves=3
num_cat=0
split_feature=17 11
split_gain=14.7717 13.9336
threshold=0.2022382451871135 1509.2500000000002
decision_type=2 2
left_child=-1 -2
right_child=1 -3
leaf_value=0.0035470187680593937 -0.0091757505770467453 0.0022304149702373857
leaf_weight=1326.9097937643528 625.32099737226963 466.09847314655781
leaf_count=5436 2528 1892
internal_value=2.05806e-06 -0.00430251
internal_weight=2418.33 1091.42
internal_count=9856 4420
is_linear=0
shrinkage=0.05


Tree=60
num_leaves=3
num_cat=0
split_feature=16 20
split_gain=14.0634 15.3481
threshold=0.89798322687970955 0.20811518324607328
decision_type=2 2
left_child=-1 -2
right_child=1 -3
leaf_value=0.021053657484384335 0.0030685868140865962 -0.0050453496056078314
leaf_weight=75.828491061925888 1257.5593359619379 1084.1529217511415
leaf_count=312 5150 4394
internal_value=1.87859e-06 -0.000686374
internal_weight=2417.54 2341.71
internal_count=9856 9544
is_linear=0
shrinkage=0.05


Tree=61
num_leaves=3
num_cat=0
split_feature=12 31
split_gain=14.1754 15.4811
threshold=1423.2500000000002 5.4593253968253981
decision_type=2 2
left_child=-1 -2
right_child=1 -3
leaf_value=0.016715994910149062 5.4982967560850616e-05 -0.018986138148367186
leaf_weight=119.56790681183338 2186.2953173816204 111.20019605755806
leaf_count=512 8893 451
internal_value=2.24481e-06 -0.000872303
internal_weight=2417.06 2297.5
internal_count=9856 9344
is_linear=0
shrinkage=0.05


Tree=62
num_leaves=3
num_cat=0
split_feature=3 16
split_gain=14.1128 15.5468
threshold=-0.0038333333333332499 0.89798322687970955
decision_type=2 2
left_child=-1 -2
right_child=1 -3
leaf_value=-0.004773180496625503 0.028867680890798504 0.0020315538517681015
leaf_weight=942.07696728408337 55.160160765051842 1419.3590270578861
leaf_count=3816 229 5811
internal_value=2.18104e-06 0.00305774
internal_weight=2416.6 1474.52
internal_count=9856 6040
is_linear=0
shrinkage=0.05


Tree=63
num_leaves=3
num_cat=0
split_feature=40 38
split_gain=14.1303 16.8392
threshold=32.417857142857152 0.2264957264957265
decision_type=2 2
left_child=-1 -2
right_child=1 -3
leaf_value=-0.0073880552946626842 -0.0077625256796307902 0.0042444391072656903
leaf_weight=509.02548184990883 358.65260960161686 1548.4257742464542
leaf_count=2074 1458 6324
internal_value=2.70335e-06 0.00198086
internal_weight=2416.1 1907.08
internal_count=9856 7782
is_linear=0
shrinkage=0.05


Tree=64
num_leaves=3
num_cat=0
split_feature=28 35
split_gain=13.965 14.1523
threshold=1.4278428955907139 0.42097381454535127
decision_type=2 2
left_child=1 -1
right_child=-2 -3
leaf_value=-0.0042876850299274757 0.0088087568009884345 0.0049067444515324262
leaf_weight=1450.3953468501568 378.65267047286034 586.78380706906319
leaf_count=5894 1561 2401
internal_value=2.17097e-06 -0.00163578
internal_weight=2415.83 2037.18
internal_count=9856 8295
is_linear=0
shrinkage=0.05


Tree=65
num_leaves=3
num_cat=0
split_feature=9 1
split_gain=13.5099 22.2465
threshold=6.5000000000000009 -0.10000000000000069
decision_type=2 2
left_child=1 -1
right_child=-2 -3
leaf_value=-0.0072712935650639911 0.008139801363032606 0.0032961883670536742
leaf_weight=945.91504840552807 420.35742193460464 1049.0378637611866
leaf_count=3832 1714 4310
internal_value=2.31386e-06 -0.00171305
internal_weight=2415.31 1994.95
internal_count=9856 8142
is_linear=0
shrinkage=0.05


Tree=66
num_leaves=3
num_cat=0
split_feature=37 37
split_gain=13.4922 20.0824
threshold=0.77350427350427364 0.78888888888888908
decision_type=2 2
left_child=-1 -2
right_child=1 -3
leaf_value=-0.0012013627618390633 0.031194822535318245 0.00031538835634650417
leaf_weight=2187.713416442275 81.993969917297363 144.98751971125603
leaf_count=8925 338 593
internal_value=2.31243e-06 0.01158
internal_weight=2414.69 226.981
internal_count=9856 931
is_linear=0
shrinkage=0.05


Tree=67
num_leaves=3
num_cat=0
split_feature=12 37
split_gain=13.0325 18.0736
threshold=1537.1500000000003 0.55050505050505061
decision_type=2 2
left_child=1 -1
right_child=-2 -3
leaf_value=-0.0017811004248379173 -0.0070181255910175171 0.0083426691573201192
leaf_weight=1202.4177535027266 517.75414922833443 694.35814398527145
leaf_count=4913 2092 2851
internal_value=2.91998e-06 0.00192475
internal_weight=2414.53 1896.78
internal_count=9856 7764
is_linear=0
shrinkage=0.05


Tree=68
num_leaves=3
num_cat=0
split_feature=3 20
split_gain=13.0357 14.2535
threshold=0.011888888888888852 0.30387381225274529
decision_type=2 2
left_child=1 -1
right_child=-2 -3
leaf_value=-0.00072343766610108266 0.0078161664482080933 -0.019814321434833512
leaf_weight=1875.4150624424219 436.39139349758625 102.206837028265
leaf_count=7645 1797 414
internal_value=2.60088e-06 -0.00172213
internal_weight=2414.01 1977.62
internal_count=9856 8059
is_linear=0
shrinkage=0.05


Tree=69
num_leaves=3
num_cat=0
split_feature=1 26
split_gain=12.9161 13.8136
threshold=17.250000000000004 5.8582477037285585
decision_type=2 2
left_child=1 -1
right_child=-2 -3
leaf_value=-0.0010312817858001537 0.036221401776082705 0.021359330121494879
leaf_weight=2320.3105038702488 23.368873581290245 69.982446134090424
leaf_count=9468 98 290
internal_value=2.02389e-06 -0.000364986
internal_weight=2413.66 2390.29
internal_count=9856 9758
is_linear=0
shrinkage=0.05


Tree=70
num_leaves=3
num_cat=0
split_feature=40 38
split_gain=12.8159 14.9215
threshold=32.417857142857152 0.2264957264957265
decision_type=2 2
left_child=-1 -2
right_child=1 -3
leaf_value=-0.0070377975020457758 -0.0072858594028019936 0.0040214217335198853
leaf_weight=508.62286318838596 358.38140228390694 1546.4022295027971
leaf_count=2074 1458 6324
internal_value=3.20247e-06 0.00188865
internal_weight=2413.41 1904.78
internal_count=9856 7782
is_linear=0
shrinkage=0.05


Tree=71
num_leaves=3
num_cat=0
split_feature=33 6
split_gain=12.738 12.5824
threshold=-0.19655199690850975 11.950000000000001
decision_type=2 2
left_child=-1 -2
right_child=1 -3
leaf_value=-0.010218599633413164 0.0056686526103494582 -0.0020556263597854992
leaf_weight=269.55531194806099 930.03368817269802 1213.5238116234541
leaf_count=1094 3836 4926
internal_value=2.65231e-06 0.00129449
internal_weight=2413.11 2143.56
internal_count=9856 8762
is_linear=0
shrinkage=0.05


Tree=72
num_leaves=3
num_cat=0
split_feature=19 20
split_gain=12.5944 16.8349
threshold=4.652338318938277 0.21913354140114608
decision_type=2 2
left_child=1 -1
right_child=-2 -3
leaf_value=0.0062668483108555169 -0.0056571709074768181 -0.0038813426639666125
leaf_weight=1046.4978436082602 697.24742652475834 668.64150767028332
leaf_count=4305 2838 2713
internal_value=2.1948e-06 0.00230774
internal_weight=2412.39 1715.14
internal_count=9856 7018
is_linear=0
shrinkage=0.05


Tree=73
num_leaves=3
num_cat=0
split_feature=31 19
split_gain=12.5707 13.6643
threshold=5.4593253968253981 4.7517605633802829
decision_type=2 2
left_child=1 -1
right_child=-2 -3
leaf_value=0.003200309374868697 -0.015872026292838164 -0.0054380652176561264
leaf_weight=1664.0613472610712 117.56209169328213 630.18112245202065
leaf_count=6813 479 2564
internal_value=1.85954e-06 0.000824012
internal_weight=2411.8 2294.24
internal_count=9856 9377
is_linear=0
shrinkage=0.05


Tree=74
num_leaves=3
num_cat=0
split_feature=9 1
split_gain=12.207 18.3448
threshold=6.5000000000000009 -0.10000000000000069
decision_type=2 2
left_child=1 -1
right_child=-2 -3
leaf_value=-0.0066794281192582364 0.007743203886418683 0.0029238227704485812
leaf_weight=944.89868043363094 419.63314610719681 1046.9163763523102
leaf_count=3832 1714 4310
internal_value=1.2053e-06 -0.00163043
internal_weight=2411.45 1991.82
internal_count=9856 8142
is_linear=0
shrinkage=0.05


Tree=75
num_leaves=3
num_cat=0
split_feature=0 18
split_gain=11.8406 16.7477
threshold=0.30713392857142857 0.19354838709674438
decision_type=2 2
left_child=1 -1
right_child=-2 -3
leaf_value=-0.0034405615459522985 -0.0038802468434613368 0.0079224934897569581
leaf_weight=556.63394422829151 1081.3013665825129 772.89600674808025
leaf_count=2274 4398 3184
internal_value=1.25038e-06 0.00316236
internal_weight=2410.83 1329.53
internal_count=9856 5458
is_linear=0
shrinkage=0.05


Tree=76
num_leaves=3
num_cat=0
split_feature=37 37
split_gain=11.861 19.1381
threshold=0.77350427350427364 0.70714285714285718
decision_type=2 2
left_child=1 -1
right_child=-2 -3
leaf_value=-0.00035487460074182042 0.010875197392154432 -0.029562827233739306
leaf_weight=2127.4674166142941 226.23295260965824 56.616896405816078
leaf_count=8693 931 232
internal_value=1.05579e-06 -0.00112749
internal_weight=2410.32 2184.08
internal_count=9856 8925
is_linear=0
shrinkage=0.05


Tree=77
num_leaves=3
num_cat=0
split_feature=24 37
split_gain=11.833 13.7512
threshold=0.084686406557062707 0.55050505050505061
decision_type=2 2
left_child=1 -1
right_child=-2 -3
leaf_value=-0.001194463643746986 -0.0052994570556325199 0.0081395752920686727
leaf_weight=1047.2841292470694 731.69963996112347 631.23880569636822
leaf_count=4278 2988 2590
internal_value=4.59437e-07 0.00231555
internal_weight=2410.22 1678.52
internal_count=9856 6868
is_linear=0
shrinkage=0.05


Tree=78
num_leaves=3
num_cat=0
split_feature=7 32
split_gain=11.6739 20.6993
threshold=4.5050000000000008 0.0030265054873495506
decision_type=2 2
left_child=1 -1
right_child=-2 -3
leaf_value=-0.0066219925012312338 0.0060510378158289057 0.0041715728000221008
leaf_weight=1035.9047481715679 598.44788520038128 775.64510810375214
leaf_count=4216 2441 3199
internal_value=3.06082e-07 -0.00199804
internal_weight=2410 1811.55
internal_count=9856 7415
is_linear=0
shrinkage=0.05


Tree=79
num_leaves=3
num_cat=0
split_feature=40 35
split_gain=11.4981 14.0411
threshold=32.417857142857152 0.44242406969286369
decision_type=2 2
left_child=-1 -2
right_child=1 -3
leaf_value=-0.0066724454616220816 6.058674631923984e-05 0.012486942284050978
leaf_weight=507.99753059446812 1638.509905487299 263.107068374753
leaf_count=2074 6695 1087
internal_value=3.99909e-07 0.00178818
internal_weight=2409.61 1901.62
internal_count=9856 7782
is_linear=0
shrinkage=0.05


Tree=80
num_leaves=3
num_cat=0
split_feature=3 15
split_gain=11.2175 13.9821
threshold=-0.0038333333333332499 1.3325242718436905
decision_type=2 2
left_child=-1 -2
right_child=1 -3
leaf_value=-0.0042609490475753352 0.0017783940308042101 0.027839885843113584
leaf_weight=939.79521794617176 1416.9978039562702 52.458533197641373
leaf_count=3816 5817 223
internal_value=5.63345e-07 0.00273047
internal_weight=2409.25 1469.46
internal_count=9856 6040
is_linear=0
shrinkage=0.05


Tree=81
num_leaves=3
num_cat=0
split_feature=1 26
split_gain=11.2754 12.1713
threshold=17.250000000000004 5.8582477037285585
decision_type=2 2
left_child=1 -1
right_child=-2 -3
leaf_value=-0.00096537342204342392 0.034032626635326614 0.020110210946257021
leaf_weight=2316.0394344031811 23.099026262760162 69.583426862955093
leaf_count=9468 98 290
internal_value=1.15884e-06 -0.000340381
internal_weight=2408.72 2385.62
internal_count=9856 9758
is_linear=0
shrinkage=0.05


Tree=82
num_leaves=3
num_cat=0
split_feature=31 19
split_gain=11.121 11.6772
threshold=5.4593253968253981 4.7517605633802829
decision_type=2 2
left_child=1 -1
right_child=-2 -3
leaf_value=0.0029753860495620264 -0.014934739374910947 -0.0050149528791953385
leaf_weight=1661.4941508620977 117.45388355851173 629.49804253876209
leaf_count=6813 479 2564
internal_value=2.3101e-06 0.000776462
internal_weight=2408.45 2290.99
internal_count=9856 9377
is_linear=0
shrinkage=0.05


Tree=83
num_leaves=3
num_cat=0
split_feature=37 3
split_gain=10.8865 12.2673
threshold=0.87301587301587313 0.012337121212121202
decision_type=2 2
left_child=1 -1
right_child=-2 -3
leaf_value=-0.0022492457006789497 0.019354981427893877 0.0072747118406926636
leaf_weight=1929.7305997759104 69.551227420568466 408.7957966029644
leaf_count=7881 286 1689
internal_value=1.65064e-06 -0.000579836
internal_weight=2408.08 2338.53
internal_count=9856 9570
is_linear=0
shrinkage=0.05


Tree=84
num_leaves=3
num_cat=0
split_feature=9 1
split_gain=10.761 15.9352
threshold=6.5000000000000009 -0.10000000000000069
decision_type=2 2
left_child=1 -1
right_child=-2 -3
leaf_value=-0.0062385788076357498 0.0072776016374964453 0.0027181117271266597
leaf_weight=943.80426770448685 418.91652578115463 1045.0833767205477
leaf_count=3832 1714 4310
internal_value=2.12587e-06 -0.00153067
internal_weight=2407.8 1988.89
internal_count=9856 8142
is_linear=0
shrinkage=0.05


Tree=85
num_leaves=3
num_cat=0
split_feature=17 7
split_gain=10.6658 12.7816
threshold=0.2022382451871135 4.5050000000000008
decision_type=2 2
left_child=1 -1
right_child=-2 -3
leaf_value=0.00019781730211220557 -0.0036609751685687131 0.0116001779331825
leaf_weight=993.96238334476948 1087.2910293936729 325.93328349292278
leaf_count=4099 4420 1337
internal_value=2.11719e-06 0.00302394
internal_weight=2407.19 1319.9
internal_count=9856 5436
is_linear=0
shrinkage=0.05


Tree=86
num_leaves=3
num_cat=0
split_feature=16 12
split_gain=10.6787 11.6613
threshold=0.89798322687970955 1431.4500000000003
decision_type=2 2
left_child=-1 -2
right_child=1 -3
leaf_value=0.018457001907261437 0.012299833232038223 -0.0015664533383980776
leaf_weight=74.932424396276474 161.97444692254066 2169.9537587910891
leaf_count=312 698 8846
internal_value=2.22009e-06 -0.000596306
internal_weight=2406.86 2331.93
internal_count=9856 9544
is_linear=0
shrinkage=0.05


Tree=87
num_leaves=3
num_cat=0
split_feature=40 38
split_gain=10.4606 12.7462
threshold=32.417857142857152 0.2264957264957265
decision_type=2 2
left_child=-1 -2
right_child=1 -3
leaf_value=-0.0063648992961423392 -0.0067799700165740778 0.0036848204223180153
leaf_weight=507.45180958509445 357.44036021828651 1541.3455914407969
leaf_count=2074 1458 6324
internal_value=2.82775e-06 0.00170969
internal_weight=2406.24 1898.79
internal_count=9856 7782
is_linear=0
shrinkage=0.05


Tree=88
num_leaves=3
num_cat=0
split_feature=14 30
split_gain=10.2919 11.2099
threshold=-0.43713714286536559 0.30962916139907287
decision_type=2 2
left_child=-1 -2
right_child=1 -3
leaf_value=-0.025387287134911857 0.0013021840194409507 -0.013086097891238997
leaf_weight=38.256577163934708 2224.5481907576323 143.11515417695045
leaf_count=156 9118 582
internal_value=2.30597e-06 0.000425205
internal_weight=2405.92 2367.66
internal_count=9856 9700
is_linear=0
shrinkage=0.05


Tree=89
num_leaves=3
num_cat=0
split_feature=35 32
split_gain=10.2092 15.2345
threshold=0.42360411738324882 0.0047524376932301009
decision_type=2 2
left_child=1 -1
right_child=-2 -3
leaf_value=-0.0054915108175218634 0.0054076439350800656 0.0041392819744404206
leaf_weight=1118.3525822758675 640.14611992239952 647.10463401675224
leaf_count=4550 2641 2665
internal_value=1.18048e-06 -0.0019583
internal_weight=2405.6 1765.46
internal_count=9856 7215
is_linear=0
shrinkage=0.05


Tree=90
num_leaves=3
num_cat=0
split_feature=1 26
split_gain=10.085 10.7822
threshold=17.250000000000004 5.8582477037285585
decision_type=2 2
left_child=1 -1
right_child=-2 -3
leaf_value=-0.00090834027739911452 0.032340962241768786 0.018977257142048752
leaf_weight=2312.8363565802574 22.871062576770782 69.227020025253296
leaf_count=9468 98 290
internal_value=1.23802e-06 -0.00032061
internal_weight=2404.93 2382.06
internal_count=9856 9758
is_linear=0
shrinkage=0.05


Tree=91
num_leaves=3
num_cat=0
split_feature=27 3
split_gain=10.0366 10.9837
threshold=4.7888888888888896 0.011888888888888852
decision_type=2 2
left_child=1 -1
right_child=-2 -3
leaf_value=-0.00087229904806068726 -0.01380735180147359 0.0081230119928227176
leaf_weight=1867.3852469921112 123.71449144184589 413.54600162804127
leaf_count=7636 506 1714
internal_value=2.32562e-06 0.000759257
internal_weight=2404.65 2280.93
internal_count=9856 9350
is_linear=0
shrinkage=0.05


Tree=92
num_leaves=3
num_cat=0
split_feature=37 37
split_gain=10.0604 30.7928
threshold=0.55050505050505061 0.5634920634920636
decision_type=2 2
left_child=-1 -2
right_child=1 -3
leaf_value=-0.0024731443197308521 0.023870307267789524 -0.00017156894494471642
leaf_weight=1515.1877790987492 161.93277990818024 727.17892178893089
leaf_count=6201 664 2991
internal_value=1.90057e-06 0.00422343
internal_weight=2404.3 889.112
internal_count=9856 3655
is_linear=0
shrinkage=0.05


Tree=93
num_leaves=3
num_cat=0
split_feature=39 26
split_gain=9.93639 10.7397
threshold=11.923809523809533 5.8582477037285585
decision_type=2 2
left_child=-1 -2
right_child=1 -3
leaf_value=0.018518630004350799 -0.0011545538541101982 0.018614529674633173
leaf_weight=69.34934937953949 2265.0412718057632 69.834394976496696
leaf_count=286 9276 294
internal_value=2.10202e-06 -0.000553419
internal_weight=2404.23 2334.88
internal_count=9856 9570
is_linear=0
shrinkage=0.05


Tree=94
num_leaves=3
num_cat=0
split_feature=24 34
split_gain=9.8568 11.615
threshold=0.084686406557062707 0.016122097011543504
decision_type=2 2
left_child=-1 -2
right_child=1 -3
leaf_value=0.0021191687665929287 -0.00028643498086421457 -0.013585548322473252
leaf_weight=1673.953517973423 481.18247340619564 248.87063516676426
leaf_count=6868 1974 1014
internal_value=2.81316e-06 -0.00483924
internal_weight=2404.01 730.053
internal_count=9856 2988
is_linear=0
shrinkage=0.05


Tree=95
num_leaves=3
num_cat=0
split_feature=0 11
split_gain=9.61458 15.4262
threshold=0.30713392857142857 1473.8500000000001
decision_type=2 2
left_child=1 -1
right_child=-2 -3
leaf_value=-0.0057603869836644252 -0.0034977724479958597 0.0062297922530155951
leaf_weight=371.96619482338428 1078.9953624606133 952.69454914331436
leaf_count=1518 4398 3940
internal_value=2.20875e-06 0.00285736
internal_weight=2403.66 1324.66
internal_count=9856 5458
is_linear=0
shrinkage=0.05


Tree=96
num_leaves=3
num_cat=0
split_feature=7 1
split_gain=9.64371 15.3191
threshold=4.5050000000000008 -0.80000000000000016
decision_type=2 2
left_child=1 -1
right_child=-2 -3
leaf_value=-0.0073987921338692798 0.0055102149528984921 0.0019752899477193191
leaf_weight=730.83982323110104 596.59334284067154 1075.4847101569176
leaf_count=2972 2441 4443
internal_value=1.87464e-06 -0.0018167
internal_weight=2402.92 1806.32
internal_count=9856 7415
is_linear=0
shrinkage=0.05


Tree=97
num_leaves=3
num_cat=0
split_feature=40 2
split_gain=9.52561 12.2249
threshold=32.417857142857152 0.745
decision_type=2 2
left_child=-1 -2
right_child=1 -3
leaf_value=-0.0060782713155233649 0.00030665817560663841 0.013817816693052541
leaf_weight=506.79675233364105 1710.9154029339552 184.69137382507324
leaf_count=2074 7013 769
internal_value=1.78738e-06 0.0016323
internal_weight=2402.4 1895.61
internal_count=9856 7782
is_linear=0
shrinkage=0.05


Tree=98
num_leaves=3
num_cat=0
split_feature=37 37
split_gain=9.47274 19.1579
threshold=0.77350427350427364 0.78888888888888908
decision_type=2 2
left_child=-1 -2
right_child=1 -3
leaf_value=-0.0010071807933426421 0.029020896088657096 -0.0012054675228668028
leaf_weight=2177.0002593696117 81.113120064139366 143.95881646871567
leaf_count=8925 338 593
internal_value=1.91969e-06 0.00974581
internal_weight=2402.07 225.072
internal_count=9856 931
is_linear=0
shrinkage=0.05


Tree=99
num_leaves=3
num_cat=0
split_feature=9 1
split_gain=9.40565 12.4051
threshold=6.5000000000000009 -0.10000000000000069
decision_type=2 2
left_child=1 -1
right_child=-2 -3
leaf_value=-0.0055892627900456576 0.0068136949995587963 0.0023223822564400545
leaf_weight=941.97050593793392 417.78077399730682 1042.1197862029076
leaf_count=3832 1714 4310
internal_value=2.27119e-06 -0.00143217
internal_weight=2401.87 1984.09
internal_count=9856 8142
is_linear=0
shrinkage=0.05


Tree=100
num_leaves=3
num_cat=0
split_feature=16 3
split_gain=9.30362 11.0952
threshold=0.89798322687970955 0.0023388888888889003
decision_type=2 2
left_child=1 -1
right_child=-2 -3
leaf_value=-0.005103461252708383 -0.00055592328585943904 0.033509070495111572
leaf_weight=31.471376612782478 2326.7771301269531 43.023296117782593
leaf_count=130 9544 182
internal_value=2.24696e-06 0.0172789
internal_weight=2401.27 74.4947
internal_count=9856 312
is_linear=0
shrinkage=0.05


Tree=101
num_leaves=3
num_cat=0
split_feature=28 6
split_gain=9.24159 10.1272
threshold=1.4278428955907139 5.4000000000000012
decision_type=2 2
left_child=1 -1
right_child=-2 -3
leaf_value=0.017444535049965845 0.007204515106122758 -0.0019970262333313493
leaf_weight=68.32268762588501 374.96824833750725 1957.7567540407181
leaf_count=286 1561 8009
internal_value=2.61542e-06 -0.00133068
internal_weight=2401.05 2026.08
internal_count=9856 8295
is_linear=0
shrinkage=0.05


Tree=102
num_leaves=3
num_cat=0
split_feature=33 15
split_gain=9.16057 12.1743
threshold=-0.19655199690850975 1.044068195058421
decision_type=2 2
left_child=1 -1
right_child=-2 -3
leaf_value=-0.016111345325136743 0.0011015311069476001 0.0064726427904679799
leaf_weight=180.15066543221474 2132.5543077886105 87.937003165483475
leaf_count=735 8762 359
internal_value=3.02e-06 -0.00868833
internal_weight=2400.64 268.088
internal_count=9856 1094
is_linear=0
shrinkage=0.05


Tree=103
num_leaves=3
num_cat=0
split_feature=39 39
split_gain=9.12894 10.2928
threshold=11.923809523809533 19.823333333333338
decision_type=2 2
left_child=-1 -2
right_child=1 -3
leaf_value=0.017776508318232222 -0.018659239638403571 7.6533791909300702e-05
leaf_weight=69.149815291166306 74.749492138624191 2256.3330906927586
leaf_count=286 307 9263
internal_value=2.64577e-06 -0.000529855
internal_weight=2400.23 2331.08
internal_count=9856 9570
is_linear=0
shrinkage=0.05


Tree=104
num_leaves=3
num_cat=0
split_feature=17 21
split_gain=8.8346 10.9601
threshold=0.15673447154382145 0.10238694362017796
decision_type=2 2
left_child=1 -1
right_child=-2 -3
leaf_value=0.006556725097162916 -0.00074954245517157541 0.047655400553171884
leaf_weight=121.02432782948017 2261.265206232667 17.920868098735809
leaf_count=511 9269 76
internal_value=2.53943e-06 0.0121959
internal_weight=2400.21 138.945
internal_count=9856 587
is_linear=0
shrinkage=0.05


Tree=105
num_leaves=3
num_cat=0
split_feature=31 12
split_gain=8.98359 9.61384
threshold=5.4593253968253981 1530.4500000000003
decision_type=2 2
left_child=1 -1
right_child=-2 -3
leaf_value=0.0026203746490262082 -0.013441586876023424 -0.0047814878017233206
leaf_weight=1691.9742697477341 117.0931222140789 590.90058481693268
leaf_count=6978 479 2399
internal_value=3.62457e-06 0.000701029
internal_weight=2399.97 2282.87
internal_count=9856 9377
is_linear=0
shrinkage=0.05


Tree=106
num_leaves=3
num_cat=0
split_feature=37 37
split_gain=8.80705 28.4967
threshold=0.55050505050505061 0.5634920634920636
decision_type=2 2
left_child=-1 -2
right_child=1 -3
leaf_value=-0.002314364260970593 0.022889044846472761 -0.00027277242881405421
leaf_weight=1512.4596586823463 161.4307786822319 725.57039886713028
leaf_count=6201 664 2991
internal_value=2.91613e-06 0.00395799
internal_weight=2399.46 887.001
internal_count=9856 3655
is_linear=0
shrinkage=0.05


Tree=107
num_leaves=3
num_cat=0
split_feature=23 0
split_gain=8.78366 10.5568
threshold=3.2678672687178412 0.31044444444444452
decision_type=2 2
left_child=1 -1
right_child=-2 -3
leaf_value=0.010876588729777828 -0.0015533999551489083 -0.0045599906061136869
leaf_weight=340.23083679378033 1896.3611649274826 162.75981080532074
leaf_count=1415 7778 663
internal_value=3.05102e-06 0.0058725
internal_weight=2399.35 502.991
internal_count=9856 2078
is_linear=0
shrinkage=0.05


Tree=108
num_leaves=3
num_cat=0
split_feature=39 39
split_gain=8.78413 17.5357
threshold=21.26794871794872 27.499285714285723
decision_type=2 2
left_child=-1 -2
right_child=1 -3
leaf_value=0.0093972398716842525 -0.028225253244542628 -0.00022702419520349385
leaf_weight=224.55356402695179 56.454780384898186 2117.9917779117823
leaf_count=931 232 8693
internal_value=2.85117e-06 -0.000968876
internal_weight=2399 2174.45
internal_count=9856 8925
is_linear=0
shrinkage=0.05


Tree=109
num_leaves=3
num_cat=0
split_feature=7 2
split_gain=8.72073 15.662
threshold=4.5050000000000008 -0.6699999999999996
decision_type=2 2
left_child=1 -1
right_child=-2 -3
leaf_value=-0.019780903096654739 0.0052442928933989367 -0.00052309985332309769
leaf_weight=111.66401897370815 595.67098249495029 1691.5349897146225
leaf_count=455 2441 6960
internal_value=2.14868e-06 -0.00172872
internal_weight=2398.87 1803.2
internal_count=9856 7415
is_linear=0
shrinkage=0.05


Tree=110
num_leaves=3
num_cat=0
split_feature=40 38
split_gain=8.69216 11.1333
threshold=32.417857142857152 0.2264957264957265
decision_type=2 2
left_child=-1 -2
right_child=1 -3
leaf_value=-0.0058103114788538102 -0.0063846722519909959 0.0034100544301051065
leaf_weight=506.08865649998188 356.40765583515167 1536.189552128315
leaf_count=2074 1458 6324
internal_value=1.51114e-06 0.00156051
internal_weight=2398.69 1892.6
internal_count=9856 7782
is_linear=0
shrinkage=0.05


Tree=111
num_leaves=3
num_cat=0
split_feature=20 14
split_gain=8.63971 13.356
threshold=0.30387381225274529 -0.43713714286536559
decision_type=2 2
left_child=1 -1
right_child=-2 -3
leaf_value=-0.029702352912173449 -0.01300707880643083 0.0011782872742107432
leaf_weight=34.562011927366257 120.16421064734459 2243.6300366669893
leaf_count=142 490 9224
internal_value=1.06326e-06 0.000694783
internal_weight=2398.36 2278.19
internal_count=9856 9366
is_linear=0
shrinkage=0.05


Tree=112
num_leaves=3
num_cat=0
split_feature=35 15
split_gain=8.51287 12.7655
threshold=0.42508930707837883 1.0854101970519048
decision_type=2 2
left_child=1 -1
right_child=-2 -3
leaf_value=-0.0054739779339911714 0.005101083571654565 0.0030305802983546263
leaf_weight=1003.2187370955944 609.35455943644047 785.42756436765194
leaf_count=4090 2524 3242
internal_value=0 -0.00173707
internal_weight=2398 1788.65
internal_count=9856 7332
is_linear=0
shrinkage=0.05


Tree=113
num_leaves=3
num_cat=0
split_feature=1 15
split_gain=8.47162 8.97736
threshold=17.250000000000004 1.3404928711888637
decision_type=2 2
left_child=1 -1
right_child=-2 -3
leaf_value=-0.00081853536151999407 0.029876320238137178 0.017751394502591167
leaf_weight=2308.938894405961 22.498354762792587 65.961216688156128
leaf_count=9477 98 281
internal_value=0 -0.00029341
internal_weight=2397.4 2374.9
internal_count=9856 9758
is_linear=0
shrinkage=0.05


Tree=114
num_leaves=3
num_cat=0
split_feature=9 33
split_gain=8.31997 15.8066
threshold=6.5000000000000009 0.25154747553979501
decision_type=2 2
left_child=-1 -2
right_child=1 -3
leaf_value=-0.0013490623314796209 0.0038263159269769651 0.043321745243825809
leaf_weight=1980.2470969855785 390.66846109926701 26.161682888865471
leaf_count=8142 1603 111
internal_value=1.0479e-06 0.0064149
internal_weight=2397.08 416.83
internal_count=9856 1714
is_linear=0
shrinkage=0.05


Tree=115
num_leaves=3
num_cat=0
split_feature=38 38
split_gain=8.27263 23.9344
threshold=0.55050505050505061 0.4494949494949495
decision_type=2 2
left_child=1 -1
right_child=-2 -3
leaf_value=-0.0014739917231115221 -0.0038519306846852078 0.01283682566386557
leaf_weight=1123.9306221306324 879.41186018288136 393.51956103742123
leaf_count=4627 3610 1619
internal_value=2.0664e-06 0.00223994
internal_weight=2396.86 1517.45
internal_count=9856 6246
is_linear=0
shrinkage=0.05


Tree=116
num_leaves=3
num_cat=0
split_feature=24 11
split_gain=8.27307 10.6116
threshold=0.084686406557062707 1524.9500000000003
decision_type=2 2
left_child=-1 -2
right_child=1 -3
leaf_value=0.0019441579578774655 -0.0078106808658553479 0.0063345222332197026
leaf_weight=1668.7931911945343 555.0502792596817 172.88837079703808
leaf_count=6868 2272 716
internal_value=1.96444e-06 -0.0044402
internal_weight=2396.73 727.939
internal_count=9856 2988
is_linear=0
shrinkage=0.05


Tree=117
num_leaves=3
num_cat=0
split_feature=34 40
split_gain=8.01118 10.9134
threshold=0.030044976223250652 42.207575757575761
decision_type=2 2
left_child=1 -1
right_child=-2 -3
leaf_value=-0.00348937632649331 -0.0057603027055237706 0.0043310893047461543
leaf_weight=704.34220819175243 480.69893585145473 1211.2721266597509
leaf_count=2895 1963 4998
internal_value=1.88659e-06 0.00145269
internal_weight=2396.31 1915.61
internal_count=9856 7893
is_linear=0
shrinkage=0.05


Tree=118
num_leaves=3
num_cat=0
split_feature=16 3
split_gain=8.06791 10.0178
threshold=0.89798322687970955 0.0023388888888889003
decision_type=2 2
left_child=1 -1
right_child=-2 -3
leaf_value=-0.005082870094960442 -0.00051753577097036379 0.031691271393231586
leaf_weight=31.431922107934952 2321.9138030856848 42.56526081264019
leaf_count=130 9544 182
internal_value=1.50205e-06 0.0161445
internal_weight=2395.91 73.9972
internal_count=9856 312
is_linear=0
shrinkage=0.05


Tree=119
num_leaves=3
num_cat=0
split_feature=31 0
split_gain=8.00333 8.53878
threshold=5.4593253968253981 0.30018181818181822
decision_type=2 2
left_child=1 -1
right_child=-2 -3
leaf_value=0.0049378834851077445 -0.012697839619250485 -0.0015258823664628498
leaf_weight=771.29644826054573 116.91751486063004 1507.4612304568291
leaf_count=3192 479 6185
internal_value=1.86834e-06 0.000660937
internal_weight=2395.68 2278.76
internal_count=9856 9377
is_linear=0
shrinkage=0.05


Tree=120
num_leaves=3
num_cat=0
split_feature=37 37
split_gain=8.08332 25.8869
threshold=0.55050505050505061 0.5634920634920636
decision_type=2 2
left_child=-1 -2
right_child=1 -3
leaf_value=-0.0022199835479486357 0.021868945721366932 -0.00023839335105427901
leaf_weight=1510.1355704516172 160.91686420142651 724.37807585299015
leaf_count=6201 664 2991
internal_value=1.38944e-06 0.00379448
internal_weight=2395.43 885.295
internal_count=9856 3655
is_linear=0
shrinkage=0.05


Tree=121
num_leaves=3
num_cat=0
split_feature=37 37
split_gain=8.06158 17.1697
threshold=0.77350427350427364 0.78888888888888908
decision_type=2 2
left_child=-1 -2
right_child=1 -3
leaf_value=-0.00092961727237595489 0.027344133405264578 -0.0013515795274295283
leaf_weight=2171.2295163571835 80.499122247099876 143.56000016629696
leaf_count=8925 338 593
internal_value=1.58431e-06 0.00901158
internal_weight=2395.29 224.059
internal_count=9856 931
is_linear=0
shrinkage=0.05


Tree=122
num_leaves=3
num_cat=0
split_feature=37 37
split_gain=8.065 9.55343
threshold=0.87301587301587313 0.78888888888888908
decision_type=2 2
left_child=1 -1
right_child=-2 -3
leaf_value=8.6692345074284525e-05 0.016742371254522551 -0.017968740577385341
leaf_weight=2251.486907184124 68.866781651973724 74.710241943597794
leaf_count=9263 286 307
internal_value=1.91617e-06 -0.000498516
internal_weight=2395.06 2326.2
internal_count=9856 9570
is_linear=0
shrinkage=0.05


Tree=123
num_leaves=3
num_cat=0
split_feature=1 14
split_gain=7.81122 9.77124
threshold=14.550000000000002 -0.43713714286536559
decision_type=2 2
left_child=1 -1
right_child=-2 -3
leaf_value=-0.025733935731922147 0.01890911776775624 -1.2955720940324524e-05
leaf_weight=36.532016634941101 52.420487999916077 2306.0714599490166
leaf_count=151 225 9480
internal_value=1.83555e-06 -0.000427008
internal_weight=2395.02 2342.6
internal_count=9856 9631
is_linear=0
shrinkage=0.05


Tree=124
num_leaves=3
num_cat=0
split_feature=7 0
split_gain=7.71757 17.4054
threshold=4.6050000000000013 0.30140833333333333
decision_type=2 2
left_child=-1 -2
right_child=1 -3
leaf_value=-0.0013375692388123018 0.015772987934142457 -0.0041451568516347693
leaf_weight=1958.0166565924883 222.5086245983839 214.1274778842926
leaf_count=8062 919 875
internal_value=1.39473e-06 0.0060065
internal_weight=2394.65 436.636
internal_count=9856 1794
is_linear=0
shrinkage=0.05


Tree=125
num_leaves=3
num_cat=0
split_feature=2 2
split_gain=7.72338 13.7451
threshold=0.68000000000000049 0.46000000000000024
decision_type=2 2
left_child=1 -1
right_child=-2 -3
leaf_value=0.00022205338396180958 0.0078146341758809131 -0.01398609214443323
leaf_weight=1930.317846134305 278.54378648102283 185.61871090531349
leaf_count=7926 1162 768
internal_value=1.38661e-06 -0.001028
internal_weight=2394.48 2115.94
internal_count=9856 8694
is_linear=0
shrinkage=0.05


Tree=126
num_leaves=3
num_cat=0
split_feature=20 14
split_gain=7.72577 10.8795
threshold=0.30387381225274529 -0.43713714286536559
decision_type=2 2
left_child=1 -1
right_child=-2 -3
leaf_value=-0.026913599063351386 -0.012309483865315373 0.0010930283684498542
leaf_weight=34.212591260671616 119.96813701093197 2240.2545547783375
leaf_count=142 490 9224
internal_value=1.25318e-06 0.000657912
internal_weight=2394.44 2274.47
internal_count=9856 9366
is_linear=0
shrinkage=0.05


Tree=127
num_leaves=3
num_cat=0
split_feature=23 5
split_gain=7.52522 9.9644
threshold=3.2678672687178412 55.70714285714287
decision_type=2 2
left_child=1 -1
right_child=-2 -3
leaf_value=-0.027980876782024478 -0.0014411048784480061 0.006920361192386937
leaf_weight=20.334541693329811 1892.6475587189198 481.08928869664669
leaf_count=84 7778 1994
internal_value=1.36984e-07 0.00544216
internal_weight=2394.07 501.424
internal_count=9856 2078
is_linear=0
shrinkage=0.05


Tree=128
num_leaves=3
num_cat=0
split_feature=28 30
split_gain=7.46279 9.11692
threshold=1.4278428955907139 0.10945577174805317
decision_type=2 2
left_child=1 -1
right_child=-2 -3
leaf_value=0.020205282402292597 0.0064867349752975841 -0.0017272628545404222
leaf_weight=47.523848429322243 373.30475342273712 1973.0207181125879
leaf_count=198 1561 8097
internal_value=0 -0.00119919
internal_weight=2393.85 2020.54
internal_count=9856 8295
is_linear=0
shrinkage=0.05


Tree=129
num_leaves=3
num_cat=0
split_feature=37 37
split_gain=7.44266 15.7753
threshold=0.77350427350427364 0.70714285714285718
decision_type=2 2
left_child=1 -1
right_child=-2 -3
leaf_value=-0.00018925524604846745 0.0086666738919628141 -0.026753551498426828
leaf_weight=2113.4801247417927 223.60749433934689 56.420064106583595
leaf_count=8693 931 232
internal_value=9.72261e-08 -0.000894268
internal_weight=2393.51 2169.9
internal_count=9856 8925
is_linear=0
shrinkage=0.05


Tree=130
num_leaves=3
num_cat=0
split_feature=9 33
split_gain=7.46016 14.2401
threshold=6.5000000000000009 0.25154747553979501
decision_type=2 2
left_child=-1 -2
right_child=1 -3
leaf_value=-0.0012791307382343325 0.0036321926115636034 0.041326829547158037
leaf_weight=1977.5277671515942 389.9782829284668 25.848855882883072
leaf_count=8142 1603 111
internal_value=0 0.00608091
internal_weight=2393.35 415.827
internal_count=9856 1714
is_linear=0
shrinkage=0.05


Tree=131
num_leaves=3
num_cat=0
split_feature=27 25
split_gain=7.27057 9.27384
threshold=4.7888888888888896 7.8190058479532176
decision_type=2 2
left_child=1 -1
right_child=-2 -3
leaf_value=0.00014098398406552553 -0.011782711470940678 0.020931701847961406
leaf_weight=2216.0561051815748 123.08445908129215 53.982990875840187
leaf_count=9123 506 227
internal_value=5.87102e-07 0.000646601
internal_weight=2393.12 2270.04
internal_count=9856 9350
is_linear=0
shrinkage=0.05


Tree=132
num_leaves=3
num_cat=0
split_feature=12 16
split_gain=7.37504 8.38889
threshold=1423.2500000000002 0.89798322687970955
decision_type=2 2
left_child=-1 -2
right_child=1 -3
leaf_value=0.012252607228722975 0.016221049446028493 -0.0011735479632385892
leaf_weight=115.87504462897778 70.539409637451172 2206.4798413068056
leaf_count=512 298 9046
internal_value=7.87356e-07 -0.000625605
internal_weight=2392.89 2277.02
internal_count=9856 9344
is_linear=0
shrinkage=0.05


Tree=133
num_leaves=3
num_cat=0
split_feature=39 7
split_gain=7.15489 13.1979
threshold=81.976190476190496 4.6950000000000012
decision_type=2 2
left_child=-1 -2
right_child=1 -3
leaf_value=-0.00074264036471906477 0.0030817407907999072 0.038957523027971362
leaf_weight=2227.2934908568859 134.18638361990452 30.870276689529419
leaf_count=9173 555 128
internal_value=1.41047e-06 0.0100158
internal_weight=2392.35 165.057
internal_count=9856 683
is_linear=0
shrinkage=0.05


Tree=134
num_leaves=3
num_cat=0
split_feature=37 37
split_gain=7.11267 23.7615
threshold=0.55050505050505061 0.5634920634920636
decision_type=2 2
left_child=-1 -2
right_child=1 -3
leaf_value=-0.0020819827314616131 0.020906134430582233 -0.00030055347446912947
leaf_weight=1508.5101589560509 160.47835177183151 723.22982655465603
leaf_count=6201 664 2991
internal_value=2.27487e-06 0.00356413
internal_weight=2392.22 883.708
internal_count=9856 3655
is_linear=0
shrinkage=0.05


Tree=135
num_leaves=3
num_cat=0
split_feature=1 15
split_gain=7.09028 7.66811
threshold=17.250000000000004 1.3404928711888637
decision_type=2 2
left_child=1 -1
right_child=-2 -3
leaf_value=-0.00074888880323197742 0.027551591403124201 0.016478305602918786
leaf_weight=2304.4694621860981 22.13309720158577 65.447876200079918
leaf_count=9477 98 281
internal_value=2.40772e-06 -0.000264282
internal_weight=2392.05 2369.92
internal_count=9856 9758
is_linear=0
shrinkage=0.05


Tree=136
num_leaves=3
num_cat=0
split_feature=24 22
split_gain=7.03739 11.0149
threshold=0.084686406557062707 1.8905228758169936
decision_type=2 2
left_child=-1 -2
right_child=1 -3
leaf_value=0.0017967812218467995 -0.0097839694481217827 0.0025440556519279794
leaf_weight=1665.2082125097513 391.54872243106365 334.96994706988335
leaf_count=6868 1609 1379
internal_value=3.2821e-06 -0.00409743
internal_weight=2391.73 726.519
internal_count=9856 2988
is_linear=0
shrinkage=0.05


Tree=137
num_leaves=3
num_cat=0
split_feature=39 39
split_gain=7.00319 8.88477
threshold=11.923809523809533 19.823333333333338
decision_type=2 2
left_child=-1 -2
right_child=1 -3
leaf_value=0.015633321744407201 -0.017310452515686841 0.0001021326596360059
leaf_weight=68.598471328616142 74.709632039070129 2248.1904673427343
leaf_count=286 307 9263
internal_value=3.01071e-06 -0.000462951
internal_weight=2391.5 2322.9
internal_count=9856 9570
is_linear=0
shrinkage=0.05


Tree=138
num_leaves=3
num_cat=0
split_feature=3 39
split_gain=6.98255 10.6457
threshold=-0.0038333333333332499 21.26794871794872
decision_type=2 2
left_child=1 -1
right_child=-2 -3
leaf_value=0.012108140661506613 0.002167698067227994 -0.0052042874323070072
leaf_weight=98.243113473057747 1457.2338020950556 835.96599385142326
leaf_count=403 6040 3413
internal_value=2.86258e-06 -0.00336733
internal_weight=2391.44 934.209
internal_count=9856 3816
is_linear=0
shrinkage=0.05


Tree=139
num_leaves=3
num_cat=0
split_feature=41 1
split_gain=6.87995 10.3083
threshold=4.4190476190476202 -8.8499999999999961
decision_type=2 2
left_child=1 -1
right_child=-2 -3
leaf_value=-0.028112304703023946 0.0013928975845646145 -0.0029319752891075867
leaf_weight=43.713274538516998 1886.2389075607061 461.06002083420753
leaf_count=180 7782 1894
internal_value=2.92171e-06 -0.00517374
internal_weight=2391.01 504.773
internal_count=9856 2074
is_linear=0
shrinkage=0.05


Tree=140
num_leaves=3
num_cat=0
split_feature=35 24
split_gain=6.83005 10.8663
threshold=0.42508930707837883 0.075400387563762702
decision_type=2 2
left_child=1 -1
right_child=-2 -3
leaf_value=0.0019799042924537771 0.0045807833969109318 -0.0058560736665377771
leaf_weight=978.66273574531078 607.01796770095825 805.04653580486774
leaf_count=4027 2524 3305
internal_value=1.91041e-06 -0.00155523
internal_weight=2390.73 1783.71
internal_count=9856 7332
is_linear=0
shrinkage=0.05


Tree=141
num_leaves=3
num_cat=0
split_feature=31 24
split_gain=6.79464 8.05477
threshold=5.4593253968253981 0.058746736292428159
decision_type=2 2
left_child=-1 -2
right_child=1 -3
leaf_value=0.00060998256291032633 0.0060301152199852097 -0.021260285385379142
leaf_weight=2273.6549080908298 40.762353822588921 75.899639040231705
leaf_count=9377 167 312
internal_value=1.84976e-06 -0.0117122
internal_weight=2390.32 116.662
internal_count=9856 479
is_linear=0
shrinkage=0.05


Tree=142
num_leaves=3
num_cat=0
split_feature=19 6
split_gain=6.83968 7.44016
threshold=1.5408730158730164 4.9500000000000011
decision_type=2 2
left_child=-1 -2
right_child=1 -3
leaf_value=0.02439352534708146 0.013872344898826182 -0.0008467528261058545
leaf_weight=27.4030372351408 88.205895200371742 2274.6150883883238
leaf_count=114 375 9367
internal_value=1.44765e-06 -0.000289526
internal_weight=2390.22 2362.82
internal_count=9856 9742
is_linear=0
shrinkage=0.05


Tree=143
num_leaves=3
num_cat=0
split_feature=34 38
split_gain=6.70597 9.39829
threshold=0.030044976223250652 0.55050505050505061
decision_type=2 2
left_child=1 -1
right_child=-2 -3
leaf_value=0.0040074155568445421 -0.0052761613513448158 -0.003258700636192627
leaf_weight=1207.724430039525 479.47966852784157 702.8031111061573
leaf_count=4998 1963 2895
internal_value=2.21211e-06 0.00133159
internal_weight=2390.01 1910.53
internal_count=9856 7893
is_linear=0
shrinkage=0.05


Tree=144
num_leaves=3
num_cat=0
split_feature=20 14
split_gain=6.76977 9.63425
threshold=0.30387381225274529 -0.43713714286536559
decision_type=2 2
left_child=1 -1
right_child=-2 -3
leaf_value=-0.025412932388341677 -0.011533871204606335 0.001026326173355664
leaf_weight=33.986034020781517 119.71878427267075 2235.9036791473627
leaf_count=142 490 9224
internal_value=1.81551e-06 0.000617245
internal_weight=2389.61 2269.89
internal_count=9856 9366
is_linear=0
shrinkage=0.05


Tree=145
num_leaves=3
num_cat=0
split_feature=17 21
split_gain=6.65698 9.83802
threshold=0.15673447154382145 0.10238694362017796
decision_type=2 2
left_child=1 -1
right_child=-2 -3
leaf_value=0.0053076612163561014 -0.00065126961112881845 0.04458841223593716
leaf_weight=119.93005636334419 2251.7653301358223 17.547726958990097
leaf_count=511 9269 76
internal_value=7.16189e-07 0.0106434
internal_weight=2389.24 137.478
internal_count=9856 587
is_linear=0
shrinkage=0.05


Tree=146
num_leaves=3
num_cat=0
split_feature=2 20
split_gain=6.61284 9.04421
threshold=0.86000000000000021 0.25358229478412908
decision_type=2 2
left_child=-1 -2
right_child=1 -3
leaf_value=-0.00074138163040423407 0.013982111945814266 -0.017500950155756815
leaf_weight=2212.2050706595182 150.9601753950119 25.83145497739315
leaf_count=9114 637 105
internal_value=1.80697e-06 0.00928136
internal_weight=2389 176.792
internal_count=9856 742
is_linear=0
shrinkage=0.05


Tree=147
num_leaves=3
num_cat=0
split_feature=9 7
split_gain=6.60846 11.2171
threshold=6.5000000000000009 4.5550000000000006
decision_type=2 2
left_child=-1 -2
right_child=1 -3
leaf_value=-0.0012023778769162422 -0.00099902388196182359 0.015722320762090552
leaf_weight=1974.0969358980656 247.93180802464485 166.72433979809284
leaf_count=8142 1024 690
internal_value=1.47052e-06 0.00573389
internal_weight=2388.75 414.656
internal_count=9856 1714
is_linear=0
shrinkage=0.05


Tree=148
num_leaves=3
num_cat=0
split_feature=26 37
split_gain=6.46471 8.04636
threshold=5.8582477037285585 0.65476190476190488
decision_type=2 2
left_child=1 -1
right_child=-2 -3
leaf_value=-0.0019794082146409324 0.014915692848733356 0.0052199719427762524
leaf_weight=1827.5787627547979 69.534986659884453 491.53800369799137
leaf_count=7521 297 2038
internal_value=1.51023e-06 -0.000449749
internal_weight=2388.65 2319.12
internal_count=9856 9559
is_linear=0
shrinkage=0.05


Tree=149
num_leaves=3
num_cat=0
split_feature=33 15
split_gain=6.43105 10.3983
threshold=-0.19655199690850975 1.044068195058421
decision_type=2 2
left_child=1 -1
right_child=-2 -3
leaf_value=-0.014203618225654911 0.00092417933354090585 0.0067205449090928836
leaf_weight=178.73363174498081 2122.073508888483 87.566539362072945
leaf_count=735 8762 359
internal_value=1.86165e-06 -0.00730509
internal_weight=2388.37 266.3
internal_count=9856 1094
is_linear=0
shrinkage=0.05


Tree=150
num_leaves=3
num_cat=0
split_feature=37 37
split_gain=6.33597 12.8277
threshold=0.12698412698412698 0.21825396825396823
decision_type=2 2
left_child=-1 -2
right_child=1 -3
leaf_value=0.0094414642525320058 -0.018454779635630674 0.00011098333303064404
leaf_weight=164.51722021400928 96.27152718603611 2127.1919521838427
leaf_count=683 396 8777
internal_value=1.58819e-06 -0.000698564
internal_weight=2387.98 2223.46
internal_count=9856 9173
is_linear=0
shrinkage=0.05


Tree=151
num_leaves=3
num_cat=0
split_feature=38 38
split_gain=6.28388 11.2325
threshold=0.2264957264957265 0.55050505050505061
decision_type=2 2
left_child=-1 -2
right_child=1 -3
leaf_value=-0.0061258869886709989 0.0043128042895916457 -0.0031863696123671814
leaf_weight=354.88829371333122 1156.1354410350323 876.8439974039793
leaf_count=1458 4788 3610
internal_value=1.35285e-06 0.0010759
internal_weight=2387.87 2032.98
internal_count=9856 8398
is_linear=0
shrinkage=0.05


Tree=152
num_leaves=3
num_cat=0
split_feature=3 27
split_gain=6.42924 10.7879
threshold=0.012337121212121202 1.6018231854145168
decision_type=2 2
left_child=-1 -2
right_child=1 -3
leaf_value=-0.001180267472013385 0.010785213156684428 -0.0071160179989441606
leaf_weight=1976.7976219058037 294.16387134790421 116.57964164018631
leaf_count=8138 1236 482
internal_value=9.94843e-07 0.00568729
internal_weight=2387.54 410.744
internal_count=9856 1718
is_linear=0
shrinkage=0.05


Tree=153
num_leaves=3
num_cat=0
split_feature=32 23
split_gain=6.26335 12.3038
threshold=0.0091362183685567509 3.6064039179254412
decision_type=2 2
left_child=1 -1
right_child=-2 -3
leaf_value=0.0046276423271890783 0.0039354098126019943 -0.0045752493182690335
leaf_weight=529.86617843806744 710.16000363230705 1147.2092016935349
leaf_count=2187 2966 4703
internal_value=8.46435e-07 -0.00166362
internal_weight=2387.24 1677.08
internal_count=9856 6890
is_linear=0
shrinkage=0.05


Tree=154
num_leaves=3
num_cat=0
split_feature=19 5
split_gain=6.15676 6.9027
threshold=1.5408730158730164 64.961538461538467
decision_type=2 2
left_child=1 -1
right_child=-2 -3
leaf_value=0.044731807327472638 -0.00027484709604596664 -0.0044807048264505671
leaf_weight=15.095316454768183 2359.3311769217253 12.18273678421974
leaf_count=63 9742 51
internal_value=9.10732e-07 0.0231948
internal_weight=2386.61 27.2781
internal_count=9856 114
is_linear=0
shrinkage=0.05


Tree=155
num_leaves=3
num_cat=0
split_feature=7 9
split_gain=6.1635 10.9221
threshold=4.5050000000000008 4.5000000000000009
decision_type=2 2
left_child=-1 -2
right_child=1 -3
leaf_value=-0.001456073717118371 -0.00092507112115890818 0.013009316481581998
leaf_weight=1794.5186906754971 365.00362442433834 227.04033955931664
leaf_count=7415 1501 940
internal_value=1.53378e-06 0.00442306
internal_weight=2386.56 592.044
internal_count=9856 2441
is_linear=0
shrinkage=0.05


Tree=156
num_leaves=3
num_cat=0
split_feature=2 2
split_gain=6.19038 12.4891
threshold=0.68000000000000049 0.46000000000000024
decision_type=2 2
left_child=1 -1
right_child=-2 -3
leaf_value=0.000274015523014717 0.0070173546933444755 -0.013280938153184627
leaf_weight=1924.1384005248547 276.98301039636135 185.32896879315376
leaf_count=7926 1162 768
internal_value=1.50775e-06 -0.000920225
internal_weight=2386.45 2109.47
internal_count=9856 8694
is_linear=0
shrinkage=0.05


Tree=157
num_leaves=3
num_cat=0
split_feature=30 36
split_gain=6.08336 10.3202
threshold=0.11210924911376087 0.37060406620773217
decision_type=2 2
left_child=1 -1
right_child=-2 -3
leaf_value=0.040954454630831472 -0.00047570732096082038 0.0019433979217008141
leaf_weight=23.003383725881577 2304.269109711051 59.115682870149612
leaf_count=99 9509 248
internal_value=1.35746e-06 0.0132927
internal_weight=2386.39 82.1191
internal_count=9856 347
is_linear=0
shrinkage=0.05


Tree=158
num_leaves=3
num_cat=0
split_feature=37 37
split_gain=5.99911 15.379
threshold=0.77350427350427364 0.78888888888888908
decision_type=2 2
left_child=-1 -2
right_child=1 -3
leaf_value=-0.00080103713478962618 0.02525527169810984 -0.0020077290226616614
leaf_weight=2163.6116576939821 79.705699652433395 142.88437701761723
leaf_count=8925 338 593
internal_value=2.2743e-06 0.00780161
internal_weight=2386.2 222.59
internal_count=9856 931
is_linear=0
shrinkage=0.05


Tree=159
num_leaves=3
num_cat=0
split_feature=16 3
split_gain=6.06967 8.81866
threshold=0.89798322687970955 0.0023388888888889003
decision_type=2 2
left_child=1 -1
right_child=-2 -3
leaf_value=-0.0057716039061887076 -0.00044637111226571619 0.028887563779946081
leaf_weight=31.297783091664314 2312.8995542377234 41.761304765939713
leaf_count=130 9544 182
internal_value=2.51449e-06 0.014095
internal_weight=2385.96 73.0591
internal_count=9856 312
is_linear=0
shrinkage=0.05


Tree=160
num_leaves=3
num_cat=0
split_feature=1 26
split_gain=6.02326 7.41517
threshold=14.550000000000002 5.8582477037285585
decision_type=2 2
left_child=1 -1
right_child=-2 -3
leaf_value=-0.00086222947204241368 0.016726100001574772 0.01588602666842109
leaf_weight=2266.9896887391806 51.667855322360992 67.057831212878227
leaf_count=9344 225 287
internal_value=2.75223e-06 -0.000372309
internal_weight=2385.72 2334.05
internal_count=9856 9631
is_linear=0
shrinkage=0.05


Tree=161
num_leaves=3
num_cat=0
split_feature=20 14
split_gain=5.95083 8.4318
threshold=0.30387381225274529 -0.43713714286536559
decision_type=2 2
left_child=1 -1
right_child=-2 -3
leaf_value=-0.023862684486731057 -0.010821706779634857 0.0009630667146751107
leaf_weight=33.72513473033905 119.50201895833015 2232.1518026590347
leaf_count=142 490 9224
internal_value=3.35308e-06 0.000580993
internal_weight=2385.38 2265.88
internal_count=9856 9366
is_linear=0
shrinkage=0.05


Tree=162
num_leaves=3
num_cat=0
split_feature=31 4
split_gain=5.98666 6.77549
threshold=5.4593253968253981 0.31251923076923077
decision_type=2 2
left_child=-1 -2
right_child=1 -3
leaf_value=0.00057382550810314336 -0.018537533835577543 0.0079230648688567735
leaf_weight=2268.6111330389977 83.47201219201088 32.932133913040161
leaf_count=9377 344 135
internal_value=2.22315e-06 -0.0110052
internal_weight=2385.02 116.404
internal_count=9856 479
is_linear=0
shrinkage=0.05


Tree=163
num_leaves=3
num_cat=0
split_feature=15 21
split_gain=5.91515 7.90836
threshold=1.3404928711888637 0.078897964560964359
decision_type=2 2
left_child=-1 -2
right_child=1 -3
leaf_value=-0.0004188222780169922 -0.0032426334911000022 0.030958413774795374
leaf_weight=2318.9217162877321 31.663577944040298 34.275003656744957
leaf_count=9570 137 149
internal_value=1.88915e-06 0.0146573
internal_weight=2384.86 65.9386
internal_count=9856 286
is_linear=0
shrinkage=0.05


Tree=164
num_leaves=3
num_cat=0
split_feature=37 37
split_gain=5.91756 8.40756
threshold=0.87301587301587313 0.78888888888888908
decision_type=2 2
left_child=1 -1
right_child=-2 -3
leaf_value=0.00012490653834898249 0.014408580925350988 -0.016822824078260655
leaf_weight=2241.8003620952368 68.233465746045113 74.632141798734665
leaf_count=9263 286 307
internal_value=2.24265e-06 -0.000425991
internal_weight=2384.67 2316.43
internal_count=9856 9570
is_linear=0
shrinkage=0.05


Tree=165
num_leaves=3
num_cat=0
split_feature=32 15
split_gain=5.83244 10.3941
threshold=0.033251792306139859 1.092105959626835
decision_type=2 2
left_child=-1 -2
right_child=1 -3
leaf_value=0.00041443970003209268 -0.043121210202606064 -0.00037308199698250956
leaf_weight=2321.6214725971222 20.598611131310463 42.378599748015404
leaf_count=9590 86 180
internal_value=2.11457e-06 -0.0148888
internal_weight=2384.6 62.9772
internal_count=9856 266
is_linear=0
shrinkage=0.05


Tree=166
num_leaves=3
num_cat=0
split_feature=12 16
split_gain=5.74603 6.82617
threshold=1423.2500000000002 0.88212218142319576
decision_type=2 2
left_child=-1 -2
right_child=1 -3
leaf_value=0.010876086775795431 0.019140705158040453 -0.00093376836727409533
leaf_weight=114.6216057986021 42.154294803738594 2227.8819799572229
leaf_count=512 181 9163
internal_value=9.45133e-07 -0.000550522
internal_weight=2384.66 2270.04
internal_count=9856 9344
is_linear=0
shrinkage=0.05


Tree=167
num_leaves=3
num_cat=0
split_feature=22 15
split_gain=5.79674 9.99028
threshold=1.6517517517517517 1.0313778990443876
decision_type=2 2
left_child=1 -1
right_child=-2 -3
leaf_value=-0.008213000052179063 0.0023411456055528073 0.0013320187886261144
leaf_weight=464.53657884895802 1255.1193411946297 664.5174857378006
leaf_count=1904 5198 2754
internal_value=1.5882e-06 -0.00259454
internal_weight=2384.17 1129.05
internal_count=9856 4658
is_linear=0
shrinkage=0.05


Tree=168
num_leaves=3
num_cat=0
split_feature=37 37
split_gain=5.73126 22.5441
threshold=0.55050505050505061 0.4494949494949495
decision_type=2 2
left_child=1 -1
right_child=-2 -3
leaf_value=0.0016444871642711902 0.0032059373113735544 -0.01250989684927617
leaf_weight=1130.4228764027357 880.13065668940544 373.27083468437195
leaf_count=4665 3655 1536
internal_value=1.41332e-06 -0.0018718
internal_weight=2383.82 1503.69
internal_count=9856 6201
is_linear=0
shrinkage=0.05


Tree=169
num_leaves=3
num_cat=0
split_feature=37 37
split_gain=5.81737 43.5791
threshold=0.43650793650793651 0.4494949494949495
decision_type=2 2
left_child=-1 -2
right_child=1 -3
leaf_value=-0.0030589837888286959 0.024146781531136179 -0.0014030076147730449
leaf_weight=938.87160840630531 191.47770853340626 1253.2941537797451
leaf_count=3874 791 5191
internal_value=1.20811e-06 0.00199404
internal_weight=2383.64 1444.77
internal_count=9856 5982
is_linear=0
shrinkage=0.05


Tree=170
num_leaves=3
num_cat=0
split_feature=1 7
split_gain=5.63348 6.34991
threshold=17.250000000000004 4.5050000000000008
decision_type=2 2
left_child=1 -1
right_child=-2 -3
leaf_value=-0.0017303599214527764 0.024818597409708786 0.0042579031476104407
leaf_weight=1773.222281947732 21.653792768716812 588.76729637384415
leaf_count=7328 98 2430
internal_value=1.4108e-06 -0.000234394
internal_weight=2383.64 2361.99
internal_count=9856 9758
is_linear=0
shrinkage=0.05


Tree=171
num_leaves=3
num_cat=0
split_feature=19 5
split_gain=5.62422 6.32072
threshold=1.5408730158730164 64.961538461538467
decision_type=2 2
left_child=1 -1
right_child=-2 -3
leaf_value=0.042933477112076866 -0.00026128480459783305 -0.0042277165204736194
leaf_weight=14.985581979155542 2356.3220084160566 12.173664063215254
leaf_count=63 9742 51
internal_value=1.96675e-06 0.0222173
internal_weight=2383.48 27.1592
internal_count=9856 114
is_linear=0
shrinkage=0.05


Tree=172
num_leaves=3
num_cat=0
split_feature=37 37
split_gain=5.61715 11.4544
threshold=0.12698412698412698 0.21825396825396823
decision_type=2 2
left_child=-1 -2
right_child=1 -3
leaf_value=0.0089046041491257916 -0.01744330974383964 0.00010905579149123995
leaf_weight=164.02172382175922 96.179495751857758 2123.2225963771343
leaf_count=683 396 8777
internal_value=2.50788e-06 -0.000656851
internal_weight=2383.42 2219.4
internal_count=9856 9173
is_linear=0
shrinkage=0.05


Tree=173
num_leaves=3
num_cat=0
split_feature=25 21
split_gain=5.58016 10.2131
threshold=7.8190058479532176 0.072473494796226015
decision_type=2 2
left_child=-1 -2
right_child=1 -3
leaf_value=-0.00037879277417027615 -0.01310838502797837 0.030384178739722753
leaf_weight=2325.8962718397379 19.87798798084259 37.520258724689484
leaf_count=9612 84 160
internal_value=2.23052e-06 0.0152698
internal_weight=2383.29 57.3982
internal_count=9856 244
is_linear=0
shrinkage=0.05


Tree=174
num_leaves=3
num_cat=0
split_feature=2 2
split_gain=5.53475 11.1722
threshold=0.68000000000000049 0.46000000000000024
decision_type=2 2
left_child=1 -1
right_child=-2 -3
leaf_value=0.00026168492593708464 0.0066452679067490646 -0.01255960554540443
leaf_weight=1921.550563916564 276.28046311438084 185.32223591208458
leaf_count=7926 1162 768
internal_value=2.33696e-06 -0.000869137
internal_weight=2383.15 2106.87
internal_count=9856 8694
is_linear=0
shrinkage=0.05


Tree=175
num_leaves=3
num_cat=0
split_feature=40 38
split_gain=5.50151 9.88048
threshold=32.417857142857152 0.4494949494949495
decision_type=2 2
left_child=-1 -2
right_child=1 -3
leaf_value=-0.004633632565744227 -0.0017441574524447842 0.0056321479511881375
leaf_weight=503.23506763577461 1117.0714890211821 762.76668073236942
leaf_count=2074 4627 3155
internal_value=2.14515e-06 0.00124761
internal_weight=2383.07 1879.84
internal_count=9856 7782
is_linear=0
shrinkage=0.05


Tree=176
num_leaves=3
num_cat=0
split_feature=0 18
split_gain=5.50961 10.5267
threshold=0.30713392857142857 0.19354838709674438
decision_type=2 2
left_child=1 -1
right_child=-2 -3
leaf_value=-0.0030823839445740979 -0.002653742607391785 0.0059859286024122726
leaf_weight=550.19873256981373 1071.850182890892 760.86066909134388
leaf_count=2274 4398 3184
internal_value=1.83279e-06 0.00217706
internal_weight=2382.91 1311.06
internal_count=9856 5458
is_linear=0
shrinkage=0.05


Tree=177
num_leaves=3
num_cat=0
split_feature=37 37
split_gain=5.50211 14.733
threshold=0.77350427350427364 0.70714285714285718
decision_type=2 2
left_child=1 -1
right_child=-2 -3
leaf_value=-8.4561801117254436e-05 0.0074825679605990394 -0.025802040667702777
leaf_weight=2104.2670178562403 221.92783220112324 56.216067656874657
leaf_count=8693 931 232
internal_value=1.57597e-06 -0.000767675
internal_weight=2382.41 2160.48
internal_count=9856 8925
is_linear=0
shrinkage=0.05


Tree=178
num_leaves=3
num_cat=0
split_feature=27 15
split_gain=5.51309 8.96133
threshold=4.7888888888888896 1.1253930817603142
decision_type=2 2
left_child=-1 -2
right_child=1 -3
leaf_value=0.00056477544857689546 -0.020068875092504525 0.0080868454967155338
leaf_weight=2259.8299173563719 80.006160259246826 42.410177916288376
leaf_count=9350 330 176
internal_value=9.27357e-07 -0.0102875
internal_weight=2382.25 122.416
internal_count=9856 506
is_linear=0
shrinkage=0.05


Tree=179
num_leaves=3
num_cat=0
split_feature=35 24
split_gain=5.45712 9.1992
threshold=0.42508930707837883 0.075400387563762702
decision_type=2 2
left_child=1 -1
right_child=-2 -3
leaf_value=0.001865365289973894 0.0041034758401293468 -0.005356384543656223
leaf_weight=975.29568034410477 604.30212067067623 802.43716408312321
leaf_count=4027 2524 3305
internal_value=6.17824e-07 -0.00139277
internal_weight=2382.03 1777.73
internal_count=9856 7332
is_linear=0
shrinkage=0.05


Tree=180
num_leaves=3
num_cat=0
split_feature=37 37
split_gain=5.43086 22.4085
threshold=0.55050505050505061 0.5634920634920636
decision_type=2 2
left_child=-1 -2
right_child=1 -3
leaf_value=-0.0018235105877383497 0.020009746688413925 -0.00063939074362691058
leaf_weight=1502.380093485117 159.60528449714184 719.64833180606365
leaf_count=6201 664 2991
internal_value=6.15147e-07 0.00312171
internal_weight=2381.63 879.254
internal_count=9856 3655
is_linear=0
shrinkage=0.05


Tree=181
num_leaves=3
num_cat=0
split_feature=32 15
split_gain=5.37354 9.35988
threshold=0.033251792306139859 1.092105959626835
decision_type=2 2
left_child=-1 -2
right_child=1 -3
leaf_value=0.00039725241087399667 -0.041017255293262854 -0.00047639876148765402
leaf_weight=2318.4559049904346 20.669862344861031 42.324718952178955
leaf_count=9590 86 180
internal_value=8.10649e-07 -0.0142899
internal_weight=2381.45 62.9946
internal_count=9856 266
is_linear=0
shrinkage=0.05


Tree=182
num_leaves=3
num_cat=0
split_feature=32 28
split_gain=5.45222 10.3112
threshold=0.0091362183685567509 1.5895255227442742
decision_type=2 2
left_child=-1 -2
right_child=1 -3
leaf_value=-0.0015544893300056194 0.0022688248647869135 0.029729879866195037
leaf_weight=1673.3356111198664 673.0728897601366 35.083318278193474
leaf_count=6890 2813 153
internal_value=0 0.00367635
internal_weight=2381.49 708.156
internal_count=9856 2966
is_linear=0
shrinkage=0.05


Tree=183
num_leaves=3
num_cat=0
split_feature=38 38
split_gain=5.28563 10.0338
threshold=0.2264957264957265 0.55050505050505061
decision_type=2 2
left_child=-1 -2
right_child=1 -3
leaf_value=-0.0056252903231658359 0.0040526401492677775 -0.0030451446544205864
leaf_weight=354.04723735153675 1152.4719332903624 874.57075643539429
leaf_count=1458 4788 3610
internal_value=4.71548e-07 0.000987833
internal_weight=2381.09 2027.04
internal_count=9856 8398
is_linear=0
shrinkage=0.05


Tree=184
num_leaves=3
num_cat=0
split_feature=20 11
split_gain=5.29862 8.33727
threshold=0.30387381225274529 1482.1500000000003
decision_type=2 2
left_child=-1 -2
right_child=1 -3
leaf_value=0.00054592389913003813 0.010745980074580774 -0.018393196911559564
leaf_weight=2261.4736898839474 33.185115665197372 86.103206530213356
leaf_count=9366 139 351
internal_value=1.61477e-07 -0.0102234
internal_weight=2380.76 119.288
internal_count=9856 490
is_linear=0
shrinkage=0.05


Tree=185
num_leaves=3
num_cat=0
split_feature=3 42
split_gain=5.2711 9.59201
threshold=0.012337121212121202 0.71666666666666667
decision_type=2 2
left_child=-1 -2
right_child=1 -3
leaf_value=-0.0010698962118068538 0.0033690547921018813 0.03826176017751836
leaf_weight=1971.807601198554 389.10554745793343 19.814489707350731
leaf_count=8138 1630 88
internal_value=0 0.00516122
internal_weight=2380.73 408.92
internal_count=9856 1718
is_linear=0
shrinkage=0.05


Tree=186
num_leaves=3
num_cat=0
split_feature=9 33
split_gain=5.24441 12.2119
threshold=6.5000000000000009 0.25154747553979501
decision_type=2 2
left_child=-1 -2
right_child=1 -3
leaf_value=-0.0010725993863961107 0.0028641695879394282 0.038167131243084892
leaf_weight=1967.5504510551691 387.65361055731773 25.214667990803719
leaf_count=8142 1603 111
internal_value=9.41674e-07 0.00511928
internal_weight=2380.42 412.868
internal_count=9856 1714
is_linear=0
shrinkage=0.05


Tree=187
num_leaves=3
num_cat=0
split_feature=17 15
split_gain=5.20281 9.60799
threshold=0.15673447154382145 1.3052638207455354
decision_type=2 2
left_child=1 -1
right_child=-2 -3
leaf_value=0.0032296873108236842 -0.00057381986120491537 0.037955089285755729
leaf_weight=112.87890009582043 2243.9228146672249 23.365013137459755
leaf_count=482 9269 105
internal_value=1.84287e-06 0.00945448
internal_weight=2380.17 136.244
internal_count=9856 587
is_linear=0
shrinkage=0.05


Tree=188
num_leaves=3
num_cat=0
split_feature=31 24
split_gain=5.18718 7.31253
threshold=5.4593253968253981 0.058746736292428159
decision_type=2 2
left_child=-1 -2
right_child=1 -3
leaf_value=0.00053516904195868539 0.0066631323397464848 -0.019394742784686832
leaf_weight=2263.8766382038593 40.56953689455986 75.444418475031853
leaf_count=9377 167 312
internal_value=2.71132e-06 -0.0102606
internal_weight=2379.89 116.014
internal_count=9856 479
is_linear=0
shrinkage=0.05


Tree=189
num_leaves=3
num_cat=0
split_feature=19 6
split_gain=5.17473 5.821
threshold=1.5408730158730164 4.9500000000000011
decision_type=2 2
left_child=-1 -2
right_child=1 -3
leaf_value=0.021364215755511826 0.012345424654274564 -0.00074239724176501491
leaf_weight=27.021573677659035 87.250919505953789 2265.5128859728575
leaf_count=114 375 9367
internal_value=2.31063e-06 -0.00024988
internal_weight=2379.79 2352.76
internal_count=9856 9742
is_linear=0
shrinkage=0.05


Tree=190
num_leaves=3
num_cat=0
split_feature=12 23
split_gain=5.14207 9.68055
threshold=1537.1500000000003 2.7893559877148939
decision_type=2 2
left_child=-1 -2
right_child=1 -3
leaf_value=0.001220743919389645 0.016492095386851362 -0.0066883299036977475
leaf_weight=1868.6405161172152 48.836084976792336 462.08508045971394
leaf_count=7764 199 1893
internal_value=2.93543e-06 -0.00443499
internal_weight=2379.56 510.921
internal_count=9856 2092
is_linear=0
shrinkage=0.05


Tree=191
num_leaves=3
num_cat=0
split_feature=22 19
split_gain=5.08359 8.67501
threshold=1.6517517517517517 4.7517605633802829
decision_type=2 2
left_child=-1 -2
right_child=1 -3
leaf_value=-0.0024303628081755353 0.0047812021709779003 -0.0044912117530800776
leaf_weight=1126.7916062325239 904.01586192846298 348.336589589715
leaf_count=4658 3765 1433
internal_value=3.01512e-06 0.0021966
internal_weight=2379.14 1252.35
internal_count=9856 5198
is_linear=0
shrinkage=0.05


Tree=192
num_leaves=3
num_cat=0
split_feature=37 37
split_gain=5.09928 7.86534
threshold=0.87301587301587313 0.78888888888888908
decision_type=2 2
left_child=1 -1
right_child=-2 -3
leaf_value=0.00013894231704544629 0.013407715167634341 -0.016263652702125209
leaf_weight=2236.3454581797123 67.911030411720276 74.538637474179268
leaf_count=9263 286 307
internal_value=2.63353e-06 -0.000394774
internal_weight=2378.8 2310.88
internal_count=9856 9570
is_linear=0
shrinkage=0.05


Tree=193
num_leaves=3
num_cat=0
split_feature=32 32
split_gain=5.17585 8.11012
threshold=0.033251792306139859 0.0091362183685567509
decision_type=2 2
left_child=1 -1
right_child=-2 -3
leaf_value=-0.0014424041916748524 -0.014030513036278515 0.0051568856597512059
leaf_weight=1671.8785923272371 62.924904391169548 643.9148656129837
leaf_count=6890 266 2700
internal_value=2.47337e-06 0.000391828
internal_weight=2378.72 2315.79
internal_count=9856 9590
is_linear=0
shrinkage=0.05


Tree=194
num_leaves=3
num_cat=0
split_feature=37 37
split_gain=5.12772 15.8075
threshold=0.65476190476190488 0.60769230769230786
decision_type=2 2
left_child=1 -1
right_child=-2 -3
leaf_value=-0.00027912186343262196 0.0044944706659989812 -0.02423240460796304
leaf_weight=1807.0671385973692 500.7535787075758 70.62981091439724
leaf_count=7474 2089 293
internal_value=1.96815e-06 -0.00119521
internal_weight=2378.45 1877.7
internal_count=9856 7767
is_linear=0
shrinkage=0.05


Tree=195
num_leaves=3
num_cat=0
split_feature=30 36
split_gain=4.9762 9.46203
threshold=0.11210924911376087 0.37060406620773217
decision_type=2 2
left_child=1 -1
right_child=-2 -3
leaf_value=0.038811454130590353 -0.00042952355251939706 0.0012259220174092459
leaf_weight=22.62151038646698 2296.9735041856766 58.778437405824661
leaf_count=99 9509 248
internal_value=1.2756e-06 0.0120761
internal_weight=2378.37 81.3999
internal_count=9856 347
is_linear=0
shrinkage=0.05


Tree=196
num_leaves=3
num_cat=0
split_feature=37 37
split_gain=4.9738 40.0937
threshold=0.43650793650793651 0.4494949494949495
decision_type=2 2
left_child=-1 -2
right_child=1 -3
leaf_value=-0.0028301178987696005 0.02312983500542835 -0.0014134693928696896
leaf_weight=936.90245638787746 190.8849323540926 1250.392978399992
leaf_count=3874 791 5191
internal_value=2.13797e-06 0.0018474
internal_weight=2378.18 1441.28
internal_count=9856 5982
is_linear=0
shrinkage=0.05


Tree=197
num_leaves=3
num_cat=0
split_feature=2 20
split_gain=4.91592 9.85075
threshold=0.88000000000000023 0.22046676802287321
decision_type=2 2
left_child=-1 -2
right_child=1 -3
leaf_value=-0.00062499424087177622 0.01563505482764772 -0.011189207641778942
leaf_weight=2209.5522115975618 122.23516280949116 46.346980765461922
leaf_count=9142 523 191
internal_value=2.28273e-06 0.00820849
internal_weight=2378.13 168.582
internal_count=9856 714
is_linear=0
shrinkage=0.05


Tree=198
num_leaves=3
num_cat=0
split_feature=37 37
split_gain=5.1031 20.359
threshold=0.55050505050505061 0.5634920634920636
decision_type=2 2
left_child=-1 -2
right_child=1 -3
leaf_value=-0.0017671246988942792 0.019156521277421439 -0.00055423526290268729
leaf_weight=1500.2159509509802 159.08371570706367 718.57648482918739
leaf_count=6201 664 2991
internal_value=2.10043e-06 0.00303056
internal_weight=2377.88 877.66
internal_count=9856 3655
is_linear=0
shrinkage=0.05


Tree=199
num_leaves=3
num_cat=0
split_feature=37 7
split_gain=5.12239 10.8495
threshold=0.12698412698412698 4.6950000000000012
decision_type=2 2
left_child=1 -1
right_child=-2 -3
leaf_value=0.0022367113198032379 -0.0006278679996239504 0.035027031450757494
leaf_weight=133.22135148942471 2214.1657443940639 30.286260843276978
leaf_count=555 9173 128
internal_value=2.20609e-06 0.00851681
internal_weight=2377.67 163.508
internal_count=9856 683
is_linear=0
shrinkage=0.05


Tree=200
num_leaves=3
num_cat=0
split_feature=37 37
split_gain=4.9714 13.6225
threshold=0.77350427350427364 0.78888888888888908
decision_type=2 2
left_child=-1 -2
right_child=1 -3
leaf_value=-0.00072852111541470697 0.023645326115765277 -0.0021073849020561267
leaf_weight=2156.2593377232552 78.955775335431099 142.29596248269081
leaf_count=8925 338 593
internal_value=2.93951e-06 0.00712526
internal_weight=2377.51 221.252
internal_count=9856 931
is_linear=0
shrinkage=0.05


Tree=201
num_leaves=3
num_cat=0
split_feature=34 18
split_gain=4.81434 8.44665
threshold=0.030044976223250652 0.23422389094026755
decision_type=2 2
left_child=-1 -2
right_child=1 -3
leaf_value=0.0011332693429635164 -0.0033181642337564822 -0.043190103068127331
