tree
version=v4
num_class=1
num_tree_per_iteration=1
label_index=0
max_feature_idx=81
objective=binary sigmoid:1
feature_names=away_bb_pct_sp10 away_bb_pct_sp5 away_era_sp10 away_era_sp5 away_fip_sp10 away_fip_sp5 away_ip_per_start_sp10 away_ip_per_start_sp5 away_k_pct_sp10 away_k_pct_sp5 away_lineup_obp away_lineup_slg away_proj_lineup_bb_score away_proj_lineup_woba away_proj_sp_breakout away_proj_sp_fip away_proj_sp_k_bb away_proj_sp_sc_era away_proj_sp_sust away_proj_sp_war away_pyth_t14 away_pyth_t30 away_ra_t14 away_ra_t30 away_rs_t14 away_rs_t30 away_team_era_t14 away_team_era_t30 away_team_k_pct_t14 away_team_k_pct_t30 away_team_whip_t14 away_team_whip_t30 away_whip_sp10 away_whip_sp5 diff_bp_bb_pct_bp35 diff_bp_era_bp35 diff_bp_k_pct_bp35 diff_bp_whip_bp35 diff_proj_lineup_woba diff_proj_sp_fip diff_proj_sp_k_bb diff_proj_sp_sc_era diff_proj_sp_sust diff_proj_sp_war diff_pyth_t14 diff_pyth_t30 diff_rs_t14 diff_rs_t30 home_bb_pct_sp10 home_bb_pct_sp5 home_era_sp10 home_era_sp5 home_fip_sp10 home_fip_sp5 home_ip_per_start_sp10 home_ip_per_start_sp5 home_k_pct_sp10 home_k_pct_sp5 home_lineup_obp home_lineup_slg home_proj_lineup_bb_score home_proj_lineup_woba home_proj_sp_breakout home_proj_sp_fip home_proj_sp_k_bb home_proj_sp_sc_era home_proj_sp_sust home_proj_sp_war home_pyth_t14 home_pyth_t30 home_ra_t14 home_ra_t30 home_rs_t14 home_rs_t30 home_team_era_t14 home_team_era_t30 home_team_k_pct_t14 home_team_k_pct_t30 home_team_whip_t14 home_team_whip_t30 home_whip_sp10 home_whip_sp5
feature_infos=[0:0.29081632653061218] [0:0.29081632653061218] [0.19444444444444459:11.866666666666664] [0:12.622222222222224] [0.7114035087719297:8.3699999999999992] [-0.10000000000000001:10.35] [0.38802083333333331:9] [0.1763085399449035:9] [0.041200000000000001:0.54000000000000004] [0.041200000000000001:0.54000000000000004] [0.23464196652768149:0.37460498884208149] [0.27803886956064372:0.58225237231324778] [51.25:84.799999999999997] [0.26200000000000001:0.34399999999999997] [50:100] [2.1600000000000001:5.3700000000000001] [-37.5:31] [2.29:6.0300000000000002] [24:90] [-1.8999999999999999:4.5999999999999996] [0:0.92005186651447601] [0:0.92005186651447601] [1:13] [1:13] [0:10] [0:10] [0.79411764705181653:14.624999999817188] [0.79411764705181653:14.624999999817188] [0.076923076922879599:0.34538152610427891] [0.076923076922879599:0.34538152610427891] [0.58064516128470345:2.9999999999625002] [0.58064516128470345:2.9999999999625002] [0.47249999999999998:2.2736842105263162] [0.31441048034934499:2.4127777777777779] [-0.16666666666527771:0.16438356164316009] [-6.849557521961021:13.199999999776001] [-0.41666666666319441:0.21587867974867181] [-1.0591133004870157:3.0666666666097777] [-0.067166666666666597:0.060400000000000002] [-3.04:2.8700000000000001] [-38.399999999999999:50.5] [-3.7400000000000002:3.1400000000000001] [-61:62] [-5.0999999999999996:5.5] [-0.68496386192062908:0.99999999998660716] [-0.68496386192062908:0.99999999998660716] [-5:11] [-5:11] [0:0.2666] [0:0.2666] [0.19444444444444459:12.116666666666667] [0:12.722513089005236] [0.67459016393442628:8.4000000000000004] [-0.021140939597315798:9.6318652849740936] [0:9.2222222222222232] [0:9.2222222222222232] [0.017999999999999999:0.490566037735849] [0.017999999999999999:0.50549450549450547] [0.23722839230349829:0.37472168783625931] [0.27503511663083169:0.56332299697930344] [51.666666666666657:86.222222222222229] [0.26666666666666661:0.34399999999999997] [50:100] [2.1600000000000001:5.3700000000000001] [-18.800000000000001:31] [2.29:6.0300000000000002] [24:90] [-1.8999999999999999:4.5999999999999996] [0.098829779490873002:0.99999999998660716] [0.1575180690374702:0.99999999998660716] [0:10] [0:10] [1:13] [1:13] [0:8.0397022332446362] [0:6.0585365853569879] [0.10997067448678741:0.54545454545289251] [0.1173469387754503:0.54545454545289251] [0.33333333332962961:1.7047146401972426] [0.33333333332962961:1.4955588452992801] [0.46551724137931028:2.3640552995391704] [0.37037037037037029:2.3708333333333336]
tree_sizes=465 469 467 466 468 470 464 468 466 467 469 466 467 472 464 467 477 476 464 481 477 476 479 477 476 475 478 484 475 481 478 476 477 474 461 466 473 468 468 469 465 468 469 466 462 469 466 466 466 466 465 468 467 467 469 466 465 462 468 464 469 469 468 468 468 469 464 467 475 472 473 473 479 477 475 474 475 475 477 478 473 481 471 464 477 477 466 474 474 448 467 471 477 476 466 478 460 477 476 467 476 475 476 478 475 475 472 460 478 479 474 478 477 473 465 476 475 476 480 474 474 475 474 464 470 468 467 466 467 462 475 480 475 477 475 477 478 476 479 465 472 474 478 466 464 469 467 468 465 468 468 467 468 464 454 464 466 466 465 463 466 464 473 476 479 477 476 469 465 469 468 469 462 470 463 467 464 465 457 465 460 467 464 463 469 461 465 462 464 467 470 471 466 464 440 469 446 471 465 456 463 463 461 461 468 469 468 470 465 466 466 463 468 465 454 466 465 465 467 466 465 462 460 470 464 461 462 463 469 467 465 468 470 464 465 469 462 472 466 461 464 464 465 472 465 466 464 467 465 464 475 482 477 465 467 470 458 463 465 460 464 465 468 469 472 478 470 479 466 474 476 475 480 469 465 466 467 464 466 467 466 462 467 464 466 465 465 466 470 463 465 470 469 461 460 467 468 463 458 465 458 462 468 468 468 465 473 469 464 462 466 468 464 468 466 466 476 478 478 480 473 452 476 476 475 479 477 470 473 478 473 468 466 476 457 480 477 476 478 472 477 469 444 468 469 465 466 468 463 464 464 467 466 465 462 466 464 461 469 467 463 465 479 474 475 477 465 466 468 456 472 464 455 468 469 466 466 469 466 467 469 460 464 470 467 466 466 466 469 469 465 461 465 465 467 469 460 464 463 467 463 465 476 478 467 473 466 472 461 469 466 461 477 464 465 469 466 462 466 467 464 468 466 464 466 470 465 468 465 466 466 459 465 463 464 469 466 469 463 467 464 466 467 470 466 465 466 472 465 467 464 465 467 467 465 466 464 466 467 464 460 463 461 478 466 463 469 468 465 463 466 466 465 463 469 464 468 467 468 463 466 465 469 470 471 466 464 465 461 462 463 466 467 467 467 467 463 467 473 466

Tree=0
num_leaves=3
num_cat=0
split_feature=44 40
split_gain=115.541 38.4461
threshold=-0.0066707250235471987 0.60000000000000064
decision_type=2 2
left_child=-1 -2
right_child=1 -3
leaf_value=0.11165936316263439 0.12398248860066897 0.14066081955760662
leaf_weight=1308.3510307967663 687.67508015036583 695.39616942405701
leaf_count=5253 2761 2792
internal_value=0.122307 0.132379
internal_weight=2691.42 1383.07
internal_count=10806 5553
is_linear=0
shrinkage=1


Tree=1
num_leaves=3
num_cat=0
split_feature=45 40
split_gain=126.516 53.0861
threshold=-0.055804064705161145 0.60000000000000064
decision_type=2 2
left_child=-1 -2
right_child=1 -3
leaf_value=-0.014293547410574307 -0.00051772198720938397 0.017094639513624433
leaf_weight=982.01803533732891 861.86519777774811 847.44494144618511
leaf_count=3941 3460 3405
internal_value=0 0.00821613
internal_weight=2691.33 1709.31
internal_count=10806 6865
is_linear=0
shrinkage=0.05


Tree=2
num_leaves=3
num_cat=0
split_feature=45 16
split_gain=114.37 44.8076
threshold=-0.022183677144861146 12.750000000000002
decision_type=2 2
left_child=-1 -2
right_child=1 -3
leaf_value=-0.011554301253733546 0.017291208894336191 -1.9956305582524891e-05
leaf_weight=1191.9088382720947 797.32877168059349 701.84457430243492
leaf_count=4781 3206 2819
internal_value=0 0.00918897
internal_weight=2691.08 1499.17
internal_count=10806 6025
is_linear=0
shrinkage=0.05


Tree=3
num_leaves=3
num_cat=0
split_feature=45 40
split_gain=104.641 45.943
threshold=-0.055804064705161145 0.60000000000000064
decision_type=2 2
left_child=-1 -2
right_child=1 -3
leaf_value=-0.01298457806934194 -0.00063885931886700125 0.015754568114626995
leaf_weight=983.30595134198666 861.71546523272991 845.69785031676292
leaf_count=3941 3460 3405
internal_value=0 0.0074825
internal_weight=2690.72 1707.41
internal_count=10806 6865
is_linear=0
shrinkage=0.05


Tree=4
num_leaves=3
num_cat=0
split_feature=45 13
split_gain=94.8674 34.5879
threshold=0.018827036014381602 0.30373863636363635
decision_type=2 2
left_child=-1 -2
right_child=1 -3
leaf_value=-0.0085635448558137612 0.016637583099912336 -0.00083310241290561666
leaf_weight=1468.0093243867159 777.87754856050014 444.26961214840412
leaf_count=5887 3131 1788
internal_value=0 0.0102871
internal_weight=2690.16 1222.15
internal_count=10806 4919
is_linear=0
shrinkage=0.05


Tree=5
num_leaves=3
num_cat=0
split_feature=44 34
split_gain=80.4486 37.944
threshold=-0.0066707250235471987 0.0048776021919424506
decision_type=2 2
left_child=1 -1
right_child=-2 -3
leaf_value=-0.014649505349883999 0.0084265941610253033 0.0036283339782888823
leaf_weight=895.98182718455791 1379.3242847621441 414.39580054581165
leaf_count=3591 5553 1662
internal_value=0 -0.00886712
internal_weight=2689.7 1310.38
internal_count=10806 5253
is_linear=0
shrinkage=0.05


Tree=6
num_leaves=3
num_cat=0
split_feature=45 16
split_gain=82.6828 42.775
threshold=-0.055804064705161145 12.450000000000001
decision_type=2 2
left_child=-1 -2
right_child=1 -3
leaf_value=-0.011530330947524661 0.014488885194226992 -0.0013408623160561786
leaf_weight=984.3132064640522 861.82584841549397 843.05884920060635
leaf_count=3941 3476 3389
internal_value=0 0.00666201
internal_weight=2689.2 1704.88
internal_count=10806 6865
is_linear=0
shrinkage=0.05


Tree=7
num_leaves=3
num_cat=0
split_feature=45 40
split_gain=74.6957 35.974
threshold=-0.022183677144861146 0.60000000000000064
decision_type=2 2
left_child=-1 -2
right_child=1 -3
leaf_value=-0.0093195486685486734 -0.00030019459087908188 0.015202135445844528
leaf_weight=1193.8322879970074 747.74693968892097 746.8458119481802
leaf_count=4781 3006 3019
internal_value=0 0.00744794
internal_weight=2688.43 1494.59
internal_count=10806 6025
is_linear=0
shrinkage=0.05


Tree=8
num_leaves=3
num_cat=0
split_feature=45 13
split_gain=68.6636 31.1063
threshold=0.018827036014381602 0.30373863636363635
decision_type=2 2
left_child=-1 -2
right_child=1 -3
leaf_value=-0.0072753733245456489 0.014809159452683324 -0.0017776706645349527
leaf_weight=1468.9632591456175 775.12757131457329 443.4679986089468
leaf_count=5887 3131 1788
internal_value=0 0.00877232
internal_weight=2687.56 1218.6
internal_count=10806 4919
is_linear=0
shrinkage=0.05


Tree=9
num_leaves=3
num_cat=0
split_feature=45 15
split_gain=63.7923 42.7895
threshold=-0.059608525119230094 4.1250000000000009
decision_type=2 2
left_child=-1 -2
right_child=1 -3
leaf_value=-0.010292037923851277 -0.0067329254920410996 0.010725058975089276
leaf_weight=963.95650045573711 489.23887737095356 1233.6390782892704
leaf_count=3857 1968 4981
internal_value=0 0.00576365
internal_weight=2686.83 1722.88
internal_count=10806 6949
is_linear=0
shrinkage=0.05


Tree=10
num_leaves=3
num_cat=0
split_feature=45 40
split_gain=59.1729 35.4587
threshold=0.074850424389073175 -1.7999999999999996
decision_type=2 2
left_child=1 -1
right_child=-2 -3
leaf_value=-0.013467998077840538 0.010662888380057777 0.00072657708532074955
leaf_weight=750.53562657535076 875.89400143921375 1059.5117028057575
leaf_count=3007 3543 4256
internal_value=0 -0.00516063
internal_weight=2685.94 1810.05
internal_count=10806 7263
is_linear=0
shrinkage=0.05


Tree=11
num_leaves=3
num_cat=0
split_feature=45 40
split_gain=54.4509 32.1815
threshold=0.11820820660501041 -1.9999999999999993
decision_type=2 2
left_child=1 -1
right_child=-2 -3
leaf_value=-0.01173840580243137 0.012682034878091136 0.0010860168348294098
leaf_weight=808.80742461979389 642.77867487072945 1233.6069465726614
leaf_count=3241 2604 4961
internal_value=0 -0.00399334
internal_weight=2685.19 2042.41
internal_count=10806 8202
is_linear=0
shrinkage=0.05


Tree=12
num_leaves=3
num_cat=0
split_feature=45 15
split_gain=51.849 37.035
threshold=-0.059608525119230094 4.1250000000000009
decision_type=2 2
left_child=-1 -2
right_child=1 -3
leaf_value=-0.0092749155047300007 -0.0064181671032803554 0.0098274960940137827
leaf_weight=964.11176450550556 489.28618349134922 1231.047872081399
leaf_count=3857 1968 4981
internal_value=0 0.00520306
internal_weight=2684.45 1720.33
internal_count=10806 6949
is_linear=0
shrinkage=0.05


Tree=13
num_leaves=3
num_cat=0
split_feature=44 34
split_gain=47.5608 31.1078
threshold=-0.0066707250235471987 0.0048776021919424506
decision_type=2 2
left_child=1 -1
right_child=-2 -3
leaf_value=-0.01204130552067687 0.0065033798957509596 0.0045088500139196085
leaf_weight=896.47704727947712 1372.8094756007195 414.14506986737251
leaf_count=3591 5553 1662
internal_value=0 -0.00680834
internal_weight=2683.43 1310.62
internal_count=10806 5253
is_linear=0
shrinkage=0.05


Tree=14
num_leaves=3
num_cat=0
split_feature=21 15
split_gain=45.7638 33.7588
threshold=0.4092111555780234 4.1350000000000007
decision_type=2 2
left_child=1 -1
right_child=-2 -3
leaf_value=-0.0096079669310387139 -0.0033816477290343275 0.019265580610336799
leaf_weight=130.76242460310459 2115.1887702196836 436.66043674945831
leaf_count=527 8504 1775
internal_value=0 0.0125977
internal_weight=2682.61 567.423
internal_count=10806 2302
is_linear=0
shrinkage=0.05


Tree=15
num_leaves=3
num_cat=0
split_feature=31 38
split_gain=43.0996 33.1339
threshold=1.1332495517734127 0.014513131313131252
decision_type=2 2
left_child=1 -1
right_child=-2 -3
leaf_value=-0.0066148216161909723 0.010212909938642205 0.011979612137582148
leaf_weight=1657.9287156313658 745.12913426756859 278.92252911627293
leaf_count=6665 3017 1124
internal_value=0 -0.00392969
internal_weight=2681.98 1936.85
internal_count=10806 7789
is_linear=0
shrinkage=0.05


Tree=16
num_leaves=3
num_cat=0
split_feature=45 45
split_gain=40.8415 26.4552
threshold=0.11820820660501041 -0.24154851413458697
decision_type=2 2
left_child=1 -1
right_child=-2 -3
leaf_value=-0.020998070695304676 0.011013947585444717 -0.001603418245275918
leaf_weight=193.45407299697399 639.92906028032303 1848.1065808981657
leaf_count=774 2604 7428
internal_value=4.12853e-07 -0.00345304
internal_weight=2681.49 2041.56
internal_count=10806 8202
is_linear=0
shrinkage=0.05


Tree=17
num_leaves=3
num_cat=0
split_feature=37 29
split_gain=38.2352 29.3261
threshold=-0.1125941512174936 0.18755066323273414
decision_type=2 2
left_child=-1 -2
right_child=1 -3
leaf_value=-0.010618559473824387 0.011805692706875082 -0.0008958467383713035
leaf_weight=643.00752571225166 682.05372108519077 1355.587460398674
leaf_count=2580 2766 5460
internal_value=7.29657e-08 0.00335696
internal_weight=2680.65 2037.64
internal_count=10806 8226
is_linear=0
shrinkage=0.05


Tree=18
num_leaves=3
num_cat=0
split_feature=40 59
split_gain=37.857 35.1201
threshold=3.8999999999999999 0.42097381454535127
decision_type=2 2
left_child=1 -1
right_child=-2 -3
leaf_value=-0.0080412624301757166 0.0095419359932124252 0.0067532778947794513
leaf_weight=1364.9582686424255 748.34028989076614 566.70221024751663
leaf_count=5488 3032 2286
internal_value=0 -0.00369707
internal_weight=2680 1931.66
internal_count=10806 7774
is_linear=0
shrinkage=0.05


Tree=19
num_leaves=3
num_cat=0
split_feature=34 45
split_gain=35.7672 31.6843
threshold=0.0031041859095111003 -0.081778906302175436
decision_type=2 2
left_child=1 -1
right_child=-2 -3
leaf_value=-0.013924770509841582 0.0066654763112699708 0.00078929182764536112
leaf_weight=602.1564497500658 1149.1169013082981 928.2099643945694
leaf_count=2410 4647 3749
internal_value=2.53554e-07 -0.00500233
internal_weight=2679.48 1530.37
internal_count=10806 6159
is_linear=0
shrinkage=0.05


Tree=20
num_leaves=3
num_cat=0
split_feature=40 21
split_gain=34.985 32.5189
threshold=0.20000000000000018 0.44770787669236239
decision_type=2 2
left_child=-1 -2
right_child=1 -3
leaf_value=-0.0055900140957489304 0.016576972315842025 6.0631456826179704e-05
leaf_weight=1367.7679195404053 457.46761959791183 853.35876590013504
leaf_count=5496 1872 3438
internal_value=1.39607e-07 0.00583675
internal_weight=2678.59 1310.83
internal_count=10806 5310
is_linear=0
shrinkage=0.05


Tree=21
num_leaves=3
num_cat=0
split_feature=50 8
split_gain=34.4172 33.3055
threshold=4.6503588516746426 0.21672195952132187
decision_type=2 2
left_child=1 -1
right_child=-2 -3
leaf_value=0.0091950548030490381 -0.008637567285318332 -0.0043892579893791001
leaf_weight=1118.0736674368382 804.96519291400909 754.69941610097885
leaf_count=4526 3243 3037
internal_value=5.24657e-07 0.00371869
internal_weight=2677.74 1872.77
internal_count=10806 7563
is_linear=0
shrinkage=0.05


Tree=22
num_leaves=3
num_cat=0
split_feature=45 34
split_gain=32.5879 26.9522
threshold=0.21808969698687297 0.0090183783104792019
decision_type=2 2
left_child=1 -1
right_child=-2 -3
leaf_value=-0.0051096658066820712 0.016924373597410714 0.0065937370797662627
leaf_weight=1736.0576665252447 256.1917729973793 685.08964870870113
leaf_count=6987 1050 2769
internal_value=3.43588e-07 -0.00179464
internal_weight=2677.34 2421.15
internal_count=10806 9756
is_linear=0
shrinkage=0.05


Tree=23
num_leaves=3
num_cat=0
split_feature=37 17
split_gain=31.7524 26.7502
threshold=-0.19330871281696743 4.245000000000001
decision_type=2 2
left_child=-1 -2
right_child=1 -3
leaf_value=-0.014709669731162526 -0.0059635095186810058 0.0055720399064978169
leaf_weight=321.57173420488834 725.15082800388336 1629.9124942868948
leaf_count=1290 2916 6600
internal_value=8.13573e-07 0.00201697
internal_weight=2676.64 2355.06
internal_count=10806 9516
is_linear=0
shrinkage=0.05


Tree=24
num_leaves=3
num_cat=0
split_feature=13 52
split_gain=31.0011 28.3815
threshold=0.3041666666666667 3.8000950570342211
decision_type=2 2
left_child=1 -1
right_child=-2 -3
leaf_value=0.012727536172790266 -0.0066490373587962392 -0.0008750783372352399
leaf_weight=621.70147790014744 1058.0788581669331 996.24331326782703
leaf_count=2520 4261 4025
internal_value=3.49145e-07 0.00435332
internal_weight=2676.02 1617.94
internal_count=10806 6545
is_linear=0
shrinkage=0.05


Tree=25
num_leaves=3
num_cat=0
split_feature=31 38
split_gain=29.8583 27.4427
threshold=1.1332495517734127 0.014513131313131252
decision_type=2 2
left_child=1 -1
right_child=-2 -3
leaf_value=-0.0057103187413371356 0.0085288686869689906 0.01123337551829846
leaf_weight=1656.4085578173399 741.14596810936928 278.1312360316515
leaf_count=6665 3017 1124
internal_value=3.4384e-07 -0.00326717
internal_weight=2675.69 1934.54
internal_count=10806 7789
is_linear=0
shrinkage=0.05


Tree=26
num_leaves=3
num_cat=0
split_feature=40 59
split_gain=29.2198 29.3859
threshold=3.8999999999999999 0.42097381454535127
decision_type=2 2
left_child=1 -1
right_child=-2 -3
leaf_value=-0.0072190625039251239 0.0084038528641195882 0.0063240481992383989
leaf_weight=1364.0269120931625 745.40070135891438 565.63267986476421
leaf_count=5488 3032 2286
internal_value=6.87373e-07 -0.00324542
internal_weight=2675.06 1929.66
internal_count=10806 7774
is_linear=0
shrinkage=0.05


Tree=27
num_leaves=3
num_cat=0
split_feature=44 34
split_gain=27.9289 21.1442
threshold=-0.0066707250235471987 0.0048776021919424506
decision_type=2 2
left_child=1 -1
right_child=-2 -3
leaf_value=-0.0095304951909180886 0.0050035657947064983 0.0041228266180658507
leaf_weight=895.46851263940334 1365.4924598038197 413.47499044239521
leaf_count=3591 5553 1662
internal_value=8.80083e-07 -0.00521395
internal_weight=2674.44 1308.94
internal_count=10806 5253
is_linear=0
shrinkage=0.05


Tree=28
num_leaves=3
num_cat=0
split_feature=50 8
split_gain=28.8435 28.4233
threshold=4.6503588516746426 0.18206350650532252
decision_type=2 2
left_child=1 -1
right_child=-2 -3
leaf_value=0.011814637344992586 -0.007907788133823361 -0.0011069260359507286
leaf_weight=653.14782418310642 804.43345405161381 1215.9065900593996
leaf_count=2657 3243 4906
internal_value=8.58712e-07 0.00340979
internal_weight=2673.49 1869.05
internal_count=10806 7563
is_linear=0
shrinkage=0.05


Tree=29
num_leaves=3
num_cat=0
split_feature=28 38
split_gain=26.8617 24.2493
threshold=0.20205567489520251 -0.0035853174603173994
decision_type=2 2
left_child=-1 -2
right_child=1 -3
leaf_value=0.0045710560927998576 -0.013789082703630781 0.00051754136943772319
leaf_weight=1459.6802048683167 509.51408222317696 703.8122790902853
leaf_count=5920 2049 2837
internal_value=7.85249e-07 -0.00549255
internal_weight=2673.01 1213.33
internal_count=10806 4886
is_linear=0
shrinkage=0.05


Tree=30
num_leaves=3
num_cat=0
split_feature=52 34
split_gain=26.3455 30.1158
threshold=3.7682512144344211 0.0086843431245394523
decision_type=2 2
left_child=-1 -2
right_child=1 -3
leaf_value=0.0064359919865266671 -0.0082184507390515721 0.0063864455133527042
leaf_weight=996.694939494133 1172.2460483461618 503.62763220071793
leaf_count=4040 4724 2042
internal_value=6.24132e-07 -0.00382527
internal_weight=2672.57 1675.87
internal_count=10806 6766
is_linear=0
shrinkage=0.05


Tree=31
num_leaves=3
num_cat=0
split_feature=13 30
split_gain=25.7994 28.2505
threshold=0.3041666666666667 1.0312499999993328
decision_type=2 2
left_child=1 -1
right_child=-2 -3
leaf_value=-0.0047267233479675388 -0.0060654703830842673 0.0089950589765761205
leaf_weight=590.0755782276392 1057.3581213951111 1024.5957218408585
leaf_count=2378 4261 4167
internal_value=7.49497e-07 0.00397757
internal_weight=2672.03 1614.67
internal_count=10806 6545
is_linear=0
shrinkage=0.05


Tree=32
num_leaves=3
num_cat=0
split_feature=76 13
split_gain=25.3526 21.25
threshold=0.19321260356857342 0.30395833333333327
decision_type=2 2
left_child=-1 -2
right_child=1 -3
leaf_value=-0.0057399743465253589 0.0088451496703217929 -0.0031070795724187908
leaf_weight=1117.1708349883556 941.53118544816971 612.75748693943024
leaf_count=4507 3827 2472
internal_value=5.85283e-07 0.00413096
internal_weight=2671.46 1554.29
internal_count=10806 6299
is_linear=0
shrinkage=0.05


Tree=33
num_leaves=3
num_cat=0
split_feature=40 45
split_gain=25.0228 25.9791
threshold=0.20000000000000018 -0.21822507480005937
decision_type=2 2
left_child=-1 -2
right_child=1 -3
leaf_value=-0.0047265067845110049 -0.018827074480376044 0.0070402982616909393
leaf_weight=1365.9147200733423 104.55027125775814 1200.5306759923697
leaf_count=5496 419 4891
internal_value=4.49032e-07 0.0049514
internal_weight=2671 1305.08
internal_count=10806 5310
is_linear=0
shrinkage=0.05


Tree=34
num_leaves=3
num_cat=0
split_feature=50 8
split_gain=24.1954 25.229
threshold=4.6503588516746426 0.22153268508712812
decision_type=2 2
left_child=1 -1
right_child=-2 -3
leaf_value=0.0076081179150868363 -0.0072440208878957 -0.0044045538110139507
leaf_weight=1170.2634025216103 804.020228728652 695.90747559070587
leaf_count=4759 3243 2804
internal_value=0 0.00312588
internal_weight=2670.19 1866.17
internal_count=10806 7563
is_linear=0
shrinkage=0.05


Tree=35
num_leaves=3
num_cat=0
split_feature=45 52
split_gain=23.2901 19.3899
threshold=0.21808969698687297 4.3686593326885896
decision_type=2 2
left_child=1 -1
right_child=-2 -3
leaf_value=0.0023329103862447108 0.014384224893592201 -0.0067235326005648816
leaf_weight=1389.6300448477268 253.64568462967873 1026.381675645709
leaf_count=5618 1050 4138
internal_value=0 -0.00151361
internal_weight=2669.66 2416.01
internal_count=10806 9756
is_linear=0
shrinkage=0.05


Tree=36
num_leaves=3
num_cat=0
split_feature=37 17
split_gain=23.8116 20.5638
threshold=-0.19666885081340443 4.245000000000001
decision_type=2 2
left_child=-1 -2
right_child=1 -3
leaf_value=-0.012998349160799902 -0.0052648263751464532 0.004835521991344174
leaf_weight=310.18815214931965 727.74117809534073 1631.0666713416576
leaf_count=1247 2930 6629
internal_value=9.97189e-08 0.00171633
internal_weight=2669 2358.81
internal_count=10806 9559
is_linear=0
shrinkage=0.05


Tree=37
num_leaves=3
num_cat=0
split_feature=29 17
split_gain=22.0303 19.6416
threshold=0.20437680967949867 4.3650000000000011
decision_type=2 2
left_child=1 -1
right_child=-2 -3
leaf_value=-0.0040397482041240017 -0.0054915692099353625 0.0077232916161634945
leaf_weight=534.14810913801193 1083.1771625429392 1050.9926924556494
leaf_count=2157 4363 4286
internal_value=0 0.00375628
internal_weight=2668.32 1585.14
internal_count=10806 6443
is_linear=0
shrinkage=0.05


Tree=38
num_leaves=3
num_cat=0
split_feature=76 13
split_gain=21.4074 18.7704
threshold=0.19321260356857342 0.30395833333333327
decision_type=2 2
left_child=-1 -2
right_child=1 -3
leaf_value=-0.0052764385152491468 0.008237746183658419 -0.0030036526790546496
leaf_weight=1116.2429881244898 939.27049565315247 612.20459589362144
leaf_count=4507 3827 2472
internal_value=0 0.00379965
internal_weight=2667.72 1551.48
internal_count=10806 6299
is_linear=0
shrinkage=0.05


Tree=39
num_leaves=3
num_cat=0
split_feature=37 59
split_gain=21.1218 19.8062
threshold=-0.19666885081340443 0.44238293216517854
decision_type=2 2
left_child=-1 -2
right_child=1 -3
leaf_value=-0.012246702809358925 -0.00037959050414232382 0.012121995334638246
leaf_weight=309.98655766248703 1981.2650093734264 375.96348917484283
leaf_count=1247 8024 1535
internal_value=0 0.00161651
internal_weight=2667.22 2357.23
internal_count=10806 9559
is_linear=0
shrinkage=0.05


Tree=40
num_leaves=3
num_cat=0
split_feature=40 59
split_gain=20.5099 21.344
threshold=4.3500000000000005 0.42347294790100048
decision_type=2 2
left_child=1 -1
right_child=-2 -3
leaf_value=-0.0057531768217606158 0.0074364403311787293 0.0059113452529573861
leaf_weight=1442.0359852164984 687.27941440045834 537.27129672467709
leaf_count=5814 2812 2180
internal_value=0 -0.002583
internal_weight=2666.59 1979.31
internal_count=10806 7994
is_linear=0
shrinkage=0.05


Tree=41
num_leaves=3
num_cat=0
split_feature=21 19
split_gain=20.218 21.0647
threshold=0.4092111555780234 1.0000000180025095e-35
decision_type=2 2
left_child=1 -1
right_child=-2 -3
leaf_value=0.013776683089178621 -0.0022407311551464258 -0.0091727783075458754
leaf_weight=429.27205839753151 2107.4239683747292 129.21666683256626
leaf_count=1779 8504 523
internal_value=0 0.00845106
internal_weight=2665.91 558.489
internal_count=10806 2302
is_linear=0
shrinkage=0.05


Tree=42
num_leaves=3
num_cat=0
split_feature=52 34
split_gain=20.2728 21.5503
threshold=3.269473788552494 0.0093802697899626527
decision_type=2 2
left_child=-1 -2
right_child=1 -3
leaf_value=0.0085974014957801558 -0.0054397807142828507 0.0056471218583409536
leaf_weight=544.59956228733063 1503.3001413345337 617.23516628146172
leaf_count=2219 6073 2514
internal_value=0 -0.00220916
internal_weight=2665.13 2120.54
internal_count=10806 8587
is_linear=0
shrinkage=0.05


Tree=43
num_leaves=3
num_cat=0
split_feature=28 13
split_gain=19.3273 17.7178
threshold=0.20205567489520251 0.31466666666666671
decision_type=2 2
left_child=-1 -2
right_child=1 -3
leaf_value=0.0038876354453699262 -0.0023873863506175064 -0.02079241083138619
leaf_weight=1453.4734928756952 1062.7265399843454 148.3495866060257
leaf_count=5920 4289 597
internal_value=0 -0.00466131
internal_weight=2664.55 1211.08
internal_count=10806 4886
is_linear=0
shrinkage=0.05


Tree=44
num_leaves=3
num_cat=0
split_feature=50 32
split_gain=19.209 20.2828
threshold=4.6503588516746426 1.427002877613343
decision_type=2 2
left_child=1 -1
right_child=-2 -3
leaf_value=0.00050808969887945765 -0.0064581381825563932 0.01474361504116093
leaf_weight=1564.1192165315151 802.92193837463856 297.08347879350185
leaf_count=6346 3243 1217
internal_value=0 0.00278973
internal_weight=2664.12 1861.2
internal_count=10806 7563
is_linear=0
shrinkage=0.05


Tree=45
num_leaves=3
num_cat=0
split_feature=34 9
split_gain=18.6499 18.9203
threshold=-0.005129370474786149 0.18007832898172327
decision_type=2 2
left_child=1 -1
right_child=-2 -3
leaf_value=0.0039392096472552129 0.0032988274927143214 -0.010303986463332405
leaf_weight=358.14192818105221 1642.8326230049133 662.67530865967274
leaf_count=1452 6683 2671
internal_value=0 -0.00530307
internal_weight=2663.65 1020.82
internal_count=10806 4123
is_linear=0
shrinkage=0.05


Tree=46
num_leaves=3
num_cat=0
split_feature=36 2
split_gain=18.4372 16.5428
threshold=0.029892868632809703 3.1435172960126754
decision_type=2 2
left_child=-1 -2
right_child=1 -3
leaf_value=0.0021045397244464654 -0.021130720242012364 -0.0022956712161632618
leaf_weight=2121.3505825549364 169.39395107328892 372.36579844355583
leaf_count=8622 682 1502
internal_value=0 -0.00822219
internal_weight=2663.11 541.76
internal_count=10806 2184
is_linear=0
shrinkage=0.05


Tree=47
num_leaves=3
num_cat=0
split_feature=13 30
split_gain=18.3184 21.5349
threshold=0.3041666666666667 1.0312499999993328
decision_type=2 2
left_child=1 -1
right_child=-2 -3
leaf_value=-0.0042424221176501379 -0.0051143104311888446 0.0077591856357257464
leaf_weight=588.6790559887886 1055.3933692872524 1018.6648058891296
leaf_count=2378 4261 4167
internal_value=0 0.00336066
internal_weight=2662.74 1607.34
internal_count=10806 6545
is_linear=0
shrinkage=0.05


Tree=48
num_leaves=3
num_cat=0
split_feature=52 15
split_gain=17.7344 19.1427
threshold=3.269473788552494 3.5450000000000004
decision_type=2 2
left_child=-1 -2
right_child=1 -3
leaf_value=0.0080493546739513894 -0.016872089022135307 -0.00053879883984313834
leaf_weight=543.52512109279633 196.96330380439758 1921.6056786477566
leaf_count=2219 792 7795
internal_value=0 -0.00206691
internal_weight=2662.09 2118.57
internal_count=10806 8587
is_linear=0
shrinkage=0.05


Tree=49
num_leaves=3
num_cat=0
split_feature=45 8
split_gain=17.3898 17.2252
threshold=-0.24154851413458697 0.30453610175832402
decision_type=2 2
left_child=-1 -2
right_child=1 -3
leaf_value=-0.014455092859824116 0.0021052632724511675 -0.016750255611516187
leaf_weight=191.97506861388683 2342.9882316589355 126.69168898463249
leaf_count=774 9522 510
internal_value=0 0.00112959
internal_weight=2661.65 2469.68
internal_count=10806 10032
is_linear=0
shrinkage=0.05


Tree=50
num_leaves=3
num_cat=0
split_feature=76 55
split_gain=17.0367 17.23
threshold=0.19321260356857342 2.0030864197530867
decision_type=2 2
left_child=1 -1
right_child=-2 -3
leaf_value=-0.00081053026777763791 0.003394094466693406 -0.014633463490130031
leaf_weight=800.78636048734188 1546.9759892374277 313.31796903908253
leaf_count=3240 6299 1267
internal_value=0 -0.00471205
internal_weight=2661.08 1114.1
internal_count=10806 4507
is_linear=0
shrinkage=0.05


Tree=51
num_leaves=3
num_cat=0
split_feature=4 38
split_gain=16.4592 16.8269
threshold=5.897132852938193 0.0072999999999999515
decision_type=2 2
left_child=1 -1
right_child=-2 -3
leaf_value=-0.0033014345428406034 0.022472260867581261 0.0055412090005323286
leaf_weight=1820.2916857600212 78.058343291282654 762.37774655222893
leaf_count=7374 321 3111
internal_value=0 -0.000688106
internal_weight=2660.73 2582.67
internal_count=10806 10485
is_linear=0
shrinkage=0.05


Tree=52
num_leaves=3
num_cat=0
split_feature=50 8
split_gain=16.3491 17.9185
threshold=4.6503588516746426 0.22153268508712812
decision_type=2 2
left_child=1 -1
right_child=-2 -3
leaf_value=0.0063682466593236887 -0.0059610314219779503 -0.0037721738499534342
leaf_weight=1163.6636197119951 802.18398760259151 694.49506697058678
leaf_count=4759 3243 2804
internal_value=0 0.00257554
internal_weight=2660.34 1858.16
internal_count=10806 7563
is_linear=0
shrinkage=0.05


Tree=53
num_leaves=3
num_cat=0
split_feature=34 59
split_gain=16.0616 21.61
threshold=0.0031041859095111003 0.3977213883552892
decision_type=2 2
left_child=1 -1
right_child=-2 -3
leaf_value=-0.0093915602993189743 0.004491783074679942 0.0025150342744342958
leaf_weight=750.91109631955624 1137.7660293132067 771.06053772568703
leaf_count=3032 4647 3127
internal_value=0 -0.00335847
internal_weight=2659.74 1521.97
internal_count=10806 6159
is_linear=0
shrinkage=0.05


Tree=54
num_leaves=3
num_cat=0
split_feature=37 59
split_gain=15.6383 14.9039
threshold=-0.21063410379299716 0.44238293216517854
decision_type=2 2
left_child=-1 -2
right_child=1 -3
leaf_value=-0.011469939866682296 -0.00043158759203616129 0.010356530041705454
leaf_weight=266.31293517351151 2013.2360431700945 379.51283884048462
leaf_count=1075 8173 1558
internal_value=0 0.00128103
internal_weight=2659.06 2392.75
internal_count=10806 9731
is_linear=0
shrinkage=0.05


Tree=55
num_leaves=3
num_cat=0
split_feature=13 30
split_gain=15.8472 18.3639
threshold=0.3041666666666667 1.0312499999993328
decision_type=2 2
left_child=1 -1
right_child=-2 -3
leaf_value=-0.0038937962017534123 -0.0047589751259300463 0.0071980107917633445
leaf_weight=587.98745416104794 1054.3566956371069 1016.081434622407
leaf_count=2378 4261 4167
internal_value=0 0.00312919
internal_weight=2658.43 1604.07
internal_count=10806 6545
is_linear=0
shrinkage=0.05


Tree=56
num_leaves=3
num_cat=0
split_feature=52 37
split_gain=15.202 17.5754
threshold=3.7682512144344211 -0.19330871281696743
decision_type=2 2
left_child=-1 -2
right_child=1 -3
leaf_value=0.0049081229630254094 -0.016223179398871534 -0.00092967304822066683
leaf_weight=989.26624873280525 214.93071441352367 1453.57031480968
leaf_count=4040 869 5897
internal_value=0 -0.00291126
internal_weight=2657.77 1668.5
internal_count=10806 6766
is_linear=0
shrinkage=0.05


Tree=57
num_leaves=3
num_cat=0
split_feature=40 4
split_gain=15.1193 14.933
threshold=17.750000000000004 5.897132852938193
decision_type=2 2
left_child=1 -1
right_child=-2 -3
leaf_value=-0.0010095040045561257 0.040177439753859082 0.021303033886709927
leaf_weight=2558.6632157564163 22.210922002792358 76.243305280804634
leaf_count=10399 92 315
internal_value=0 -0.000354138
internal_weight=2657.12 2634.91
internal_count=10806 10714
is_linear=0
shrinkage=0.05


Tree=58
num_leaves=3
num_cat=0
split_feature=41 38
split_gain=14.7193 14.9762
threshold=1.2250000000000003 0.014513131313131252
decision_type=2 2
left_child=1 -1
right_child=-2 -3
leaf_value=-0.0025587651103105087 0.014540244974720055 0.0083820542625041346
leaf_weight=2128.9797282218933 162.38131122291088 365.51950922608376
leaf_count=8640 669 1497
internal_value=0 -0.000950884
internal_weight=2656.88 2494.5
internal_count=10806 10137
is_linear=0
shrinkage=0.05


Tree=59
num_leaves=3
num_cat=0
split_feature=36 2
split_gain=14.508 14.3357
threshold=0.029892868632809703 3.1435172960126754
decision_type=2 2
left_child=-1 -2
right_child=1 -3
leaf_value=0.0018698942528479424 -0.019333679390729205 -0.001780258082769463
leaf_weight=2115.8463627845049 168.9520235657692 371.68625038862228
leaf_count=8622 682 1502
internal_value=0 -0.00730058
internal_weight=2656.48 540.638
internal_count=10806 2184
is_linear=0
shrinkage=0.05


Tree=60
num_leaves=3
num_cat=0
split_feature=17 21
split_gain=13.9489 16.3148
threshold=4.3650000000000011 0.45268206577617637
decision_type=2 2
left_child=-1 -2
right_child=1 -3
leaf_value=-0.0044832588115686651 0.0094662793103288175 -0.00094572096544277753
leaf_weight=1048.4962874799967 597.82206220924854 1009.7636850178242
leaf_count=4238 2482 4086
internal_value=0 0.00292662
internal_weight=2656.08 1607.59
internal_count=10806 6568
is_linear=0
shrinkage=0.05


Tree=61
num_leaves=3
num_cat=0
split_feature=76 55
split_gain=13.8565 15.4111
threshold=0.19321260356857342 2.0030864197530867
decision_type=2 2
left_child=1 -1
right_child=-2 -3
leaf_value=-0.00055847049720432723 0.0030663693653942329 -0.013643109002805255
leaf_weight=799.29802733659744 1543.2044243514538 312.75141674280167
leaf_count=3240 6299 1267
internal_value=0 -0.00425182
internal_weight=2655.25 1112.05
internal_count=10806 4507
is_linear=0
shrinkage=0.05


Tree=62
num_leaves=3
num_cat=0
split_feature=13 57
split_gain=13.5612 16.2686
threshold=0.3041666666666667 0.23550115318085721
decision_type=2 2
left_child=1 -1
right_child=-2 -3
leaf_value=-0.00037512366529367518 -0.0044022730692955363 0.010641726990867371
leaf_weight=1125.5948028415442 1053.6510427594185 475.63239328563213
leaf_count=4588 4261 1957
internal_value=0 0.00289883
internal_weight=2654.88 1601.23
internal_count=10806 6545
is_linear=0
shrinkage=0.05


Tree=63
num_leaves=3
num_cat=0
split_feature=40 34
split_gain=13.4999 13.0322
threshold=17.750000000000004 -0.005129370474786149
decision_type=2 2
left_child=1 -1
right_child=-2 -3
leaf_value=-0.0047838406406317136 0.038129492013516564 0.002444923789844157
leaf_weight=1011.8255493342876 22.013568803668022 1620.5439135730267
leaf_count=4099 92 6615
internal_value=0 -0.000332519
internal_weight=2654.38 2632.37
internal_count=10806 10714
is_linear=0
shrinkage=0.05


Tree=64
num_leaves=3
num_cat=0
split_feature=40 59
split_gain=13.1231 17.6488
threshold=0.20000000000000018 0.42097381454535127
decision_type=2 2
left_child=1 -1
right_child=-2 -3
leaf_value=-0.0070340162187770578 0.0036054203255487995 0.0055480912349862542
leaf_weight=970.7586215287447 1293.6500008106232 389.50913895666599
leaf_count=3917 5310 1579
internal_value=0 -0.00342606
internal_weight=2653.92 1360.27
internal_count=10806 5496
is_linear=0
shrinkage=0.05


Tree=65
num_leaves=3
num_cat=0
split_feature=28 38
split_gain=12.9477 15.764
threshold=0.20205567489520251 -0.0035853174603173994
decision_type=2 2
left_child=-1 -2
right_child=1 -3
leaf_value=0.0031922402191684393 -0.010523795160613171 0.001038361495214275
leaf_weight=1445.9186667650938 507.15845234692097 700.13187907636166
leaf_count=5920 2049 2837
internal_value=0 -0.00381922
internal_weight=2653.21 1207.29
internal_count=10806 4886
is_linear=0
shrinkage=0.05


Tree=66
num_leaves=3
num_cat=0
split_feature=50 32
split_gain=12.8847 15.2687
threshold=4.6503588516746426 1.431614856316646
decision_type=2 2
left_child=1 -1
right_child=-2 -3
leaf_value=0.00033847847064068346 -0.0052955277269912705 0.012854269694696356
leaf_weight=1564.3670071512461 800.44029626250267 287.86387883126736
leaf_count=6373 3243 1190
internal_value=0 0.0022922
internal_weight=2652.67 1852.23
internal_count=10806 7563
is_linear=0
shrinkage=0.05


Tree=67
num_leaves=3
num_cat=0
split_feature=3 34
split_gain=12.4965 12.5031
threshold=7.8387992831541231 0.0086843431245394523
decision_type=2 2
left_child=1 -1
right_child=-2 -3
leaf_value=-0.00286257024606415 0.022176855555550084 0.0046379081661309263
leaf_weight=1785.9599912464619 61.047211870551109 805.14725516736507
leaf_count=7250 252 3304
internal_value=0 -0.000529091
internal_weight=2652.15 2591.11
internal_count=10806 10554
is_linear=0
shrinkage=0.05


Tree=68
num_leaves=3
num_cat=0
split_feature=8 41
split_gain=12.2682 13.5352
threshold=0.30453610175832402 1.0750000000000004
decision_type=2 2
left_child=1 -1
right_child=-2 -3
leaf_value=-0.00032589500852473006 -0.014290136602301988 0.012639523039525933
leaf_weight=2290.9391223192215 141.1047336012125 219.62258432805538
leaf_count=9327 570 909
internal_value=3.53102e-07 0.000810903
internal_weight=2651.67 2510.56
internal_count=10806 10236
is_linear=0
shrinkage=0.05


Tree=69
num_leaves=3
num_cat=0
split_feature=4 40
split_gain=12.0592 12.7613
threshold=5.897132852938193 17.750000000000004
decision_type=2 2
left_child=1 -1
right_child=-2 -3
leaf_value=-0.00090858535970058003 0.019361882675796947 0.037866703333375877
leaf_weight=2553.8146101534367 77.07011690735817 20.392949163913727
leaf_count=10399 321 86
internal_value=1.49966e-07 -0.00058488
internal_weight=2651.28 2574.21
internal_count=10806 10485
is_linear=0
shrinkage=0.05


Tree=70
num_leaves=3
num_cat=0
split_feature=8 44
split_gain=11.7331 18.7063
threshold=0.16227461858529818 -0.17009068157058008
decision_type=2 2
left_child=1 -1
right_child=-2 -3
leaf_value=-0.014772276007920785 -0.0016053128631618686 0.011157212175672761
leaf_weight=82.284911766648293 2148.9082895368338 419.80814749002457
leaf_count=332 8734 1740
internal_value=1.30567e-06 0.00687693
internal_weight=2651 502.093
internal_count=10806 2072
is_linear=0
shrinkage=0.05


Tree=71
num_leaves=3
num_cat=0
split_feature=52 15
split_gain=11.9797 14.8721
threshold=3.269473788552494 3.5450000000000004
decision_type=2 2
left_child=-1 -2
right_child=1 -3
leaf_value=0.006642450583048758 -0.014767847678555865 -0.00034758958495123468
leaf_weight=539.84425742924213 196.3267562687397 1914.2401146739721
leaf_count=2219 792 7795
internal_value=1.02672e-06 -0.0016977
internal_weight=2650.41 2110.57
internal_count=10806 8587
is_linear=0
shrinkage=0.05


Tree=72
num_leaves=3
num_cat=0
split_feature=13 34
split_gain=11.5564 15.2243
threshold=0.3041666666666667 0.0078599189454476009
decision_type=2 2
left_child=-1 -2
right_child=1 -3
leaf_value=0.002681631745066635 -0.0083134247612226802 0.0044270499290386392
leaf_weight=1597.6673346012831 701.69148363173008 350.57284313440323
leaf_count=6545 2838 1423
internal_value=6.39332e-07 -0.00406388
internal_weight=2649.93 1052.26
internal_count=10806 4261
is_linear=0
shrinkage=0.05


Tree=73
num_leaves=3
num_cat=0
split_feature=52 77
split_gain=11.3676 17.5999
threshold=4.3686593326885896 0.18240290309507981
decision_type=2 2
left_child=-1 -2
right_child=1 -3
leaf_value=0.0027796096848682339 -0.013352153518293559 0.00031306795024411109
leaf_weight=1540.909082531929 337.96133708953857 770.50101698935032
leaf_count=6302 1370 3134
internal_value=5.93823e-07 -0.00385712
internal_weight=2649.37 1108.46
internal_count=10806 4504
is_linear=0
shrinkage=0.05


Tree=74
num_leaves=3
num_cat=0
split_feature=16 59
split_gain=10.9402 13.1626
threshold=6.2500000000000009 0.42488456860855345
decision_type=2 2
left_child=-1 -2
right_child=1 -3
leaf_value=0.012898454956899322 -0.0029828487927755481 0.0052349642244386282
leaf_weight=153.84595489501953 1832.590928375721 662.42652747035027
leaf_count=638 7449 2719
internal_value=3.635e-07 -0.000797795
internal_weight=2648.86 2495.02
internal_count=10806 10168
is_linear=0
shrinkage=0.05


Tree=75
num_leaves=3
num_cat=0
split_feature=36 2
split_gain=10.8913 12.3572
threshold=0.029892868632809703 3.1435172960126754
decision_type=2 2
left_child=-1 -2
right_child=1 -3
leaf_value=0.0016243655411782272 -0.01752440239228148 -0.0012038904421023695
leaf_weight=2109.1393212974072 168.37081573903561 370.87183783948421
leaf_count=8622 682 1502
internal_value=6.87829e-07 -0.006332
internal_weight=2648.38 539.243
internal_count=10806 2184
is_linear=0
shrinkage=0.05


Tree=76
num_leaves=3
num_cat=0
split_feature=3 29
split_gain=10.7261 11.0656
threshold=7.8387992831541231 0.19908115039125218
decision_type=2 2
left_child=1 -1
right_child=-2 -3
leaf_value=0.0028113837722273851 0.020610382026455147 -0.003725676634627743
leaf_weight=1280.3369394093752 60.669305741786957 1306.9601949751377
leaf_count=5260 252 5294
internal_value=1.21214e-07 -0.000489011
internal_weight=2647.97 2587.3
internal_count=10806 10554
is_linear=0
shrinkage=0.05


Tree=77
num_leaves=3
num_cat=0
split_feature=61 9
split_gain=10.6436 13.8931
threshold=0.31260769230769231 0.11281730973201026
decision_type=2 2
left_child=1 -1
right_child=-2 -3
leaf_value=0.019063868964777818 0.0073583708161638894 -0.0021247518446659208
leaf_weight=79.214911103248596 413.77314062416553 2154.4710440784693
leaf_count=328 1695 8783
internal_value=5.3618e-07 -0.00136289
internal_weight=2647.46 2233.69
internal_count=10806 9111
is_linear=0
shrinkage=0.05


Tree=78
num_leaves=3
num_cat=0
split_feature=65 65
split_gain=10.5647 18.7777
threshold=4.3550000000000013 4.6250000000000009
decision_type=2 2
left_child=-1 -2
right_child=1 -3
leaf_value=0.0039288227045701637 -0.0088929388201410223 0.0020494392045292496
leaf_weight=1039.5496454536915 673.82805727422237 933.79135881364346
leaf_count=4258 2743 3805
internal_value=1.03034e-06 -0.00253659
internal_weight=2647.17 1607.62
internal_count=10806 6548
is_linear=0
shrinkage=0.05


Tree=79
num_leaves=3
num_cat=0
split_feature=6 48
split_gain=10.4146 15.1257
threshold=1.6455780611819624 0.084781878379263473
decision_type=2 2
left_child=1 -1
right_child=-2 -3
leaf_value=8.7324197413300028e-05 0.0027269419121900952 -0.012576469663518428
leaf_weight=806.88456216454506 1508.3889970779419 331.68703156709671
leaf_count=3293 6164 1349
internal_value=9.57578e-07 -0.00360529
internal_weight=2646.96 1138.57
internal_count=10806 4642
is_linear=0
shrinkage=0.05


Tree=80
num_leaves=3
num_cat=0
split_feature=8 41
split_gain=10.3425 11.3532
threshold=0.30453610175832402 1.2250000000000003
decision_type=2 2
left_child=1 -1
right_child=-2 -3
leaf_value=-0.00011814812672710485 -0.01313207738301591 0.013817966504387994
leaf_weight=2351.1138851642609 140.84691776335239 154.78309099376202
leaf_count=9591 570 645
internal_value=7.4138e-07 0.000745825
internal_weight=2646.74 2505.9
internal_count=10806 10236
is_linear=0
shrinkage=0.05


Tree=81
num_leaves=3
num_cat=0
split_feature=37 59
split_gain=10.0302 10.6352
threshold=-0.21063410379299716 0.44238293216517854
decision_type=2 2
left_child=-1 -2
right_child=1 -3
leaf_value=-0.0092131197997541523 -0.00041702739577978329 0.0087288865187627237
leaf_weight=264.64371453225613 2005.1815212368965 376.54271577298641
leaf_count=1075 8173 1558
internal_value=5.61879e-07 0.00102987
internal_weight=2646.37 2381.72
internal_count=10806 9731
is_linear=0
shrinkage=0.05


Tree=82
num_leaves=3
num_cat=0
split_feature=13 23
split_gain=10.1604 13.7471
threshold=0.3041666666666667 2.9439393939393943
decision_type=2 2
left_child=1 -1
right_child=-2 -3
leaf_value=-0.038154855133076052 -0.0038130972532508115 0.0030470748714311394
leaf_weight=19.49693563580513 1050.7930389493704 1575.4554813802242
leaf_count=79 4261 6466
internal_value=3.518e-07 0.00251669
internal_weight=2645.75 1594.95
internal_count=10806 6545
is_linear=0
shrinkage=0.05


Tree=83
num_leaves=3
num_cat=0
split_feature=40 4
split_gain=10.0951 10.4603
threshold=17.750000000000004 5.897132852938193
decision_type=2 2
left_child=1 -1
right_child=-2 -3
leaf_value=-0.00083125147942210344 0.033389357896236649 0.017977921285476924
leaf_weight=2548.7589959949255 21.447573378682137 75.115849629044533
leaf_count=10399 92 315
internal_value=0 -0.000284237
internal_weight=2645.32 2623.87
internal_count=10806 10714
is_linear=0
shrinkage=0.05


Tree=84
num_leaves=3
num_cat=0
split_feature=17 48
split_gain=9.77208 11.7768
threshold=4.3650000000000011 0.071473382326581805
decision_type=2 2
left_child=1 -1
right_child=-2 -3
leaf_value=0.001522242977002075 0.0024587491658726677 -0.0090772003189842649
leaf_weight=524.82307060062885 1599.6061316728592 520.5969205647707
leaf_count=2127 6568 2111
internal_value=4.83644e-07 -0.00375491
internal_weight=2645.03 1045.42
internal_count=10806 4238
is_linear=0
shrinkage=0.05


Tree=85
num_leaves=3
num_cat=0
split_feature=76 55
split_gain=9.6553 13.4149
threshold=0.19321260356857342 2.0030864197530867
decision_type=2 2
left_child=1 -1
right_child=-2 -3
leaf_value=-0.00010180311404381607 0.002567434393983754 -0.012329962319695874
leaf_weight=796.56937174499035 1536.4300524741411 311.65881724655628
leaf_count=3240 6299 1267
internal_value=3.72049e-07 -0.00355316
internal_weight=2644.66 1108.23
internal_count=10806 4507
is_linear=0
shrinkage=0.05


Tree=86
num_leaves=3
num_cat=0
split_feature=34 22
split_gain=9.49574 12.6707
threshold=-0.005129370474786149 5.2321428571428585
decision_type=2 2
left_child=1 -1
right_child=-2 -3
leaf_value=-0.0062348964320446338 0.0023650268570833237 0.0089719692472969934
leaf_weight=852.270507350564 1629.9699378609657 162.03254656493664
leaf_count=3457 6683 666
internal_value=0 -0.00379427
internal_weight=2644.27 1014.3
internal_count=10806 4123
is_linear=0
shrinkage=0.05


Tree=87
num_leaves=3
num_cat=0
split_feature=50 32
split_gain=9.46095 11.5999
threshold=4.6503588516746426 1.431614856316646
decision_type=2 2
left_child=1 -1
right_child=-2 -3
leaf_value=0.00026703841953939887 -0.0045423997857067834 0.01121545010289003
leaf_weight=1559.8073041886091 798.29849860072136 285.58617620170116
leaf_count=6373 3243 1190
internal_value=9.64749e-08 0.00196924
internal_weight=2643.69 1845.39
internal_count=10806 7563
is_linear=0
shrinkage=0.05


Tree=88
num_leaves=3
num_cat=0
split_feature=6 58
split_gain=9.27154 14.2033
threshold=1.6455780611819624 0.28095241645337415
decision_type=2 2
left_child=1 -1
right_child=-2 -3
leaf_value=-0.017582187483857904 0.0025745555811420191 -0.00119654122474172
leaf_weight=151.96255739033222 1506.0882384628057 985.12115006148815
leaf_count=617 6164 4025
internal_value=2.76633e-07 -0.00340428
internal_weight=2643.17 1137.08
internal_count=10806 4642
is_linear=0
shrinkage=0.05


Tree=89
num_leaves=3
num_cat=0
split_feature=61 13
split_gain=9.24485 14.3876
threshold=0.31260769230769231 0.3125
decision_type=2 2
left_child=-1 -2
right_child=1 -3
leaf_value=-0.0012714318483956178 0.010957944607454457 -0.01429173809119887
leaf_weight=2230.0862746089697 346.50535574555397 66.3042883425951
leaf_count=9111 1426 269
internal_value=0 0.00686559
internal_weight=2642.9 412.81
internal_count=10806 1695
is_linear=0
shrinkage=0.05


Tree=90
num_leaves=3
num_cat=0
split_feature=40 38
split_gain=9.13974 9.32629
threshold=17.750000000000004 0.014513131313131252
decision_type=2 2
left_child=1 -1
right_child=-2 -3
leaf_value=-0.0015068761406749403 0.031917884281680228 0.0069197777097141219
leaf_weight=2237.676455155015 21.242157474160194 383.73809163272381
leaf_count=9128 92 1586
internal_value=0 -0.000269258
internal_weight=2642.66 2621.41
internal_count=10806 10714
is_linear=0
shrinkage=0.05


Tree=91
num_leaves=3
num_cat=0
split_feature=3 0
split_gain=9.04194 10.2092
threshold=7.8387992831541231 0.072392124513241021
decision_type=2 2
left_child=-1 -2
right_child=1 -3
leaf_value=-0.00044784536222465299 -0.010020349756391003 0.033113118447320004
leaf_weight=2582.0794576853514 19.687782362103462 40.526213780045509
leaf_count=10554 82 170
internal_value=3.56928e-07 0.0189951
internal_weight=2642.29 60.214
internal_count=10806 252
is_linear=0
shrinkage=0.05


Tree=92
num_leaves=3
num_cat=0
split_feature=65 65
split_gain=9.01935 16.7027
threshold=4.3550000000000013 4.6250000000000009
decision_type=2 2
left_child=-1 -2
right_child=1 -3
leaf_value=0.0036348323191448535 -0.0083436265389744742 0.0019841808813631139
leaf_weight=1037.0826408416033 672.92945148050785 932.12896838784218
leaf_count=4258 2743 3805
internal_value=6.57299e-07 -0.00234519
internal_weight=2642.14 1605.06
internal_count=10806 6548
is_linear=0
shrinkage=0.05


Tree=93
num_leaves=3
num_cat=0
split_feature=8 45
split_gain=8.96584 9.71497
threshold=0.30453610175832402 -0.24154851413458697
decision_type=2 2
left_child=1 -1
right_child=-2 -3
leaf_value=-0.010624444218990963 -0.01223902174700999 0.0015535056202100918
leaf_weight=175.11599981784821 140.56658500432968 2326.2254604548216
leaf_count=714 570 9522
internal_value=6.00363e-07 0.000695038
internal_weight=2641.91 2501.34
internal_count=10806 10236
is_linear=0
shrinkage=0.05


Tree=94
num_leaves=3
num_cat=0
split_feature=60 45
split_gain=8.87514 17.4583
threshold=65.563492063492077 0.20274793537337762
decision_type=2 2
left_child=-1 -2
right_child=1 -3
leaf_value=0.0033438932945858008 -0.0043218011560860782 0.013445762960934186
leaf_weight=1133.1624665111303 1355.2918640077114 152.87580160796642
leaf_count=4636 5519 651
internal_value=0 -0.00250976
internal_weight=2641.33 1508.17
internal_count=10806 6170
is_linear=0
shrinkage=0.05


Tree=95
num_leaves=3
num_cat=0
split_feature=48 41
split_gain=8.67821 16.215
threshold=0.084781878379263473 -0.67499999999999993
decision_type=2 2
left_child=-1 -2
right_child=1 -3
leaf_value=0.0019522225101408564 -0.020402018124016763 -0.0012059429468741156
leaf_weight=1805.1733787208796 129.50327888131142 706.18002717196941
leaf_count=7395 526 2885
internal_value=2.66214e-07 -0.0042075
internal_weight=2640.86 835.683
internal_count=10806 3411
is_linear=0
shrinkage=0.05


Tree=96
num_leaves=3
num_cat=0
split_feature=9 11
split_gain=8.61231 10.9102
threshold=0.11281730973201026 0.37184086553093637
decision_type=2 2
left_child=1 -1
right_child=-2 -3
leaf_value=0.042935832796745926 -0.00054357413375390781 0.0043060318107083981
leaf_weight=24.376260638237 2548.5442705750465 67.61550672352314
leaf_count=103 10422 281
internal_value=0 0.0149477
internal_weight=2640.54 91.9918
internal_count=10806 384
is_linear=0
shrinkage=0.05


Tree=97
num_leaves=3
num_cat=0
split_feature=13 30
split_gain=8.44783 12.4192
threshold=0.3041666666666667 1.0312499999993328
decision_type=2 2
left_child=1 -1
right_child=-2 -3
leaf_value=-0.0034861115273804397 -0.0034780846232329017 0.0056667294713258027
leaf_weight=584.86736139655113 1049.3275983035564 1006.1574058532715
leaf_count=2378 4261 4167
internal_value=6.66826e-07 0.00229889
internal_weight=2640.35 1591.02
internal_count=10806 6545
is_linear=0
shrinkage=0.05


Tree=98
num_leaves=3
num_cat=0
split_feature=52 15
split_gain=8.39184 11.3579
threshold=3.269473788552494 3.5450000000000004
decision_type=2 2
left_child=-1 -2
right_child=1 -3
leaf_value=0.0055774401051165044 -0.012868590981792737 -0.00024031885058714716
leaf_weight=536.61773107945919 195.49705915153027 1907.5931948125362
leaf_count=2219 792 7795
internal_value=4.61804e-07 -0.00142214
internal_weight=2639.71 2103.09
internal_count=10806 8587
is_linear=0
shrinkage=0.05


Tree=99
num_leaves=3
num_cat=0
split_feature=4 51
split_gain=8.2955 9.76751
threshold=5.897132852938193 5.6546255129958967
decision_type=2 2
left_child=-1 -2
right_child=1 -3
leaf_value=-0.00048310171414312907 0.024795270958888331 -0.01994134002687778
leaf_weight=2563.368919968605 61.626271352171898 14.229313790798185
leaf_count=10485 262 59
internal_value=1.10378e-07 0.0161881
internal_weight=2639.22 75.8556
internal_count=10806 321
is_linear=0
shrinkage=0.05


Tree=100
num_leaves=3
num_cat=0
split_feature=16 38
split_gain=8.26512 10.4115
threshold=6.2500000000000009 0.0074472222222222509
decision_type=2 2
left_child=-1 -2
right_child=1 -3
leaf_value=0.011266676253915597 -0.0027660115255829544 0.0043529929511586752
leaf_weight=152.378761023283 1763.4053348898888 723.21628773212433
leaf_count=638 7188 2980
internal_value=8.02076e-08 -0.000692572
internal_weight=2639 2486.62
internal_count=10806 10168
is_linear=0
shrinkage=0.05


Tree=101
num_leaves=3
num_cat=0
split_feature=41 6
split_gain=8.12558 8.94844
threshold=1.2550000000000001 1.8625925925925928
decision_type=2 2
left_child=1 -1
right_child=-2 -3
leaf_value=-0.0039316212824236554 0.011200808039324411 0.00208248343703149
leaf_weight=1144.9190234094858 151.62096144258976 1342.0136726200581
leaf_count=4673 636 5497
internal_value=3.64532e-07 -0.000684711
internal_weight=2638.55 2486.93
internal_count=10806 10170
is_linear=0
shrinkage=0.05


Tree=102
num_leaves=3
num_cat=0
split_feature=60 28
split_gain=8.06962 16.1135
threshold=65.563492063492077 0.15379089301500729
decision_type=2 2
left_child=-1 -2
right_child=1 -3
leaf_value=0.003191035711480752 0.020587001937914396 -0.0035571521914229695
leaf_weight=1131.8608218580484 71.563879102468491 1434.8083833158016
leaf_count=4636 301 5869
internal_value=5.61952e-07 -0.00239391
internal_weight=2638.23 1506.37
internal_count=10806 6170
is_linear=0
shrinkage=0.05


Tree=103
num_leaves=3
num_cat=0
split_feature=34 52
split_gain=8.00461 16.6245
threshold=0.0090183783104792019 3.6441984116300987
decision_type=2 2
left_child=1 -1
right_child=-2 -3
leaf_value=0.0051568065911379276 0.0041638451419490395 -0.0050617370596476013
leaf_weight=581.70789943635464 802.87611725926399 1253.4172885119915
leaf_count=2386 3318 5102
internal_value=9.84132e-07 -0.00181884
internal_weight=2638 1835.13
internal_count=10806 7488
is_linear=0
shrinkage=0.05


Tree=104
num_leaves=3
num_cat=0
split_feature=79 0
split_gain=7.81492 14.9189
threshold=0.89682577972792565 0.084314330058340117
decision_type=2 2
left_child=1 -1
right_child=-2 -3
leaf_value=0.027628117873406056 -0.00052114280046347224 -0.014758988441478422
leaf_weight=63.81713193655014 2543.8893589824438 29.609582394361496
leaf_count=264 10419 123
internal_value=1.04541e-06 0.0141275
internal_weight=2637.32 93.4267
internal_count=10806 387
is_linear=0
shrinkage=0.05


Tree=105
num_leaves=3
num_cat=0
split_feature=8 60
split_gain=7.82035 8.74078
threshold=0.30453610175832402 65.563492063492077
decision_type=2 2
left_child=1 -1
right_child=-2 -3
leaf_value=0.0040751619900664159 -0.011440719201671619 -0.0019018176593280677
leaf_weight=1066.7516227662563 140.2972523868084 1430.1460576355457
leaf_count=4374 570 5862
internal_value=1.11432e-06 0.00065034
internal_weight=2637.19 2496.9
internal_count=10806 10236
is_linear=0
shrinkage=0.05


Tree=106
num_leaves=3
num_cat=0
split_feature=3 0
split_gain=7.73166 9.27896
threshold=7.8387992831541231 0.072932497467071908
decision_type=2 2
left_child=-1 -2
right_child=1 -3
leaf_value=-0.0004128921158864686 -0.0093270842197498045 0.031544695038965863
leaf_weight=2577.2172104716301 20.335022792220116 39.430399417877197
leaf_count=10554 85 167
internal_value=6.9959e-07 0.0176313
internal_weight=2636.98 59.7654
internal_count=10806 252
is_linear=0
shrinkage=0.05


Tree=107
num_leaves=3
num_cat=0
split_feature=61 13
split_gain=7.81291 12.093
threshold=0.31260769230769231 0.3125
decision_type=2 2
left_child=-1 -2
right_child=1 -3
leaf_value=-0.00116798417078158 0.010091614622390898 -0.013063310180154122
leaf_weight=2225.4629960805178 345.05151805281639 66.30283185839653
leaf_count=9111 1426 269
internal_value=9.65668e-07 0.00632471
internal_weight=2636.82 411.354
internal_count=10806 1695
is_linear=0
shrinkage=0.05


Tree=108
num_leaves=3
num_cat=0
split_feature=40 37
split_gain=7.73681 7.60278
threshold=17.750000000000004 -0.21063410379299716
decision_type=2 2
left_child=1 -1
right_child=-2 -3
leaf_value=-0.0083147306435749982 0.02960934466891459 0.00065305047506177515
leaf_weight=261.67075131833553 20.882802501320839 2354.0032615661621
leaf_count=1068 92 9646
internal_value=6.9568e-07 -0.000245006
internal_weight=2636.56 2615.67
internal_count=10806 10714
is_linear=0
shrinkage=0.05


Tree=109
num_leaves=3
num_cat=0
split_feature=48 59
split_gain=7.5439 15.7548
threshold=0.075598408488063665 0.42542708220525044
decision_type=2 2
left_child=-1 -2
right_child=1 -3
leaf_value=0.002421050025918697 -0.0062131538796142138 0.0072169595245116644
leaf_weight=1450.1946565955877 898.71934187412262 287.15560191869736
leaf_count=5955 3666 1185
internal_value=1.11012e-06 -0.00295354
internal_weight=2636.07 1185.87
internal_count=10806 4851
is_linear=0
shrinkage=0.05


Tree=110
num_leaves=3
num_cat=0
split_feature=6 32
split_gain=7.36266 12.0259
threshold=1.6455780611819624 1.4365143479329847
decision_type=2 2
left_child=1 -1
right_child=-2 -3
leaf_value=-0.0048449388688033834 0.0022989658316095447 0.011599277048506882
leaf_weight=1010.204430103302 1501.6156083196402 123.81671622395515
leaf_count=4125 6164 517
internal_value=1.14614e-06 -0.00303645
internal_weight=2635.64 1134.02
internal_count=10806 4642
is_linear=0
shrinkage=0.05


Tree=111
num_leaves=3
num_cat=0
split_feature=65 65
split_gain=7.36767 14.8682
threshold=4.3550000000000013 4.6250000000000009
decision_type=2 2
left_child=-1 -2
right_child=1 -3
leaf_value=0.0032915760951947913 -0.0077848628582905012 0.0019698100490355475
leaf_weight=1033.9280144274235 671.65277650952339 929.73844356834888
leaf_count=4258 2743 3805
internal_value=1.29447e-06 -0.00212066
internal_weight=2635.32 1601.39
internal_count=10806 6548
is_linear=0
shrinkage=0.05


Tree=112
num_leaves=3
num_cat=0
split_feature=58 11
split_gain=7.24421 11.1932
threshold=0.27677898712341276 0.38777000411003354
decision_type=2 2
left_child=1 -1
right_child=-2 -3
leaf_value=0.0052339342952676185 0.00083904364747712501 -0.016713037542420813
leaf_weight=93.866299897432327 2392.5216995179653 148.68076623976231
leaf_count=383 9817 606
internal_value=1.20365e-06 -0.00821236
internal_weight=2635.07 242.547
internal_count=10806 989
is_linear=0
shrinkage=0.05


Tree=113
num_leaves=3
num_cat=0
split_feature=17 80
split_gain=7.11806 10.2625
threshold=4.3650000000000011 1.6881680522565323
decision_type=2 2
left_child=1 -1
right_child=-2 -3
leaf_value=-0.0025399314642382889 0.0021045280755829904 -0.040466215311894101
leaf_weight=1024.919115498662 1592.6979017108679 17.182600691914558
leaf_count=4168 6568 70
internal_value=9.24464e-07 -0.00320826
internal_weight=2634.8 1042.1
internal_count=10806 4238
is_linear=0
shrinkage=0.05


Tree=114
num_leaves=3
num_cat=0
split_feature=9 11
split_gain=7.19227 9.89776
threshold=0.11281730973201026 0.37184086553093637
decision_type=2 2
left_child=1 -1
right_child=-2 -3
leaf_value=0.040583007997886542 -0.00049572409615268717 0.0035901254010545927
leaf_weight=24.027265146374702 2543.1275492608547 67.310596570372581
leaf_count=103 10422 281
internal_value=0 0.0137097
internal_weight=2634.47 91.3379
internal_count=10806 384
is_linear=0
shrinkage=0.05


Tree=115
num_leaves=3
num_cat=0
split_feature=36 2
split_gain=7.0207 10.1666
threshold=0.029892868632809703 3.1435172960126754
decision_type=2 2
left_child=-1 -2
right_child=1 -3
leaf_value=0.0013087745514757192 -0.015282148933476267 -0.0004391155321104995
leaf_weight=2097.5930980741978 167.28580868244171 369.3894527554512
leaf_count=8622 682 1502
internal_value=8.24465e-07 -0.00509492
internal_weight=2634.27 536.675
internal_count=10806 2184
is_linear=0
shrinkage=0.05


Tree=116
num_leaves=3
num_cat=0
split_feature=40 4
split_gain=6.92542 7.22354
threshold=17.750000000000004 5.897132852938193
decision_type=2 2
left_child=1 -1
right_child=-2 -3
leaf_value=-0.00068409102244753564 0.028162286351262285 0.015069339272503214
leaf_weight=2539.3034782260656 20.653844654560089 73.904185727238655
leaf_count=10399 92 315
internal_value=2.95863e-07 -0.000231061
internal_weight=2633.86 2613.21
internal_count=10806 10714
is_linear=0
shrinkage=0.05


Tree=117
num_leaves=3
num_cat=0
split_feature=79 0
split_gain=6.90777 13.6392
threshold=0.89682577972792565 0.084314330058340117
decision_type=2 2
left_child=1 -1
right_child=-2 -3
leaf_value=0.026278135442005152 -0.00048949249321643439 -0.014271456253764759
leaf_weight=63.471848160028458 2540.4529306441545 29.627776235342026
leaf_count=264 10419 123
internal_value=1.16713e-06 0.0133061
internal_weight=2633.55 93.0996
internal_count=10806 387
is_linear=0
shrinkage=0.05


Tree=118
num_leaves=3
num_cat=0
split_feature=55 38
split_gain=6.73478 13.4569
threshold=2.0030864197530867 -0.0093651515151514479
decision_type=2 2
left_child=1 -1
right_child=-2 -3
leaf_value=-0.005827953443520599 -0.0041350862140721034 0.0039227027205294964
leaf_weight=466.54104410111904 715.05754974484444 1451.8149352520704
leaf_count=1902 2932 5972
internal_value=1.2124e-06 0.00154695
internal_weight=2633.41 1918.36
internal_count=10806 7874
is_linear=0
shrinkage=0.05


Tree=119
num_leaves=3
num_cat=0
split_feature=60 61
split_gain=6.79893 11.2034
threshold=62.958333333333336 0.30266666666666669
decision_type=2 2
left_child=1 -1
right_child=-2 -3
leaf_value=0.00022215477957059673 -0.0013817897107603991 0.01514195186861092
leaf_weight=424.4289048910141 2030.3847522586584 178.28533458709717
leaf_count=1739 8333 734
internal_value=8.71046e-07 0.00466154
internal_weight=2633.1 602.714
internal_count=10806 2473
is_linear=0
shrinkage=0.05


Tree=120
num_leaves=3
num_cat=0
split_feature=6 58
split_gain=6.82747 11.2615
threshold=1.6455780611819624 0.28095241645337415
decision_type=2 2
left_child=1 -1
right_child=-2 -3
leaf_value=-0.01558019808064812 0.0022149356185749047 -0.00095654133565825725
leaf_weight=151.25446343421936 1500.1737167537212 981.57099698483944
leaf_count=617 6164 4025
internal_value=1.13085e-06 -0.00292552
internal_weight=2633 1132.83
internal_count=10806 4642
is_linear=0
shrinkage=0.05


Tree=121
num_leaves=3
num_cat=0
split_feature=41 34
split_gain=6.72415 8.97753
threshold=1.2250000000000003 -0.013882940002142498
decision_type=2 2
left_child=-1 -2
right_child=1 -3
leaf_value=-0.00063902057793118361 -0.015229203672343908 0.015473020341895204
leaf_weight=2474.0526108890772 28.06932444870472 130.57739718258381
leaf_count=10137 116 553
internal_value=6.02776e-07 0.0099482
internal_weight=2632.7 158.647
internal_count=10806 669
is_linear=0
shrinkage=0.05


Tree=122
num_leaves=3
num_cat=0
split_feature=8 18
split_gain=6.68458 8.72279
threshold=0.30453610175832402 47.000000000000007
decision_type=2 2
left_child=-1 -2
right_child=1 -3
leaf_value=0.00060122173472644655 -0.036941002329011104 -0.0046180025488550434
leaf_weight=2492.445295125246 24.749211728572845 115.23233504593372
leaf_count=10236 101 469
internal_value=4.3692e-07 -0.0105898
internal_weight=2632.43 139.982
internal_count=10806 570
is_linear=0
shrinkage=0.05


Tree=123
num_leaves=3
num_cat=0
split_feature=3 0
split_gain=6.59863 8.42425
threshold=7.8387992831541231 0.072932497467071908
decision_type=2 2
left_child=-1 -2
right_child=1 -3
leaf_value=-0.00038175867843151219 -0.0093073091159426476 0.029713727996231648
leaf_weight=2572.9167993366718 20.292131677269936 39.024263799190521
leaf_count=10554 85 167
internal_value=0 0.0163487
internal_weight=2632.23 59.3164
internal_count=10806 252
is_linear=0
shrinkage=0.05


Tree=124
num_leaves=3
num_cat=0
split_feature=48 59
split_gain=6.55924 13.7293
threshold=0.075598408488063665 0.42542708220525044
decision_type=2 2
left_child=-1 -2
right_child=1 -3
leaf_value=0.0022581891543818188 -0.0058011660657811591 0.006747492567197505
leaf_weight=1447.9098740667105 897.59651592373848 286.55139185488224
leaf_count=5955 3666 1185
internal_value=0 -0.00275717
internal_weight=2632.06 1184.15
internal_count=10806 4851
is_linear=0
shrinkage=0.05


Tree=125
num_leaves=3
num_cat=0
split_feature=28 13
split_gain=6.45719 12.2799
threshold=0.20205567489520251 0.31610555555555558
decision_type=2 2
left_child=-1 -2
right_child=1 -3
leaf_value=0.0022674684788770495 -0.0010130760740405659 -0.017887669137211071
leaf_weight=1432.2468201071024 1080.4756733775139 118.89893324673176
leaf_count=5920 4403 483
internal_value=0 -0.0027036
internal_weight=2631.62 1199.37
internal_count=10806 4886
is_linear=0
shrinkage=0.05


Tree=126
num_leaves=3
num_cat=0
split_feature=16 13
split_gain=6.47855 7.78412
threshold=6.2500000000000009 0.3041666666666667
decision_type=2 2
left_child=-1 -2
right_child=1 -3
leaf_value=0.010016214173052828 0.0016922383038034711 -0.0040122867092502682
leaf_weight=151.14833949506283 1477.298583433032 1002.7665136605501
leaf_count=638 6088 4080
internal_value=0 -0.000612949
internal_weight=2631.21 2480.07
internal_count=10806 10168
is_linear=0
shrinkage=0.05


Tree=127
num_leaves=3
num_cat=0
split_feature=61 55
split_gain=6.43876 10.9668
threshold=0.31260769230769231 1.0462859967865532
decision_type=2 2
left_child=-1 -2
right_child=1 -3
leaf_value=-0.0010620491177999853 0.012347576208550095 -0.0043272431197498564
leaf_weight=2220.7937489449978 247.9461283236742 162.03604854643345
leaf_count=9111 1026 669
internal_value=0 0.00575058
internal_weight=2630.78 409.982
internal_count=10806 1695
is_linear=0
shrinkage=0.05


Tree=128
num_leaves=3
num_cat=0
split_feature=60 28
split_gain=6.48026 13.8569
threshold=65.563492063492077 0.15379089301500729
decision_type=2 2
left_child=-1 -2
right_child=1 -3
leaf_value=0.0028636894293564918 0.019249437437635616 -0.0032260503550501324
leaf_weight=1128.2458494752645 70.990131184458733 1431.3429319709539
leaf_count=4636 301 5869
internal_value=0 -0.00214859
internal_weight=2630.58 1502.33
internal_count=10806 6170
is_linear=0
shrinkage=0.05


Tree=129
num_leaves=3
num_cat=0
split_feature=50 16
split_gain=6.43122 11.7337
threshold=1.5222385295179495 12.750000000000002
decision_type=2 2
left_child=1 -1
right_child=-2 -3
leaf_value=-0.010817638163228758 -0.00026807142038209821 0.050176648252131362
leaf_weight=13.757573023438455 2600.2890016436577 16.277097702026367
leaf_count=59 10680 67
internal_value=0 0.0226284
internal_weight=2630.32 30.0347
internal_count=10806 126
is_linear=0
shrinkage=0.05


Tree=130
num_leaves=3
num_cat=0
split_feature=70 71
split_gain=6.4265 7.93746
threshold=2.296703296703297 3.2253623188405802
decision_type=2 2
left_child=-1 -2
right_child=1 -3
leaf_value=-0.030730330186497481 0.013806776542527288 -0.00035455333540623964
leaf_weight=15.901012763381003 101.99384321272373 2512.4210965633392
leaf_count=66 425 10315
internal_value=5.69085e-07 0.000201066
internal_weight=2630.32 2614.41
internal_count=10806 10740
is_linear=0
shrinkage=0.05


Tree=131
num_leaves=3
num_cat=0
split_feature=34 52
split_gain=6.31295 13.4743
threshold=0.0090183783104792019 3.6441984116300987
decision_type=2 2
left_child=1 -1
right_child=-2 -3
leaf_value=0.0046737782043786286 0.0037039365515792021 -0.0045399793348718321
leaf_weight=579.70705226063728 800.11667363345623 1250.370368540287
leaf_count=2386 3318 5102
internal_value=7.05688e-08 -0.00161768
internal_weight=2630.19 1830.08
internal_count=10806 7488
is_linear=0
shrinkage=0.05


Tree=132
num_leaves=3
num_cat=0
split_feature=6 79
split_gain=6.19981 10.4055
threshold=1.6455780611819624 0.89682577972792565
decision_type=2 2
left_child=1 -1
right_child=-2 -3
leaf_value=0.021894301006726957 0.0021111133232243171 -0.0037216976017079985
leaf_weight=40.104684129357338 1498.2736482173204 1091.1535100191832
leaf_count=167 6164 4475
internal_value=1.6339e-07 -0.00279062
internal_weight=2629.53 1131.26
internal_count=10806 4642
is_linear=0
shrinkage=0.05


Tree=133
num_leaves=3
num_cat=0
split_feature=44 45
split_gain=6.1193 10.7789
threshold=0.4650637429560095 0.21808969698687297
decision_type=2 2
left_child=1 -1
right_child=-2 -3
leaf_value=-0.00071082403017609121 -0.022373341893574133 0.010885189235770179
leaf_weight=2382.3118081688881 29.204314708709717 217.77530613541603
leaf_count=9739 126 941
internal_value=5.79344e-07 0.000262312
internal_weight=2629.29 2600.09
internal_count=10806 10680
is_linear=0
shrinkage=0.05


Tree=134
num_leaves=3
num_cat=0
split_feature=9 11
split_gain=6.07087 8.94974
threshold=0.11281730973201026 0.37184086553093637
decision_type=2 2
left_child=1 -1
right_child=-2 -3
leaf_value=0.038411172644219643 -0.00045436912292891557 0.0030371839892443229
leaf_weight=23.670676469802856 2538.1909245103598 67.052680313587189
leaf_count=103 10422 281
internal_value=2.23646e-07 0.0126393
internal_weight=2628.91 90.7234
internal_count=10806 384
is_linear=0
shrinkage=0.05


Tree=135
num_leaves=3
num_cat=0
split_feature=65 65
split_gain=6.06241 12.9841
threshold=4.3550000000000013 4.6250000000000009
decision_type=2 2
left_child=-1 -2
right_child=1 -3
leaf_value=0.0029908767151096364 -0.0072229313983789914 0.0019021825273718243
leaf_weight=1030.8121675103903 670.38671110570431 927.50969506800175
leaf_count=4258 2743 3805
internal_value=1.07911e-06 -0.00192519
internal_weight=2628.71 1597.9
internal_count=10806 6548
is_linear=0
shrinkage=0.05


Tree=136
num_leaves=3
num_cat=0
split_feature=2 68
split_gain=6.05239 6.30339
threshold=7.4010443864229769 0.26636338947539945
decision_type=2 2
left_child=1 -1
right_child=-2 -3
leaf_value=-0.012262216588693132 0.021085003883949585 0.00023404615358325285
leaf_weight=104.15410497784615 32.608865901827812 2491.6826139986515
leaf_count=426 140 10240
internal_value=9.97714e-07 -0.000269951
internal_weight=2628.45 2595.84
internal_count=10806 10666
is_linear=0
shrinkage=0.05


Tree=137
num_leaves=3
num_cat=0
split_feature=8 18
split_gain=5.95269 7.82846
threshold=0.30453610175832402 47.000000000000007
decision_type=2 2
left_child=-1 -2
right_child=1 -3
leaf_value=0.00056853598827567235 -0.035026918997365604 -0.0043448776955211784
leaf_weight=2488.4505602270365 24.639900103211403 115.06120671331882
leaf_count=10236 101 469
internal_value=1.13488e-06 -0.0100025
internal_weight=2628.15 139.701
internal_count=10806 570
is_linear=0
shrinkage=0.05


Tree=138
num_leaves=3
num_cat=0
split_feature=65 60
split_gain=5.86768 7.94694
threshold=3.4900000000000007 65.563492063492077
decision_type=2 2
left_child=-1 -2
right_child=1 -3
leaf_value=0.0092106864301137303 0.0026758682394498927 -0.0030573938390431737
leaf_weight=161.31082354485989 1054.7572531551123 1411.8825214058161
leaf_count=676 4332 5798
internal_value=1.22895e-07 -0.000603683
internal_weight=2627.95 2466.64
internal_count=10806 10130
is_linear=0
shrinkage=0.05


Tree=139
num_leaves=3
num_cat=0
split_feature=61 13
split_gain=5.88167 10.4125
threshold=0.31260769230769231 0.3125
decision_type=2 2
left_child=-1 -2
right_child=1 -3
leaf_value=-0.0010144072192251987 0.0090143678857653627 -0.012497849336692256
leaf_weight=2218.5150275528431 343.08985656499863 66.166413441300392
leaf_count=9111 1426 269
internal_value=3.13747e-07 0.00550221
internal_weight=2627.77 409.256
internal_count=10806 1695
is_linear=0
shrinkage=0.05


Tree=140
num_leaves=3
num_cat=0
split_feature=40 4
split_gain=5.87704 6.03518
threshold=17.750000000000004 5.897132852938193
decision_type=2 2
left_child=1 -1
right_child=-2 -3
leaf_value=-0.00062516441799460485 0.026163208954196649 0.013829915354721507
leaf_weight=2533.8918658345938 20.293661147356033 73.315387472510338
leaf_count=10399 92 315
internal_value=6.1566e-08 -0.00021162
internal_weight=2627.5 2607.21
internal_count=10806 10714
is_linear=0
shrinkage=0.05


Tree=141
num_leaves=3
num_cat=0
split_feature=54 7
split_gain=5.83068 9.71678
threshold=5.4490740740740753 1.0576954732510291
decision_type=2 2
left_child=-1 -2
right_child=1 -3
leaf_value=0.0006922952764787005 -0.023192794932132582 -0.00027947019008278537
leaf_weight=2420.5399937927723 69.081493437290192 137.57454539835453
leaf_count=9955 284 567
internal_value=8.77994e-07 -0.00803787
internal_weight=2627.2 206.656
internal_count=10806 851
is_linear=0
shrinkage=0.05


Tree=142
num_leaves=3
num_cat=0
split_feature=23 60
split_gain=5.81001 6.64197
threshold=2.9439393939393943 62.958333333333336
decision_type=2 2
left_child=-1 -2
right_child=1 -3
leaf_value=-0.018866995530466706 0.0049579192702038782 -0.0010784880559780432
leaf_weight=39.172234460711479 589.04625405371189 1998.9231760501862
leaf_count=161 2424 8221
internal_value=2.20333e-07 0.000294908
internal_weight=2627.14 2587.97
internal_count=10806 10645
is_linear=0
shrinkage=0.05


Tree=143
num_leaves=3
num_cat=0
split_feature=17 80
split_gain=5.77063 9.14872
threshold=4.3650000000000011 1.6881680522565323
decision_type=2 2
left_child=1 -1
right_child=-2 -3
leaf_value=-0.0022614892959015357 0.0018977875337514709 -0.038167058023890761
leaf_weight=1022.5661337971687 1587.3090755790472 17.083758816123009
leaf_count=4168 6568 70
internal_value=0 -0.00289241
internal_weight=2626.96 1039.65
internal_count=10806 4238
is_linear=0
shrinkage=0.05


Tree=144
num_leaves=3
num_cat=0
split_feature=70 78
split_gain=5.7018 6.98851
threshold=2.296703296703297 0.85510632534139253
decision_type=2 2
left_child=-1 -2
right_child=1 -3
leaf_value=-0.0288944343329769 0.014144052874522943 -0.00028896524779913502
leaf_weight=15.962531879544256 85.741686716675758 2524.9261362403631
leaf_count=66 357 10383
internal_value=0 0.000188375
internal_weight=2626.63 2610.67
internal_count=10806 10740
is_linear=0
shrinkage=0.05


Tree=145
num_leaves=3
num_cat=0
split_feature=48 77
split_gain=5.59617 13.7667
threshold=0.084781878379263473 0.18240290309507981
decision_type=2 2
left_child=-1 -2
right_child=1 -3
leaf_value=0.0015709150598797765 -0.014466517303148289 0.0003354748449317436
leaf_weight=1795.1173521280289 208.78817005455494 622.63375821709633
leaf_count=7395 854 2557
internal_value=0 -0.00338853
internal_weight=2626.54 831.422
internal_count=10806 3411
is_linear=0
shrinkage=0.05


Tree=146
num_leaves=3
num_cat=0
split_feature=33 50
split_gain=5.68422 6.07765
threshold=1.8386395027624307 1.5222385295179495
decision_type=2 2
left_child=1 -1
right_child=-2 -3
leaf_value=0.021924272506073282 0.019475063971528997 -0.00054326076943854646
leaf_weight=29.452282086014748 35.941289931535721 2560.7482209354639
leaf_count=124 155 10527
internal_value=0 -0.000277498
internal_weight=2626.14 2590.2
internal_count=10806 10651
is_linear=0
shrinkage=0.05


Tree=147
num_leaves=3
num_cat=0
split_feature=30 55
split_gain=5.57286 8.77244
threshold=1.0274421858188345 1.9087938205585264
decision_type=2 2
left_child=1 -1
right_child=-2 -3
leaf_value=3.1485555426557141e-06 0.0017736383711842814 -0.010464948109095176
leaf_weight=697.84801410138607 1649.0358292162418 279.07599806785583
leaf_count=2845 6822 1139
internal_value=0 -0.00298978
internal_weight=2625.96 976.924
internal_count=10806 3984
is_linear=0
shrinkage=0.05


Tree=148
num_leaves=3
num_cat=0
split_feature=6 32
split_gain=5.60171 9.61983
threshold=1.6455780611819624 1.4365143479329847
decision_type=2 2
left_child=1 -1
right_child=-2 -3
leaf_value=-0.0042728753639663056 0.0020072177689761878 0.010489636101414363
leaf_weight=1006.7714549154043 1495.9983317106962 122.81085214018822
leaf_count=4125 6164 517
internal_value=0 -0.00265558
internal_weight=2625.58 1129.58
internal_count=10806 4642
is_linear=0
shrinkage=0.05


Tree=149
num_leaves=3
num_cat=0
split_feature=44 45
split_gain=5.56767 8.9528
threshold=0.4650637429560095 0.21808969698687297
decision_type=2 2
left_child=1 -1
right_child=-2 -3
leaf_value=-0.00063551831921685939 -0.021307628619166585 0.0099617974156719635
leaf_weight=2379.4719778001308 29.301024958491325 216.48462091386318
leaf_count=9739 126 941
internal_value=0 0.000249794
internal_weight=2625.26 2595.96
internal_count=10806 10680
is_linear=0
shrinkage=0.05


Tree=150
num_leaves=3
num_cat=0
split_feature=16 38
split_gain=5.36421 8.75462
threshold=6.2500000000000009 0.00085580808080800016
decision_type=2 2
left_child=1 -1
right_child=-2 -3
leaf_value=0.021023963025978896 -0.00055755045171593102 -0.0029541250570661063
leaf_weight=75.622673407196999 2474.6759015470743 74.596827417612076
leaf_count=316 10168 322
internal_value=0 0.00914293
internal_weight=2624.9 150.22
internal_count=10806 638
is_linear=0
shrinkage=0.05


Tree=151
num_leaves=3
num_cat=0
split_feature=61 55
split_gain=5.34622 9.59256
threshold=0.31260769230769231 1.0462859967865532
decision_type=2 2
left_child=-1 -2
right_child=1 -3
leaf_value=-0.00096834726922374621 0.011438450205346257 -0.0041785859340346338
leaf_weight=2216.265036329627 246.83865630626678 161.71413391828537
leaf_count=9111 1026 669
internal_value=0 0.00524957
internal_weight=2624.82 408.553
internal_count=10806 1695
is_linear=0
shrinkage=0.05


Tree=152
num_leaves=3
num_cat=0
split_feature=33 8
split_gain=5.34184 7.0372
threshold=0.69124587069372356 0.30453610175832402
decision_type=2 2
left_child=-1 -2
right_child=1 -3
leaf_value=0.017873201312069025 0.00030389582144288175 -0.011829954916017177
leaf_weight=40.154928311705589 2459.8853042125702 124.57068620622158
leaf_count=164 10133 509
internal_value=0 -0.000283371
internal_weight=2624.61 2584.46
internal_count=10806 10642
is_linear=0
shrinkage=0.05


Tree=153
num_leaves=3
num_cat=0
split_feature=48 5
split_gain=5.2827 11.7314
threshold=0.053183632420880554 5.094048536209554
decision_type=2 2
left_child=1 -1
right_child=-2 -3
leaf_value=0.0074016684919915622 -0.001153077156472914 -0.013110598548885345
leaf_weight=468.43385131657124 2075.2804277539253 80.779305785894394
leaf_count=1930 8536 340
internal_value=0 0.00435725
internal_weight=2624.49 549.213
internal_count=10806 2270
is_linear=0
shrinkage=0.05


Tree=154
num_leaves=3
num_cat=0
split_feature=13 64
split_gain=5.30898 13.5305
threshold=0.3004 7.8000000000000016
decision_type=2 2
left_child=1 -1
right_child=-2 -3
leaf_value=0.016684779733651761 -0.0021250820746011242 0.00046602785911849037
leaf_weight=144.84267750382423 1385.3585097640753 1094.2731447070837
leaf_count=595 5670 4541
internal_value=0 0.00237783
internal_weight=2624.47 1239.12
internal_count=10806 5136
is_linear=0
shrinkage=0.05


Tree=155
num_leaves=3
num_cat=0
split_feature=13 11
split_gain=5.27977 10.1242
threshold=0.28288194444444442 0.36348322469415051
decision_type=2 2
left_child=1 -1
right_child=-2 -3
leaf_value=0.019899448642807585 0.00041728852804848469 -0.02098684878459911
leaf_weight=18.423777118325233 2537.9349920153618 67.966845795512199
leaf_count=78 10448 280
internal_value=0 -0.0120822
internal_weight=2624.33 86.3906
internal_count=10806 358
is_linear=0
shrinkage=0.05


Tree=156
num_leaves=3
num_cat=0
split_feature=54 7
split_gain=5.20823 8.54132
threshold=5.4490740740740753 1.0576954732510291
decision_type=2 2
left_child=-1 -2
right_child=1 -3
leaf_value=0.00065356036180423541 -0.021811819885811278 -0.00031930238496861649
leaf_weight=2417.8163589090109 69.049812644720078 137.44338089227676
leaf_count=9955 284 567
internal_value=0 -0.00760082
internal_weight=2624.31 206.493
internal_count=10806 851
is_linear=0
shrinkage=0.05


Tree=157
num_leaves=3
num_cat=0
split_feature=58 30
split_gain=5.26672 10.9138
threshold=0.27677898712341276 1.0888967877765883
decision_type=2 2
left_child=1 -1
right_child=-2 -3
leaf_value=-0.015149834111122806 0.00071489422179979109 0.0067508838835392861
leaf_weight=151.97635711729527 2382.8127304166555 89.450089186429977
leaf_count=622 9817 367
internal_value=0 -0.00702047
internal_weight=2624.24 241.426
internal_count=10806 989
is_linear=0
shrinkage=0.05


Tree=158
num_leaves=3
num_cat=0
split_feature=41 41
split_gain=5.24817 8.73425
threshold=1.2550000000000001 1.3850000000000005
decision_type=2 2
left_child=-1 -2
right_child=1 -3
leaf_value=-0.00055041152292354496 0.028316653457081072 0.0014635555523810299
leaf_weight=2474.4529365748167 41.368361011147499 108.12774522602558
leaf_count=10170 174 462
internal_value=0 0.00906631
internal_weight=2623.95 149.496
internal_count=10806 636
is_linear=0
shrinkage=0.05


Tree=159
num_leaves=3
num_cat=0
split_feature=9 25
split_gain=5.18757 8.2689
threshold=0.11281730973201026 4.5603864734299524
decision_type=2 2
left_child=1 -1
right_child=-2 -3
leaf_value=0.024493258922068026 -0.00042010240261646116 -0.0058276694262805045
leaf_weight=52.119611650705338 2533.6275492459536 38.054263085126877
leaf_count=226 10422 158
internal_value=0 0.0117191
internal_weight=2623.8 90.1739
internal_count=10806 384
is_linear=0
shrinkage=0.05


Tree=160
num_leaves=3
num_cat=0
split_feature=70 79
split_gain=5.08219 6.26118
threshold=2.296703296703297 0.89682577972792565
decision_type=2 2
left_child=-1 -2
right_child=1 -3
leaf_value=-0.027240763550172339 0.013435503010876966 -0.0002713686254537949
leaf_weight=16.008935436606407 85.148880004882812 2522.4279915690422
leaf_count=66 358 10382
internal_value=0 0.000179283
internal_weight=2623.59 2607.58
internal_count=10806 10740
is_linear=0
shrinkage=0.05


Tree=161
num_leaves=3
num_cat=0
split_feature=50 3
split_gain=5.15769 5.2893
threshold=1.3838061465721041 7.8387992831541231
decision_type=2 2
left_child=-1 -2
right_child=1 -3
leaf_value=0.024828931177991641 -0.00054099785831796757 0.014612480438159823
leaf_weight=19.752783745527267 2545.7944734692574 57.908914595842361
leaf_count=84 10473 249
internal_value=0 -0.000196569
internal_weight=2623.46 2603.7
internal_count=10806 10722
is_linear=0
shrinkage=0.05


Tree=162
num_leaves=3
num_cat=0
split_feature=60 28
split_gain=5.05607 11.9564
threshold=65.563492063492077 0.15379089301500729
decision_type=2 2
left_child=-1 -2
right_child=1 -3
leaf_value=0.00253449654782399 0.018059102312769148 -0.0028987661888819224
leaf_weight=1124.7679915875196 70.416908606886864 1428.0786591619253
leaf_count=4636 301 5869
internal_value=1.58311e-07 -0.0018992
internal_weight=2623.26 1498.5
internal_count=10806 6170
is_linear=0
shrinkage=0.05


Tree=163
num_leaves=3
num_cat=0
split_feature=40 61
split_gain=5.0102 5.33759
threshold=17.750000000000004 0.31080909090909098
decision_type=2 2
left_child=1 -1
right_child=-2 -3
leaf_value=-0.0013208534106607531 0.024337893690729907 0.0043556138050319382
leaf_weight=2087.5603266954422 19.98122963309288 515.45184706151485
leaf_count=8579 92 2135
internal_value=5.41808e-07 -0.000193631
internal_weight=2622.99 2603.01
internal_count=10806 10714
is_linear=0
shrinkage=0.05


Tree=164
num_leaves=3
num_cat=0
split_feature=6 48
split_gain=4.98143 9.20495
threshold=1.6455780611819624 0.084781878379263473
decision_type=2 2
left_child=1 -1
right_child=-2 -3
leaf_value=0.00038682552911758431 0.0018958777328415876 -0.0095385452026539707
leaf_weight=799.8719057738781 1494.4258382320404 328.41027154028416
leaf_count=3293 6164 1349
internal_value=1.08529e-06 -0.00250362
internal_weight=2622.71 1128.28
internal_count=10806 4642
is_linear=0
shrinkage=0.05


Tree=165
num_leaves=3
num_cat=0
split_feature=65 65
split_gain=4.99823 11.2209
threshold=4.3550000000000013 4.6250000000000009
decision_type=2 2
left_child=-1 -2
right_child=1 -3
leaf_value=0.0027201742189564486 -0.0066784156434038086 0.0018128088742780731
leaf_weight=1027.8338345587254 669.17456431686878 925.42995573580265
leaf_count=4258 2743 3805
internal_value=8.93264e-07 -0.00174935
internal_weight=2622.44 1594.6
internal_count=10806 6548
is_linear=0
shrinkage=0.05


Tree=166
num_leaves=3
num_cat=0
split_feature=44 38
split_gain=5.02142 8.72626
threshold=0.4650637429560095 0.0076256313131312509
decision_type=2 2
left_child=-1 -2
right_child=1 -3
leaf_value=0.00023954244291275967 -0.048314952775667316 0.0047930403785046063
leaf_weight=2592.7608352452517 13.493123084306719 15.914386093616484
leaf_count=10680 57 69
internal_value=8.20605e-07 -0.0201977
internal_weight=2622.17 29.4075
internal_count=10806 126
is_linear=0
shrinkage=0.05


Tree=167
num_leaves=3
num_cat=0
split_feature=23 13
split_gain=4.94639 6.60094
threshold=2.9439393939393943 0.3117638888888889
decision_type=2 2
left_child=1 -1
right_child=-2 -3
leaf_value=-0.031716255781237129 0.0002719013164687219 0.010708528654733122
leaf_weight=25.904475331306458 2583.2581674158573 13.0705658942461
leaf_count=107 10645 54
internal_value=1.10683e-08 -0.0174517
internal_weight=2622.23 38.975
internal_count=10806 161
is_linear=0
shrinkage=0.05


Tree=168
num_leaves=3
num_cat=0
split_feature=0 27
split_gain=4.90807 10.6346
threshold=0.042280606717226409 3.1511238051286785
decision_type=2 2
left_child=1 -1
right_child=-2 -3
leaf_value=-0.0069125444974690838 -0.00069994647586617015 0.014463669375690165
leaf_weight=90.551993444561958 2373.2739119380713 158.2691858112812
leaf_count=370 9782 654
internal_value=0 0.00666781
internal_weight=2622.1 248.821
internal_count=10806 1024
is_linear=0
shrinkage=0.05


Tree=169
num_leaves=3
num_cat=0
split_feature=17 13
split_gain=4.85468 8.48185
threshold=4.3650000000000011 0.31310555555555558
decision_type=2 2
left_child=1 -1
right_child=-2 -3
leaf_value=-0.00075043771019993679 0.0017427186534562861 -0.013412431090041789
leaf_weight=883.17624790966511 1583.9935387820005 154.81266959011555
leaf_count=3607 6568 631
internal_value=0 -0.00265484
internal_weight=2621.98 1037.99
internal_count=10806 4238
is_linear=0
shrinkage=0.05


Tree=170
num_leaves=3
num_cat=0
split_feature=33 8
split_gain=4.86144 6.30803
threshold=0.69124587069372356 0.30453610175832402
decision_type=2 2
left_child=-1 -2
right_child=1 -3
leaf_value=0.01705439068508632 0.00028544560212802019 -0.011212673967218811
leaf_weight=40.136111825704575 2457.1493408232927 124.34497840702534
leaf_count=164 10133 509
internal_value=0 -0.000270585
internal_weight=2621.63 2581.49
internal_count=10806 10642
is_linear=0
shrinkage=0.05


Tree=171
num_leaves=3
num_cat=0
split_feature=34 22
split_gain=4.83016 9.06062
threshold=-0.005129370474786149 5.2321428571428585
decision_type=2 2
left_child=1 -1
right_child=-2 -3
leaf_value=-0.0047876357624675459 0.0016945632063115228 0.008134934507295636
leaf_weight=845.68998494744301 1615.4642995148897 160.35220612585545
leaf_count=3457 6683 666
internal_value=0 -0.00271692
internal_weight=2621.51 1006.04
internal_count=10806 4123
is_linear=0
shrinkage=0.05


Tree=172
num_leaves=3
num_cat=0
split_feature=54 23
split_gain=4.8033 8.98974
threshold=0.55860484544695088 4.9481481481481486
decision_type=2 2
left_child=1 -1
right_child=-2 -3
leaf_value=0.018808834005611435 -0.00042747439500596946 -0.016224372246768613
leaf_weight=77.383034273982048 2520.7007396519184 22.90320111811161
leaf_count=317 10393 96
internal_value=0 0.0106775
internal_weight=2620.99 100.286
internal_count=10806 413
is_linear=0
shrinkage=0.05


Tree=173
num_leaves=3
num_cat=0
split_feature=76 76
split_gain=4.78588 12.2703
threshold=0.19321260356857342 0.19072299253796368
decision_type=2 2
left_child=1 -1
right_child=-2 -3
leaf_value=-0.00089399431138736029 0.0018165161264152342 -0.019817661758511088
leaf_weight=1006.4240969419479 1521.8796891272068 92.726885288953781
leaf_count=4126 6299 381
internal_value=0 -0.00251155
internal_weight=2621.03 1099.15
internal_count=10806 4507
is_linear=0
shrinkage=0.05


Tree=174
num_leaves=3
num_cat=0
split_feature=13 21
split_gain=4.81189 8.7903
threshold=0.28288194444444442 0.37548461855116089
decision_type=2 2
left_child=1 -1
right_child=-2 -3
leaf_value=0.023255092575632071 0.00039817193910784239 -0.01863782306898823
leaf_weight=14.120102211832998 2534.5176282972097 72.197596028447151
leaf_count=61 10448 297
internal_value=0 -0.0115398
internal_weight=2620.84 86.3177
internal_count=10806 358
is_linear=0
shrinkage=0.05


Tree=175
num_leaves=3
num_cat=0
split_feature=7 54
split_gain=4.76432 11.6305
threshold=2.3643578643578649 5.4875000000000007
decision_type=2 2
left_child=1 -1
right_child=-2 -3
leaf_value=-0.00029776661531449254 0.0038921948701501324 -0.017816631027637898
leaf_weight=1917.9579523354769 604.12436631321907 98.705812454223633
leaf_count=7900 2500 406
internal_value=0 -0.00116611
internal_weight=2620.79 2016.66
internal_count=10806 8306
is_linear=0
shrinkage=0.05


Tree=176
num_leaves=3
num_cat=0
split_feature=60 81
split_gain=4.70776 10.512
threshold=62.958333333333336 1.7273863636363638
decision_type=2 2
left_child=1 -1
right_child=-2 -3
leaf_value=0.0050357543443570393 -0.0011539435815816543 -0.034188839750883528
leaf_weight=582.97948482632637 2021.0926541984081 16.579046621918678
leaf_count=2405 8333 68
internal_value=0 0.00388766
internal_weight=2620.65 599.559
internal_count=10806 2473
is_linear=0
shrinkage=0.05


Tree=177
num_leaves=3
num_cat=0
split_feature=67 6
split_gain=4.73381 10.1383
threshold=-0.84999999999999998 0.87690835293575031
decision_type=2 2
left_child=1 -1
right_child=-2 -3
leaf_value=-0.024943879965136393 -0.00039074574454087807 0.019504490364239138
leaf_weight=14.667065039277075 2535.7795708328485 70.091438069939613
leaf_count=60 10457 289
internal_value=0 0.0115534
internal_weight=2620.54 84.7585
internal_count=10806 349
is_linear=0
shrinkage=0.05


Tree=178
num_leaves=3
num_cat=0
split_feature=13 39
split_gain=4.70115 12.2656
threshold=0.3004 -0.60999999999999954
decision_type=2 2
left_child=-1 -2
right_child=1 -3
leaf_value=0.0022384004098818153 -0.012500724111571177 0.00010306598440069104
leaf_weight=1236.9847921431065 230.66510996222496 1152.8819102793932
leaf_count=5136 942 4728
internal_value=0 -0.00200214
internal_weight=2620.53 1383.55
internal_count=10806 5670
is_linear=0
shrinkage=0.05


Tree=179
num_leaves=3
num_cat=0
split_feature=44 38
split_gain=4.72142 7.82168
threshold=0.4650637429560095 0.0064325757575757004
decision_type=2 2
left_child=-1 -2
right_child=1 -3
leaf_value=0.00022950717814119249 -0.048642299238110788 0.0021400235835595145
leaf_weight=2590.6102637350559 12.159992799162866 17.28608313202858
leaf_count=10680 51 75
internal_value=0 -0.0195756
internal_weight=2620.06 29.4461
internal_count=10806 126
is_linear=0
shrinkage=0.05


Tree=180
num_leaves=3
num_cat=0
split_feature=2 79
split_gain=4.63846 6.61292
threshold=7.4010443864229769 1.0457021861344475
decision_type=2 2
left_child=-1 -2
right_child=1 -3
leaf_value=-0.0002389521928134934 -0.0095032057261191637 0.035865176488334517
leaf_weight=2588.009796589613 12.276909187436102 19.820458739995956
leaf_count=10666 55 85
internal_value=0 0.0185983
internal_weight=2620.11 32.0974
internal_count=10806 140
is_linear=0
shrinkage=0.05


Tree=181
num_leaves=3
num_cat=0
split_feature=50 54
split_gain=4.60845 4.97216
threshold=1.3838061465721041 5.4490740740740753
decision_type=2 2
left_child=-1 -2
right_child=1 -3
leaf_value=0.023543789394017509 0.00044391913078188779 -0.0077330875751256524
leaf_weight=19.619981870055199 2399.9369620531797 200.47779653966427
leaf_count=84 9895 827
internal_value=0 -0.000187292
internal_weight=2620.03 2600.41
internal_count=10806 10722
is_linear=0
shrinkage=0.05


Tree=182
num_leaves=3
num_cat=0
split_feature=59 25
split_gain=4.6107 8.83891
threshold=0.44238293216517854 5.772222222222223
decision_type=2 2
left_child=-1 -2
right_child=1 -3
leaf_value=-0.00089288693796505205 0.0067197081037496317 -0.025562244366639009
leaf_weight=2218.6210708320141 379.91283716261387 21.427102535963058
leaf_count=9126 1593 87
internal_value=0 0.00492453
internal_weight=2619.96 401.34
internal_count=10806 1680
is_linear=0
shrinkage=0.05


Tree=183
num_leaves=3
num_cat=0
split_feature=74 78
split_gain=4.57353 6.8991
threshold=1.8048225627410048 0.85510632534139253
decision_type=2 2
left_child=-1 -2
right_child=1 -3
leaf_value=-0.02237636613846845 0.014537128836916866 -0.00026639537071891645
leaf_weight=21.639688149094582 80.234355315566063 2517.7703926712275
leaf_count=90 336 10380
internal_value=0 0.000194276
internal_weight=2619.64 2598
internal_count=10806 10716
is_linear=0
shrinkage=0.05


Tree=184
num_leaves=3
num_cat=0
split_feature=20 44
split_gain=4.58789 7.01014
threshold=0.81590161136434658 -0.41749720491408676
decision_type=2 2
left_child=1 -1
right_child=-2 -3
leaf_value=-0.019445338349354892 0.025811424120192689 0.00017680021624414424
leaf_weight=45.33672422170639 16.102472081780434 2558.1068089902401
leaf_count=188 66 10552
internal_value=0 -0.000170318
internal_weight=2619.55 2603.44
internal_count=10806 10740
is_linear=0
shrinkage=0.05


Tree=185
num_leaves=3
num_cat=0
split_feature=33 52
split_gain=4.50088 6.33624
threshold=1.8386395027624307 4.7998472505091661
decision_type=2 2
left_child=-1 -2
right_child=1 -3
leaf_value=-0.00024673716977238562 0.031890632939523669 -0.011702784711352379
leaf_weight=2583.9371494948864 23.772848576307297 11.713101774454115
leaf_count=10651 106 49
internal_value=0 0.017438
internal_weight=2619.42 35.486
internal_count=10806 155
is_linear=0
shrinkage=0.05


Tree=186
num_leaves=3
num_cat=0
split_feature=59 6
split_gain=4.48181 10.747
threshold=0.34403139385593923 1.3007897603485838
decision_type=2 2
left_child=1 -1
right_child=-2 -3
leaf_value=-0.028007859357190502 0.00048565076486451988 0.0013323003670188348
leaf_weight=46.581926479935646 2483.0792689323425 89.605226635932922
leaf_count=192 10247 367
internal_value=0 -0.00879787
internal_weight=2619.27 136.187
internal_count=10806 559
is_linear=0
shrinkage=0.05


Tree=187
num_leaves=3
num_cat=0
split_feature=13 11
split_gain=4.49859 8.7317
threshold=0.28288194444444442 0.36348322469415051
decision_type=2 2
left_child=1 -1
right_child=-2 -3
leaf_value=0.018673303763269741 0.00038374946215052994 -0.019407871249232957
leaf_weight=18.268421486020088 2532.822674587369 67.98382069170475
leaf_count=78 10448 280
internal_value=0 -0.0111633
internal_weight=2619.07 86.2522
internal_count=10806 358
is_linear=0
shrinkage=0.05


Tree=188
num_leaves=3
num_cat=0
split_feature=0 50
split_gain=4.49103 11.4661
threshold=0.042280606717226409 5.4050092764378492
decision_type=2 2
left_child=1 -1
right_child=-2 -3
leaf_value=0.0019703667973160958 -0.000671525366965605 0.032654692455286564
leaf_weight=213.68485851585865 2370.7246795147657 34.626803025603294
leaf_count=882 9782 142
internal_value=0 0.00638314
internal_weight=2619.04 248.312
internal_count=10806 1024
is_linear=0
shrinkage=0.05


Tree=189
num_leaves=3
num_cat=0
split_feature=36 32
split_gain=4.48649 8.9071
threshold=0.029892868632809703 0.91852623402302114
decision_type=2 2
left_child=-1 -2
right_child=1 -3
leaf_value=0.0010476534091505576 -0.023188027451616817 -0.0018892666822664082
leaf_weight=2085.304133027792 53.822228446602821 480.04578353464603
leaf_count=8622 221 1963
internal_value=0 -0.0040852
internal_weight=2619.17 533.868
internal_count=10806 2184
is_linear=0
shrinkage=0.05


Tree=190
num_leaves=3
num_cat=0
split_feature=50 34
split_gain=4.54523 10.0046
threshold=4.6503588516746426 0.0090183783104792019
decision_type=2 2
left_child=-1 -2
right_child=1 -3
leaf_value=0.0013711493625104842 -0.0066476021903973158 0.0058707259646612426
leaf_weight=1826.8543842732906 572.03489190340042 219.95609994232655
leaf_count=7563 2341 902
internal_value=0 -0.00316162
internal_weight=2618.85 791.991
internal_count=10806 3243
is_linear=0
shrinkage=0.05


Tree=191
num_leaves=3
num_cat=0
split_feature=33 32
split_gain=4.49502 5.80709
threshold=0.69124587069372356 0.90155486795110129
decision_type=2 2
left_child=-1 -2
right_child=1 -3
leaf_value=0.016404406722345648 -0.0096819221685155825 0.00033381161190325576
leaf_weight=40.102904111146927 152.87199577689171 2425.3743799775839
leaf_count=164 626 10016
internal_value=0 -0.000261636
internal_weight=2618.35 2578.25
internal_count=10806 10642
is_linear=0
shrinkage=0.05


Tree=192
num_leaves=3
num_cat=0
split_feature=40 62
split_gain=4.42367 5.05042
threshold=17.750000000000004 95.500000000000014
decision_type=2 2
left_child=1 -1
right_child=-2 -3
leaf_value=-0.00045489312181437152 0.023002689753954943 0.017822253933886107
leaf_weight=2561.1826002597809 19.735555097460747 37.35673725605011
leaf_count=10560 92 154
internal_value=0 -0.000183462
internal_weight=2618.27 2598.54
internal_count=10806 10714
is_linear=0
shrinkage=0.05


Tree=193
num_leaves=3
num_cat=0
split_feature=67 6
split_gain=4.41483 9.15418
threshold=-0.84999999999999998 0.87690835293575031
decision_type=2 2
left_child=1 -1
right_child=-2 -3
leaf_value=-0.023565059009450669 -0.00037628989411609391 0.01872366591548864
leaf_weight=14.621512994170187 2533.5200850367546 69.994141906499863
leaf_count=60 10457 289
internal_value=0 0.0111679
internal_weight=2618.14 84.6157
internal_count=10806 349
is_linear=0
shrinkage=0.05


Tree=194
num_leaves=3
num_cat=0
split_feature=2 62
split_gain=4.41529 11.7363
threshold=2.056239094225889 69.500000000000014
decision_type=2 2
left_child=1 -1
right_child=-2 -3
leaf_value=0 -0.00047811349473013333 0.033380731330492186
leaf_weight=99.492203429341316 2483.89547342062 34.728210985660553
leaf_count=408 10256 142
internal_value=0 0.00879946
internal_weight=2618.12 134.22
internal_count=10806 550
is_linear=0
shrinkage=0.05


Tree=195
num_leaves=3
num_cat=0
split_feature=11 68
split_gain=4.41239 5.60236
threshold=0.48994328640458812 0.26636338947539945
decision_type=2 2
left_child=1 -1
right_child=-2 -3
leaf_value=-0.011066268499346077 -0.014333352797897429 0.00077652298969955156
leaf_weight=103.05762793123722 51.606015458703041 2463.530868306756
leaf_count=424 210 10172
internal_value=0 0.000294921
internal_weight=2618.19 2566.59
internal_count=10806 10596
is_linear=0
shrinkage=0.05


Tree=196
num_leaves=3
num_cat=0
split_feature=30 37
split_gain=4.39206 9.54953
threshold=1.3333333333323769 0.074297084266166408
decision_type=2 2
left_child=-1 -2
right_child=1 -3
leaf_value=-0.00037499213663532918 0.036273243578349386 0
leaf_weight=2533.6065916866064 25.218962639570236 59.088197782635689
leaf_count=10446 106 254
internal_value=0 0.0111595
internal_weight=2617.91 84.3072
internal_count=10806 360
is_linear=0
shrinkage=0.05


Tree=197
num_leaves=3
num_cat=0
split_feature=56 47
split_gain=4.38734 11.2375
threshold=0.11782881846172981 -1.0000000180025095e-35
decision_type=2 2
left_child=1 -1
right_child=-2 -3
leaf_value=0.0066660213192282179 0.00034751678306107993 -0.032380692991701279
leaf_weight=37.587776258587837 2545.8961832672358 34.326084226369858
leaf_count=154 10512 140
internal_value=0 -0.0120917
internal_weight=2617.81 71.9139
internal_count=10806 294
is_linear=0
shrinkage=0.05


Tree=198
num_leaves=3
num_cat=0
split_feature=60 46
split_gain=4.41907 9.63408
threshold=65.563492063492077 2.8095238095238102
decision_type=2 2
left_child=-1 -2
right_child=1 -3
leaf_value=0.0023711118046512956 -0.0012768650130788703 -0.034170884558749434
leaf_weight=1122.2932853847742 1473.8847748786211 21.620565578341484
leaf_count=4636 6079 91
internal_value=0 -0.00177827
internal_weight=2617.8 1495.51
internal_count=10806 6170
is_linear=0
shrinkage=0.05


Tree=199
num_leaves=3
num_cat=0
split_feature=61 13
split_gain=4.36654 11.1071
threshold=0.31341428571428576 0.3125
decision_type=2 2
left_child=-1 -2
right_child=1 -3
leaf_value=-0.00081865085193769951 0.0089722522307751958 -0.014532434217419435
leaf_weight=2255.7355369329453 302.94064863026142 59.154515862464905
leaf_count=9299 1266 241
internal_value=0 0.00508914
internal_weight=2617.83 362.095
internal_count=10806 1507
is_linear=0
shrinkage=0.05


Tree=200
num_leaves=3
num_cat=0
