tree
version=v4
num_class=1
num_tree_per_iteration=1
label_index=0
max_feature_idx=47
objective=binary sigmoid:1
feature_names=away_proj_lineup_woba diff_proj_sp_k_bb diff_proj_sp_sc_era diff_proj_lineup_woba home_proj_lineup_woba home_proj_lineup_bb_score away_proj_sp_k_bb home_proj_sp_sc_era home_proj_sp_fip diff_proj_sp_sust home_elo away_elo diff_pyth_t30 diff_pyth_t14 away_team_whip_t14 home_team_whip_t30 away_team_k_pct_t14 home_team_k_pct_t14 home_era_sp10 away_k_pct_sp10 away_bb_pct_sp10 away_ip_per_start_sp10 home_fip_sp10 home_bb_pct_sp10 away_era_sp5 away_fip_sp10 home_ip_per_start_sp5 away_whip_sp10 away_era_sp10 away_k_pct_sp5 home_ip_per_start_sp10 diff_bp_bb_pct_bp35 diff_bp_whip_bp35 diff_bp_k_pct_bp35 home_lineup_slg away_lineup_slg home_platoon_adv away_platoon_adv away_velo_x_same_hand home_velo_x_same_hand home_venue_wpct away_venue_wpct home_sp_rgs away_sp_rgs diff_sp_rgs park_factor_runs park_factor_hr ball_flight_index
feature_infos=[0.25900000000000001:0.34300000000000003] [-38.399999999999999:42.5] [-3.0499999999999998:2.5500000000000003] [-0.069000000000000006:0.062314285714285697] [0.27014285714285707:0.34462500000000001] [50:86.5] [-18.800000000000001:39.5] [2.5699999999999998:6] [2.3300000000000001:5.2300000000000004] [-13:13] [1345.0999999999999:1651.3] [1342.8:1648.5999999999999] [-0.55235601998536565:0.5436142353477813] [-0.64426086091543655:0.69605695778064292] [0.65753424657489212:1.6337349397578556] [0.77661999348723576:1.4955588452992801] [0.097488921713427198:0.31238779174141612] [0.10997067448678741:0.29999999999994642] [0.19444444444444459:12.116666666666667] [0.041200000000000001:0.45887445887445888] [0:0.29081632653061218] [0.38802083333333331:9] [0.67459016393442628:8.4000000000000004] [0:0.2666] [0:12.622222222222224] [0.7114035087719297:8.3699999999999992] [0.17636684303350969:8.2222222222222232] [0.47249999999999998:2.2736842105263162] [0.53333333333333388:11.866666666666664] [0.041200000000000001:0.48181818181818181] [0.3686067019400352:8.2222222222222232] [-0.060886696385174799:0.062286518779540799] [-0.63748670840257682:0.61745615943571597] [-0.1405162337848927:0.135060493602225] [0.27503511663083169:0.55510386907596909] [0.27803886956064372:0.56911634943443501] [0:1] [0:1] [0:93.900000000000006] [0:93.900000000000006] [0.066666666666666596:0.8666666666666667] [0.066666666666666596:0.80000000000000004] [32.271875000000009:73.437500000000014] [32.459793814432992:73.658088235294116] [-30.785679214402613:29.398139534883729] [0.90000000000000002:1.1699999999999999] [0.77000000000000002:1.2] [1:10]
tree_sizes=459 462 467 462 463 466 461 465 464 470 463 477 474 465 474 479 472 472 473 473 475 472 475 478 472 474 478 477 473 481 473 477 482 474 477 478 471 477 481 471 476 470 474 475 471 476 471 476 479 476 473 472 476 473 474 473 473 469 475 473 473 477 472 476 474 475 475 476 471 474 474 472 472 474 474 471 473 474 479 474 475 474 473 475 473 472 476 472 477 474 470 477 473 473 467 473 474 474 475 476 479 477 470 474 472 477 476 477 478 475 476 476 475 480 475 474 476 475 472 473 477 475 478 473 479 475 476 474 476 473 474 476 473 476 474 477 476 476 472 469 480 474 475 477 480 478 476 479 474 470 475 474 473 477 476 471 476 475 474 475 478 472 477 474 476 475 471 470 477 474 473 479 474 471 476 476 476 473 474 479 477 477 473 478 470 477 469 477 468 473 473 477 472 475 472 476 473 472 474 481 474 475 477 469 479 474 478 475 472 473 472 474 477 462 466 462 466 471 464 462 464 459 464 469 463 464 466 460 460 465 462 460 463 470 461 462 464 466 466 463 472 474 477 464 470 444 466 470 470 460 463 465 462 471 458 463 476 470 476 473 465 469 472 472 475 475 475 475 469 472 472 471 473 475 480 471 472 475 475 477 470 480 476 474 475 477 476 472 475 478 460 460 464 469 471 460 466 465 467 464 467 451 466 466 463 463 466 465 464 461 474 472 473 464 463 473 464 460 474 464 478 460 469 469 465 475 473 476 472 464 475 470 465 465 478 463 464 475 476 481 472 474 473 475 470 470 479 477 476 453 473 474 468 475 472 475 473 458 479 477 471 468 465 464 469 460 457 463 466 466 466 445 465 470 475 477 475 475 472 478 468 465 462 461 465 472 463 460 464 459 466 467 463 467 476 466 461 474 475 467 464 465 469 464 465 468 465 471 467 464 458 461 461 459 459 449 462 466 463 463 461 467 467 466 446 466 465 464 470 461 463 467 461 460 473 472 468 470 464 469 463 467 467 462 463 461 441 466 466 465 465 463 440 476 473 480 473 472 474 470 476 477 474 472 466 467 462 466 466 462 473 466 468 466 464 471 473 468 478 460 471 467 467 465 468 460 472 475 466 474 464 464 461 461 465 465 462 463 462 464

Tree=0
num_leaves=3
num_cat=0
split_feature=11 10
split_gain=130.94 72.0006
threshold=1477.4500000000003 1473.8500000000001
decision_type=2 2
left_child=-1 -2
right_child=1 -3
leaf_value=0.13285327759224178 0.090769338911190892 0.11349320957356483
leaf_weight=699.45207753777504 478.67739257216454 1277.8020141124725
leaf_count=2807 1921 5128
internal_value=0.114573 0.107288
internal_weight=2455.93 1756.48
internal_count=9856 7049
is_linear=0
shrinkage=1


Tree=1
num_leaves=3
num_cat=0
split_feature=11 10
split_gain=118.28 64.8825
threshold=1477.4500000000003 1473.8500000000001
decision_type=2 2
left_child=-1 -2
right_child=1 -3
leaf_value=0.01738745714293052 -0.022587879224095941 -0.0010259881009718724
leaf_weight=698.66262418031693 479.26214674115181 1277.8805668354034
leaf_count=2807 1921 5128
internal_value=0 -0.00691936
internal_weight=2455.81 1757.14
internal_count=9856 7049
is_linear=0
shrinkage=0.05


Tree=2
num_leaves=3
num_cat=0
split_feature=12 44
split_gain=109.904 38.8381
threshold=0.016997591131410156 -0.16528963525065157
decision_type=2 2
left_child=-1 -2
right_child=1 -3
leaf_value=-0.0096878601947649728 -0.00048154943892714198 0.018734848446014484
leaf_weight=1334.9740101397038 419.55376936495304 700.92387643456459
leaf_count=5355 1685 2816
internal_value=0 0.011541
internal_weight=2455.45 1120.48
internal_count=9856 4501
is_linear=0
shrinkage=0.05


Tree=3
num_leaves=3
num_cat=0
split_feature=11 10
split_gain=102.388 57.648
threshold=1477.4500000000003 1509.2500000000002
decision_type=2 2
left_child=-1 -2
right_child=1 -3
leaf_value=0.016197177225754946 -0.014220179846430855 0.0040812953671166934
leaf_weight=697.40029053390026 1009.7578253895044 748.02134561538696
leaf_count=2807 4047 3002
internal_value=0 -0.00643127
internal_weight=2455.18 1757.78
internal_count=9856 7049
is_linear=0
shrinkage=0.05


Tree=4
num_leaves=3
num_cat=0
split_feature=11 10
split_gain=92.5024 53.3585
threshold=1477.4500000000003 1473.8500000000001
decision_type=2 2
left_child=-1 -2
right_child=1 -3
leaf_value=0.015409559065767143 -0.020304042132038208 -0.0007618167442128951
leaf_weight=696.46896286308765 479.99617892503738 1278.1652079075575
leaf_count=2807 1921 5128
internal_value=0 -0.0061084
internal_weight=2454.63 1758.16
internal_count=9856 7049
is_linear=0
shrinkage=0.05


Tree=5
num_leaves=3
num_cat=0
split_feature=12 3
split_gain=88.3871 47.9082
threshold=-0.056534118752983899 -0.0038333333333332499
decision_type=2 2
left_child=-1 -2
right_child=1 -3
leaf_value=-0.01248110672743755 -0.004963003771547278 0.013523807991962192
leaf_weight=898.07726167142391 531.22664660215378 1024.5829595774412
leaf_count=3599 2135 4122
internal_value=0 0.0072092
internal_weight=2453.89 1555.81
internal_count=9856 6257
is_linear=0
shrinkage=0.05


Tree=6
num_leaves=3
num_cat=0
split_feature=12 1
split_gain=81.5831 34.534
threshold=0.018690795750534801 7.7500000000000018
decision_type=2 2
left_child=-1 -2
right_child=1 -3
leaf_value=-0.0082693154365368927 0.0060178775578230322 0.029460264443909617
leaf_weight=1345.6161377727985 918.76544062793255 188.99725751578808
leaf_count=5394 3700 762
internal_value=0 0.0100449
internal_weight=2453.38 1107.76
internal_count=9856 4462
is_linear=0
shrinkage=0.05


Tree=7
num_leaves=3
num_cat=0
split_feature=11 40
split_gain=76.9954 31.3783
threshold=1477.4500000000003 0.41428571428571431
decision_type=2 2
left_child=-1 -2
right_child=1 -3
leaf_value=0.014083954297871563 -0.021582644681017421 -0.0027759665275866544
leaf_weight=694.59219226241112 259.62629856169224 1498.5952569693327
leaf_count=2807 1039 6010
internal_value=0 -0.00556657
internal_weight=2452.81 1758.22
internal_count=9856 7049
is_linear=0
shrinkage=0.05


Tree=8
num_leaves=3
num_cat=0
split_feature=12 1
split_gain=70.8914 41.1754
threshold=0.11947058952949687 5.0499999999999998
decision_type=2 2
left_child=1 -1
right_child=-2 -3
leaf_value=-0.0085885733794947572 0.015365646278385284 0.0093746576229013553
leaf_weight=1472.0570400506258 573.89155574142933 406.07291015982628
leaf_count=5906 2318 1632
internal_value=0 -0.00469914
internal_weight=2452.02 1878.13
internal_count=9856 7538
is_linear=0
shrinkage=0.05


Tree=9
num_leaves=3
num_cat=0
split_feature=12 44
split_gain=67.5413 42.1947
threshold=-0.056534118752983899 1.0000000180025095e-35
decision_type=2 2
left_child=-1 -2
right_child=1 -3
leaf_value=-0.010900356865201865 -0.0033787581362050099 0.013312273864580424
leaf_weight=898.67319187521935 650.89688035845757 901.85388115048409
leaf_count=3599 2618 3639
internal_value=0 0.00631468
internal_weight=2451.42 1552.75
internal_count=9856 6257
is_linear=0
shrinkage=0.05


Tree=10
num_leaves=3
num_cat=0
split_feature=11 10
split_gain=63.8899 40.0482
threshold=1477.4500000000003 1509.2500000000002
decision_type=2 2
left_child=-1 -2
right_child=1 -3
leaf_value=0.012853940803074082 -0.011551156872867653 0.003702818707508976
leaf_weight=692.55412738025188 1010.7167234569788 747.39100581407547
leaf_count=2807 4047 3002
internal_value=0 -0.00506526
internal_weight=2450.66 1758.11
internal_count=9856 7049
is_linear=0
shrinkage=0.05


Tree=11
num_leaves=3
num_cat=0
split_feature=13 1
split_gain=59.7083 30.072
threshold=-0.0064521745659198498 -0.8999999999999998
decision_type=2 2
left_child=-1 -2
right_child=1 -3
leaf_value=-0.0079431036596373569 -0.0018717973494200976 0.013974745650714118
leaf_weight=1202.6649521440268 496.4386859536171 750.51026630401611
leaf_count=4824 1999 3033
internal_value=9.17832e-08 0.00766543
internal_weight=2449.61 1246.95
internal_count=9856 5032
is_linear=0
shrinkage=0.05


Tree=12
num_leaves=3
num_cat=0
split_feature=11 10
split_gain=55.6377 35.2391
threshold=1478.3500000000001 1473.8500000000001
decision_type=2 2
left_child=-1 -2
right_child=1 -3
leaf_value=0.011895635945291397 -0.01635505209440391 -0.00041777034655417466
leaf_weight=700.76752206683159 476.2754223793745 1271.9084865301847
leaf_count=2846 1906 5104
internal_value=1.31898e-07 -0.00476945
internal_weight=2448.95 1748.18
internal_count=9856 7010
is_linear=0
shrinkage=0.05


Tree=13
num_leaves=3
num_cat=0
split_feature=12 1
split_gain=51.7957 34.1877
threshold=0.11947058952949687 5.4000000000000021
decision_type=2 2
left_child=1 -1
right_child=-2 -3
leaf_value=-0.0073861048946854344 0.013177164499767975 0.0094609391559685938
leaf_weight=1501.4643515199423 570.83943259716034 375.48930008709431
leaf_count=6026 2318 1512
internal_value=0 -0.00400991
internal_weight=2447.79 1876.95
internal_count=9856 7538
is_linear=0
shrinkage=0.05


Tree=14
num_leaves=3
num_cat=0
split_feature=44 10
split_gain=54.8797 28.1685
threshold=-1.4138049882978192 1525.3500000000001
decision_type=2 2
left_child=-1 -2
right_child=1 -3
leaf_value=-0.008637873422622868 0.0013445844849613794 0.016290879564549769
leaf_weight=1048.9029936641455 918.20263493061066 479.88099958002567
leaf_count=4212 3701 1943
internal_value=4.04776e-07 0.00648633
internal_weight=2446.99 1398.08
internal_count=9856 5644
is_linear=0
shrinkage=0.05


Tree=15
num_leaves=3
num_cat=0
split_feature=13 3
split_gain=47.3795 31.76
threshold=-0.0064521745659198498 -0.0038333333333332499
decision_type=2 2
left_child=-1 -2
right_child=1 -3
leaf_value=-0.007071740072317716 -0.0042244971263022792 0.012597832657099284
leaf_weight=1202.4119238257408 425.47609587013721 818.47814054787159
leaf_count=4824 1716 3316
internal_value=7.29402e-07 0.00684122
internal_weight=2446.37 1243.95
internal_count=9856 5032
is_linear=0
shrinkage=0.05


Tree=16
num_leaves=3
num_cat=0
split_feature=44 11
split_gain=48.7068 26.9507
threshold=-1.4138049882978192 1477.4500000000003
decision_type=2 2
left_child=-1 -2
right_child=1 -3
leaf_value=-0.0081350460580683227 0.01552916748483372 0.00098731939340645581
leaf_weight=1048.9636966139078 491.52586896717548 905.11291600763798
leaf_count=4212 2008 3636
internal_value=6.689e-07 0.00611613
internal_weight=2445.6 1396.64
internal_count=9856 5644
is_linear=0
shrinkage=0.05


Tree=17
num_leaves=3
num_cat=0
split_feature=1 9
split_gain=45.4773 33.948
threshold=-0.80000000000000016 4.5000000000000009
decision_type=2 2
left_child=1 -1
right_child=-2 -3
leaf_value=-0.012553002641959164 0.0061574039076937185 0.0078621693271542642
leaf_weight=828.9537228345871 1346.9618865698576 268.76166655123234
leaf_count=3332 5443 1081
internal_value=1.0003e-06 -0.00754745
internal_weight=2444.68 1097.72
internal_count=9856 4413
is_linear=0
shrinkage=0.05


Tree=18
num_leaves=3
num_cat=0
split_feature=10 11
split_gain=44.3401 36.2786
threshold=1473.8500000000001 1502.6500000000003
decision_type=2 2
left_child=-1 -2
right_child=1 -3
leaf_value=-0.011141414830704128 0.01110759064869881 -0.0031143027883321038
leaf_weight=652.92815501987934 904.88052518665791 886.47046880424023
leaf_count=2624 3675 3557
internal_value=1.06877e-06 0.00406912
internal_weight=2444.28 1791.35
internal_count=9856 7232
is_linear=0
shrinkage=0.05


Tree=19
num_leaves=3
num_cat=0
split_feature=44 11
split_gain=41.7568 24.4435
threshold=-1.4138049882978192 1423.2500000000002
decision_type=2 2
left_child=-1 -2
right_child=1 -3
leaf_value=-0.0075300861378087341 0.029961638993264407 0.003859012801031634
leaf_weight=1048.8227494955063 95.484801739454269 1298.9590096622705
leaf_count=4212 393 5251
internal_value=8.77778e-07 0.00567017
internal_weight=2443.27 1394.44
internal_count=9856 5644
is_linear=0
shrinkage=0.05


Tree=20
num_leaves=3
num_cat=0
split_feature=10 16
split_gain=40.4533 29.6862
threshold=1509.2500000000002 0.2022382451871135
decision_type=2 2
left_child=1 -1
right_child=-2 -3
leaf_value=0.0010888792445519582 0.0072967854310754645 -0.013647344886422746
leaf_weight=744.05379894375801 1068.4952353686094 629.99202184379101
leaf_count=3001 4327 2528
internal_value=1.54903e-06 -0.00566897
internal_weight=2442.54 1374.05
internal_count=9856 5529
is_linear=0
shrinkage=0.05


Tree=21
num_leaves=3
num_cat=0
split_feature=10 11
split_gain=37.1545 31.4467
threshold=1473.8500000000001 1502.6500000000003
decision_type=2 2
left_child=-1 -2
right_child=1 -3
leaf_value=-0.010199527849262931 0.010293226621337534 -0.0029556734212827021
leaf_weight=652.6168550401926 902.7729075551033 886.34098996222019
leaf_count=2624 3675 3557
internal_value=1.41884e-06 0.00372884
internal_weight=2441.73 1789.11
internal_count=9856 7232
is_linear=0
shrinkage=0.05


Tree=22
num_leaves=3
num_cat=0
split_feature=1 12
split_gain=37.637 28.0565
threshold=-0.80000000000000016 -0.23114468965739141
decision_type=2 2
left_child=-1 -2
right_child=1 -3
leaf_value=-0.006866606661276667 -0.021144583305936278 0.0075571421244696015
leaf_weight=1096.7322025150061 90.309334278106689 1253.6172885894775
leaf_count=4413 362 5081
internal_value=1.19922e-06 0.00561043
internal_weight=2440.66 1343.93
internal_count=9856 5443
is_linear=0
shrinkage=0.05


Tree=23
num_leaves=3
num_cat=0
split_feature=44 31
split_gain=34.7521 22.3387
threshold=-1.4138049882978192 0.0091362183685567509
decision_type=2 2
left_child=1 -1
right_child=-2 -3
leaf_value=-0.011177638251413023 0.0051796595031333948 0.0054664219237592002
leaf_weight=777.25653195381165 1391.7579524368048 270.92871813476086
leaf_count=3122 5644 1090
internal_value=5.81369e-07 -0.0068697
internal_weight=2439.94 1048.19
internal_count=9856 4212
is_linear=0
shrinkage=0.05


Tree=24
num_leaves=3
num_cat=0
split_feature=1 9
split_gain=33.1633 30.505
threshold=-0.80000000000000016 4.5000000000000009
decision_type=2 2
left_child=1 -1
right_child=-2 -3
leaf_value=-0.011190929237918109 0.0052700909896846943 0.008172655295169591
leaf_weight=828.32355773448944 1342.5764461308718 268.38065759837627
leaf_count=3332 5443 1081
internal_value=5.83593e-07 -0.00644467
internal_weight=2439.28 1096.7
internal_count=9856 4413
is_linear=0
shrinkage=0.05


Tree=25
num_leaves=3
num_cat=0
split_feature=10 11
split_gain=34.0885 26.3719
threshold=1524.9500000000003 1439.6500000000003
decision_type=2 2
left_child=1 -1
right_child=-2 -3
leaf_value=0.015269353778199666 0.0091364735438299819 -0.0058259924314595759
leaf_weight=162.65622392296791 719.12888677418232 1556.9759729355574
leaf_count=668 2922 6266
internal_value=6.58702e-07 -0.00382001
internal_weight=2438.76 1719.63
internal_count=9856 6934
is_linear=0
shrinkage=0.05


Tree=26
num_leaves=3
num_cat=0
split_feature=32 1
split_gain=31.3102 28.0657
threshold=-0.19655199690850975 -0.10000000000000069
decision_type=2 2
left_child=-1 -2
right_child=1 -3
leaf_value=-0.015945200902687879 -0.0039680324297317222 0.0074242033943422436
leaf_weight=272.27608306705952 1027.9621825814247 1137.5994714349508
leaf_count=1094 4140 4622
internal_value=1.14674e-06 0.00201482
internal_weight=2437.84 2165.56
internal_count=9856 8762
is_linear=0
shrinkage=0.05


Tree=27
num_leaves=3
num_cat=0
split_feature=12 31
split_gain=30.6136 25.0008
threshold=0.21960576611387334 0.0091362183685567509
decision_type=2 2
left_child=1 -1
right_child=-2 -3
leaf_value=-0.0050631778189434377 0.017714265365357505 0.0067843087252313881
leaf_weight=1600.7552454769611 220.78866010904312 615.54389335215092
leaf_count=6452 912 2492
internal_value=6.87287e-07 -0.00176889
internal_weight=2437.09 2216.3
internal_count=9856 8944
is_linear=0
shrinkage=0.05


Tree=28
num_leaves=3
num_cat=0
split_feature=44 1
split_gain=29.8877 26.5418
threshold=7.6573051948052013 5.4000000000000021
decision_type=2 2
left_child=1 -1
right_child=-2 -3
leaf_value=-0.0050886786419565913 0.012836430287018833 0.0095467844769384358
leaf_weight=1675.9707237631083 381.5210046172142 378.84652060270309
leaf_count=6758 1558 1540
internal_value=1.21115e-06 -0.00238458
internal_weight=2436.34 2054.82
internal_count=9856 8298
is_linear=0
shrinkage=0.05


Tree=29
num_leaves=3
num_cat=0
split_feature=3 12
split_gain=29.8482 31.7537
threshold=-0.0038333333333332499 -0.077595300144060839
decision_type=2 2
left_child=-1 -2
right_child=1 -3
leaf_value=-0.0069352483717107331 -0.0073513705423840729 0.0089382899810353626
leaf_weight=946.43704497814178 413.01933635771275 1076.1968862861395
leaf_count=3816 1658 4382
internal_value=1.6323e-06 0.00441526
internal_weight=2435.65 1489.22
internal_count=9856 6040
is_linear=0
shrinkage=0.05


Tree=30
num_leaves=3
num_cat=0
split_feature=10 0
split_gain=27.5019 23.2677
threshold=1524.9500000000003 0.30140833333333333
decision_type=2 2
left_child=-1 -2
right_child=1 -3
leaf_value=-0.003429822399075794 0.020485184047272193 0.0015991298946025257
leaf_weight=1717.7344388514757 250.42769977450371 466.55366188287735
leaf_count=6934 1024 1898
internal_value=1.34165e-06 0.00822197
internal_weight=2434.72 716.981
internal_count=9856 2922
is_linear=0
shrinkage=0.05


Tree=31
num_leaves=3
num_cat=0
split_feature=11 39
split_gain=27.1676 21.2091
threshold=1478.3500000000001 32.417857142857152
decision_type=2 2
left_child=-1 -2
right_child=1 -3
leaf_value=0.0083817878648335658 -0.014015206701303498 -0.00047525093426221835
leaf_weight=691.55888119339943 365.42453065514565 1377.1394591778517
leaf_count=2846 1470 5540
internal_value=1.80854e-06 -0.00332393
internal_weight=2434.12 1742.56
internal_count=9856 7010
is_linear=0
shrinkage=0.05


Tree=32
num_leaves=3
num_cat=0
split_feature=3 12
split_gain=26.1263 27.1992
threshold=-0.0038333333333332499 -0.077595300144060839
decision_type=2 2
left_child=-1 -2
right_child=1 -3
leaf_value=-0.0064874439743218331 -0.0067543823996611078 0.0083278230413044788
leaf_weight=946.24431306123734 412.83564494550228 1074.1890456676483
leaf_count=3816 1658 4382
internal_value=1.47293e-06 0.00413554
internal_weight=2433.27 1487.02
internal_count=9856 6040
is_linear=0
shrinkage=0.05


Tree=33
num_leaves=3
num_cat=0
split_feature=31 13
split_gain=25.3099 25.5
threshold=0.0047524376932301009 -0.040738084671209693
decision_type=2 2
left_child=1 -1
right_child=-2 -3
leaf_value=-0.010863497292851599 0.0063761778729184877 0.002244928006631806
leaf_weight=715.23739977180958 948.96673986315727 768.09972460567951
leaf_count=2876 3863 3117
internal_value=1.1866e-06 -0.0040754
internal_weight=2432.3 1483.34
internal_count=9856 5993
is_linear=0
shrinkage=0.05


Tree=34
num_leaves=3
num_cat=0
split_feature=32 1
split_gain=23.8721 22.3786
threshold=-0.19655199690850975 -0.10000000000000069
decision_type=2 2
left_child=-1 -2
right_child=1 -3
leaf_value=-0.013935349964139041 -0.0035806960863695777 0.0066051259834936068
leaf_weight=271.7522746771574 1026.3727984130383 1133.3149485290051
leaf_count=1094 4140 4622
internal_value=1.10382e-06 0.00176267
internal_weight=2431.44 2159.69
internal_count=9856 8762
is_linear=0
shrinkage=0.05


Tree=35
num_leaves=3
num_cat=0
split_feature=3 13
split_gain=23.0559 23.1467
threshold=-0.0038333333333332499 0.030989066800519053
decision_type=2 2
left_child=-1 -2
right_child=1 -3
leaf_value=-0.0060950038258163787 -0.0019988487736764949 0.010496519086288812
leaf_weight=945.82925613224506 785.1892923116684 699.61343112587929
leaf_count=3816 3167 2873
internal_value=6.58328e-07 0.00388849
internal_weight=2430.63 1484.8
internal_count=9856 6040
is_linear=0
shrinkage=0.05


Tree=36
num_leaves=3
num_cat=0
split_feature=44 1
split_gain=24.4143 22.9543
threshold=7.6573051948052013 8.3500000000000032
decision_type=2 2
left_child=1 -1
right_child=-2 -3
leaf_value=-0.0039170730611827664 0.011634599072723555 0.013721993186348591
leaf_weight=1846.395589992404 379.51746769249439 203.82790583372116
leaf_count=7465 1558 833
internal_value=5.89041e-07 -0.00215517
internal_weight=2429.74 2050.22
internal_count=9856 8298
is_linear=0
shrinkage=0.05


Tree=37
num_leaves=3
num_cat=0
split_feature=44 39
split_gain=22.5076 18.5044
threshold=-1.4138049882978192 32.417857142857152
decision_type=2 2
left_child=-1 -2
right_child=1 -3
leaf_value=-0.0055318413156182295 -0.0070253658411368568 0.0071614656167730889
leaf_weight=1045.2384027391672 289.71303901076317 1094.1283450722694
leaf_count=4212 1181 4463
internal_value=1.12495e-06 0.00418485
internal_weight=2429.08 1383.84
internal_count=9856 5644
is_linear=0
shrinkage=0.05


Tree=38
num_leaves=3
num_cat=0
split_feature=31 44
split_gain=21.9472 25.2636
threshold=0.0091362183685567509 -7.3187209595959564
decision_type=2 2
left_child=1 -1
right_child=-2 -3
leaf_value=-0.015976215911247451 0.0072731107533918898 -0.00021776663367982919
leaf_weight=310.40761253237724 726.39038068056107 1391.6650704145432
leaf_count=1250 2966 5640
internal_value=8.23047e-07 -0.00310227
internal_weight=2428.46 1702.07
internal_count=9856 6890
is_linear=0
shrinkage=0.05


Tree=39
num_leaves=3
num_cat=0
split_feature=11 39
split_gain=21.0133 21.0187
threshold=1423.2500000000002 32.417857142857152
decision_type=2 2
left_child=-1 -2
right_child=1 -3
leaf_value=0.020151209133667712 -0.010300489037979303 0.0013945110474908834
leaf_weight=121.85796247422695 485.79950994253159 1820.0806778967381
leaf_count=512 1967 7377
internal_value=4.0375e-07 -0.0010706
internal_weight=2427.74 2305.88
internal_count=9856 9344
is_linear=0
shrinkage=0.05


Tree=40
num_leaves=3
num_cat=0
split_feature=36 3
split_gain=20.832 25.9881
threshold=0.77350427350427364 -0.0038333333333332499
decision_type=2 2
left_child=1 -1
right_child=-2 -3
leaf_value=-0.0083692140624638325 0.014315077446075254 0.0027993868791172057
leaf_weight=845.28420057892799 229.15759661793709 1352.8024150133133
leaf_count=3413 931 5512
internal_value=7.4412e-07 -0.00149513
internal_weight=2427.24 2198.09
internal_count=9856 8925
is_linear=0
shrinkage=0.05


Tree=41
num_leaves=3
num_cat=0
split_feature=44 1
split_gain=20.5122 20.1339
threshold=7.6573051948052013 8.3500000000000032
decision_type=2 2
left_child=1 -1
right_child=-2 -3
leaf_value=-0.0036229299773420259 0.010683761413276623 0.012917805441648054
leaf_weight=1845.2670960277319 378.3160592764616 203.2642460167408
leaf_count=7465 1558 833
internal_value=9.35667e-07 -0.00197374
internal_weight=2426.85 2048.53
internal_count=9856 8298
is_linear=0
shrinkage=0.05


Tree=42
num_leaves=3
num_cat=0
split_feature=10 0
split_gain=20.1663 19.8454
threshold=1524.9500000000003 0.30140833333333333
decision_type=2 2
left_child=-1 -2
right_child=1 -3
leaf_value=-0.0029379801687094932 0.01844269206356754 0.00094423637101949853
leaf_weight=1712.9424406439066 248.37196831405163 464.84612727165222
leaf_count=6934 1024 1898
internal_value=1.41333e-06 0.00706221
internal_weight=2426.16 713.218
internal_count=9856 2922
is_linear=0
shrinkage=0.05


Tree=43
num_leaves=3
num_cat=0
split_feature=11 36
split_gain=19.7939 18.798
threshold=1530.4500000000003 0.55050505050505061
decision_type=2 2
left_child=1 -1
right_child=-2 -3
leaf_value=-0.0012290154087937271 -0.0076982223307809974 0.0093478780995881264
leaf_weight=1143.4199921041727 619.83216886222363 662.27657666802406
leaf_count=4658 2496 2702
internal_value=1.81935e-06 0.00265054
internal_weight=2425.53 1805.7
internal_count=9856 7360
is_linear=0
shrinkage=0.05


Tree=44
num_leaves=3
num_cat=0
split_feature=16 44
split_gain=18.8757 18.2825
threshold=0.2022382451871135 9.3246880821294003
decision_type=2 2
left_child=1 -1
right_child=-2 -3
leaf_value=0.0017786772871492846 -0.004861075406468315 0.019488322710247762
leaf_weight=1165.6050290316343 1093.6592973023653 165.7685119509697
leaf_count=4746 4420 690
internal_value=1.57915e-06 0.00400042
internal_weight=2425.03 1331.37
internal_count=9856 5436
is_linear=0
shrinkage=0.05


Tree=45
num_leaves=3
num_cat=0
split_feature=32 36
split_gain=18.6325 18.0357
threshold=-0.19655199690850975 0.77350427350427364
decision_type=2 2
left_child=-1 -2
right_child=1 -3
leaf_value=-0.012325707315450523 7.2584249952868538e-05 0.015647067984995607
leaf_weight=271.05462318658829 1948.7690620869398 204.56560942530632
leaf_count=1094 7928 834
internal_value=1.96089e-06 0.00156105
internal_weight=2424.39 2153.33
internal_count=9856 8762
is_linear=0
shrinkage=0.05


Tree=46
num_leaves=3
num_cat=0
split_feature=12 6
split_gain=18.108 19.3595
threshold=0.21960576611387334 5.5500000000000007
decision_type=2 2
left_child=1 -1
right_child=-2 -3
leaf_value=0.021117013697091951 0.013759753945189163 -0.0023289118410976042
leaf_weight=90.840597867965698 216.76850289106369 2116.3393189907074
leaf_count=372 912 8572
internal_value=1.95615e-06 -0.00135256
internal_weight=2423.95 2207.18
internal_count=9856 8944
is_linear=0
shrinkage=0.05


Tree=47
num_leaves=3
num_cat=0
split_feature=10 0
split_gain=17.8009 22.3862
threshold=1473.8500000000001 0.30713392857142857
decision_type=2 2
left_child=-1 -2
right_child=1 -3
leaf_value=-0.0070782328343878655 0.0077536416166024318 -0.0035091454799549616
leaf_weight=648.49867549538612 962.23923775553703 812.54156658053398
leaf_count=2624 3940 3292
internal_value=2.67019e-06 0.00259535
internal_weight=2423.28 1774.78
internal_count=9856 7232
is_linear=0
shrinkage=0.05


Tree=48
num_leaves=3
num_cat=0
split_feature=31 22
split_gain=17.4271 24.4644
threshold=0.0091362183685567509 3.6064039179254412
decision_type=2 2
left_child=1 -1
right_child=-2 -3
leaf_value=0.0060453001065073004 0.0064969686358958461 -0.0068451069414246224
leaf_weight=537.37899073958397 723.63431645929813 1161.4267690181732
leaf_count=2187 2966 4703
internal_value=2.33282e-06 -0.00276342
internal_weight=2422.44 1698.81
internal_count=9856 6890
is_linear=0
shrinkage=0.05


Tree=49
num_leaves=3
num_cat=0
split_feature=37 37
split_gain=16.9835 22.0708
threshold=0.63961038961038974 0.2264957264957265
decision_type=2 2
left_child=1 -1
right_child=-2 -3
leaf_value=-0.0089829622074820148 -0.008087593520321441 0.0047555954353565794
leaf_weight=358.96815571188927 510.55901123583317 1552.2556369006634
leaf_count=1458 2076 6322
internal_value=2.39135e-06 0.00216924
internal_weight=2421.78 1911.22
internal_count=9856 7780
is_linear=0
shrinkage=0.05


Tree=50
num_leaves=3
num_cat=0
split_feature=36 36
split_gain=16.6667 25.0126
threshold=0.77350427350427364 0.78888888888888908
decision_type=2 2
left_child=-1 -2
right_child=1 -3
leaf_value=-0.0013358808075000146 0.034597208987854774 0.00025797630227630949
leaf_weight=2193.4550334215164 82.772057667374611 145.35577067732811
leaf_count=8925 338 593
internal_value=1.85973e-06 0.0128358
internal_weight=2421.58 228.128
internal_count=9856 931
is_linear=0
shrinkage=0.05


Tree=51
num_leaves=3
num_cat=0
split_feature=1 9
split_gain=16.6094 26.7997
threshold=-0.80000000000000016 6.5000000000000009
decision_type=2 2
left_child=1 -1
right_child=-2 -3
leaf_value=-0.0083791081219287116 0.0037547710219720588 0.011491694208134897
leaf_weight=882.59244322776794 1329.990250363946 208.91777262091637
leaf_count=3567 5443 846
internal_value=2.54194e-06 -0.00456417
internal_weight=2421.5 1091.51
internal_count=9856 4413
is_linear=0
shrinkage=0.05


Tree=52
num_leaves=3
num_cat=0
split_feature=3 36
split_gain=16.418 17.5154
threshold=-0.0038333333333332499 0.77350427350427364
decision_type=2 2
left_child=1 -1
right_child=-2 -3
leaf_value=-0.0074919178051733445 0.0032939596056050604 0.014581842907565297
leaf_weight=843.86065416038036 1477.5795926451683 99.501669749617577
leaf_count=3413 6040 403
internal_value=2.5824e-06 -0.00514541
internal_weight=2420.94 943.362
internal_count=9856 3816
is_linear=0
shrinkage=0.05


Tree=53
num_leaves=3
num_cat=0
split_feature=11 30
split_gain=16.2348 17.0681
threshold=1423.2500000000002 5.4593253968253981
decision_type=2 2
left_child=-1 -2
right_child=1 -3
leaf_value=0.017834068202893082 3.780221997509159e-05 -0.019952206777881308
leaf_weight=120.28608976304531 2189.0045466125011 111.23263747990131
leaf_count=512 8893 451
internal_value=2.69361e-06 -0.000934933
internal_weight=2420.52 2300.24
internal_count=9856 9344
is_linear=0
shrinkage=0.05


Tree=54
num_leaves=3
num_cat=0
split_feature=11 36
split_gain=15.9353 20.711
threshold=1537.1500000000003 0.55050505050505061
decision_type=2 2
left_child=1 -1
right_child=-2 -3
leaf_value=-0.001841124790663555 -0.007753855719409869 0.0089810877525616541
leaf_weight=1204.5560086816549 518.78936089575291 696.72191874682903
leaf_count=4913 2092 2851
internal_value=2.62323e-06 0.00212468
internal_weight=2420.07 1901.28
internal_count=9856 7764
is_linear=0
shrinkage=0.05


Tree=55
num_leaves=3
num_cat=0
split_feature=10 3
split_gain=15.5847 17.1629
threshold=1524.9500000000003 0.026236111111111005
decision_type=2 2
left_child=-1 -2
right_child=1 -3
leaf_value=-0.0025820070457650817 0.0046565079051539126 0.045099088421070584
leaf_weight=1709.4306656122208 683.79046379029751 26.344910144805908
leaf_count=6934 2812 110
internal_value=2.32123e-06 0.0062252
internal_weight=2419.57 710.135
internal_count=9856 2922
is_linear=0
shrinkage=0.05


Tree=56
num_leaves=3
num_cat=0
split_feature=39 39
split_gain=15.9467 19.2923
threshold=32.417857142857152 72.632051282051307
decision_type=2 2
left_child=-1 -2
right_child=1 -3
leaf_value=-0.0078437061806531667 0.0045233392005573662 -0.0083250781518146959
leaf_weight=509.61966493725777 1550.5974308401346 358.78573116660118
leaf_count=2074 6324 1458
internal_value=3.30848e-06 0.00210333
internal_weight=2419 1909.38
internal_count=9856 7782
is_linear=0
shrinkage=0.05


Tree=57
num_leaves=3
num_cat=0
split_feature=16 44
split_gain=15.1417 15.1337
threshold=0.2022382451871135 9.3246880821294003
decision_type=2 2
left_child=1 -1
right_child=-2 -3
leaf_value=0.0015730353265316793 -0.0043545102848533196 0.017750019933966969
leaf_weight=1162.6783858090639 1091.7588533014059 164.32642976939678
leaf_count=4746 4420 690
internal_value=2.73786e-06 0.0035919
internal_weight=2418.76 1327
internal_count=9856 5436
is_linear=0
shrinkage=0.05


Tree=58
num_leaves=3
num_cat=0
split_feature=32 6
split_gain=14.7996 15.5852
threshold=-0.19655199690850975 11.950000000000001
decision_type=2 2
left_child=-1 -2
right_child=1 -3
leaf_value=-0.010998217191732114 0.0062541636706134529 -0.0023334781008311225
leaf_weight=270.33181938529015 932.65902070701122 1215.1182648539543
leaf_count=1094 3836 4926
internal_value=3.01959e-06 0.0013945
internal_weight=2418.11 2147.78
internal_count=9856 8762
is_linear=0
shrinkage=0.05


Tree=59
num_leaves=3
num_cat=0
split_feature=3 6
split_gain=14.6373 19.1456
threshold=0.011888888888888852 3.9500000000000006
decision_type=2 2
left_child=1 -1
right_child=-2 -3
leaf_value=0.023733417592091764 0.0082739866837428198 -0.002770496572996879
leaf_weight=69.633605927228928 437.20227098464966 1910.5388619303703
leaf_count=287 1797 7772
internal_value=2.54086e-06 -0.00182444
internal_weight=2417.37 1980.17
internal_count=9856 8059
is_linear=0
shrinkage=0.05


Tree=60
num_leaves=3
num_cat=0
split_feature=39 37
split_gain=14.3297 17.4208
threshold=32.417857142857152 0.2264957264957265
decision_type=2 2
left_child=-1 -2
right_child=1 -3
leaf_value=-0.0074369521559243925 -0.0079156886872555118 0.0042966371688462233
leaf_weight=509.35320180654526 358.64258918166161 1549.0044175833464
leaf_count=2074 1458 6324
internal_value=3.10814e-06 0.00199512
internal_weight=2417 1907.65
internal_count=9856 7782
is_linear=0
shrinkage=0.05


Tree=61
num_leaves=3
num_cat=0
split_feature=31 7
split_gain=14.1755 22.3855
threshold=0.0030265054873495506 4.5050000000000008
decision_type=2 2
left_child=1 -1
right_child=-2 -3
leaf_value=-0.0069792091314766717 0.0044578534225890891 0.0075969049503346285
leaf_weight=1038.389812618494 1026.7146002799273 351.62937639653683
leaf_count=4216 4214 1426
internal_value=2.55364e-06 -0.00328552
internal_weight=2416.73 1390.02
internal_count=9856 5642
is_linear=0
shrinkage=0.05


Tree=62
num_leaves=3
num_cat=0
split_feature=1 34
split_gain=14.1052 14.3704
threshold=17.250000000000004 0.42360411738324882
decision_type=2 2
left_child=1 -1
right_child=-2 -3
leaf_value=-0.0027125387052570316 0.037733927275632843 0.0060572218136843679
leaf_weight=1757.9275898784399 23.52084955573082 634.95118181407452
leaf_count=7154 98 2604
internal_value=2.56729e-06 -0.000381833
internal_weight=2416.4 2392.88
internal_count=9856 9758
is_linear=0
shrinkage=0.05


Tree=63
num_leaves=3
num_cat=0
split_feature=30 44
split_gain=13.9257 14.1368
threshold=5.4593253968253981 -1.4138049882978192
decision_type=2 2
left_child=1 -1
right_child=-2 -3
leaf_value=-0.0036063847831536004 -0.016698051529743553 0.0043011964972074074
leaf_weight=997.38760663568974 117.65565113723278 1300.9759997278452
leaf_count=4034 479 5343
internal_value=3.37877e-06 0.000867407
internal_weight=2416.02 2298.36
internal_count=9856 9377
is_linear=0
shrinkage=0.05


Tree=64
num_leaves=3
num_cat=0
split_feature=36 36
split_gain=13.5565 22.7003
threshold=0.77350427350427364 0.78888888888888908
decision_type=2 2
left_child=-1 -2
right_child=1 -3
leaf_value=-0.0012039587316980621 0.032412763141049537 -0.00031385522143530421
leaf_weight=2188.2772735655308 82.243090391159058 144.91234378516674
leaf_count=8925 338 593
internal_value=2.70801e-06 0.0116032
internal_weight=2415.43 227.155
internal_count=9856 931
is_linear=0
shrinkage=0.05


Tree=65
num_leaves=3
num_cat=0
split_feature=15 19
split_gain=13.3389 15.1888
threshold=0.89798322687970955 0.20811518324607328
decision_type=2 2
left_child=-1 -2
right_child=1 -3
leaf_value=0.020537294896247879 0.0030715640961283658 -0.0050034232124749741
leaf_weight=75.596453994512558 1256.0805759131908 1083.6180395931005
leaf_count=312 5150 4394
internal_value=3.09749e-06 -0.000666724
internal_weight=2415.3 2339.7
internal_count=9856 9544
is_linear=0
shrinkage=0.05


Tree=66
num_leaves=3
num_cat=0
split_feature=3 15
split_gain=13.159 14.8206
threshold=-0.0038333333333332499 0.89798322687970955
decision_type=2 2
left_child=-1 -2
right_child=1 -3
leaf_value=-0.0046086581042219538 0.028203418783830293 0.0019545531567100602
leaf_weight=941.56533980369568 54.95309542119503 1418.2955093085766
leaf_count=3816 229 5811
internal_value=3.39252e-06 0.00295551
internal_weight=2414.81 1473.25
internal_count=9856 6040
is_linear=0
shrinkage=0.05


Tree=67
num_leaves=3
num_cat=0
split_feature=9 1
split_gain=13.2746 22.6587
threshold=6.5000000000000009 -0.10000000000000069
decision_type=2 2
left_child=1 -1
right_child=-2 -3
leaf_value=-0.0073056686126148187 0.0080724155598897677 0.0033611863035481644
leaf_weight=945.84276840090752 420.13340891897678 1048.3418189436197
leaf_count=3832 1714 4310
internal_value=3.84121e-06 -0.00169673
internal_weight=2414.32 1994.18
internal_count=9856 8142
is_linear=0
shrinkage=0.05


Tree=68
num_leaves=3
num_cat=0
split_feature=39 37
split_gain=12.985 15.2681
threshold=32.417857142857152 0.2264957264957265
decision_type=2 2
left_child=-1 -2
right_child=1 -3
leaf_value=-0.00708175948514469 -0.0073805161261208804 0.0040587052575003727
leaf_weight=508.83706083893776 358.26947888731956 1546.593319684267
leaf_count=2074 1458 6324
internal_value=3.76342e-06 0.00190183
internal_weight=2413.7 1904.86
internal_count=9856 7782
is_linear=0
shrinkage=0.05


Tree=69
num_leaves=3
num_cat=0
split_feature=11 19
split_gain=12.8838 13.503
threshold=1537.1500000000003 0.30599737382964148
decision_type=2 2
left_child=1 -1
right_child=-2 -3
leaf_value=0.0027364093993101795 -0.0069786248011824703 -0.019762240705124209
leaf_weight=1827.6379342377186 517.59060208499432 68.180691108107567
leaf_count=7487 2092 277
internal_value=3.18394e-06 0.00191465
internal_weight=2413.41 1895.82
internal_count=9856 7764
is_linear=0
shrinkage=0.05


Tree=70
num_leaves=3
num_cat=0
split_feature=36 36
split_gain=12.7958 29.8616
threshold=0.55050505050505061 0.5634920634920636
decision_type=2 2
left_child=-1 -2
right_child=1 -3
leaf_value=-0.0027860147318893645 0.024068440673483876 0.0004209784141560697
leaf_weight=1519.9192089885473 162.49109438061714 730.51118569076061
leaf_count=6201 664 2991
internal_value=2.32932e-06 0.00475158
internal_weight=2412.92 893.002
internal_count=9856 3655
is_linear=0
shrinkage=0.05


Tree=71
num_leaves=3
num_cat=0
split_feature=1 12
split_gain=12.5169 12.7334
threshold=17.250000000000004 0.21960576611387334
decision_type=2 2
left_child=1 -1
right_child=-2 -3
leaf_value=-0.0014962675049485889 0.035707305211506495 0.011354085299256696
leaf_weight=2179.1028448045254 23.302159279584885 210.45096726715565
leaf_count=8860 98 898
internal_value=2.72588e-06 -0.000358153
internal_weight=2412.86 2389.55
internal_count=9856 9758
is_linear=0
shrinkage=0.05


Tree=72
num_leaves=3
num_cat=0
split_feature=30 11
split_gain=12.3395 12.9282
threshold=5.4593253968253981 1530.4500000000003
decision_type=2 2
left_child=1 -1
right_child=-2 -3
leaf_value=0.003036546473809605 -0.015722539955351656 -0.0055274345485770704
leaf_weight=1701.2256193757057 117.57763738930225 593.43595872819424
leaf_count=6978 479 2399
internal_value=3.663e-06 0.000818144
internal_weight=2412.24 2294.66
internal_count=9856 9377
is_linear=0
shrinkage=0.05


Tree=73
num_leaves=3
num_cat=0
split_feature=36 36
split_gain=12.3543 20.6276
threshold=0.77350427350427364 0.78888888888888908
decision_type=2 2
left_child=-1 -2
right_child=1 -3
leaf_value=-0.0011491921043347386 0.030986562636971322 -0.00026193010212871906
leaf_weight=2185.1397252231836 81.858112946152687 144.73073278367519
leaf_count=8925 338 593
internal_value=2.91053e-06 0.0110916
internal_weight=2411.73 226.589
internal_count=9856 931
is_linear=0
shrinkage=0.05


Tree=74
num_leaves=3
num_cat=0
split_feature=3 2
split_gain=12.1966 13.1857
threshold=0.011888888888888852 0.86000000000000021
decision_type=2 2
left_child=1 -1
right_child=-2 -3
leaf_value=-0.0028230158397729234 0.0075697296806683237 0.012736668321289089
leaf_weight=1830.0244371443987 435.5065760165453 146.02865196764469
leaf_count=7457 1797 602
internal_value=3.26664e-06 -0.00166478
internal_weight=2411.56 1976.05
internal_count=9856 8059
is_linear=0
shrinkage=0.05


Tree=75
num_leaves=3
num_cat=0
split_feature=9 32
split_gain=12.0714 16.7559
threshold=6.5000000000000009 0.25154747553979501
decision_type=2 2
left_child=-1 -2
right_child=1 -3
leaf_value=-0.0016189794780181025 0.0050344031251212135 0.0454529765502866
leaf_weight=1991.6360727399588 393.00944010913372 26.521747216582298
leaf_count=8142 1603 111
internal_value=3.52827e-06 0.00770347
internal_weight=2411.17 419.531
internal_count=9856 1714
is_linear=0
shrinkage=0.05


Tree=76
num_leaves=3
num_cat=0
split_feature=39 34
split_gain=11.8361 14.4179
threshold=32.417857142857152 0.44242406969286369
decision_type=2 2
left_child=-1 -2
right_child=1 -3
leaf_value=-0.0067628299507909622 6.823677607652153e-05 0.0126586136307356
leaf_weight=508.40783353149891 1639.4238292574883 263.16094605624676
leaf_count=2074 6695 1087
internal_value=4.48178e-06 0.00181807
internal_weight=2410.99 1902.58
internal_count=9856 7782
is_linear=0
shrinkage=0.05


Tree=77
num_leaves=3
num_cat=0
split_feature=11 30
split_gain=11.7285 12.2031
threshold=1423.2500000000002 5.4593253968253981
decision_type=2 2
left_child=-1 -2
right_child=1 -3
leaf_value=0.015285697077698624 3.5403000055808046e-05 -0.016882891336884875
leaf_weight=118.38286447525024 2181.2200542539358 111.02991911768913
leaf_count=512 8893 451
internal_value=4.44449e-06 -0.000788894
internal_weight=2410.63 2292.25
internal_count=9856 9344
is_linear=0
shrinkage=0.05


Tree=78
num_leaves=3
num_cat=0
split_feature=31 18
split_gain=11.4604 16.2819
threshold=0.0091362183685567509 4.652338318938277
decision_type=2 2
left_child=1 -1
right_child=-2 -3
leaf_value=0.00098123275067853242 0.0052936163860951889 -0.0096945335104871369
leaf_weight=1181.4940710961819 718.27500414848328 510.37921489775181
leaf_count=4819 2966 2071
internal_value=4.26557e-06 -0.00224014
internal_weight=2410.15 1691.87
internal_count=9856 6890
is_linear=0
shrinkage=0.05


Tree=79
num_leaves=3
num_cat=0
split_feature=16 7
split_gain=11.2119 12.8373
threshold=0.2022382451871135 4.5050000000000008
decision_type=2 2
left_child=1 -1
right_child=-2 -3
leaf_value=0.00027026737286414812 -0.0037487530866825549 0.011693897652343598
leaf_weight=994.64512740075588 1088.7142291367054 326.14602306485176
leaf_count=4099 4420 1337
internal_value=3.99623e-06 0.00310163
internal_weight=2409.51 1320.79
internal_count=9856 5436
is_linear=0
shrinkage=0.05


Tree=80
num_leaves=3
num_cat=0
split_feature=1 13
split_gain=11.323 13.3578
threshold=14.550000000000002 -0.43713714286536559
decision_type=2 2
left_child=1 -1
right_child=-2 -3
leaf_value=-0.029891794259850335 0.022522975849200343 -3.0761289792377966e-05
leaf_weight=37.071984022855759 53.568717211484909 2318.5367006212473
leaf_count=151 225 9480
internal_value=4.00719e-06 -0.000515313
internal_weight=2409.18 2355.61
internal_count=9856 9631
is_linear=0
shrinkage=0.05


Tree=81
num_leaves=3
num_cat=0
split_feature=36 36
split_gain=11.2058 18.6595
threshold=0.77350427350427364 0.78888888888888908
decision_type=2 2
left_child=-1 -2
right_child=1 -3
leaf_value=-0.0010936451532900903 0.029557932627948452 -0.00021159188118135072
leaf_weight=2182.7724088430405 81.462118059396744 144.58962672948837
leaf_count=8925 338 593
internal_value=3.45753e-06 0.0105773
internal_weight=2408.82 226.052
internal_count=9856 931
is_linear=0
shrinkage=0.05


Tree=82
num_leaves=3
num_cat=0
split_feature=38 25
split_gain=11.0465 12.7076
threshold=11.923809523809533 5.8582477037285585
decision_type=2 2
left_child=-1 -2
right_child=1 -3
leaf_value=0.019490134561461227 -0.0012369579843862816 0.020196196820242009
leaf_weight=69.612798497080803 2268.6981761157513 70.316943675279617
leaf_count=286 9276 294
internal_value=3.76103e-06 -0.000582129
internal_weight=2408.63 2339.02
internal_count=9856 9570
is_linear=0
shrinkage=0.05


Tree=83
num_leaves=3
num_cat=0
split_feature=23 6
split_gain=10.825 13.1361
threshold=0.084686406557062707 11.950000000000001
decision_type=2 2
left_child=-1 -2
right_child=1 -3
leaf_value=0.0022208775085226506 0.0022859285719041464 -0.011148901884375281
leaf_weight=1676.7030250877142 331.34184734523296 400.38285657763481
leaf_count=6868 1361 1627
internal_value=4.44278e-06 -0.00506366
internal_weight=2408.43 731.725
internal_count=9856 2988
is_linear=0
shrinkage=0.05


Tree=84
num_leaves=3
num_cat=0
split_feature=32 14
split_gain=10.9667 12.0786
threshold=-0.19655199690850975 1.044068195058421
decision_type=2 2
left_child=1 -1
right_child=-2 -3
leaf_value=-0.016867361013295067 0.0012045265994001886 0.005582547205506729
leaf_weight=180.80228443443775 2138.9329821169376 88.342855334281921
leaf_count=735 8762 359
internal_value=4.08544e-06 -0.00948662
internal_weight=2408.08 269.145
internal_count=9856 1094
is_linear=0
shrinkage=0.05


Tree=85
num_leaves=3
num_cat=0
split_feature=3 6
split_gain=10.7342 14.9256
threshold=0.012337121212121202 3.9500000000000006
decision_type=2 2
left_child=1 -1
right_child=-2 -3
leaf_value=0.020978176331705609 0.007307146515195713 -0.0023526210012811202
leaf_weight=70.059179678559303 415.3894339799881 1922.2054911702871
leaf_count=292 1718 7846
internal_value=3.62733e-06 -0.00151956
internal_weight=2407.65 1992.26
internal_count=9856 8138
is_linear=0
shrinkage=0.05


Tree=86
num_leaves=3
num_cat=0
split_feature=39 37
split_gain=10.6158 13.2529
threshold=32.417857142857152 0.2264957264957265
decision_type=2 2
left_child=-1 -2
right_child=1 -3
leaf_value=-0.0064083249536627945 -0.0069335584447276239 0.0037366867110848532
leaf_weight=507.79934775829315 357.45518679916859 1541.9998730272055
leaf_count=2074 1458 6324
internal_value=4.06335e-06 0.00172345
internal_weight=2407.25 1899.46
internal_count=9856 7782
is_linear=0
shrinkage=0.05


Tree=87
num_leaves=3
num_cat=0
split_feature=9 32
split_gain=10.6611 15.0904
threshold=6.5000000000000009 0.25154747553979501
decision_type=2 2
left_child=-1 -2
right_child=1 -3
leaf_value=-0.0015217799107918651 0.0047243527303244756 0.043285135821339735
leaf_weight=1988.4789591878653 392.24320448935032 26.217293798923492
leaf_count=8142 1603 111
internal_value=3.47797e-06 0.00724961
internal_weight=2406.94 418.46
internal_count=9856 1714
is_linear=0
shrinkage=0.05


Tree=88
num_leaves=3
num_cat=0
split_feature=33 37
split_gain=10.513 12.8055
threshold=0.030044976223250652 0.55050505050505061
decision_type=2 2
left_child=1 -1
right_child=-2 -3
leaf_value=0.0047723279878951093 -0.0065811434504643154 -0.0036821993545397124
leaf_weight=1216.8859156519175 482.9516889154911 706.90088820457458
leaf_count=4998 1963 2895
internal_value=4.38725e-06 0.00166279
internal_weight=2406.74 1923.79
internal_count=9856 7893
is_linear=0
shrinkage=0.05


Tree=89
num_leaves=3
num_cat=0
split_feature=36 36
split_gain=10.5118 28.0483
threshold=0.55050505050505061 0.5634920634920636
decision_type=2 2
left_child=-1 -2
right_child=1 -3
leaf_value=-0.0025252475459153967 0.023075919372650529 0.00011427399883758314
leaf_weight=1516.390864238143 161.84470450878143 728.09961901605129
leaf_count=6201 664 2991
internal_value=3.87185e-06 0.00431689
internal_weight=2406.34 889.944
internal_count=9856 3655
is_linear=0
shrinkage=0.05


Tree=90
num_leaves=3
num_cat=0
split_feature=27 42
split_gain=10.3896 11.7887
threshold=1.4278428955907139 55.006944444444457
decision_type=2 2
left_child=-1 -2
right_child=1 -3
leaf_value=-0.0014086783117126639 0.0008512101973452657 0.019207585942684541
leaf_weight=2030.1977912932634 238.14079049229622 137.8926255106926
leaf_count=8295 981 580
internal_value=4.17361e-06 0.0076289
internal_weight=2406.23 376.033
internal_count=9856 1561
is_linear=0
shrinkage=0.05


Tree=91
num_leaves=3
num_cat=0
split_feature=34 31
split_gain=10.1674 15.2192
threshold=0.42360411738324882 0.0047524376932301009
decision_type=2 2
left_child=1 -1
right_child=-2 -3
leaf_value=-0.0054811966270701543 0.0054020562796699692 0.0041428563965710307
leaf_weight=1118.6562864929438 639.77355393767357 647.41124686598778
leaf_count=4550 2641 2665
internal_value=4.45115e-06 -0.00195
internal_weight=2405.84 1766.07
internal_count=9856 7215
is_linear=0
shrinkage=0.05


Tree=92
num_leaves=3
num_cat=0
split_feature=36 25
split_gain=10.0573 11.0625
threshold=0.87301587301587313 5.8582477037285585
decision_type=2 2
left_child=1 -1
right_child=-2 -3
leaf_value=-0.0011647984385897211 0.018623085639066381 0.018889223493422688
leaf_weight=2265.8424191623926 69.424076616764069 69.90593321621418
leaf_count=9276 286 294
internal_value=4.34596e-06 -0.000554641
internal_weight=2405.17 2335.75
internal_count=9856 9570
is_linear=0
shrinkage=0.05


Tree=93
num_leaves=3
num_cat=0
split_feature=26 0
split_gain=10.0929 11.3985
threshold=4.7888888888888896 0.30713392857142857
decision_type=2 2
left_child=1 -1
right_child=-2 -3
leaf_value=0.0039639623464649059 -0.01383681001686783 -0.0031359381787885473
leaf_weight=1253.7906707823277 123.8283039778471 1027.3366980999708
leaf_count=5164 506 4186
internal_value=4.95318e-06 0.000764262
internal_weight=2404.96 2281.13
internal_count=9856 9350
is_linear=0
shrinkage=0.05


Tree=94
num_leaves=3
num_cat=0
split_feature=1 7
split_gain=9.96778 10.7152
threshold=17.250000000000004 4.5050000000000008
decision_type=2 2
left_child=1 -1
right_child=-2 -3
leaf_value=-0.0022514762504079401 0.032177035966912196 0.0054924468004303
leaf_weight=1787.4591344296932 22.83925174176693 594.3292680978775
leaf_count=7328 98 2430
internal_value=4.24734e-06 -0.000315537
internal_weight=2404.63 2381.79
internal_count=9856 9758
is_linear=0
shrinkage=0.05


Tree=95
num_leaves=3
num_cat=0
split_feature=15 3
split_gain=9.9614 10.8829
threshold=0.89798322687970955 0.0023388888888889003
decision_type=2 2
left_child=1 -1
right_child=-2 -3
leaf_value=-0.0042867344825673042 -0.00057252968190189748 0.033930183676075351
leaf_weight=31.546974882483482 2329.8947442173958 43.080986112356186
leaf_count=130 9544 182
internal_value=4.84273e-06 0.0178658
internal_weight=2404.52 74.628
internal_count=9856 312
is_linear=0
shrinkage=0.05


Tree=96
num_leaves=3
num_cat=0
split_feature=10 29
split_gain=9.52923 15.2031
threshold=1473.8500000000001 0.30962916139907287
decision_type=2 2
left_child=-1 -2
right_child=1 -3
leaf_value=-0.0051939115357310644 0.0031073783945210075 -0.016125916801961859
leaf_weight=643.70784109830856 1652.0827211290598 108.50791248679161
leaf_count=2624 6792 440
internal_value=5.10646e-06 0.00191068
internal_weight=2404.3 1760.59
internal_count=9856 7232
is_linear=0
shrinkage=0.05


Tree=97
num_leaves=3
num_cat=0
split_feature=9 1
split_gain=9.46658 17.3893
threshold=6.5000000000000009 -0.10000000000000069
decision_type=2 2
left_child=1 -1
right_child=-2 -3
leaf_value=-0.0063537123953030395 0.0068410212631789787 0.003009317772681108
leaf_weight=942.66579860448837 417.49929390847683 1043.457864806056
leaf_count=3832 1714 4310
internal_value=4.27805e-06 -0.00143306
internal_weight=2403.62 1986.12
internal_count=9856 8142
is_linear=0
shrinkage=0.05


Tree=98
num_leaves=3
num_cat=0
split_feature=36 36
split_gain=9.40326 25.5016
threshold=0.55050505050505061 0.5634920634920636
decision_type=2 2
left_child=-1 -2
right_child=1 -3
leaf_value=-0.0023890301312840612 0.022002180996796104 7.9341139580960449e-05
leaf_weight=1514.4764578342438 161.38132807612419 727.13076043128967
leaf_count=6201 664 2991
internal_value=4.15775e-06 0.00408709
internal_weight=2402.99 888.512
internal_count=9856 3655
is_linear=0
shrinkage=0.05


Tree=99
num_leaves=3
num_cat=0
split_feature=3 14
split_gain=9.33228 12.6032
threshold=-0.0038333333333332499 1.3325242718436905
decision_type=2 2
left_child=-1 -2
right_child=1 -3
leaf_value=-0.0038859201304845578 0.0015964288406065423 0.026450343280311768
leaf_weight=937.76521617174149 1413.1134674996138 51.970155030488968
leaf_count=3816 5817 223
internal_value=4.42776e-06 0.00249891
internal_weight=2402.85 1465.08
internal_count=9856 6040
is_linear=0
shrinkage=0.05


Tree=100
num_leaves=3
num_cat=0
split_feature=36 36
split_gain=9.26641 18.5153
threshold=0.77350427350427364 0.70714285714285718
decision_type=2 2
left_child=1 -1
right_child=-2 -3
leaf_value=-0.00023159513125007086 0.0096420347363096251 -0.028990127326617127
leaf_weight=2120.7531370967627 225.07272361218929 56.497959405183792
leaf_count=8693 931 232
internal_value=4.80176e-06 -0.000993118
internal_weight=2402.32 2177.25
internal_count=9856 8925
is_linear=0
shrinkage=0.05


Tree=101
num_leaves=3
num_cat=0
split_feature=23 10
split_gain=9.23841 12.061
threshold=0.084686406557062707 1524.9500000000003
decision_type=2 2
left_child=-1 -2
right_child=1 -3
leaf_value=0.0020545675806405354 -0.0082687062311971298 0.0067984485590686164
leaf_weight=1672.2810362279415 556.78404130041599 173.14117509126663
leaf_count=6868 2272 716
internal_value=3.99733e-06 -0.00468346
internal_weight=2402.21 729.925
internal_count=9856 2988
is_linear=0
shrinkage=0.05


Tree=102
num_leaves=3
num_cat=0
split_feature=30 1
split_gain=9.21414 9.69873
threshold=5.4593253968253981 17.250000000000004
decision_type=2 2
left_child=1 -1
right_child=-2 -3
leaf_value=0.00037971568164663685 -0.013608729270434401 0.033089615391063858
leaf_weight=2262.725829616189 117.16538864374161 21.898293912410736
leaf_count=9282 479 95
internal_value=3.82354e-06 0.00070977
internal_weight=2401.79 2284.62
internal_count=9856 9377
is_linear=0
shrinkage=0.05


Tree=103
num_leaves=3
num_cat=0
split_feature=39 37
split_gain=9.11826 11.7497
threshold=32.417857142857152 0.2264957264957265
decision_type=2 2
left_child=-1 -2
right_child=1 -3
leaf_value=-0.0059440428965730511 -0.006559474080746492 0.0034985944471265604
leaf_weight=506.81707771122456 356.67796678841114 1538.058254390955
leaf_count=2074 1458 6324
internal_value=4.11013e-06 0.0016001
internal_weight=2401.55 1894.74
internal_count=9856 7782
is_linear=0
shrinkage=0.05


Tree=104
num_leaves=3
num_cat=0
split_feature=16 45
split_gain=8.89738 12.0335
threshold=0.15673447154382145 0.99500000000000011
decision_type=2 2
left_child=1 -1
right_child=-2 -3
leaf_value=0.0346298057502075 -0.00075071382649074311 0.0025487964644213702
leaf_weight=41.035059988498688 2262.3453129529953 97.845901772379875
leaf_count=174 9269 413
internal_value=3.52982e-06 0.0122433
internal_weight=2401.23 138.881
internal_count=9856 587
is_linear=0
shrinkage=0.05


Tree=105
num_leaves=3
num_cat=0
split_feature=13 19
split_gain=8.77968 11.2566
threshold=-0.43713714286536559 0.30387381225274529
decision_type=2 2
left_child=-1 -2
right_child=1 -3
leaf_value=-0.023519677433592699 0.0011868634182121509 -0.014656850813265378
leaf_weight=38.013392060995102 2245.9952714890242 116.97744505107403
leaf_count=156 9224 476
internal_value=4.21163e-06 0.000394547
internal_weight=2400.99 2362.97
internal_count=9856 9700
is_linear=0
shrinkage=0.05


Tree=106
num_leaves=3
num_cat=0
split_feature=15 3
split_gain=8.74836 9.93399
threshold=0.89798322687970955 0.0023388888888889003
decision_type=2 2
left_child=1 -1
right_child=-2 -3
leaf_value=-0.0043355440124316072 -0.00053723944427419069 0.032247766573337132
leaf_weight=31.517402067780495 2326.4561678171158 42.679296255111694
leaf_count=130 9544 182
internal_value=2.98872e-06 0.0167904
internal_weight=2400.65 74.1967
internal_count=9856 312
is_linear=0
shrinkage=0.05


Tree=107
num_leaves=3
num_cat=0
split_feature=36 36
split_gain=8.72498 10.5252
threshold=0.87301587301587313 0.78888888888888908
decision_type=2 2
left_child=1 -1
right_child=-2 -3
leaf_value=9.6019938523665498e-05 0.017380701157565535 -0.018849731270511087
leaf_weight=2256.5239722728729 69.140674889087677 74.752730801701546
leaf_count=9263 286 307
internal_value=3.30755e-06 -0.000517156
internal_weight=2400.42 2331.28
internal_count=9856 9570
is_linear=0
shrinkage=0.05


Tree=108
num_leaves=3
num_cat=0
split_feature=19 13
split_gain=8.60888 12.9423
threshold=0.17004931268242163 -0.17183895284434889
decision_type=2 2
left_child=1 -1
right_child=-2 -3
leaf_value=-0.011505878130083969 -0.0016743437152942039 0.0086688782716175354
leaf_weight=94.138260915875435 1826.0675855129957 480.18908958137035
leaf_count=382 7469 2005
internal_value=3.15703e-06 0.00533908
internal_weight=2400.39 574.327
internal_count=9856 2387
is_linear=0
shrinkage=0.05


Tree=109
num_leaves=3
num_cat=0
split_feature=7 2
split_gain=8.62379 15.0406
threshold=4.6050000000000013 -0.6699999999999996
decision_type=2 2
left_child=1 -1
right_child=-2 -3
leaf_value=-0.017261251321246573 0.0063442471230728565 -0.00019987345903668588
leaf_weight=138.07670469582081 437.51705631613731 1824.244977876544
leaf_count=562 1794 7500
internal_value=2.75095e-06 -0.00141111
internal_weight=2399.84 1962.32
internal_count=9856 8062
is_linear=0
shrinkage=0.05


Tree=110
num_leaves=3
num_cat=0
split_feature=36 36
split_gain=8.49072 17.7821
threshold=0.77350427350427364 0.78888888888888908
decision_type=2 2
left_child=-1 -2
right_child=1 -3
leaf_value=-0.00095306999558693393 0.027855172826762944 -0.0013052831305798945
leaf_weight=2175.0108158737421 80.786063596606255 143.84593494236469
leaf_count=8925 338 593
internal_value=2.16999e-06 0.00923672
internal_weight=2399.64 224.632
internal_count=9856 931
is_linear=0
shrinkage=0.05


Tree=111
num_leaves=3
num_cat=0
split_feature=3 26
split_gain=8.37913 11.5556
threshold=0.012337121212121202 1.6018231854145168
decision_type=2 2
left_child=-1 -2
right_child=1 -3
leaf_value=-0.0013438120187420292 0.011728254728057943 -0.0067525448092846654
leaf_weight=1986.2324921786785 296.06674894690514 117.12523943185806
leaf_count=8138 1236 482
internal_value=2.48357e-06 0.00647388
internal_weight=2399.42 413.192
internal_count=9856 1718
is_linear=0
shrinkage=0.05


Tree=112
num_leaves=3
num_cat=0
split_feature=2 2
split_gain=8.46169 13.0154
threshold=0.68000000000000049 0.46000000000000024
decision_type=2 2
left_child=1 -1
right_child=-2 -3
leaf_value=0.00014061791539484938 0.0081683181608950117 -0.013671394747035454
leaf_weight=1933.789133682847 279.33580042421818 185.99180421233177
leaf_count=7926 1162 768
internal_value=2.29124e-06 -0.00107478
internal_weight=2399.12 2119.78
internal_count=9856 8694
is_linear=0
shrinkage=0.05


Tree=113
num_leaves=3
num_cat=0
split_feature=33 37
split_gain=8.40629 11.3989
threshold=0.030044976223250652 0.55050505050505061
decision_type=2 2
left_child=1 -1
right_child=-2 -3
leaf_value=0.0044279600596967639 -0.0058944475115296777 -0.0035610032366504688
leaf_weight=1212.5441641360521 481.60053099691868 704.91455692052841
leaf_count=4998 1963 2895
internal_value=2.12393e-06 0.00148805
internal_weight=2399.06 1917.46
internal_count=9856 7893
is_linear=0
shrinkage=0.05


Tree=114
num_leaves=3
num_cat=0
split_feature=9 1
split_gain=8.37902 14.6152
threshold=6.5000000000000009 -0.10000000000000069
decision_type=2 2
left_child=1 -1
right_child=-2 -3
leaf_value=-0.0058656793023735276 0.006441654077924467 0.002726373792907584
leaf_weight=941.13401828706264 416.51740980148315 1041.0054687261581
leaf_count=3832 1714 4310
internal_value=1.72655e-06 -0.00135157
internal_weight=2398.66 1982.14
internal_count=9856 8142
is_linear=0
shrinkage=0.05


Tree=115
num_leaves=3
num_cat=0
split_feature=42 7
split_gain=8.31492 9.8453
threshold=64.650069444444455 4.5050000000000008
decision_type=2 2
left_child=1 -1
right_child=-2 -3
leaf_value=-0.0023397271473616687 0.018204398157794621 0.0051630032164697338
leaf_weight=1757.0161308348179 60.152928367257118 580.86401139199734
leaf_count=7223 252 2381
internal_value=1.72568e-06 -0.000472069
internal_weight=2398.03 2337.88
internal_count=9856 9604
is_linear=0
shrinkage=0.05


Tree=116
num_leaves=3
num_cat=0
split_feature=36 36
split_gain=8.18443 23.4393
threshold=0.55050505050505061 0.5634920634920636
decision_type=2 2
left_child=-1 -2
right_child=1 -3
leaf_value=-0.0022318041671603567 0.021025500153049895 -1.4397671788251036e-05
leaf_weight=1511.7772383838892 160.79304042458534 725.34553006291389
leaf_count=6201 664 2991
internal_value=2.1257e-06 0.00381713
internal_weight=2397.92 886.139
internal_count=9856 3655
is_linear=0
shrinkage=0.05


Tree=117
num_leaves=3
num_cat=0
split_feature=11 15
split_gain=8.13449 9.19426
threshold=1423.2500000000002 0.89798322687970955
decision_type=2 2
left_child=-1 -2
right_child=1 -3
leaf_value=0.012843267994117478 0.016952296186567555 -0.0012290761403614518
leaf_weight=116.33859358727932 70.772402673959732 2210.6368855535984
leaf_count=512 298 9046
internal_value=2.27115e-06 -0.000655694
internal_weight=2397.75 2281.41
internal_count=9856 9344
is_linear=0
shrinkage=0.05


Tree=118
num_leaves=3
num_cat=0
split_feature=27 42
split_gain=8.04277 10.0201
threshold=1.4278428955907139 55.006944444444457
decision_type=2 2
left_child=-1 -2
right_child=1 -3
leaf_value=-0.0012404932175636367 0.00048449248002391032 0.017473609549502354
leaf_weight=2023.500926733017 237.18160542845726 136.51150114834309
leaf_count=8295 981 580
internal_value=2.85207e-06 0.0067341
internal_weight=2397.19 373.693
internal_count=9856 1561
is_linear=0
shrinkage=0.05


Tree=119
num_leaves=3
num_cat=0
split_feature=32 14
split_gain=7.97836 10.8057
threshold=-0.19655199690850975 1.044068195058421
decision_type=2 2
left_child=1 -1
right_child=-2 -3
leaf_value=-0.015123723103473983 0.0010294191924378293 0.0061534856326308594
leaf_weight=179.70601074397564 2129.0829004645348 88.013500481843948
leaf_count=735 8762 359
internal_value=3.14615e-06 -0.00811331
internal_weight=2396.8 267.72
internal_count=9856 1094
is_linear=0
shrinkage=0.05


Tree=120
num_leaves=3
num_cat=0
split_feature=36 36
split_gain=7.95559 9.32567
threshold=0.87301587301587313 0.78888888888888908
decision_type=2 2
left_child=1 -1
right_child=-2 -3
leaf_value=8.3955814250474478e-05 0.016623499294826153 -0.017747676632221761
leaf_weight=2252.7042855024338 68.915314450860023 74.772514328360558
leaf_count=9263 286 307
internal_value=2.77914e-06 -0.000494132
internal_weight=2396.39 2327.48
internal_count=9856 9570
is_linear=0
shrinkage=0.05


Tree=121
num_leaves=3
num_cat=0
split_feature=30 0
split_gain=7.93646 8.24587
threshold=5.4593253968253981 0.30018181818181822
decision_type=2 2
left_child=1 -1
right_child=-2 -3
leaf_value=0.0048617582776310786 -0.012643086295271656 -0.001489507892445497
leaf_weight=771.38045530021191 116.93316875398159 1508.0348818898201
leaf_count=3192 479 6185
internal_value=2.65647e-06 0.000658831
internal_weight=2396.35 2279.42
internal_count=9856 9377
is_linear=0
shrinkage=0.05


Tree=122
num_leaves=3
num_cat=0
split_feature=34 23
split_gain=7.94182 11.9929
threshold=0.42508930707837883 0.075400387563762702
decision_type=2 2
left_child=1 -1
right_child=-2 -3
leaf_value=0.0020362198061926228 0.0049351296429301023 -0.0061859869661351477
leaf_weight=980.6551777869463 608.16305945813656 807.28484451770782
leaf_count=4027 2524 3305
internal_value=2.13795e-06 -0.00167483
internal_weight=2396.1 1787.94
internal_count=9856 7332
is_linear=0
shrinkage=0.05


Tree=123
num_leaves=3
num_cat=0
split_feature=1 13
split_gain=7.82267 9.85337
threshold=14.550000000000002 -0.43713714286536559
decision_type=2 2
left_child=1 -1
right_child=-2 -3
leaf_value=-0.025836488465423191 0.018917424554341738 -1.1374549452958717e-05
leaf_weight=36.542824819684029 52.452693358063698 2306.6954841464758
leaf_count=151 225 9480
internal_value=2.071e-06 -0.0004271
internal_weight=2395.69 2343.24
internal_count=9856 9631
is_linear=0
shrinkage=0.05


Tree=124
num_leaves=3
num_cat=0
split_feature=36 36
split_gain=7.83571 16.7511
threshold=0.77350427350427364 0.70714285714285718
decision_type=2 2
left_child=1 -1
right_child=-2 -3
leaf_value=-0.00019011568357253503 0.0088871517882628034 -0.027559611166512843
leaf_weight=2114.9452486336231 223.93878936767578 56.436127409338951
leaf_count=8693 931 232
internal_value=1.61642e-06 -0.000916134
internal_weight=2395.32 2171.38
internal_count=9856 8925
is_linear=0
shrinkage=0.05


Tree=125
num_leaves=3
num_cat=0
split_feature=39 1
split_gain=7.8279 11.0997
threshold=32.417857142857152 -8.8499999999999961
decision_type=2 2
left_child=1 -1
right_child=-2 -3
leaf_value=-0.029252475735289468 0.0014821756843081946 -0.0031875095747791442
leaf_weight=43.950843915343285 1889.5322541594505 461.69532640278339
leaf_count=180 7782 1894
internal_value=9.73084e-07 -0.00551622
internal_weight=2395.18 505.646
internal_count=9856 2074
is_linear=0
shrinkage=0.05


Tree=126
num_leaves=3
num_cat=0
split_feature=14 23
split_gain=7.52058 8.42782
threshold=1.3404928711888637 0.084686406557062707
decision_type=2 2
left_child=1 -1
right_child=-2 -3
leaf_value=0.0015041395269994083 0.016430723388385627 -0.005039648261467986
leaf_weight=1623.6313001066446 66.693651601672173 704.57386094331741
leaf_count=6681 286 2889
internal_value=3.49507e-08 -0.000475343
internal_weight=2394.9 2328.21
internal_count=9856 9570
is_linear=0
shrinkage=0.05


Tree=127
num_leaves=3
num_cat=0
split_feature=25 1
split_gain=7.42752 9.67853
threshold=5.8582477037285585 15.950000000000003
decision_type=2 2
left_child=1 -1
right_child=-2 -3
leaf_value=-0.00088000829918033529 0.015942768183972167 0.025875523596345224
leaf_weight=2291.3481296747923 69.915876790881157 33.299640327692032
leaf_count=9415 297 144
internal_value=3.46957e-07 -0.000483635
internal_weight=2394.56 2324.65
internal_count=9856 9559
is_linear=0
shrinkage=0.05


Tree=128
num_leaves=3
num_cat=0
split_feature=36 36
split_gain=7.40685 22.8459
threshold=0.55050505050505061 0.4494949494949495
decision_type=2 2
left_child=1 -1
right_child=-2 -3
leaf_value=0.001406728990040104 0.0036343791343538242 -0.012815710847073126
leaf_weight=1135.1730277985334 884.48343425989151 374.58724488317966
leaf_count=4665 3655 1536
internal_value=1.27441e-06 -0.00212484
internal_weight=2394.24 1509.76
internal_count=9856 6201
is_linear=0
shrinkage=0.05


Tree=129
num_leaves=3
num_cat=0
split_feature=9 32
split_gain=7.32249 12.7857
threshold=6.5000000000000009 0.25154747553979501
decision_type=2 2
left_child=-1 -2
right_child=1 -3
leaf_value=-0.0012648151406387019 0.0037184111813944689 0.039622244233435105
leaf_weight=1978.5036747306585 390.0038698464632 25.560260534286499
leaf_count=8142 1603 111
internal_value=1.07891e-06 0.00602858
internal_weight=2394.07 415.564
internal_count=9856 1714
is_linear=0
shrinkage=0.05


Tree=130
num_leaves=3
num_cat=0
split_feature=19 13
split_gain=7.33048 10.9818
threshold=0.30387381225274529 -0.43713714286536559
decision_type=2 2
left_child=1 -1
right_child=-2 -3
leaf_value=-0.0270564695270284 -0.011984551274437705 0.0010794711593639886
leaf_weight=34.218463003635406 120.06315030157566 2239.5457498282194
leaf_count=142 490 9224
internal_value=2.01673e-06 0.00064214
internal_weight=2393.83 2273.76
internal_count=9856 9366
is_linear=0
shrinkage=0.05


Tree=131
num_leaves=3
num_cat=0
split_feature=0 17
split_gain=7.30601 13.5129
threshold=0.30713392857142857 0.19354838709674438
decision_type=2 2
left_child=1 -1
right_child=-2 -3
leaf_value=-0.0034485593609684551 -0.003053808684379562 0.0067995256684616886
leaf_weight=552.92029751837254 1075.3990394026041 765.14403080940247
leaf_count=2274 4398 3184
internal_value=8.6543e-07 0.00249737
internal_weight=2393.46 1318.06
internal_count=9856 5458
is_linear=0
shrinkage=0.05


Tree=132
num_leaves=3
num_cat=0
split_feature=26 14
split_gain=7.26257 9.31906
threshold=4.7888888888888896 1.1253930817603142
decision_type=2 2
left_child=-1 -2
right_child=1 -3
leaf_value=0.00064675578362401002 -0.021692741456876774 0.0069478308803180705
leaf_weight=2269.7265580296516 80.598832309246063 42.624579876661301
leaf_count=9350 330 176
internal_value=6.68086e-07 -0.0117692
internal_weight=2392.95 123.223
internal_count=9856 506
is_linear=0
shrinkage=0.05


Tree=133
num_leaves=3
num_cat=0
split_feature=39 37
split_gain=7.04394 10.7044
threshold=32.417857142857152 0.4494949494949495
decision_type=2 2
left_child=-1 -2
right_child=1 -3
leaf_value=-0.0052358528375138101 -0.0017018109454800688 0.0059599170660928095
leaf_weight=505.13308757543564 1121.6080828309059 766.0018562078476
leaf_count=2074 4627 3155
internal_value=3.18483e-07 0.00140622
internal_weight=2392.74 1887.61
internal_count=9856 7782
is_linear=0
shrinkage=0.05


Tree=134
num_leaves=3
num_cat=0
split_feature=42 7
split_gain=7.07659 8.52989
threshold=64.650069444444455 4.5050000000000008
decision_type=2 2
left_child=1 -1
right_child=-2 -3
leaf_value=-0.0021764769788208574 0.016850390774884299 0.004815133643438111
leaf_weight=1753.3742157667875 59.743164479732513 579.46939665079117
leaf_count=7223 252 2381
internal_value=9.55413e-08 -0.000436326
internal_weight=2392.59 2332.84
internal_count=9856 9604
is_linear=0
shrinkage=0.05


Tree=135
num_leaves=3
num_cat=0
split_feature=2 2
split_gain=7.09842 12.0319
threshold=0.68000000000000049 0.46000000000000024
decision_type=2 2
left_child=1 -1
right_child=-2 -3
leaf_value=0.00018431949767512201 0.0074974276544914099 -0.013107005636768025
leaf_weight=1928.6652988195419 278.09898738563061 185.68668079376221
leaf_count=7926 1162 768
internal_value=5.41489e-07 -0.000986232
internal_weight=2392.45 2114.35
internal_count=9856 8694
is_linear=0
shrinkage=0.05


Tree=136
num_leaves=3
num_cat=0
split_feature=3 36
split_gain=6.97384 10.2386
threshold=-0.0038333333333332499 0.77350427350427364
decision_type=2 2
left_child=1 -1
right_child=-2 -3
leaf_value=-0.0051688342738500648 0.0021632625659628191 0.011805483181567213
leaf_weight=836.1537776440382 1457.9382396936417 98.28652948141098
leaf_count=3413 6040 403
internal_value=4.52413e-07 -0.00336738
internal_weight=2392.38 934.44
internal_count=9856 3816
is_linear=0
shrinkage=0.05


Tree=137
num_leaves=3
num_cat=0
split_feature=38 38
split_gain=6.99728 13.4318
threshold=81.976190476190496 52.911904761904772
decision_type=2 2
left_child=1 -1
right_child=-2 -3
leaf_value=0.0021053897244714776 0.0099112940476587738 -0.0060359870529722312
leaf_weight=1449.956341817975 164.83234801888466 777.15680602192879
leaf_count=5982 683 3191
internal_value=6.25727e-07 -0.000734754
internal_weight=2391.95 2227.11
internal_count=9856 9173
is_linear=0
shrinkage=0.05


Tree=138
num_leaves=3
num_cat=0
split_feature=29 35
split_gain=6.94099 10.5334
threshold=0.11210924911376087 0.37060406620773217
decision_type=2 2
left_child=1 -1
right_child=-2 -3
leaf_value=0.041999770491988171 -0.00050883186930710726 0.0026846506436146163
leaf_weight=23.180331721901894 2309.2743596881628 59.255698814988136
leaf_count=99 9509 248
internal_value=7.49218e-07 0.0141705
internal_weight=2391.71 82.436
internal_count=9856 347
is_linear=0
shrinkage=0.05


Tree=139
num_leaves=3
num_cat=0
split_feature=6 15
split_gain=6.84471 8.6527
threshold=4.9500000000000011 1.1346396507955625
decision_type=2 2
left_child=1 -1
right_child=-2 -3
leaf_value=0.0031125568555228455 -0.00052664664835728591 0.036832384107990369
leaf_weight=63.011735334992409 2301.8851957768202 26.630832523107529
leaf_count=271 9475 110
internal_value=1.73157e-06 0.013481
internal_weight=2391.53 89.6426
internal_count=9856 381
is_linear=0
shrinkage=0.05


Tree=140
num_leaves=3
num_cat=0
split_feature=34 23
split_gain=6.80636 9.95007
threshold=0.42508930707837883 0.075400387563762702
decision_type=2 2
left_child=1 -1
right_child=-2 -3
leaf_value=0.0018325824838478753 0.0045753014533352473 -0.0056630406426755207
leaf_weight=978.77685022354126 606.69431808590889 805.96995885670185
leaf_count=4027 2524 3305
internal_value=2.50912e-06 -0.00155083
internal_weight=2391.44 1784.75
internal_count=9856 7332
is_linear=0
shrinkage=0.05


Tree=141
num_leaves=3
num_cat=0
split_feature=30 23
split_gain=6.7561 7.89368
threshold=5.4593253968253981 0.058746736292428159
decision_type=2 2
left_child=-1 -2
right_child=1 -3
leaf_value=0.00060858259349092425 0.0058923332520381547 -0.021129124980526999
leaf_weight=2274.3893864601851 40.735745847225189 75.903236627578735
leaf_count=9377 167 312
internal_value=2.41853e-06 -0.0116796
internal_weight=2391.03 116.639
internal_count=9856 479
is_linear=0
shrinkage=0.05


Tree=142
num_leaves=3
num_cat=0
split_feature=39 39
split_gain=6.82936 22.8152
threshold=42.207575757575761 51.692424242424252
decision_type=2 2
left_child=-1 -2
right_child=1 -3
leaf_value=-0.0035026550104769114 0.01240029756334186 -0.0015917363050723067
leaf_weight=877.61756736040115 392.38319274783134 1120.9323593527079
leaf_count=3610 1619 4627
internal_value=1.98749e-06 0.00203871
internal_weight=2390.93 1513.32
internal_count=9856 6246
is_linear=0
shrinkage=0.05


Tree=143
num_leaves=3
num_cat=0
split_feature=16 1
split_gain=6.77721 10.0938
threshold=0.15673447154382145 1.0000000180025095e-35
decision_type=2 2
left_child=1 -1
right_child=-2 -3
leaf_value=-0.0063932854257926974 -0.00065551905550697111 0.021288289867128673
leaf_weight=52.348215490579605 2253.3169478327036 85.118813425302505
leaf_count=217 9269 370
internal_value=1.88319e-06 0.0107408
internal_weight=2390.78 137.467
internal_count=9856 587
is_linear=0
shrinkage=0.05


Tree=144
num_leaves=3
num_cat=0
split_feature=31 44
split_gain=6.68163 11.7776
threshold=0.0091362183685567509 -7.3187209595959564
decision_type=2 2
left_child=1 -1
right_child=-2 -3
leaf_value=-0.010575574617448472 0.0040631936843917157 0.00025812280005655823
leaf_weight=305.6853948533535 711.06788569688797 1373.6877087801695
leaf_count=1250 2966 5640
internal_value=1.97943e-06 -0.00171601
internal_weight=2390.44 1679.37
internal_count=9856 6890
is_linear=0
shrinkage=0.05


Tree=145
num_leaves=3
num_cat=0
split_feature=11 36
split_gain=6.52234 10.8365
threshold=1537.1500000000003 0.55050505050505061
decision_type=2 2
left_child=1 -1
right_child=-2 -3
leaf_value=-0.0015079039987519853 -0.0049866920597018312 0.0063770028212238152
leaf_weight=1191.5816756188869 513.00974898040295 685.16143357753754
leaf_count=4913 2092 2851
internal_value=1.73434e-06 0.00136992
internal_weight=2389.75 1876.74
internal_count=9856 7764
is_linear=0
shrinkage=0.05


Tree=146
num_leaves=3
num_cat=0
split_feature=25 36
split_gain=6.50793 7.77891
threshold=5.8582477037285585 0.87301587301587313
decision_type=2 2
left_child=1 -1
right_child=-2 -3
leaf_value=-0.00095842036081467553 0.014967045510477398 0.016119345006523813
leaf_weight=2252.0329332202673 69.520601466298103 67.698054879903793
leaf_count=9276 297 283
internal_value=1.46431e-06 -0.000451144
internal_weight=2389.25 2319.73
internal_count=9856 9559
is_linear=0
shrinkage=0.05


Tree=147
num_leaves=3
num_cat=0
split_feature=21 23
split_gain=6.52769 10.3701
threshold=1.6517517517517517 0.084686406557062707
decision_type=2 2
left_child=1 -1
right_child=-2 -3
leaf_value=0.00032698256744074058 0.0024818951758707932 -0.010175769348904068
leaf_weight=799.96823342144489 1257.7729203850031 331.26771561801434
leaf_count=3296 5198 1362
internal_value=2.07759e-06 -0.00275047
internal_weight=2389.01 1131.24
internal_count=9856 4658
is_linear=0
shrinkage=0.05


Tree=148
num_leaves=3
num_cat=0
split_feature=3 42
split_gain=6.50166 10.6326
threshold=0.012337121212121202 59.683263799743266
decision_type=2 2
left_child=-1 -2
right_child=1 -3
leaf_value=-0.0011853509705213464 0.0020947112402088571 0.023646229427659562
leaf_weight=1978.0497121810913 342.76517990231514 67.938537806272507
leaf_count=8138 1426 292
internal_value=1.8231e-06 0.00572068
internal_weight=2388.75 410.704
internal_count=9856 1718
is_linear=0
shrinkage=0.05


Tree=149
num_leaves=3
num_cat=0
split_feature=9 32
split_gain=6.39948 11.4992
threshold=6.5000000000000009 0.25154747553979501
decision_type=2 2
left_child=-1 -2
right_child=1 -3
leaf_value=-0.0011818146985827164 0.0034641547062880551 0.037739617109515074
leaf_weight=1974.1323992460966 389.0767353028059 25.193687900900841
leaf_count=8142 1603 111
internal_value=2.33758e-06 0.0056465
internal_weight=2388.4 414.27
internal_count=9856 1714
is_linear=0
shrinkage=0.05


Tree=150
num_leaves=3
num_cat=0
split_feature=19 13
split_gain=6.36585 9.52221
threshold=0.30387381225274529 -0.43713714286536559
decision_type=2 2
left_child=1 -1
right_child=-2 -3
leaf_value=-0.025291886199564923 -0.011181298438678051 0.0010072363733961147
leaf_weight=33.94857531785965 119.75032457709312 2234.4529469311237
leaf_count=142 490 9224
internal_value=3.16795e-06 0.000600473
internal_weight=2388.15 2268.4
internal_count=9856 9366
is_linear=0
shrinkage=0.05


Tree=151
num_leaves=3
num_cat=0
split_feature=15 3
split_gain=6.31598 8.67689
threshold=0.89798322687970955 0.0023388888888889003
decision_type=2 2
left_child=1 -1
right_child=-2 -3
leaf_value=-0.0053203419797848896 -0.00045564656226516832 0.02905534648648669
leaf_weight=31.33502596616745 2314.7065071165562 41.745278730988503
leaf_count=130 9544 182
internal_value=2.01013e-06 0.0143756
internal_weight=2387.79 73.0803
internal_count=9856 312
is_linear=0
shrinkage=0.05


Tree=152
num_leaves=3
num_cat=0
split_feature=1 14
split_gain=6.30768 6.98154
threshold=17.250000000000004 1.3404928711888637
decision_type=2 2
left_child=1 -1
right_child=-2 -3
leaf_value=-0.00071030694251283282 0.026127771034991695 0.015771090647874658
leaf_weight=2300.5662706941366 21.886004388332367 65.090379610657692
leaf_count=9477 98 281
internal_value=2.28556e-06 -0.000248241
internal_weight=2387.54 2365.66
internal_count=9856 9758
is_linear=0
shrinkage=0.05


Tree=153
num_leaves=3
num_cat=0
split_feature=33 43
split_gain=6.25553 9.87474
threshold=0.028555147639471104 60.212700534759378
decision_type=2 2
left_child=-1 -2
right_child=1 -3
leaf_value=0.0013364486354624663 -0.0019143454938610927 -0.02119360136217549
leaf_weight=1879.1689142584801 430.26817893981934 77.783478394150734
leaf_count=7776 1761 319
internal_value=3.11833e-06 -0.00491169
internal_weight=2387.22 508.052
internal_count=9856 2080
is_linear=0
shrinkage=0.05


Tree=154
num_leaves=3
num_cat=0
split_feature=39 39
split_gain=6.14556 20.8064
threshold=42.207575757575761 51.692424242424252
decision_type=2 2
left_child=-1 -2
right_child=1 -3
leaf_value=-0.0033242999508991396 0.011845474343816846 -0.0015318147749141758
leaf_weight=876.36141583323479 391.37219445407391 1119.1181336939335
leaf_count=3610 1619 4627
internal_value=2.26511e-06 0.00193651
internal_weight=2386.85 1510.49
internal_count=9856 6246
is_linear=0
shrinkage=0.05


Tree=155
num_leaves=3
num_cat=0
split_feature=36 7
split_gain=6.10851 12.9229
threshold=0.12698412698412698 4.6950000000000012
decision_type=2 2
left_child=1 -1
right_child=-2 -3
leaf_value=0.0024150443183709549 -0.00068520058784845086 0.038017348124867081
leaf_weight=133.64877209067345 2222.37802490592 30.653523460030556
leaf_count=555 9173 128
internal_value=2.13841e-06 0.00927734
internal_weight=2386.68 164.302
internal_count=9856 683
is_linear=0
shrinkage=0.05


Tree=156
num_leaves=3
num_cat=0
split_feature=2 2
split_gain=6.07469 11.0011
threshold=0.68000000000000049 0.46000000000000024
decision_type=2 2
left_child=1 -1
right_child=-2 -3
leaf_value=0.0002110855767210014 0.0069526620566328044 -0.012505390282189617
leaf_weight=1924.0421795547009 277.00315797328949 185.49556103348732
leaf_count=7926 1162 768
internal_value=2.93644e-06 -0.000910124
internal_weight=2386.54 2109.54
internal_count=9856 8694
is_linear=0
shrinkage=0.05


Tree=157
num_leaves=3
num_cat=0
split_feature=30 23
split_gain=6.05843 7.13492
threshold=5.4593253968253981 0.058746736292428159
decision_type=2 2
left_child=-1 -2
right_child=1 -3
leaf_value=0.00057744073242642238 0.0056426177477718132 -0.020063979128084511
leaf_weight=2270.0240249633789 40.674640864133835 75.756289184093475
leaf_count=9377 167 312
internal_value=2.72225e-06 -0.0110693
internal_weight=2386.45 116.431
internal_count=9856 479
is_linear=0
shrinkage=0.05


Tree=158
num_leaves=3
num_cat=0
split_feature=31 14
split_gain=5.98645 10.7077
threshold=0.033251792306139859 1.092105959626835
decision_type=2 2
left_child=-1 -2
right_child=1 -3
leaf_value=0.00041961979086528882 -0.043782681152793365 -0.00037192924437924276
leaf_weight=2323.391185104847 20.555398255586624 42.402384638786316
leaf_count=9590 86 180
internal_value=2.28907e-06 -0.0150864
internal_weight=2386.35 62.9578
internal_count=9856 266
is_linear=0
shrinkage=0.05


Tree=159
num_leaves=3
num_cat=0
split_feature=42 7
split_gain=5.99185 7.29988
threshold=64.650069444444455 4.5050000000000008
decision_type=2 2
left_child=1 -1
right_child=-2 -3
leaf_value=-0.0020115334289124999 0.015564765205130336 0.0044647420127252773
leaf_weight=1749.1992795020342 59.296039894223213 577.91815692186356
leaf_count=7223 252 2381
internal_value=1.10143e-06 -0.000399836
internal_weight=2386.41 2327.12
internal_count=9856 9604
is_linear=0
shrinkage=0.05


Tree=160
num_leaves=3
num_cat=0
split_feature=34 14
split_gain=5.87406 9.52492
threshold=0.42508930707837883 1.0854101970519048
decision_type=2 2
left_child=1 -1
right_child=-2 -3
leaf_value=-0.0046753246215279097 0.0042559652235253645 0.0026864573322507358
leaf_weight=999.61704467236996 605.02556066215038 781.62106920778751
leaf_count=4090 2524 3242
internal_value=1.46289e-06 -0.00144242
internal_weight=2386.26 1781.24
internal_count=9856 7332
is_linear=0
shrinkage=0.05


Tree=161
num_leaves=3
num_cat=0
split_feature=24 11
split_gain=5.92799 7.36028
threshold=7.8190058479532176 1487.3500000000001
decision_type=2 2
left_child=-1 -2
right_child=1 -3
leaf_value=-0.00039160824630239807 -0.00062557128374446987 0.034733011274638279
leaf_weight=2328.1018870472908 31.363557085394859 26.23086966574192
leaf_count=9612 136 108
internal_value=1.45343e-06 0.0157108
internal_weight=2385.7 57.5944
internal_count=9856 244
is_linear=0
shrinkage=0.05


Tree=162
num_leaves=3
num_cat=0
split_feature=11 37
split_gain=5.85756 6.61123
threshold=1423.2500000000002 0.55050505050505061
decision_type=2 2
left_child=-1 -2
right_child=1 -3
leaf_value=0.010981464366770229 0.0014998600907459832 -0.0040912924904576708
leaf_weight=114.63566149771214 1435.9780990928411 835.06178943812847
leaf_count=512 5916 3428
internal_value=1.90293e-06 -0.000554703
internal_weight=2385.68 2271.04
internal_count=9856 9344
is_linear=0
shrinkage=0.05


Tree=163
num_leaves=3
num_cat=0
split_feature=37 47
split_gain=5.95901 12.625
threshold=0.2264957264957265 4.8250000000000011
decision_type=2 2
left_child=1 -1
right_child=-2 -3
leaf_value=0.024236639853866749 0.0010490485947368935 -0.0088947012160953045
leaf_weight=30.518583595752716 2030.7432897388935 323.96361021697521
leaf_count=125 8398 1333
internal_value=2.03157e-06 -0.00596809
internal_weight=2385.23 354.482
internal_count=9856 1458
is_linear=0
shrinkage=0.05


Tree=164
num_leaves=3
num_cat=0
split_feature=15 2
split_gain=5.75285 6.72787
threshold=0.88212218142319576 0.68000000000000049
decision_type=2 2
left_child=-1 -2
right_child=1 -3
leaf_value=0.017498867417559218 -0.0013153835789967334 0.0070346709088641955
leaf_weight=45.084292128682137 2068.0030650794506 272.01236243546009
leaf_count=195 8519 1142
internal_value=2.28087e-06 -0.000340015
internal_weight=2385.1 2340.02
internal_count=9856 9661
is_linear=0
shrinkage=0.05


Tree=165
num_leaves=3
num_cat=0
split_feature=36 36
split_gain=5.75173 16.3663
threshold=0.77350427350427364 0.78888888888888908
decision_type=2 2
left_child=-1 -2
right_child=1 -3
leaf_value=-0.00078405505643902487 0.025635542863546208 -0.0024896168100736454
leaf_weight=2162.3048067688942 79.760832041501999 142.6916384100914
leaf_count=8925 338 593
internal_value=2.70798e-06 0.00764194
internal_weight=2384.76 222.452
internal_count=9856 931
is_linear=0
shrinkage=0.05


Tree=166
num_leaves=3
num_cat=0
split_feature=38 38
split_gain=5.76025 9.21537
threshold=11.923809523809533 19.823333333333338
decision_type=2 2
left_child=-1 -2
right_child=1 -3
leaf_value=0.014219062065868072 -0.017599600747724261 0.0001569256157387145
leaf_weight=68.209297329187393 74.516706228256226 2241.7960201650858
leaf_count=286 307 9263
internal_value=2.9258e-06 -0.0004195
internal_weight=2384.52 2316.31
internal_count=9856 9570
is_linear=0
shrinkage=0.05


Tree=167
num_leaves=3
num_cat=0
split_feature=6 15
split_gain=5.72603 8.09769
threshold=4.9500000000000011 1.1346396507955625
decision_type=2 2
left_child=1 -1
right_child=-2 -3
leaf_value=0.0023226295738417776 -0.00048018795676340703 0.035035804941573705
leaf_weight=62.619495421648026 2295.4008518457413 26.443104043602943
leaf_count=271 9475 110
internal_value=2.74652e-06 0.012372
internal_weight=2384.46 89.0626
internal_count=9856 381
is_linear=0
shrinkage=0.05


Tree=168
num_leaves=3
num_cat=0
split_feature=18 19
split_gain=5.68008 11.3969
threshold=4.7517605633802829 0.21913354140114608
decision_type=2 2
left_child=1 -1
right_child=-2 -3
leaf_value=0.0047309757057942348 -0.0040090201505403305 -0.0035488830369006501
leaf_weight=1060.221078440547 642.50013554096222 681.64791490137577
leaf_count=4428 2636 2792
internal_value=3.42443e-06 0.00148776
internal_weight=2384.37 1741.87
internal_count=9856 7220
is_linear=0
shrinkage=0.05


Tree=169
num_leaves=3
num_cat=0
split_feature=9 32
split_gain=5.62761 10.3398
threshold=6.5000000000000009 0.25154747553979501
decision_type=2 2
left_child=-1 -2
right_child=1 -3
leaf_value=-0.0011077828347179396 0.0032437852222921186 0.035970892075647604
leaf_weight=1970.6942385733128 388.29587678611279 24.815438106656075
leaf_count=8142 1603 111
internal_value=3.01388e-06 0.00530388
internal_weight=2383.81 413.111
internal_count=9856 1714
is_linear=0
shrinkage=0.05


Tree=170
num_leaves=3
num_cat=0
split_feature=31 14
split_gain=5.6326 9.39487
threshold=0.033251792306139859 1.092105959626835
decision_type=2 2
left_child=-1 -2
right_child=1 -3
leaf_value=0.0004090049217449277 -0.041437577040708037 -0.00078446206638937944
leaf_weight=2320.6259623020887 20.637806996703148 42.284414723515511
leaf_count=9590 86 180
internal_value=3.76724e-06 -0.0146361
internal_weight=2383.55 62.9222
internal_count=9856 266
is_linear=0
shrinkage=0.05


Tree=171
num_leaves=3
num_cat=0
split_feature=31 22
split_gain=5.56705 13.151
threshold=0.0091362183685567509 3.6064039179254412
decision_type=2 2
left_child=1 -1
right_child=-2 -3
leaf_value=0.0049470086664028211 0.0037169641031798728 -0.0045763637058251023
leaf_weight=528.60936804115772 708.52125377953053 1146.4634900838137
leaf_count=2187 2966 4703
internal_value=2.53162e-06 -0.00156689
internal_weight=2383.59 1675.07
internal_count=9856 6890
is_linear=0
shrinkage=0.05


Tree=172
num_leaves=3
num_cat=0
split_feature=3 42
split_gain=5.53101 8.99186
threshold=0.012337121212121202 59.683263799743266
decision_type=2 2
left_child=-1 -2
right_child=1 -3
leaf_value=-0.0010926318693733866 0.0019609268292421224 0.02188024929343782
leaf_weight=1973.8832888305187 341.93783088028431 67.159035965800285
leaf_count=8138 1426 292
internal_value=2.51356e-06 0.00528854
internal_weight=2382.98 409.097
internal_count=9856 1718
is_linear=0
shrinkage=0.05


Tree=173
num_leaves=3
num_cat=0
split_feature=29 35
split_gain=5.52489 9.62902
threshold=0.11210924911376087 0.37060406620773217
decision_type=2 2
left_child=1 -1
right_child=-2 -3
leaf_value=0.039566289041393074 -0.000451049455858778 0.0017406862253501476
leaf_weight=22.784864082932472 2300.9574616402388 58.888327896595001
leaf_count=99 9509 248
internal_value=2.94884e-06 0.0127045
internal_weight=2382.63 81.6732
internal_count=9856 347
is_linear=0
shrinkage=0.05


Tree=174
num_leaves=3
num_cat=0
split_feature=36 36
split_gain=5.51848 42.8782
threshold=0.43650793650793651 0.4494949494949495
decision_type=2 2
left_child=-1 -2
right_child=1 -3
leaf_value=-0.0029771873913089345 0.023927069302796446 -0.0014249073265060351
leaf_weight=938.50984451174736 191.34620951116085 1252.5821207165718
leaf_count=3874 791 5191
internal_value=3.75335e-06 0.00194545
internal_weight=2382.44 1443.93
internal_count=9856 5982
is_linear=0
shrinkage=0.05


Tree=175
num_leaves=3
num_cat=0
split_feature=36 36
split_gain=5.59454 21.8716
threshold=0.55050505050505061 0.5634920634920636
decision_type=2 2
left_child=-1 -2
right_child=1 -3
leaf_value=-0.0018472712122631384 0.019865239051734124 -0.00054135606337019603
leaf_weight=1502.9019015729427 159.46056781709194 720.06483462452888
leaf_count=6201 664 2991
internal_value=3.82643e-06 0.0031711
internal_weight=2382.43 879.525
internal_count=9856 3655
is_linear=0
shrinkage=0.05


Tree=176
num_leaves=3
num_cat=0
split_feature=36 36
split_gain=5.64042 12.2987
threshold=0.12698412698412698 0.21825396825396823
decision_type=2 2
left_child=-1 -2
right_child=1 -3
leaf_value=0.0089294007423617022 -0.018063060274970993 0.00013669644033225734
leaf_weight=163.84271182119846 96.04901684820652 2122.3471794575453
leaf_count=683 396 8777
internal_value=3.85962e-06 -0.000656822
internal_weight=2382.24 2218.4
internal_count=9856 9173
is_linear=0
shrinkage=0.05


Tree=177
num_leaves=3
num_cat=0
split_feature=39 28
split_gain=5.49123 9.28744
threshold=32.417857142857152 2.4690418118466906
decision_type=2 2
left_child=1 -1
right_child=-2 -3
leaf_value=0.015481082018023895 0.0012481681207433951 -0.006912529260361653
leaf_weight=50.502560406923294 1879.0138875097036 452.60176305472851
leaf_count=207 7782 1867
internal_value=3.5052e-06 -0.00462845
internal_weight=2382.12 503.104
internal_count=9856 2074
is_linear=0
shrinkage=0.05


Tree=178
num_leaves=3
num_cat=0
split_feature=21 34
split_gain=5.56671 9.73188
threshold=1.6517517517517517 0.34610015579296244
decision_type=2 2
left_child=1 -1
right_child=-2 -3
leaf_value=-0.020675354041676273 0.0022974919426743856 -0.0013464693532540914
leaf_weight=68.477696686983109 1253.880462795496 1059.688967242837
leaf_count=283 5198 4375
internal_value=3.53186e-06 -0.0025414
internal_weight=2382.05 1128.17
internal_count=9856 4658
is_linear=0
shrinkage=0.05


Tree=179
num_leaves=3
num_cat=0
split_feature=36 36
split_gain=5.53541 15.6172
threshold=0.77350427350427364 0.70714285714285718
decision_type=2 2
left_child=1 -1
right_child=-2 -3
leaf_value=-6.6014845490082835e-05 0.0075055763584578649 -0.026555315525559189
leaf_weight=2103.6802882105112 221.96174168586731 56.165195867419243
leaf_count=8693 931 232
internal_value=2.71798e-06 -0.000769134
internal_weight=2381.81 2159.85
internal_count=9856 8925
is_linear=0
shrinkage=0.05


Tree=180
num_leaves=3
num_cat=0
split_feature=0 17
split_gain=5.40464 10.5994
threshold=0.30713392857142857 0.19354838709674438
decision_type=2 2
left_child=1 -1
right_child=-2 -3
leaf_value=-0.0031182104137623657 -0.0026289481939052242 0.0059825660248924257
leaf_weight=550.38496091961861 1071.2311453819275 760.03478942811489
leaf_count=2274 4398 3184
internal_value=2.00047e-06 0.0021569
internal_weight=2381.65 1310.42
internal_count=9856 5458
is_linear=0
shrinkage=0.05


Tree=181
num_leaves=3
num_cat=0
split_feature=36 36
split_gain=5.40175 16.1035
threshold=0.65476190476190488 0.60769230769230786
decision_type=2 2
left_child=1 -1
right_child=-2 -3
leaf_value=-0.00030305846698504106 0.0046090108786261356 -0.024479974274333936
leaf_weight=1809.028591170907 501.50149643421173 70.62418407201767
leaf_count=7474 2089 293
internal_value=1.73464e-06 -0.00122665
internal_weight=2381.15 1879.65
internal_count=9856 7767
is_linear=0
shrinkage=0.05


Tree=182
num_leaves=3
num_cat=0
split_feature=30 4
split_gain=5.38649 6.52941
threshold=5.4593253968253981 0.31251923076923077
decision_type=2 2
left_child=-1 -2
right_child=1 -3
leaf_value=0.00054365047271779179 -0.017855043679339641 0.0081458384869261581
leaf_weight=2264.9331770241261 83.296196594834328 32.851027682423592
leaf_count=9377 344 135
internal_value=1.05302e-06 -0.0104515
internal_weight=2381.08 116.147
internal_count=9856 479
is_linear=0
shrinkage=0.05


Tree=183
num_leaves=3
num_cat=0
split_feature=37 37
split_gain=5.36012 9.64857
threshold=0.2264957264957265 0.55050505050505061
decision_type=2 2
left_child=-1 -2
right_child=1 -3
leaf_value=-0.0056658968274169797 0.0040002643716245409 -0.0029598996281034388
leaf_weight=353.89299927651882 1152.4793038666248 874.5509240925312
leaf_count=1458 4788 3610
internal_value=7.94396e-07 0.000994896
internal_weight=2380.92 2027.03
internal_count=9856 8398
is_linear=0
shrinkage=0.05


Tree=184
num_leaves=3
num_cat=0
split_feature=18 5
split_gain=5.32737 6.93307
threshold=1.5408730158730164 64.961538461538467
decision_type=2 2
left_child=1 -1
right_child=-2 -3
leaf_value=0.043398674158774651 -0.00025529312990932106 -0.0060741622340138406
leaf_weight=14.936425611376764 2353.5867733508348 12.071215480566023
leaf_count=63 9742 51
internal_value=4.67431e-07 0.0216806
internal_weight=2380.59 27.0076
internal_count=9856 114
is_linear=0
shrinkage=0.05


Tree=185
num_leaves=3
num_cat=0
split_feature=19 13
split_gain=5.38856 8.23195
threshold=0.30387381225274529 -0.43713714286536559
decision_type=2 2
left_child=1 -1
right_child=-2 -3
leaf_value=-0.023628757207738875 -0.010306185325786331 0.00092950834761882327
leaf_weight=33.644684717059135 119.34820327162743 2227.549282297492
leaf_count=142 490 9224
internal_value=1.05538e-06 0.000551608
internal_weight=2380.54 2261.19
internal_count=9856 9366
is_linear=0
shrinkage=0.05


Tree=186
num_leaves=3
num_cat=0
split_feature=1 25
split_gain=5.26473 6.09382
threshold=17.250000000000004 5.8582477037285585
decision_type=2 2
left_child=1 -1
right_child=-2 -3
leaf_value=-0.00066838445361504207 0.024064185070724949 0.014472306198578614
leaf_weight=2291.2329071164131 21.517832249403 67.430482417345047
leaf_count=9468 98 290
internal_value=5.3477e-08 -0.000227467
internal_weight=2380.18 2358.66
internal_count=9856 9758
is_linear=0
shrinkage=0.05


Tree=187
num_leaves=3
num_cat=0
split_feature=31 31
split_gain=5.21358 8.37642
threshold=0.033251792306139859 0.016046911099622203
decision_type=2 2
left_child=1 -1
right_child=-2 -3
leaf_value=-0.00090446379607978563 -0.0140817899494601 0.007349552433631089
leaf_weight=1953.2793170064688 62.937627866864204 363.66434368491173
leaf_count=8060 266 1530
internal_value=9.19231e-07 0.00039153
internal_weight=2379.88 2316.94
internal_count=9856 9590
is_linear=0
shrinkage=0.05


Tree=188
num_leaves=3
num_cat=0
split_feature=14 8
split_gain=5.15317 7.41556
threshold=1.3404928711888637 4.495000000000001
decision_type=2 2
left_child=-1 -2
right_child=1 -3
leaf_value=-0.0003914037129030097 0.0017958800337041722 0.037435429596956345
leaf_weight=2314.2241439968348 44.399269744753838 21.063973233103752
leaf_count=9570 196 90
internal_value=5.53887e-07 0.0137295
internal_weight=2379.69 65.4632
internal_count=9856 286
is_linear=0
shrinkage=0.05


Tree=189
num_leaves=3
num_cat=0
split_feature=26 14
split_gain=5.17144 7.74223
threshold=4.7888888888888896 1.1253930817603142
decision_type=2 2
left_child=-1 -2
right_child=1 -3
leaf_value=0.00054788236983092117 -0.019064902865856787 0.007117873183595521
leaf_weight=2257.2690134048462 79.912339940667152 42.365206986665726
leaf_count=9350 330 176
internal_value=1.40637e-06 -0.00996871
internal_weight=2379.55 122.278
internal_count=9856 506
is_linear=0
shrinkage=0.05


Tree=190
num_leaves=3
num_cat=0
split_feature=9 7
split_gain=5.08969 10.6315
threshold=6.5000000000000009 4.5550000000000006
decision_type=2 2
left_child=-1 -2
right_child=1 -3
leaf_value=-0.0010558142595431797 -0.0015224655524031087 0.014807306142854242
leaf_weight=1967.2369522452354 246.45836965739727 165.63342110812664
leaf_count=8142 1024 690
internal_value=1.07237e-06 0.00504887
internal_weight=2379.33 412.092
internal_count=9856 1714
is_linear=0
shrinkage=0.05


Tree=191
num_leaves=3
num_cat=0
split_feature=36 36
split_gain=5.08554 20.4731
threshold=0.55050505050505061 0.4494949494949495
decision_type=2 2
left_child=1 -1
right_child=-2 -3
leaf_value=0.0015900270629281895 0.0030235341444901477 -0.011908230811241802
leaf_weight=1128.2907544523478 878.14305950701237 372.78308528661728
leaf_count=4665 3655 1536
internal_value=1.10354e-06 -0.00176456
internal_weight=2379.22 1501.07
internal_count=9856 6201
is_linear=0
shrinkage=0.05


Tree=192
num_leaves=3
num_cat=0
split_feature=36 36
split_gain=5.05257 39.0511
threshold=0.43650793650793651 0.4494949494949495
decision_type=2 2
left_child=-1 -2
right_child=1 -3
leaf_value=-0.002853048711622157 0.0228620591322065 -0.0013570310578080126
leaf_weight=937.2906838953495 190.92908664047718 1250.7963636219501
leaf_count=3874 791 5191
internal_value=9.15354e-07 0.00186048
internal_weight=2379.02 1441.73
internal_count=9856 5982
is_linear=0
shrinkage=0.05


Tree=193
num_leaves=3
num_cat=0
split_feature=32 14
split_gain=5.04378 9.24508
threshold=-0.19655199690850975 1.044068195058421
decision_type=2 2
left_child=1 -1
right_child=-2 -3
leaf_value=-0.013015055744874895 0.00081974971387619724 0.0067387281001394508
leaf_weight=177.78518012166023 2113.7274184972048 87.445588946342468
leaf_count=735 8762 359
internal_value=1.1172e-06 -0.00648268
internal_weight=2378.96 265.231
internal_count=9856 1094
is_linear=0
shrinkage=0.05


Tree=194
num_leaves=3
num_cat=0
split_feature=15 20
split_gain=4.98752 8.47343
threshold=0.89798322687970955 0.091857115682491317
decision_type=2 2
left_child=1 -1
right_child=-2 -3
leaf_value=0.020315060444635134 -0.0004048201059572109 -0.024978704439656413
leaf_weight=60.848041623830795 2306.3132127821445 11.420307099819182
leaf_count=262 9544 50
internal_value=9.06355e-07 0.012846
internal_weight=2378.58 72.2683
internal_count=9856 312
is_linear=0
shrinkage=0.05


Tree=195
num_leaves=3
num_cat=0
split_feature=24 24
split_gain=4.97068 6.56608
threshold=8.1111111111111125 5.5903256704980855
decision_type=2 2
left_child=1 -1
right_child=-2 -3
leaf_value=0.00079363301449541515 0.016687899785444226 -0.0066613924071746823
leaf_weight=1989.8698352277279 42.815269723534584 345.73351661860943
leaf_count=8222 183 1451
internal_value=6.20674e-07 -0.000310154
internal_weight=2378.42 2335.6
internal_count=9856 9673
is_linear=0
shrinkage=0.05


Tree=196
num_leaves=3
num_cat=0
split_feature=16 45
split_gain=4.96805 10.8084
threshold=0.15673447154382145 0.99500000000000011
decision_type=2 2
left_child=1 -1
right_child=-2 -3
leaf_value=0.030803070277431534 -0.00056106623784380957 3.505691620834137e-05
leaf_weight=39.823653876781464 2242.6806102991104 95.97937935590744
leaf_count=174 9269 413
internal_value=8.57429e-07 0.0092534
internal_weight=2378.48 135.803
internal_count=9856 587
is_linear=0
shrinkage=0.05


Tree=197
num_leaves=3
num_cat=0
split_feature=8 47
split_gain=4.96674 10.0158
threshold=3.8350000000000004 8.5250000000000004
decision_type=2 2
left_child=1 -1
right_child=-2 -3
leaf_value=0.0027186459256510354 -0.0010638854718366499 0.032191419354368082
leaf_weight=395.5764966160059 1952.4940880686045 30.182621344923973
leaf_count=1651 8078 127
internal_value=1.54247e-06 0.00489026
internal_weight=2378.25 425.759
internal_count=9856 1778
is_linear=0
shrinkage=0.05


Tree=198
num_leaves=3
num_cat=0
split_feature=21 27
split_gain=4.9591 9.24943
threshold=1.6517517517517517 1.5789181286549709
decision_type=2 2
left_child=1 -1
right_child=-2 -3
leaf_value=-0.0032685492690655532 0.0021694524050462154 0.021276121081358866
leaf_weight=1087.6159247905016 1251.7109747678041 38.753397926688194
leaf_count=4492 5198 166
internal_value=2.22782e-06 -0.00240152
internal_weight=2378.08 1126.37
internal_count=9856 4658
is_linear=0
shrinkage=0.05


Tree=199
num_leaves=3
num_cat=0
split_feature=20 20
split_gain=4.96527 11.2831
threshold=0.042228753529382553 0.052283201037340757
decision_type=2 2
left_child=-1 -2
right_child=1 -3
leaf_value=0.0070775292810699893 -0.010365169896941563 0.00062338344512643314
leaf_weight=223.70823833346367 265.48843769729137 1888.6273376047611
leaf_count=923 1095 7838
internal_value=2.58262e-06 -0.000732785
internal_weight=2377.82 2154.12
internal_count=9856 8933
is_linear=0
shrinkage=0.05


Tree=200
num_leaves=3
num_cat=0
split_feature=36 36
split_gain=4.8859 8.76239
threshold=0.87301587301587313 0.78888888888888908
decision_type=2 2
left_child=1 -1
right_child=-2 -3
leaf_value=0.00017665140230151133 0.013129721449539673 -0.017150115691993331
leaf_weight=2235.5346096903086 67.85257251560688 74.414747402071953
leaf_count=9263 286 307
internal_value=2.40896e-06 -0.000386544
internal_weight=2377.8 2309.95
internal_count=9856 9570
is_linear=0
shrinkage=0.05


Tree=201
num_leaves=3
num_cat=0
split_feature=36 36
split_gain=4.90502 19.8433
threshold=0.55050505050505061 0.5634920634920636
